timestamp,gyro_device_id,gyro_bias[0],gyro_bias[1],gyro_bias[2],accel_device_id,accel_bias[0],accel_bias[1],accel_bias[2],mag_device_id,mag_bias[0],mag_bias[1],mag_bias[2]
119662072,3670026,0.002947268,-0.00043980958,0.004619839,3670026,0.040366758,0.0,-0.06742861,396809,0.0,0.0,0.0
119676801,3670026,0.002947385,-0.00044007727,0.0046172147,3670026,0.040368494,0.0,-0.067469515,396809,0.0,0.0,0.0
120670208,3670026,0.0029207766,-0.00050175394,0.0044471337,3670026,0.040060613,0.0,-0.06747125,396809,0.0,0.0,0.0
121663604,3670026,0.0029367714,-0.0005569433,0.0043342207,3670026,0.041650683,0.0056188,-0.06848726,396809,0.0,0.0,0.0
122666942,3670026,0.002915383,-0.00057916436,0.0041654133,3670026,0.042178236,-0.022364093,-0.06801312,396809,0.0,0.0,0.0
123665391,3670026,0.002922118,-0.0005805408,0.004025256,3670026,0.040778976,-0.01962611,-0.069120064,396809,0.0,0.0,0.0
124663682,3670026,0.0029386743,-0.0005891571,0.003918506,3670026,0.040646013,-0.018986914,-0.07134167,396809,0.0,0.0,0.0
125667020,3670026,0.0029251873,-0.00061744725,0.0037901774,3670026,0.043289337,-0.008590702,-0.07048292,396809,0.0,0.0,0.0
126665389,3670026,0.0029379032,-0.00059170823,0.0037656173,3670026,0.038366135,-0.022982102,-0.06681093,396809,0.0,0.0,0.0
127663762,3670026,0.0029355285,-0.00059328263,0.0037477647,3670026,0.03448224,-0.025691602,-0.062679484,396809,0.0,0.0,0.0
128667097,3670026,0.002970349,-0.0005999996,0.0037480665,3670026,0.033010464,-0.036500517,-0.06282917,396809,0.0,0.0,0.0
129665467,3670026,0.0029845077,-0.0006024487,0.003757603,3670026,0.032239925,-0.038607236,-0.06357539,396809,0.0,0.0,0.0
130664020,3670026,0.0029854358,-0.0006030663,0.003757362,3670026,0.032886572,-0.037971903,-0.06548289,396809,0.0,0.0,0.0
131662218,3670026,0.0029803938,-0.00060708873,0.0037588621,3670026,0.033813734,-0.037771326,-0.065851055,396809,0.0,0.0,0.0
132665546,3670026,0.002954646,-0.0006082385,0.0037415389,3670026,0.034832194,-0.036448356,-0.065146826,396809,0.0,0.0,0.0
133668884,3670026,0.0029375632,-0.0005976919,0.0037337733,3670026,0.03571954,-0.035404783,-0.065967694,396809,0.0,0.0,0.0
134662308,3670026,0.002919889,-0.000594632,0.003735988,3670026,0.036314856,-0.03435623,-0.065795146,396809,0.0,0.0,0.0
135665625,3670026,0.0027858163,-0.0005279134,0.0036978368,3670026,0.037951123,-0.029273706,-0.06594471,396809,0.0,0.0,0.0
136663997,3670026,0.0027716022,-0.00054881204,0.003666918,3670026,0.0377397,-0.028711002,-0.06525279,396809,0.0,0.0,0.0
137667333,3670026,0.002662525,-0.0005177556,0.0036246881,3670026,0.038485654,-0.025062993,-0.059043176,396809,0.0,0.0,0.0
138665706,3670026,0.0025507645,-0.00047657956,0.0035582988,3670026,0.039790574,-0.021436691,-0.051987596,396809,0.0,0.0,0.0
139664075,3670026,0.0025811354,-0.0005147395,0.0035199276,3670026,0.039149404,-0.022352364,-0.05205984,396809,0.0,0.0,0.0
140662445,3670026,0.0026409763,-0.00062398583,0.0035423064,3670026,0.036986127,-0.023870982,-0.05287789,396809,0.0,0.0,0.0
141665845,3670026,0.0025992342,-0.0007114196,0.0035224508,3670026,0.03521017,-0.022724872,-0.049690146,396809,0.0,0.0,0.0
142664157,3670026,0.0026797892,-0.00076237886,0.003559535,3670026,0.034743786,-0.024545712,-0.050063144,396809,0.0,0.0,0.0
143667492,3670026,0.0027110905,-0.0007639374,0.0035078751,3670026,0.034611955,-0.025431829,-0.054455154,396809,0.0,0.0,0.0
144665912,3670026,0.002708412,-0.00077047717,0.0034694413,3670026,0.03436371,-0.025461072,-0.05780439,396809,0.0,0.0,0.0
145659267,3670026,0.002736406,-0.00079926016,0.0035478366,3670026,0.034089025,-0.025963467,-0.061605614,396809,0.0,0.0,0.0
146667572,3670026,0.0027035757,-0.0007535715,0.0034963146,3670026,0.034423467,-0.02583036,-0.062993206,396809,0.0,0.0,0.0
147660975,3670026,0.002678301,-0.00075056124,0.003562898,3670026,0.034583595,-0.025568629,-0.06236295,396809,0.0,0.0,0.0
148664400,3670026,0.0025726308,-0.0007260925,0.0035222624,3670026,0.03504629,-0.024280563,-0.056956552,396809,0.0,0.0,0.0
149662685,3670026,0.0025817014,-0.0006838922,0.0035139048,3670026,0.035635915,-0.024693174,-0.053360052,396809,0.0,0.0,0.0
150666023,3670026,0.0025320482,-0.0006317222,0.003585291,3670026,0.035936266,-0.024161804,-0.051847875,396809,0.0,0.0,0.0
151669360,3670026,0.0025373218,-0.0006639743,0.003379944,3670026,0.036106423,-0.023302998,-0.050717533,396809,0.0,0.0,0.0
152657810,3670026,0.0025671804,-0.00062469137,0.003324609,3670026,0.036167823,-0.023526574,-0.052202858,396809,0.0,0.0,0.0
153666104,3670026,0.0025732454,-0.0006480242,0.0033903292,3670026,0.035779253,-0.02400635,-0.05506705,396809,0.0,0.0,0.0
154664479,3670026,0.0025526886,-0.0007457865,0.0033302424,3670026,0.035140995,-0.02048452,-0.051908504,396809,0.0,0.0,0.0
155662964,3670026,0.0025466539,-0.00072267366,0.0032783065,3670026,0.03508271,-0.021396933,-0.04947241,396809,0.0,0.0,0.0
156666182,3670026,0.002576411,-0.00070520595,0.0031948728,3670026,0.034489248,-0.022418186,-0.05134122,396809,0.0,0.0,0.0
157664582,3670026,0.0026244812,-0.00076401455,0.003091409,3670026,0.033910684,-0.022126518,-0.053382218,396809,0.0,0.0,0.0
158667891,3670026,0.0026438357,-0.0007958172,0.002984144,3670026,0.033382714,-0.022083636,-0.05492757,396809,0.0,0.0,0.0
159666284,3670026,0.0026607106,-0.00080848846,0.0028009035,3670026,0.033017196,-0.02228103,-0.058966547,396809,0.0,0.0,0.0
160659665,3670026,0.0026514244,-0.0008099979,0.002680307,3670026,0.033083655,-0.02236345,-0.06351917,396809,0.0,0.0,0.0
161667970,3670026,0.0026624682,-0.0007708627,0.0025270085,3670026,0.03306113,-0.022512147,-0.06890407,396809,0.0,0.0,0.0
162661577,3670026,0.0026464036,-0.00075908564,0.0024107718,3670026,0.033124667,-0.022668008,-0.06918844,396809,0.0,0.0,0.0
163664721,3670026,0.0026138974,-0.0007538225,0.0022879313,3670026,0.032947056,-0.022744944,-0.068991445,396809,0.0,0.0,0.0
164663083,3670026,0.0026035872,-0.0007562966,0.0021973893,3670026,0.032920223,-0.022932945,-0.06707616,396809,0.0,0.0,0.0
165661454,3670026,0.0026033851,-0.0007926813,0.0021863063,3670026,0.032775104,-0.023300607,-0.0662764,396809,0.0,0.0,0.0
166664813,3670026,0.0025793924,-0.00085907243,0.0020279374,3670026,0.03249947,-0.023721736,-0.065161824,396809,0.0,0.0,0.0
167663172,3670026,0.0025807584,-0.0008834438,0.001955961,3670026,0.03245989,-0.02402837,-0.06288486,396809,0.0,0.0,0.0
168666500,3670026,0.0025526027,-0.00090661144,0.0018522377,3670026,0.032164846,-0.02411623,-0.059517067,396809,0.0,0.0,0.0
169664874,3670026,0.0025390906,-0.0009238036,0.0017560099,3670026,0.032037582,-0.024257358,-0.053818095,396809,0.0,0.0,0.0
170663243,3670026,0.0025624637,-0.00091953366,0.0016566493,3670026,0.032109447,-0.024391513,-0.052840833,396809,0.0,0.0,0.0
171666580,3670026,0.0025796068,-0.0008863225,0.0015819944,3670026,0.032291587,-0.024426704,-0.053609833,396809,0.0,0.0,0.0
172664958,3670026,0.0025706438,-0.00090325275,0.0015278686,3670026,0.03212192,-0.02447132,-0.049956046,396809,0.0,0.0,0.0
173663355,3670026,0.0025824232,-0.00091750437,0.0014465821,3670026,0.032217395,-0.024719642,-0.049270663,396809,0.0,0.0,0.0
174666669,3670026,0.0025845289,-0.00092379516,0.001352693,3670026,0.03230777,-0.024809266,-0.048904676,396809,0.0,0.0,0.0
175665031,3670026,0.002606361,-0.00094924145,0.0012590048,3670026,0.032607168,-0.025084449,-0.052520685,396809,0.0,0.0,0.0
176668369,3670026,0.0025948472,-0.0009544251,0.0012124388,3670026,0.032387048,-0.024940185,-0.0543342,396809,0.0,0.0,0.0
177661813,3670026,0.0026282175,-0.0010824491,0.0011696857,3670026,0.032413565,-0.025448637,-0.052232303,396809,0.0,0.0,0.0
178665111,3670026,0.0026524945,-0.0011831125,0.0010963387,3670026,0.032394245,-0.02574181,-0.050125554,396809,0.0,0.0,0.0
179663481,3670026,0.002605128,-0.0011513148,0.0010686459,3670026,0.032282155,-0.025448633,-0.047617115,396809,0.0,0.0,0.0
180661972,3670026,0.0026011867,-0.0010327107,0.001004105,3670026,0.032610096,-0.025133327,-0.047701463,396809,0.0,0.0,0.0
181665196,3670026,0.0026100206,-0.0009089407,0.00092039985,3670026,0.032878082,-0.024811089,-0.049318463,396809,0.0,0.0,0.0
182663558,3670026,0.0026285339,-0.0008394826,0.0008524294,3670026,0.03307114,-0.024728915,-0.05319908,396809,0.0,0.0,0.0
183666905,3670026,0.0025988708,-0.0008954771,0.00077250606,3670026,0.032947063,-0.024727972,-0.060407005,396809,0.0,0.0,0.0
184665270,3670026,0.0025958368,-0.0008435573,0.0007272551,3670026,0.03293008,-0.024522934,-0.06203024,396809,0.0,0.0,0.0
185668650,3670026,0.0025278348,-0.0008953778,0.00067688705,3670026,0.03283833,-0.024486404,-0.062881425,396809,0.0,0.0,0.0
186666977,3670026,0.0025115104,-0.00092566374,0.00060614577,3670026,0.033012766,-0.024611825,-0.06483348,396809,0.0,0.0,0.0
187665464,3670026,0.0024833512,-0.000989345,0.00056292437,3670026,0.033036895,-0.024716413,-0.06522073,396809,0.0,0.0,0.0
188663719,3670026,0.0024650549,-0.0010093813,0.0005293974,3670026,0.03302511,-0.02472069,-0.065031596,396809,0.0,0.0,0.0
189667056,3670026,0.0024791488,-0.0009989641,0.00047614268,3670026,0.03305682,-0.024709022,-0.06850525,396809,0.0,0.0,0.0
190665427,3670026,0.0025026184,-0.0009988516,0.0004432465,3670026,0.03319997,-0.024713209,-0.066035904,396809,0.0,0.0,0.0
191663797,3670026,0.0025059239,-0.0009443101,0.00039901165,3670026,0.03315476,-0.024414968,-0.06357561,396809,0.0,0.0,0.0
192667135,3670026,0.00252214,-0.0009612501,0.0003387631,3670026,0.03304998,-0.024337513,-0.062069092,396809,0.0,0.0,0.0
193665506,3670026,0.0025221456,-0.0009453052,0.0002492049,3670026,0.033158235,-0.024276847,-0.062256124,396809,0.0,0.0,0.0
194664026,3670026,0.00248435,-0.0009501894,0.00020839849,3670026,0.033174817,-0.024390347,-0.06565797,396809,0.0,0.0,0.0
195667215,3670026,0.0024714186,-0.00096744864,0.00014031566,3670026,0.033124197,-0.024279445,-0.06565659,396809,0.0,0.0,0.0
196665587,3670026,0.002480313,-0.0009947955,3.346643e-05,3670026,0.033181652,-0.024330916,-0.06814179,396809,0.0,0.0,0.0
197668923,3670026,0.0024726137,-0.0009598074,-5.1665233e-05,3670026,0.033261932,-0.023240171,-0.06646953,396809,0.0,0.0,0.0
198662488,3670026,0.0024763048,-0.00091605383,-4.286268e-05,3670026,0.033755913,-0.022873862,-0.06421397,396809,0.0,0.0,0.0
199665664,3670026,0.002454923,-0.000847581,-0.00012639273,3670026,0.035299096,-0.018985577,-0.061922282,396809,0.0,0.0,0.0
200664036,3670026,0.00246439,-0.00078139704,-0.0004073215,3670026,0.0356722,-0.0074197557,-0.061854318,396809,0.0,0.0,0.0
201662406,3670026,0.0024990884,-0.0007411584,-0.00054885243,3670026,0.033666354,-0.0017731534,-0.059833754,396809,0.0,0.0,0.0
202665758,3670026,0.0024473239,-0.000772458,-0.0006297193,3670026,0.027001854,-0.008385793,-0.056144215,396809,0.0,0.0,0.0
203664115,3670026,0.0024299778,-0.0008030141,-0.0006714695,3670026,0.024907166,-0.013776785,-0.058391623,396809,0.0,0.0,0.0
204667453,3670026,0.002409416,-0.00078634144,-0.0006713474,3670026,0.022141268,-0.013657294,-0.056970593,396809,0.0,0.0,0.0
205665983,3670026,0.0023171362,-0.00077847013,-0.00068438234,3670026,0.019091554,-0.017265292,-0.055464733,396809,0.0,0.0,0.0
206664199,3670026,0.0021864742,-0.00080647465,-0.0006715035,3670026,0.017490868,-0.022187205,-0.054771885,396809,0.0,0.0,0.0
207667532,3670026,0.002165786,-0.00080688583,-0.0006853963,3670026,0.017170353,-0.022727689,-0.058919437,396809,0.0,0.0,0.0
208660936,3670026,0.002102911,-0.00082426256,-0.0007038505,3670026,0.017067863,-0.023854336,-0.061465025,396809,0.0,0.0,0.0
209664275,3670026,0.0021451537,-0.0008061481,-0.0007158198,3670026,0.016727949,-0.02367458,-0.06525744,396809,0.0,0.0,0.0
210667612,3670026,0.0021711085,-0.00084704044,-0.00071741274,3670026,0.016503152,-0.023526778,-0.06864655,396809,0.0,0.0,0.0
211665982,3670026,0.002227661,-0.0008198389,-0.0007071431,3670026,0.015978033,-0.023922414,-0.07121195,396809,0.0,0.0,0.0
212664612,3670026,0.0021811286,-0.0008232967,-0.00067621865,3670026,0.016362341,-0.023608899,-0.06561654,396809,0.0,0.0,0.0
213662725,3670026,0.0021778287,-0.000830886,-0.00064239936,3670026,0.016558234,-0.0234245,-0.063131936,396809,0.0,0.0,0.0
214666062,3670026,0.002261169,-0.00074172823,-0.0005882603,3670026,0.015721222,-0.024900671,-0.060205452,396809,0.0,0.0,0.0
215659470,3670026,0.0022378287,-0.0007855627,-0.0005233511,3670026,0.015788773,-0.023673583,-0.060521144,396809,0.0,0.0,0.0
216662834,3670026,0.0022731144,-0.00078818557,-0.0005088598,3670026,0.015713533,-0.023856942,-0.061408296,396809,0.0,0.0,0.0
217666143,3670026,0.0022754134,-0.0008097172,-0.00054453,3670026,0.015509703,-0.02340924,-0.059856158,396809,0.0,0.0,0.0
218664513,3670026,0.002275156,-0.0008495908,-0.0006211072,3670026,0.015674366,-0.023122663,-0.060313344,396809,0.0,0.0,0.0
219667851,3670026,0.002236057,-0.0008840456,-0.00066046865,3670026,0.015879517,-0.022503002,-0.059783097,396809,0.0,0.0,0.0
220661255,3670026,0.0022462076,-0.0009057331,-0.00066220143,3670026,0.015815245,-0.02227447,-0.06093079,396809,0.0,0.0,0.0
221669561,3670026,0.0022637057,-0.00093673205,-0.0006748227,3670026,0.015627375,-0.021906117,-0.06190091,396809,0.0,0.0,0.0
222658000,3670026,0.0022948785,-0.0009130795,-0.00063618174,3670026,0.014731535,-0.026788756,-0.05981992,396809,0.0,0.0,0.0
223666386,3670026,0.0023306017,-0.0009017081,-0.00058391935,3670026,0.013804503,-0.031393025,-0.057650737,396809,0.0,0.0,0.0
224664677,3670026,0.0023081778,-0.0009349825,-0.0005638182,3670026,0.013799653,-0.029951602,-0.0570649,396809,0.0,0.0,0.0
225663065,3670026,0.0023129273,-0.0009987333,-0.0005213769,3670026,0.011967298,-0.02736331,-0.057251215,396809,0.0,0.0,0.0
226666415,3670026,0.0023084402,-0.0010383364,-0.00060044957,3670026,0.009944959,-0.026875775,-0.057469252,396809,0.0,0.0,0.0
227664758,3670026,0.0023733804,-0.0010833833,-0.0005306739,3670026,0.00561007,-0.025570244,-0.057701483,396809,0.0,0.0,0.0
228663127,3670026,0.0024343561,-0.0011381623,-0.00052048964,3670026,0.0010011543,-0.024951966,-0.057228815,396809,0.0,0.0,0.0
229666465,3670026,0.0024861933,-0.0011138503,-0.00052262907,3670026,-0.0025485975,-0.02525822,-0.059261046,396809,0.0,0.0,0.0
230664971,3670026,0.0025425416,-0.0010818598,-0.00040680016,3670026,-0.004730781,-0.025843741,-0.06064453,396809,0.0,0.0,0.0
231663212,3670026,0.002565715,-0.0010560357,-0.00033942793,3670026,-0.0055712354,-0.025766835,-0.062471043,396809,0.0,0.0,0.0
232666546,3670026,0.00258157,-0.0010345514,-0.00023986584,3670026,-0.006019801,-0.02575145,-0.06214899,396809,0.0,0.0,0.0
233664926,3670026,0.0026080415,-0.0010604972,-0.00014141401,3670026,-0.005767575,-0.02569804,-0.061943665,396809,0.0,0.0,0.0
234663291,3670026,0.00258282,-0.0009913385,-6.744685e-05,3670026,-0.0062018195,-0.025374908,-0.059612565,396809,0.0,0.0,0.0
235661661,3670026,0.0025664032,-0.0009947665,-1.6015958e-05,3670026,-0.0064378097,-0.025564278,-0.058437493,396809,0.0,0.0,0.0
236665021,3670026,0.0025459111,-0.0009193021,8.2054714e-05,3670026,-0.0067555406,-0.024811165,-0.05683313,396809,0.0,0.0,0.0
237663520,3670026,0.0025266465,-0.00093564444,0.00013266831,3670026,-0.0069109723,-0.024910105,-0.05664235,396809,0.0,0.0,0.0
238661743,3670026,0.0025248455,-0.00095302105,0.00020460856,3670026,-0.007015682,-0.025026755,-0.05802801,396809,0.0,0.0,0.0
239665084,3670026,0.0025283548,-0.001010416,0.00018803806,3670026,-0.007135215,-0.025562294,-0.05944865,396809,0.0,0.0,0.0
240663454,3670026,0.002566948,-0.0010190215,0.00016530111,3670026,-0.0071798596,-0.025679646,-0.060096104,396809,0.0,0.0,0.0
241661869,3670026,0.0025535556,-0.0009884007,0.00026728623,3670026,-0.0072299275,-0.025412673,-0.0597786,396809,0.0,0.0,0.0
242665165,3670026,0.0025804362,-0.0011154866,0.0003166514,3670026,-0.014351425,-0.02572678,-0.06003279,396809,0.0,0.0,0.0
243663538,3670026,0.002586875,-0.001175341,0.0002859119,3670026,-0.017789558,-0.025282016,-0.06268063,396809,0.0,0.0,0.0
244666911,3670026,0.0025712114,-0.0011767884,0.00020999653,3670026,-0.019428546,-0.024702007,-0.06326676,396809,0.0,0.0,0.0
245665249,3670026,0.0025783777,-0.0011432837,0.00018554619,3670026,-0.019506434,-0.024738085,-0.063355856,396809,0.0,0.0,0.0
246663621,3670026,0.0025532872,-0.0010587794,0.00016033124,3670026,-0.019644437,-0.02451943,-0.060172394,396809,0.0,0.0,0.0
247666961,3670026,0.0024601677,-0.0010526548,0.0001622955,3670026,-0.01992554,-0.02453309,-0.05949642,396809,0.0,0.0,0.0
248660380,3670026,0.0024473579,-0.0010163492,0.00013915045,3670026,-0.020166999,-0.02456407,-0.05955408,396809,0.0,0.0,0.0
249663705,3670026,0.002480129,-0.0009880882,9.669287e-05,3670026,-0.019897088,-0.024480686,-0.059201658,396809,0.0,0.0,0.0
250662077,3670026,0.002519646,-0.0010082629,0.00017144471,3670026,-0.022102797,-0.024311041,-0.059126306,396809,0.0,0.0,0.0
254665503,3670026,0.0024702805,-0.0009812762,4.1991654e-05,3670026,-0.02855463,-0.021923704,-0.06464961,396809,0.0,0.0,0.0
255663947,3670026,0.0024851423,-0.00096136116,2.3080172e-05,3670026,-0.028682828,-0.021956982,-0.06424874,396809,0.0,0.0,0.0
256667215,3670026,0.002459857,-0.0009371172,5.688682e-05,3670026,-0.028807936,-0.021636957,-0.06461205,396809,0.0,0.0,0.0
257665587,3670026,0.0024402863,-0.0009414172,7.842911e-05,3670026,-0.028775306,-0.021484166,-0.06694017,396809,0.0,0.0,0.0
258658993,3670026,0.0024626227,-0.0009649851,0.00010772873,3670026,-0.028804023,-0.02144977,-0.06742694,396809,0.0,0.0,0.0
259667300,3670026,0.0024636786,-0.00094787485,0.00016095948,3670026,-0.02868225,-0.021020535,-0.06525272,396809,0.0,0.0,0.0
260665673,3670026,0.002491057,-0.0009008371,0.00021403578,3670026,-0.02877635,-0.02065756,-0.06594716,396809,0.0,0.0,0.0
261664046,3670026,0.0024138524,-0.00086341077,0.00024265877,3670026,-0.028839795,-0.020289406,-0.06490764,396809,0.0,0.0,0.0
262667506,3670026,0.0024266217,-0.00088676263,0.0002835895,3670026,-0.02873,-0.020152172,-0.06369288,396809,0.0,0.0,0.0
263660795,3670026,0.0023853502,-0.0009620561,0.00031640363,3670026,-0.029160194,-0.020344703,-0.06496422,396809,0.0,0.0,0.0
264664136,3670026,0.0024346348,-0.00092884805,0.0004748436,3670026,-0.02820335,-0.020514447,-0.06633147,396809,0.0,0.0,0.0
265662507,3670026,0.0024868236,-0.0009833453,0.00059641746,3670026,-0.024448445,-0.022215081,-0.06800631,396809,0.0,0.0,0.0
266665899,3670026,0.002457865,-0.0008927293,0.000661208,3670026,-0.02214703,-0.02268646,-0.0689565,396809,0.0,0.0,0.0
267664268,3670026,0.0024005128,-0.00088066014,0.0005788738,3670026,-0.021121325,-0.022248056,-0.07155703,396809,0.0,0.0,0.0
268667562,3670026,0.0024035687,-0.00082425255,0.0005543554,3670026,-0.02126673,-0.022138275,-0.07064122,396809,0.0,0.0,0.0
269666100,3670026,0.0023868522,-0.0008374493,0.000471583,3670026,-0.021333816,-0.022827644,-0.06835782,396809,0.0,0.0,0.0
270664310,3670026,0.0024004339,-0.000774812,0.000324371,3670026,-0.019613802,-0.021918342,-0.066545136,396809,0.0,0.0,0.0
271662683,3670026,0.0024684826,-0.0007739605,0.00021336392,3670026,-0.018230196,-0.021336453,-0.06563562,396809,0.0,0.0,0.0
272666024,3670026,0.0024581468,-0.0007683107,0.00021035178,3670026,-0.01630648,-0.021417383,-0.06198774,396809,0.0,0.0,0.0
273664398,3670026,0.0024701832,-0.0008423881,-2.3752562e-05,3670026,-0.017072445,-0.02028677,-0.059243664,396809,0.0,0.0,0.0
274667740,3670026,0.00249221,-0.00084182527,-9.12334e-05,3670026,-0.01654577,-0.020087486,-0.05677206,396809,0.0,0.0,0.0
275661148,3670026,0.0025260285,-0.00085950084,-5.628167e-05,3670026,-0.016483465,-0.019620748,-0.053811695,396809,0.0,0.0,0.0
276664488,3670026,0.0025094687,-0.00094713527,-0.00013880624,3670026,-0.016102953,-0.02059631,-0.05123091,396809,0.0,0.0,0.0
277662871,3670026,0.0025177654,-0.0009351611,-0.00012031212,3670026,-0.016075607,-0.020291938,-0.05380414,396809,0.0,0.0,0.0
278666209,3670026,0.0025462098,-0.00092471624,-0.00013431151,3670026,-0.016133577,-0.020364292,-0.053604722,396809,0.0,0.0,0.0
279664579,3670026,0.002518748,-0.000953909,-0.00013117597,3670026,-0.016103903,-0.020285137,-0.053124968,396809,0.0,0.0,0.0
280668144,3670026,0.00249853,-0.00089474313,-0.00021973238,3670026,-0.016082589,-0.020659523,-0.051480297,396809,0.0,0.0,0.0
281666300,3670026,0.002496356,-0.0008862334,-0.00018690703,3670026,-0.016188608,-0.020470882,-0.05084103,396809,0.0,0.0,0.0
282664672,3670026,0.0024738258,-0.0008902501,-0.00024111268,3670026,-0.016211962,-0.020845603,-0.051709287,396809,0.0,0.0,0.0
283668013,3670026,0.0024500827,-0.0009628895,-0.0002736215,3670026,-0.016257677,-0.02098075,-0.057113513,396809,0.0,0.0,0.0
284666449,3670026,0.0024223854,-0.0010269948,-0.0002698786,3670026,-0.016381841,-0.021031618,-0.0614137,396809,0.0,0.0,0.0
285664764,3670026,0.0024064789,-0.0010272408,-0.000289817,3670026,-0.016478948,-0.021145679,-0.06644789,396809,0.0,0.0,0.0
286663138,3670026,0.002371795,-0.0009592766,-0.0003328116,3670026,-0.016474204,-0.021263903,-0.0660661,396809,0.0,0.0,0.0
287661683,3670026,0.002375576,-0.0009703833,-0.0003567499,3670026,-0.01647938,-0.021375671,-0.065012835,396809,0.0,0.0,0.0
288664856,3670026,0.0023356862,-0.000967844,-0.00039649548,3670026,-0.016330866,-0.021276852,-0.06521802,396809,0.0,0.0,0.0
289663232,3670026,0.0023715268,-0.00088187907,-0.00029069168,3670026,-0.014228432,-0.022459,-0.063447095,396809,0.0,0.0,0.0
290666575,3670026,0.0023545257,-0.0008859651,-0.00041372405,3670026,-0.014110164,-0.02141825,-0.062450644,396809,0.0,0.0,0.0
291660040,3670026,0.002404559,-0.000918763,-0.00044214108,3670026,-0.013804425,-0.021810632,-0.06422633,396809,0.0,0.0,0.0
292663327,3670026,0.0024094554,-0.00091941707,-0.0004571355,3670026,-0.013710375,-0.02188122,-0.06527378,396809,0.0,0.0,0.0
293666704,3670026,0.0024065701,-0.0009512734,-0.00048861635,3670026,-0.013687281,-0.022342378,-0.06534542,396809,0.0,0.0,0.0
294665047,3670026,0.0023790386,-0.00095267297,-0.00056258676,3670026,-0.013669934,-0.022770002,-0.0623277,396809,0.0,0.0,0.0
295658454,3670026,0.0023557139,-0.0009161956,-0.00058095274,3670026,-0.013787426,-0.022719119,-0.062376626,396809,0.0,0.0,0.0
296661797,3670026,0.0024202508,-0.00091885735,-0.00056966476,3670026,-0.013756333,-0.02273089,-0.063114196,396809,0.0,0.0,0.0
297665141,3670026,0.0024291286,-0.0008991672,-0.0005947315,3670026,-0.013648393,-0.022710076,-0.06070664,396809,0.0,0.0,0.0
298663587,3670026,0.002419336,-0.0008775741,-0.0007296495,3670026,-0.013573052,-0.02334319,-0.056366492,396809,0.0,0.0,0.0
299661895,3670026,0.0024291219,-0.00085891713,-0.0007186786,3670026,-0.013484205,-0.02323412,-0.05157552,396809,0.0,0.0,0.0
300665238,3670026,0.0024495996,-0.00084798964,-0.0007908383,3670026,-0.013463725,-0.023521634,-0.051706616,396809,0.0,0.0,0.0
301668581,3670026,0.002375109,-0.0008970906,-0.0009324042,3670026,-0.014105837,-0.022787012,-0.05671272,396809,0.0,0.0,0.0
302666958,3670026,0.0023258443,-0.00091469195,-0.00096201524,3670026,-0.016154902,-0.021940108,-0.060096867,396809,0.0,0.0,0.0
303665335,3670026,0.002311173,-0.0009859037,-0.0011015094,3670026,-0.020561185,-0.020156998,-0.062733725,396809,0.0,0.0,0.0
304668691,3670026,0.0022813112,-0.0010518525,-0.0013447667,3670026,-0.023843048,-0.018569088,-0.06643772,396809,0.0,0.0,0.0
305667181,3670026,0.00220451,-0.001067133,-0.001717781,3670026,-0.022249954,-0.018626926,-0.070320845,396809,0.0,0.0,0.0
306665516,3670026,0.0021373553,-0.0011369655,-0.0020810012,3670026,-0.021951685,-0.019821646,-0.074806765,396809,0.0,0.0,0.0
307658853,3670026,0.0020536336,-0.001283784,-0.0023788793,3670026,-0.02227481,-0.01769362,-0.07799117,396809,0.0,0.0,0.0
308667157,3670026,0.0020251626,-0.001438945,-0.002599992,3670026,-0.030704467,-0.016236627,-0.079333045,396809,0.0,0.0,0.0
309665534,3670026,0.0020016911,-0.0015887948,-0.0028179032,3670026,-0.041716952,-0.018288633,-0.080195144,396809,0.0,0.0,0.0
310658944,3670026,0.0019980497,-0.0015233669,-0.0029181903,3670026,-0.049406093,-0.019256966,-0.080248296,396809,0.0,0.0,0.0
311662300,3670026,0.0019989628,-0.0014257655,-0.0030379149,3670026,-0.055915404,-0.019803662,-0.08064454,396809,0.0,0.0,0.0
312665787,3670026,0.0019433022,-0.001309698,-0.0030866656,3670026,-0.060706377,-0.021333873,-0.07825943,396809,0.0,0.0,0.0
313664014,3670026,0.0018819249,-0.0012177906,-0.0031186743,3670026,-0.06403047,-0.02330142,-0.07902642,396809,0.0,0.0,0.0
314662390,3670026,0.0017871398,-0.0012278603,-0.0031270224,3670026,-0.064337134,-0.025151154,-0.07543235,396809,0.0,0.0,0.0
315665736,3670026,0.0018070949,-0.0011955963,-0.0030980464,3670026,-0.064163506,-0.024528528,-0.07215817,396809,0.0,0.0,0.0
316664172,3670026,0.0018363368,-0.0011727695,-0.0030802977,3670026,-0.06423404,-0.02410421,-0.06741708,396809,0.0,0.0,0.0
317667461,3670026,0.0019338954,-0.0012625717,-0.0030734777,3670026,-0.06340241,-0.024173925,-0.061424416,396809,0.0,0.0,0.0
318665863,3670026,0.0019406134,-0.0012712275,-0.003016676,3670026,-0.06320186,-0.024092747,-0.057531297,396809,0.0,0.0,0.0
319659446,3670026,0.0018852482,-0.0012031589,-0.002994514,3670026,-0.06366291,-0.023705687,-0.05717163,396809,0.0,0.0,0.0
320657631,3670026,0.0019095148,-0.0010249907,-0.002940632,3670026,-0.06222434,-0.022970991,-0.058559477,396809,0.0,0.0,0.0
321660978,3670026,0.00195539,-0.0012845558,-0.0027514491,3670026,-0.077600695,-0.020028094,-0.06115651,396809,0.0,0.0,0.0
322664324,3670026,0.0017914189,-0.0013634453,-0.0025136252,3670026,-0.08743386,-0.014910018,-0.060651567,396809,0.0,0.0,0.0
323662739,3670026,0.0017480423,-0.0015096781,-0.0025022342,3670026,-0.098730564,-0.013111923,-0.062791534,396809,0.0,0.0,0.0
324666115,3670026,0.0017674488,-0.0014974665,-0.0024213295,3670026,-0.10344426,-0.0112115685,-0.06359293,396809,0.0,0.0,0.0
325659464,3670026,0.0017748337,-0.0014727938,-0.0023688844,3670026,-0.107827276,-0.009833232,-0.061113477,396809,0.0,0.0,0.0
326662813,3670026,0.0018423916,-0.0012486115,-0.0023341312,3670026,-0.10905104,-0.009256066,-0.062426195,396809,0.0,0.0,0.0
327666162,3670026,0.0019108754,-0.0012706892,-0.0022730646,3670026,-0.112020835,-0.008539108,-0.061529078,396809,0.0,0.0,0.0
328664538,3670026,0.0018951066,-0.0012611859,-0.0021213517,3670026,-0.11925293,-0.005689091,-0.06430141,396809,0.0,0.0,0.0
329667885,3670026,0.0019533702,-0.0013016656,-0.0020606075,3670026,-0.12678252,-0.0041354545,-0.06448922,396809,0.0,0.0,0.0
330661332,3670026,0.0020021538,-0.0012022741,-0.0020553877,3670026,-0.12778227,-0.0037519627,-0.06473167,396809,0.0,0.0,0.0
331664647,3670026,0.0021011464,-0.001153782,-0.0020043636,3670026,-0.127635,-0.0040736543,-0.06372859,396809,0.0,0.0,0.0
332663067,3670026,0.0021688133,-0.0011398146,-0.0019581716,3670026,-0.12772907,-0.004568351,-0.061923586,396809,0.0,0.0,0.0
333666374,3670026,0.0022160104,-0.0010531596,-0.0019201984,3670026,-0.12768231,-0.0047490885,-0.061447013,396809,0.0,0.0,0.0
334659787,3670026,0.0022628098,-0.0010314629,-0.0018789336,3670026,-0.12850465,-0.005279282,-0.06074861,396809,0.0,0.0,0.0
335668102,3670026,0.00235865,-0.0010452284,-0.001829776,3670026,-0.12785248,-0.005984186,-0.05462755,396809,0.0,0.0,0.0
336666484,3670026,0.002302511,-0.0010081072,-0.0017350898,3670026,-0.12846142,-0.006729186,-0.051615287,396809,0.0,0.0,0.0
337665006,3670026,0.00219896,-0.0010349718,-0.0016503417,3670026,-0.12831217,-0.0071508535,-0.052851368,396809,0.0,0.0,0.0
338663245,3670026,0.0021785486,-0.00094774156,-0.001605571,3670026,-0.12833591,-0.0073358878,-0.05589038,396809,0.0,0.0,0.0
339661625,3670026,0.0021959613,-0.00090553175,-0.0015455349,3670026,-0.12837327,-0.0077617406,-0.05842497,396809,0.0,0.0,0.0
340664973,3670026,0.00220051,-0.00082042604,-0.0015234802,3670026,-0.12756161,-0.007693663,-0.06494859,396809,0.0,0.0,0.0
341663355,3670026,0.002286381,-0.0008914681,-0.0011872795,3670026,-0.13392761,-0.004827853,-0.06682183,396809,0.0,0.0,0.0
342666704,3670026,0.0020544825,-0.0010054022,-0.0009831471,3670026,-0.14214662,-0.0018382776,-0.06843197,396809,0.0,0.0,0.0
343665084,3670026,0.002190755,-0.0010802759,-0.0009397888,3670026,-0.14770976,-0.0011926478,-0.068471,396809,0.0,0.0,0.0
344663579,3670026,0.00225599,-0.0010293585,-0.00062814733,3670026,-0.14973249,0.00087635056,-0.06634932,396809,0.0,0.0,0.0
345666814,3670026,0.0022239934,-0.0010701286,-0.00056094985,3670026,-0.15546042,0.0021525882,-0.064759,396809,0.0,0.0,0.0
346665200,3670026,0.0022054696,-0.0010419275,-0.0004811221,3670026,-0.1600751,0.0032590362,-0.06455307,396809,0.0,0.0,0.0
347663577,3670026,0.0022379383,-0.0009634502,-0.00047453924,3670026,-0.1657188,0.0042721764,-0.063851744,396809,0.0,0.0,0.0
348666925,3670026,0.0022914284,-0.00088360574,-0.00041042318,3670026,-0.16545406,0.0036268104,-0.06273847,396809,0.0,0.0,0.0
349665307,3670026,0.002332175,-0.00084498635,-0.00039302802,3670026,-0.16719244,0.0033086813,-0.061641693,396809,0.0,0.0,0.0
350663689,3670026,0.0023671302,-0.0008026605,-0.00036271615,3670026,-0.16722459,0.00280727,-0.06157339,396809,0.0,0.0,0.0
351667214,3670026,0.0023037102,-0.0007286392,-0.0003356925,3670026,-0.16711657,0.0020883814,-0.060473394,396809,0.0,0.0,0.0
352660452,3670026,0.0023035286,-0.00065781805,-0.0003186558,3670026,-0.16833612,0.001508029,-0.06009214,396809,0.0,0.0,0.0
353668767,3670026,0.0022750853,-0.00063657184,-0.00030516152,3670026,-0.16780832,0.0013304715,-0.060780343,396809,0.0,0.0,0.0
354662181,3670026,0.0022208528,-0.0006175129,-0.00029198907,3670026,-0.16811177,0.0011555426,-0.05831309,396809,0.0,0.0,0.0
355660642,3670026,0.0021619229,-0.00070794276,-0.0002843145,3670026,-0.16794394,0.0013279925,-0.055929627,396809,0.0,0.0,0.0
356663912,3670026,0.0022543552,-0.00080449146,-0.0002980288,3670026,-0.17022629,0.00095164357,-0.05506848,396809,0.0,0.0,0.0
357662293,3670026,0.0022672545,-0.00079603906,-0.0002732589,3670026,-0.1705672,0.0007862778,-0.05648583,396809,0.0,0.0,0.0
358665644,3670026,0.0022005853,-0.00078182213,-0.0002838899,3670026,-0.17090707,0.00015082245,-0.058090165,396809,0.0,0.0,0.0
359664023,3670026,0.0021951804,-0.0008157616,-0.00033163367,3670026,-0.17258503,-0.00038924062,-0.05997036,396809,0.0,0.0,0.0
360667373,3670026,0.0022025835,-0.0008327991,-0.00038365624,3670026,-0.17427748,-0.0008119191,-0.06188042,396809,0.0,0.0,0.0
361665756,3670026,0.0022606838,-0.0008179677,-0.0004010308,3670026,-0.17442577,-0.00030185454,-0.06330684,396809,0.0,0.0,0.0
362659180,3670026,0.0023269928,-0.0007912133,-0.00040431018,3670026,-0.1752542,2.5861518e-06,-0.06581987,396809,0.0,0.0,0.0
363667488,3670026,0.0023711578,-0.00076079293,-0.00041453302,3670026,-0.1744295,0.00036084375,-0.06564154,396809,0.0,0.0,0.0
364665868,3670026,0.0023171424,-0.0007603913,-0.00041423892,3670026,-0.17453621,0.00032220062,-0.060853012,396809,0.0,0.0,0.0
365664251,3670026,0.0022744173,-0.0007320571,-0.0004473907,3670026,-0.17498378,0.00067402824,-0.058764517,396809,0.0,0.0,0.0
366667597,3670026,0.0022351458,-0.00073156046,-0.00047916075,3670026,-0.17430378,0.0010164176,-0.05783989,396809,0.0,0.0,0.0
367661019,3670026,0.002272798,-0.00076542073,-0.00050467474,3670026,-0.17560132,0.0012884908,-0.058023147,396809,0.0,0.0,0.0
368669330,3670026,0.0022357511,-0.0007967495,-0.00043283115,3670026,-0.18095766,0.0010279424,-0.06084615,396809,0.0,0.0,0.0
369662806,3670026,0.0021529144,-0.00088692835,-0.00038312067,3670026,-0.18737157,0.00031894995,-0.06394174,396809,0.0,0.0,0.0
370666101,3670026,0.002134896,-0.000933949,-0.00043199287,3670026,-0.19332685,-0.0021721101,-0.06660436,396809,0.0,0.0,0.0
371664488,3670026,0.002183223,-0.00096879766,-0.00038164374,3670026,-0.19752921,-0.0031504866,-0.06922434,396809,0.0,0.0,0.0
372662859,3670026,0.0021366363,-0.00092658435,-0.00037822942,3670026,-0.19837478,-0.0036898719,-0.07017133,396809,0.0,0.0,0.0
373666210,3670026,0.0020868075,-0.0008499373,-0.00035581924,3670026,-0.19816194,-0.004492231,-0.0725011,396809,0.0,0.0,0.0
374659623,3670026,0.0020462004,-0.0007545862,-0.00031541157,3670026,-0.1996726,-0.0054707094,-0.0725582,396809,0.0,0.0,0.0
375667951,3670026,0.0021763472,-0.0008344561,-0.00024939454,3670026,-0.2045044,-0.007286102,-0.07235149,396809,0.0,0.0,0.0
376666499,3670026,0.002223168,-0.0008775571,-2.1954284e-05,3670026,-0.2094087,-0.0077655674,-0.07358755,396809,0.0,0.0,0.0
377659738,3670026,0.0022216279,-0.0008642731,6.183843e-05,3670026,-0.21861868,-0.009639597,-0.074018046,396809,0.0,0.0,0.0
378663088,3670026,0.0022188777,-0.0008064393,0.00010483597,3670026,-0.22067977,-0.01016633,-0.07132111,396809,0.0,0.0,0.0
379666489,3670026,0.0021641771,-0.00076479034,0.00010294659,3670026,-0.22060901,-0.01031413,-0.06958012,396809,0.0,0.0,0.0
380664826,3670026,0.0021733928,-0.00073071534,9.44519e-05,3670026,-0.22112596,-0.010110996,-0.06631647,396809,0.0,0.0,0.0
381663204,3670026,0.0021255908,-0.0006935619,4.5664452e-05,3670026,-0.22215076,-0.009589867,-0.06663841,396809,0.0,0.0,0.0
382661587,3670026,0.0021800613,-0.00070677313,2.2314234e-07,3670026,-0.22232467,-0.009096284,-0.0669987,396809,0.0,0.0,0.0
383660088,3670026,0.0021884746,-0.0007229237,-3.42187e-05,3670026,-0.22243634,-0.008798481,-0.063812815,396809,0.0,0.0,0.0
384663375,3670026,0.0021269184,-0.000699772,-7.6982586e-05,3670026,-0.2221958,-0.008324889,-0.06145873,396809,0.0,0.0,0.0
385661703,3670026,0.0021365634,-0.0007155968,-0.00014346528,3670026,-0.2223555,-0.0077014756,-0.05812702,396809,0.0,0.0,0.0
386665053,3670026,0.0021293364,-0.0006967926,-0.0001990625,3670026,-0.2220402,-0.0071928254,-0.0582816,396809,0.0,0.0,0.0
387663436,3670026,0.00213354,-0.00068616384,-0.00026688585,3670026,-0.2227057,-0.006643166,-0.05727513,396809,0.0,0.0,0.0
388666787,3670026,0.0021395907,-0.00069589465,-0.00033935753,3670026,-0.22298896,-0.0061257873,-0.056285437,396809,0.0,0.0,0.0
389665171,3670026,0.0021748468,-0.00069525134,-0.00044823473,3670026,-0.22257985,-0.0064526345,-0.056554224,396809,0.0,0.0,0.0
390663721,3670026,0.0022451782,-0.0006135848,-0.0005403635,3670026,-0.21575698,-0.006312265,-0.055361968,396809,0.0,0.0,0.0
391666906,3670026,0.0023715356,-0.0003386383,-0.00026063397,3670026,-0.19237778,-0.0041163564,-0.04861555,396809,0.0,0.0,0.0
392665288,3670026,0.0025940167,-0.0001449813,-1.25533115e-05,3670026,-0.171024,-0.00744647,-0.042599134,396809,0.0,0.0,0.0
393663716,3670026,0.002822054,-5.1690287e-05,0.00017129371,3670026,-0.15210946,-0.014843607,-0.035176873,396809,0.0,0.0,0.0
394667047,3670026,0.0028738359,-8.512386e-05,0.00026569964,3670026,-0.14495851,-0.02003369,-0.03436512,396809,0.0,0.0,0.0
395665407,3670026,0.002912319,-0.00015306231,0.0003277665,3670026,-0.13995355,-0.025164552,-0.034007296,396809,0.0,0.0,0.0
396668758,3670026,0.0028872734,-0.00021616856,0.00036548436,3670026,-0.13570185,-0.028492114,-0.03642719,396809,0.0,0.0,0.0
397667142,3670026,0.0028528091,-0.0002810426,0.0004020351,3670026,-0.13282423,-0.030873513,-0.04017187,396809,0.0,0.0,0.0
398665526,3670026,0.0027992232,-0.00034028615,0.0004680297,3670026,-0.13175012,-0.03359439,-0.044067822,396809,0.0,0.0,0.0
399663912,3670026,0.0028242967,-0.00046184237,0.00039885758,3670026,-0.13142015,-0.036539007,-0.04253517,396809,0.0,0.0,0.0
400662295,3670026,0.0029573778,-0.0004943497,0.00052846136,3670026,-0.1332256,-0.05231499,-0.037221394,396809,0.0,0.0,0.0
401665746,3670026,0.003050822,-0.00042147428,0.00060928054,3670026,-0.13470364,-0.062776394,-0.03226486,396809,0.0,0.0,0.0
402664032,3670026,0.0031737662,-0.000431583,0.0006522562,3670026,-0.13680203,-0.06947953,-0.028967911,396809,0.0,0.0,0.0
403662415,3670026,0.0032728303,-0.00039762398,0.0007513727,3670026,-0.13693269,-0.08096853,-0.02635866,396809,0.0,0.0,0.0
404665767,3670026,0.003292965,-0.00039849116,0.0006726662,3670026,-0.13842243,-0.08835592,-0.020683905,396809,0.0,0.0,0.0
405664152,3670026,0.0031801492,-0.00043444824,0.00084360555,3670026,-0.13944587,-0.0994682,-0.019931396,396809,0.0,0.0,0.0
406667503,3670026,0.0031662036,-0.00031123732,0.0010290035,3670026,-0.13937,-0.1083123,-0.017017165,396809,0.0,0.0,0.0
407665888,3670026,0.0032385571,-0.0003168578,0.0010621084,3670026,-0.1397271,-0.11452054,-0.013410693,396809,0.0,0.0,0.0
408664359,3670026,0.003117481,-0.00039223843,0.0009896397,3670026,-0.14162484,-0.122552276,-0.009671286,396809,0.0,0.0,0.0
409667624,3670026,0.0030949165,-0.00029949998,0.0011733711,3670026,-0.1419697,-0.13108361,-0.0089773005,396809,0.0,0.0,0.0
410666016,3670026,0.0031263642,-0.00043708333,0.0010070739,3670026,-0.14319839,-0.13548937,-0.0071650227,396809,0.0,0.0,0.0
411664395,3670026,0.0029910912,-0.00042788358,0.0009553024,3670026,-0.14403437,-0.14362675,-0.0072607235,396809,0.0,0.0,0.0
412662783,3670026,0.0030005684,-0.00040977309,0.0010445135,3670026,-0.14469773,-0.1519166,-0.013625202,396809,0.0,0.0,0.0
413661185,3670026,0.0029264938,-0.00047791743,0.00082396815,3670026,-0.1455386,-0.15704912,-0.015598275,396809,0.0,0.0,0.0
414664516,3670026,0.0027946474,-0.00052129786,0.0006961292,3670026,-0.14472461,-0.1605361,-0.019179048,396809,0.0,0.0,0.0
415663041,3670026,0.0023488905,-0.00067109044,0.00044376578,3670026,-0.1370182,-0.14615473,-0.02452562,396809,0.0,0.0,0.0
416661289,3670026,0.0020579458,-0.0008215199,9.67593e-05,3670026,-0.12654246,-0.13322718,-0.032907013,396809,0.0,0.0,0.0
417664639,3670026,0.0018843764,-0.0010621418,-0.00020326144,3670026,-0.12034858,-0.11973923,-0.035399716,396809,0.0,0.0,0.0
418658057,3670026,0.0018208089,-0.0012051895,-0.00033957596,3670026,-0.116521485,-0.11688707,-0.038807448,396809,0.0,0.0,0.0
419666376,3670026,0.0018091047,-0.001409956,-0.0005043375,3670026,-0.11642724,-0.115048125,-0.04295668,396809,0.0,0.0,0.0
420664761,3670026,0.0018243819,-0.0014231972,-0.00056713,3670026,-0.11767738,-0.11563376,-0.046755604,396809,0.0,0.0,0.0
421663170,3670026,0.0018633906,-0.0014286396,-0.00063131645,3670026,-0.11871226,-0.11426493,-0.047255483,396809,0.0,0.0,0.0
422666652,3670026,0.0019797483,-0.0016510977,-0.0007095877,3670026,-0.12875779,-0.11375811,-0.049519286,396809,0.0,0.0,0.0
423664883,3670026,0.0019302568,-0.0016237859,-0.0005708498,3670026,-0.13175757,-0.11320232,-0.051994033,396809,0.0,0.0,0.0
424668236,3670026,0.0018834503,-0.001315935,-0.0005031051,3670026,-0.13012464,-0.10935894,-0.051624157,396809,0.0,0.0,0.0
429665316,3670026,0.00258093,-4.1338837e-05,9.409335e-05,3670026,-0.0892741,-0.08549392,-0.04444609,396809,0.0,0.0,0.0
430663515,3670026,0.0026081332,-4.785019e-05,6.184297e-05,3670026,-0.08959236,-0.08525592,-0.05304664,396809,0.0,0.0,0.0
431661900,3670026,0.0026250684,-7.466606e-05,-3.6726047e-05,3670026,-0.09525147,-0.093617134,-0.05022466,396809,0.0,0.0,0.0
432660290,3670026,0.0023308357,-0.00027369568,-0.0002797595,3670026,-0.094480135,-0.090286866,-0.053630915,396809,0.0,0.0,0.0
433663676,3670026,0.0021122694,-0.00047571826,-0.00040133932,3670026,-0.090624906,-0.08442315,-0.05736237,396809,0.0,0.0,0.0
434662027,3670026,0.0020005796,-0.00064140273,-0.0004729275,3670026,-0.08806161,-0.07791999,-0.058296442,396809,0.0,0.0,0.0
435665380,3670026,0.0019207528,-0.00081151904,-0.00061014015,3670026,-0.08645647,-0.07202533,-0.05899865,396809,0.0,0.0,0.0
436663762,3670026,0.0019528143,-0.00086095196,-0.00060908566,3670026,-0.08729757,-0.06948282,-0.05521289,396809,0.0,0.0,0.0
437667122,3670026,0.0018958781,-0.0008936128,-0.00064534025,3670026,-0.08528881,-0.06856676,-0.052972607,396809,0.0,0.0,0.0
438665501,3670026,0.0018851722,-0.0009804361,-0.00076697126,3670026,-0.090660706,-0.06784311,-0.05690637,396809,0.0,0.0,0.0
439658922,3670026,0.0018390939,-0.001031446,-0.000840144,3670026,-0.093950674,-0.06680756,-0.054746494,396809,0.0,0.0,0.0
440667310,3670026,0.0018485861,-0.001037606,-0.00086448033,3670026,-0.09488245,-0.065905586,-0.052108582,396809,0.0,0.0,0.0
441660661,3670026,0.001845958,-0.00094820594,-0.000906983,3670026,-0.09598871,-0.06715791,-0.05336474,396809,0.0,0.0,0.0
442668979,3670026,0.001819824,-0.00088828604,-0.0009379252,3670026,-0.0954412,-0.06728944,-0.054873027,396809,0.0,0.0,0.0
443662398,3670026,0.001768981,-0.00083090086,-0.0009215745,3670026,-0.09544229,-0.0681266,-0.058239125,396809,0.0,0.0,0.0
444660784,3670026,0.0018076756,-0.0009471274,-0.0010070257,3670026,-0.10137204,-0.06826766,-0.062042244,396809,0.0,0.0,0.0
445669107,3670026,0.0018103746,-0.0010029083,-0.00091855903,3670026,-0.10704239,-0.0672866,-0.06656829,396809,0.0,0.0,0.0
446662524,3670026,0.0017983244,-0.0010970421,-0.0009826064,3670026,-0.116517685,-0.067562,-0.07140779,396809,0.0,0.0,0.0
447665976,3670026,0.0018118916,-0.0011446156,-0.0009617628,3670026,-0.11792135,-0.06753418,-0.06766051,396809,0.0,0.0,0.0
448664264,3670026,0.0018032618,-0.0010493463,-0.000962958,3670026,-0.11865198,-0.06717883,-0.062437776,396809,0.0,0.0,0.0
449662651,3670026,0.0017047924,-0.0009415888,-0.0009371997,3670026,-0.11943672,-0.066576615,-0.0610647,396809,0.0,0.0,0.0
450666005,3670026,0.0016527473,-0.00087394024,-0.000924181,3670026,-0.119358145,-0.06598477,-0.060984567,396809,0.0,0.0,0.0
451664412,3670026,0.0015790903,-0.00095803605,-0.0008498605,3670026,-0.1290594,-0.06504747,-0.06467239,396809,0.0,0.0,0.0
452667745,3670026,0.0014864911,-0.0010783315,-0.0007929936,3670026,-0.1410128,-0.06443157,-0.067964785,396809,0.0,0.0,0.0
453666134,3670026,0.0014247729,-0.0012443829,-0.0006566931,3670026,-0.15353322,-0.06414419,-0.07097454,396809,0.0,0.0,0.0
454659657,3670026,0.001536263,-0.0012032016,-0.0006376956,3670026,-0.15595488,-0.06529388,-0.06772865,396809,0.0,0.0,0.0
455667872,3670026,0.0016839968,-0.0011149171,-0.0005595063,3670026,-0.15593646,-0.06614063,-0.06343185,396809,0.0,0.0,0.0
456666259,3670026,0.001782453,-0.0009983446,-0.0005275607,3670026,-0.15773018,-0.06712224,-0.060776606,396809,0.0,0.0,0.0
457659728,3670026,0.0018278924,-0.000863354,-0.0005318536,3670026,-0.15643553,-0.06595995,-0.05969419,396809,0.0,0.0,0.0
458667999,3670026,0.0019070006,-0.0007839101,-0.0005363493,3670026,-0.1560811,-0.065622516,-0.058518935,396809,0.0,0.0,0.0
459661420,3670026,0.0020121937,-0.00081242406,-0.0005416166,3670026,-0.15586941,-0.06665534,-0.056502037,396809,0.0,0.0,0.0
460664772,3670026,0.0020983573,-0.0008063006,-0.0005305996,3670026,-0.15398732,-0.06663936,-0.05513266,396809,0.0,0.0,0.0
461668304,3670026,0.0021477833,-0.0007854293,-0.00051801366,3670026,-0.15306684,-0.06641337,-0.055105384,396809,0.0,0.0,0.0
462661546,3670026,0.002158861,-0.00075253565,-0.0005027005,3670026,-0.15403943,-0.06656886,-0.05761217,396809,0.0,0.0,0.0
463664907,3670026,0.0021517647,-0.0007468681,-0.00048106973,3670026,-0.15344374,-0.06637721,-0.056854375,396809,0.0,0.0,0.0
464663287,3670026,0.002159802,-0.00076595094,-0.00044921768,3670026,-0.15377977,-0.066820376,-0.0574468,396809,0.0,0.0,0.0
465666650,3670026,0.002205517,-0.000789947,-0.000418428,3670026,-0.15307666,-0.06701047,-0.054862734,396809,0.0,0.0,0.0
466665027,3670026,0.0022474676,-0.0008783916,-0.00039155572,3670026,-0.15372398,-0.06777285,-0.054899972,396809,0.0,0.0,0.0
467658447,3670026,0.0022245853,-0.00080928096,-0.00034039197,3670026,-0.15364818,-0.06767258,-0.056468155,396809,0.0,0.0,0.0
468666768,3670026,0.002131252,-0.00068661023,-0.00029919497,3670026,-0.15316345,-0.06710695,-0.05737902,396809,0.0,0.0,0.0
469665156,3670026,0.0021556271,-0.00067422277,-0.00028098313,3670026,-0.15316394,-0.06725354,-0.05511594,396809,0.0,0.0,0.0
470668508,3670026,0.0021480485,-0.0006413347,-0.00024429886,3670026,-0.1534465,-0.06744478,-0.054689933,396809,0.0,0.0,0.0
471661928,3670026,0.0021440787,-0.0006731701,-0.00022650247,3670026,-0.15315163,-0.06740153,-0.05346986,396809,0.0,0.0,0.0
472665317,3670026,0.0021488837,-0.00067945785,-0.00020970442,3670026,-0.1536959,-0.067695916,-0.053073876,396809,0.0,0.0,0.0
473668637,3670026,0.0021121807,-0.0006348026,-0.00020249958,3670026,-0.15307298,-0.06734654,-0.0533938,396809,0.0,0.0,0.0
474662059,3670026,0.0021154764,-0.0006219471,-0.00019973292,3670026,-0.1539451,-0.0677128,-0.052364644,396809,0.0,0.0,0.0
475660492,3670026,0.0021039054,-0.0006041003,-0.00020031387,3670026,-0.15376331,-0.06760055,-0.04981659,396809,0.0,0.0,0.0
476663829,3670026,0.0021253666,-0.0005961543,-0.00020201551,3670026,-0.15320323,-0.06737642,-0.048384402,396809,0.0,0.0,0.0
477667158,3670026,0.0021995415,-0.0005880383,-0.00019853699,3670026,-0.15288477,-0.067330435,-0.044300098,396809,0.0,0.0,0.0
478665538,3670026,0.002242009,-0.0006016338,-0.00019592063,3670026,-0.1531629,-0.06753781,-0.042611673,396809,0.0,0.0,0.0
479663997,3670026,0.0022926047,-0.0005826098,-0.00018424694,3670026,-0.15341437,-0.06775451,-0.04270845,396809,0.0,0.0,0.0
480662312,3670026,0.0022970268,-0.00058545073,-0.00016502799,3670026,-0.15336485,-0.06776106,-0.041211218,396809,0.0,0.0,0.0
481665666,3670026,0.0023197674,-0.0005763729,-0.00013193066,3670026,-0.15345286,-0.06784383,-0.04136747,396809,0.0,0.0,0.0
482664053,3670026,0.0022881743,-0.00056206086,-7.642233e-05,3670026,-0.15251836,-0.067673616,-0.04140857,396809,0.0,0.0,0.0
483662441,3670026,0.0022502986,-0.000553988,-2.3584555e-05,3670026,-0.15265107,-0.06891555,-0.04214245,396809,0.0,0.0,0.0
484665795,3670026,0.0022351327,-0.00055761955,2.7536003e-06,3670026,-0.15217954,-0.06903738,-0.042419262,396809,0.0,0.0,0.0
485664182,3670026,0.0022461347,-0.0005657547,-1.3283819e-05,3670026,-0.15303032,-0.06942334,-0.04374696,396809,0.0,0.0,0.0
486667696,3670026,0.0022354284,-0.00055533985,-2.9811354e-05,3670026,-0.15191743,-0.068918474,-0.045901805,396809,0.0,0.0,0.0
487660957,3670026,0.0022581453,-0.0005616887,-4.2869215e-05,3670026,-0.15293524,-0.0693802,-0.047607552,396809,0.0,0.0,0.0
