timestamp,gyro_device_id,gyro_bias[0],gyro_bias[1],gyro_bias[2],accel_device_id,accel_bias[0],accel_bias[1],accel_bias[2],mag_device_id,mag_bias[0],mag_bias[1],mag_bias[2]
382791713,3670026,-0.0026250915,-0.0014333642,0.0013616673,3670026,-0.005150862,0.056733724,-0.0012694304,396809,0.0,0.0,0.0
382801681,3670026,-0.0026249415,-0.0014333059,0.0013602304,3670026,-0.005150509,0.05672984,-0.0012681949,396809,0.0,0.0,0.0
383794664,3670026,-0.0026288358,-0.0014303528,0.0012143947,3670026,-0.005128115,0.05648318,-0.0008438777,396809,0.0,0.0,0.0
384787799,3670026,-0.0026270691,-0.0014463753,0.0010746478,3670026,-0.005122104,0.05641697,-0.00010998369,396809,0.0,0.0,0.0
385795602,3670026,-0.0026426082,-0.001456503,0.00095494423,3670026,-0.005012261,0.05620861,0.0006590026,396809,0.0,0.0,0.0
386788619,3670026,-0.0026568356,-0.0014648496,0.0009237731,3670026,-0.0046043787,0.05543399,0.0008144009,396809,0.0,0.0,0.0
387786604,3670026,-0.0026759144,-0.00145945,0.0008878494,3670026,-0.0044655786,0.05392817,-0.00044492382,396809,0.0,0.0,0.0
388794519,3670026,-0.0026806765,-0.001449662,0.0008621847,3670026,-0.0046765762,0.053456195,-0.0015844685,396809,0.0,0.0,0.0
389787539,3670026,-0.002715609,-0.0014530247,0.0008487951,3670026,-0.0044821845,0.051905293,-0.0023335365,396809,0.0,0.0,0.0
390795455,3670026,-0.002760216,-0.0014182057,0.0008264569,3670026,-0.005714144,0.05030679,-0.003203542,396809,0.0,0.0,0.0
391793595,3670026,-0.0027282776,-0.0013774674,0.00084958127,3670026,-0.006852995,0.051287986,-0.00080832717,396809,0.0,0.0,0.0
392786461,3670026,-0.002690983,-0.0014344206,0.00083638023,3670026,-0.0056033502,0.051781002,0.00075178256,396809,0.0,0.0,0.0
393794377,3670026,-0.0026919276,-0.0014590197,0.00083591277,3670026,-0.005337767,0.052151203,0.0026050932,396809,0.0,0.0,0.0
394787416,3670026,-0.0027106553,-0.0014788716,0.0008311528,3670026,-0.005299453,0.05220678,0.0037023583,396809,0.0,0.0,0.0
395785392,3670026,-0.0027130009,-0.0014370347,0.0008257999,3670026,-0.005684558,0.052030407,0.005291826,396809,0.0,0.0,0.0
396793298,3670026,-0.0027128397,-0.0014605259,0.0008296425,3670026,-0.0036333883,0.05278534,0.0024909168,396809,0.0,0.0,0.0
397796247,3670026,-0.0027162002,-0.0014597175,0.0008300866,3670026,-0.0048520565,0.053188667,-0.00034404974,396809,0.0,0.0,0.0
398789422,3670026,-0.0027008632,-0.0014298799,0.0008295506,3670026,-0.008495514,0.052887775,-0.0010546166,396809,0.0,0.0,0.0
399787252,3670026,-0.0027055936,-0.0014233419,0.00083707034,3670026,-0.009766894,0.05360263,-0.0020521872,396809,0.0,0.0,0.0
400795168,3670026,-0.0026989304,-0.00140422,0.0008409044,3670026,-0.010613167,0.054005366,-0.0028587321,396809,0.0,0.0,0.0
401788187,3670026,-0.0026472071,-0.0014142257,0.00083576597,3670026,-0.010020372,0.054739326,-0.0023967368,396809,0.0,0.0,0.0
402786172,3670026,-0.0025847047,-0.0014068348,0.0008287376,3670026,-0.009895679,0.05506291,-0.0049945167,396809,0.0,0.0,0.0
403789170,3670026,-0.0025690412,-0.0014196876,0.00083775993,3670026,-0.0097174095,0.054935157,-0.0047932235,396809,0.0,0.0,0.0
404797039,3670026,-0.0025401046,-0.0014143775,0.00084820075,3670026,-0.009666857,0.054686252,-0.0029099123,396809,0.0,0.0,0.0
405785251,3670026,-0.0025493838,-0.0013733843,0.00085350766,3670026,-0.00920813,0.054871857,-0.0007905398,396809,0.0,0.0,0.0
406788044,3670026,-0.0025659825,-0.0013887939,0.00086044613,3670026,-0.009329097,0.054908473,0.0004482068,396809,0.0,0.0,0.0
407795958,3670026,-0.0026548994,-0.0013872345,0.0008714089,3670026,-0.009264271,0.05596006,0.0012589765,396809,0.0,0.0,0.0
408793943,3670026,-0.0026393016,-0.0013840699,0.00086681766,3670026,-0.00924403,0.055773135,0.0011279717,396809,0.0,0.0,0.0
409786976,3670026,-0.0026242845,-0.0013439473,0.00085902214,3670026,-0.008835629,0.055405337,0.0017651961,396809,0.0,0.0,0.0
410794925,3670026,-0.0026027965,-0.0014445217,0.000864234,3670026,-0.009743926,0.05540967,0.0027103804,396809,0.0,0.0,0.0
411792865,3670026,-0.002514817,-0.0014492867,0.00084537675,3670026,-0.009801394,0.05453854,0.0019981323,396809,0.0,0.0,0.0
412786068,3670026,-0.0025011878,-0.0014370208,0.00082842755,3670026,-0.009733189,0.054286443,0.0027500584,396809,0.0,0.0,0.0
413793799,3670026,-0.0025518069,-0.0014533012,0.0008173292,3670026,-0.009887507,0.054805923,0.004675604,396809,0.0,0.0,0.0
414791784,3670026,-0.0026025656,-0.0014538406,0.0008092371,3670026,-0.009957259,0.055359516,0.0071563297,396809,0.0,0.0,0.0
415789769,3670026,-0.002558938,-0.0014402693,0.0007932001,3670026,-0.009866995,0.054897934,0.007745394,396809,0.0,0.0,0.0
416787786,3670026,-0.0025462874,-0.0014230615,0.0007732342,3670026,-0.009788912,0.054738346,0.008792599,396809,0.0,0.0,0.0
417790704,3670026,-0.0025369846,-0.0014206766,0.000762235,3670026,-0.009807954,0.054776482,0.009087828,396809,0.0,0.0,0.0
418788690,3670026,-0.0025762084,-0.0013954609,0.000726395,3670026,-0.009630355,0.054961026,0.0088359,396809,0.0,0.0,0.0
419786676,3670026,-0.002627705,-0.0013773716,0.0007136835,3670026,-0.009513867,0.055304337,0.0091205565,396809,0.0,0.0,0.0
420789624,3670026,-0.0026856242,-0.0014001039,0.0006867493,3670026,-0.009718868,0.055845086,0.011200802,396809,0.0,0.0,0.0
421787609,3670026,-0.002723055,-0.0014051913,0.0006401257,3670026,-0.009763266,0.05596209,0.01209711,396809,0.0,0.0,0.0
422790559,3670026,-0.002723056,-0.0013903669,0.0005807953,3670026,-0.009650542,0.055861417,0.009519158,396809,0.0,0.0,0.0
423793581,3670026,-0.0026888174,-0.0013674517,0.0005101541,3670026,-0.009498223,0.055839475,0.008967166,396809,0.0,0.0,0.0
424786571,3670026,-0.0026664743,-0.0013301622,0.00045519584,3670026,-0.009232894,0.055632494,0.006851705,396809,0.0,0.0,0.0
425794467,3670026,-0.0026729433,-0.0013741548,0.00041232342,3670026,-0.009314441,0.05582442,0.0042281244,396809,0.0,0.0,0.0
426787464,3670026,-0.0026450078,-0.001362801,0.00036889405,3670026,-0.009322694,0.05546619,0.0053125997,396809,0.0,0.0,0.0
427795379,3670026,-0.0026459466,-0.0014179935,0.00032212076,3670026,-0.009451504,0.05575144,0.002500848,396809,0.0,0.0,0.0
428793368,3670026,-0.002644946,-0.0014653989,0.0002575352,3670026,-0.009610172,0.055877414,0.0023911248,396809,0.0,0.0,0.0
429786383,3670026,-0.0026768285,-0.0014279116,0.00020694271,3670026,-0.009360123,0.056090504,-0.00010766787,396809,0.0,0.0,0.0
430789456,3670026,-0.002670231,-0.0014474972,0.00016526158,3670026,-0.009303771,0.055790298,-0.00088494114,396809,0.0,0.0,0.0
431792283,3670026,-0.0026978904,-0.0014775038,0.0001704318,3670026,-0.009219979,0.05632767,-0.003984538,396809,0.0,0.0,0.0
432795229,3670026,-0.0026633241,-0.0014725622,0.00017287882,3670026,-0.009341939,0.056144133,-0.00283774,396809,0.0,0.0,0.0
433788252,3670026,-0.0026436434,-0.0014413965,9.212656e-05,3670026,-0.008901506,0.055309404,-0.00022199363,396809,0.0,0.0,0.0
434786235,3670026,-0.0026673288,-0.0014185213,5.584093e-05,3670026,-0.007583599,0.05414963,-0.00018513897,396809,0.0,0.0,0.0
435789209,3670026,-0.0026960515,-0.0014701615,4.2331267e-06,3670026,-0.0072751506,0.056597408,0.004729845,396809,0.0,0.0,0.0
436787169,3670026,-0.002700236,-0.0014935416,-2.7235159e-05,3670026,-0.007522634,0.057240173,0.007550425,396809,0.0,0.0,0.0
437785281,3670026,-0.0027666434,-0.0014546317,-4.217895e-05,3670026,-0.0027376425,0.052779824,0.010497172,396809,0.0,0.0,0.0
438788101,3670026,-0.0027569926,-0.0014950989,-6.0232094e-05,3670026,-0.0024396388,0.05488851,0.009876497,396809,0.0,0.0,0.0
439796070,3670026,-0.0027049116,-0.0014882259,-7.650218e-05,3670026,-0.0041378993,0.055539884,0.008544875,396809,0.0,0.0,0.0
440794000,3670026,-0.002733301,-0.0015056601,-0.000103193976,3670026,-0.003337401,0.054930095,0.006393768,396809,0.0,0.0,0.0
441787019,3670026,-0.0026956815,-0.0014493181,-0.00014097765,3670026,-0.0046771914,0.054812584,0.006895056,396809,0.0,0.0,0.0
442794932,3670026,-0.0027470586,-0.0014575381,-0.0001718393,3670026,-0.004997058,0.05416561,0.005107501,396809,0.0,0.0,0.0
443792916,3670026,-0.002711897,-0.0014841572,-0.000209952,3670026,-0.004807743,0.05424364,0.006820218,396809,0.0,0.0,0.0
444791025,3670026,-0.0027067238,-0.0014888126,-0.00025049772,3670026,-0.0049555236,0.054007776,0.0061278497,396809,0.0,0.0,0.0
445793848,3670026,-0.0027294157,-0.0015100797,-0.00030919883,3670026,-0.00543613,0.05352919,0.0040329085,396809,0.0,0.0,0.0
446796866,3670026,-0.0027420751,-0.0015022043,-0.00036325757,3670026,-0.005688908,0.05364775,0.0039621065,396809,0.0,0.0,0.0
447789815,3670026,-0.0027300224,-0.0015432579,-0.00041004532,3670026,-0.005817585,0.053008422,0.0044896887,396809,0.0,0.0,0.0
448792790,3670026,-0.002771735,-0.0015619135,-0.00045338745,3670026,-0.0062477924,0.053037774,0.0063838065,396809,0.0,0.0,0.0
449790746,3670026,-0.0027444994,-0.0015927084,-0.00049768924,3670026,-0.006180442,0.052608322,0.0057984474,396809,0.0,0.0,0.0
450788735,3670026,-0.0027550668,-0.0015980572,-0.00053290033,3670026,-0.006722974,0.05219292,0.0015329437,396809,0.0,0.0,0.0
451791823,3670026,-0.00279349,-0.0016165598,-0.00056293403,3670026,-0.007044066,0.052560717,0.000180134,396809,0.0,0.0,0.0
452794625,3670026,-0.002793563,-0.0016198856,-0.0005809696,3670026,-0.0071538053,0.052296404,0.001734745,396809,0.0,0.0,0.0
453787643,3670026,-0.0027614362,-0.0015996012,-0.0005950547,3670026,-0.006849091,0.0523267,0.001124477,396809,0.0,0.0,0.0
454785629,3670026,-0.002740343,-0.0016163449,-0.0005855128,3670026,-0.0066785323,0.052320123,0.000348112,396809,0.0,0.0,0.0
455793578,3670026,-0.0026994224,-0.001635985,-0.0005816937,3670026,-0.0064699026,0.0520275,0.000774843,396809,0.0,0.0,0.0
456796528,3670026,-0.0026975526,-0.0016132366,-0.0005632571,3670026,-0.0064269817,0.05213962,0.0029838374,396809,0.0,0.0,0.0
457784539,3670026,-0.002707217,-0.0016107599,-0.0005508402,3670026,-0.0064527863,0.0522311,0.0044355853,396809,0.0,0.0,0.0
458787628,3670026,-0.0026737964,-0.0016002471,-0.00053896406,3670026,-0.006257651,0.05207193,0.0041082986,396809,0.0,0.0,0.0
459795400,3670026,-0.0026481631,-0.0016102775,-0.00051683374,3670026,-0.0060732216,0.05224763,0.0074088653,396809,0.0,0.0,0.0
460788420,3670026,-0.002693684,-0.0016260264,-0.00047618384,3670026,-0.006236005,0.05233976,0.008936958,396809,0.0,0.0,0.0
461791367,3670026,-0.0027176517,-0.0016101516,-0.00042509442,3670026,-0.0063031563,0.052371137,0.010155558,396809,0.0,0.0,0.0
462794405,3670026,-0.0027510303,-0.001618596,-0.00039517062,3670026,-0.0064657773,0.052571863,0.009457733,396809,0.0,0.0,0.0
463792295,3670026,-0.0028107618,-0.0016062596,-0.0003741013,3670026,-0.0066126273,0.05286863,0.0112705175,396809,0.0,0.0,0.0
464785312,3670026,-0.0028106107,-0.0016008562,-0.00032568182,3670026,-0.0066051367,0.052903153,0.012290052,396809,0.0,0.0,0.0
465793418,3670026,-0.002806609,-0.0015980934,-0.00027243033,3670026,-0.0065938532,0.05276052,0.010002716,396809,0.0,0.0,0.0
466786242,3670026,-0.0027896622,-0.0015915101,-0.00023498984,3670026,-0.006558569,0.052648462,0.008590944,396809,0.0,0.0,0.0
467789221,3670026,-0.002794027,-0.0016234008,-0.00019638606,3670026,-0.006602938,0.052694708,0.008011494,396809,0.0,0.0,0.0
468787172,3670026,-0.0027729664,-0.0016132476,-0.0001632086,3670026,-0.006549259,0.05253819,0.00703109,396809,0.0,0.0,0.0
469795222,3670026,-0.0027552678,-0.0015890052,-0.00013730417,3670026,-0.0064341966,0.05260549,0.006471139,396809,0.0,0.0,0.0
470788101,3670026,-0.00277055,-0.0015496501,-0.00011756006,3670026,-0.0029664403,0.052236762,0.006209803,396809,0.0,0.0,0.0
471786084,3670026,-0.0027498906,-0.0015305039,-0.00013281833,3670026,-0.0017435704,0.05218021,0.006569239,396809,0.0,0.0,0.0
472793997,3670026,-0.0027341184,-0.001517877,-0.00012555216,3670026,-8.124538e-05,0.052377753,0.0065392177,396809,0.0,0.0,0.0
473787016,3670026,-0.0027838484,-0.001530244,9.486701e-06,3670026,0.0034689046,0.055686727,0.0054533524,396809,0.0,0.0,0.0
474794927,3670026,-0.0027946837,-0.0015191274,6.0268612e-05,3670026,0.0038562445,0.055768214,0.005763408,396809,0.0,0.0,0.0
475792909,3670026,-0.0027505306,-0.0015137759,0.00014710483,3670026,0.0018919628,0.057274714,0.0053620907,396809,0.0,0.0,0.0
476786035,3670026,-0.0027624522,-0.0015293901,0.00022783049,3670026,0.0023394467,0.060496356,0.004646093,396809,0.0,0.0,0.0
477793836,3670026,-0.0027501986,-0.0015454399,0.00027749516,3670026,0.0019178222,0.06305723,0.0065481197,396809,0.0,0.0,0.0
478786861,3670026,-0.0027419822,-0.001533635,0.00029296687,3670026,0.0013100659,0.063022375,0.0056979186,396809,0.0,0.0,0.0
479785027,3670026,-0.0027202307,-0.0015207872,0.00031229082,3670026,0.0008293256,0.06311611,0.0056111,396809,0.0,0.0,0.0
480787807,3670026,-0.0027286347,-0.0015338006,0.00032744466,3670026,0.001240402,0.0625822,0.0050942204,396809,0.0,0.0,0.0
481795692,3670026,-0.0027610988,-0.0015256156,0.00035389134,3670026,0.0010380169,0.062435616,0.0059751007,396809,0.0,0.0,0.0
482788708,3670026,-0.0027589258,-0.0015756346,0.00038446864,3670026,0.0014348294,0.062023584,0.0075209104,396809,0.0,0.0,0.0
483786829,3670026,-0.0027326606,-0.0015737902,0.00042402712,3670026,0.0016949067,0.062306702,0.007841697,396809,0.0,0.0,0.0
484794601,3670026,-0.0027558287,-0.0016008415,0.00046911978,3670026,0.0015213505,0.062157437,0.007345092,396809,0.0,0.0,0.0
485787618,3670026,-0.0027513152,-0.0016058235,0.0005321913,3670026,0.0013964131,0.061962817,0.0067605632,396809,0.0,0.0,0.0
486785599,3670026,-0.0027492952,-0.0016027942,0.0006095968,3670026,0.0013146789,0.062090058,0.007339661,396809,0.0,0.0,0.0
487793510,3670026,-0.00276625,-0.001607624,0.000683997,3670026,0.0009920615,0.062198948,0.006898958,396809,0.0,0.0,0.0
488796456,3670026,-0.002796435,-0.001609374,0.0007394091,3670026,0.000400952,0.06208476,0.0071390877,396809,0.0,0.0,0.0
489789484,3670026,-0.0027814792,-0.0016226409,0.00077938585,3670026,0.00039944384,0.061787933,0.006748813,396809,0.0,0.0,0.0
490787497,3670026,-0.00273834,-0.001653318,0.00080425944,3670026,0.00073371106,0.06155394,0.0071758004,396809,0.0,0.0,0.0
491795364,3670026,-0.0027818796,-0.0016744359,0.0008073977,3670026,0.00038504688,0.06167538,0.007100815,396809,0.0,0.0,0.0
492788380,3670026,-0.0028052165,-0.0016902677,0.0007840828,3670026,0.00012329157,0.061452165,0.006070326,396809,0.0,0.0,0.0
493786361,3670026,-0.0028287084,-0.0016972267,0.0007600355,3670026,-5.4649907e-05,0.061459597,0.0046228217,396809,0.0,0.0,0.0
494789308,3670026,-0.0028391853,-0.0016946146,0.0007434904,3670026,-0.00021263571,0.061227094,0.003997755,396809,0.0,0.0,0.0
495792253,3670026,-0.00281317,-0.0017287483,0.00072794646,3670026,0.00010263162,0.06138296,0.004522767,396809,0.0,0.0,0.0
496785268,3670026,-0.0027884478,-0.0017296111,0.00071503763,3670026,0.00019555217,0.06108153,0.0030021472,396809,0.0,0.0,0.0
497788328,3670026,-0.0028042768,-0.0017356921,0.00070113013,3670026,5.6701516e-05,0.06091204,0.0034875476,396809,0.0,0.0,0.0
498796125,3670026,-0.0028128007,-0.0017632741,0.0006822373,3670026,2.8446568e-05,0.060961742,0.0042454107,396809,0.0,0.0,0.0
499794105,3670026,-0.0028596618,-0.0017455375,0.00066560815,3670026,-9.448812e-05,0.0611832,0.0043744706,396809,0.0,0.0,0.0
500787121,3670026,-0.0028101227,-0.0017416371,0.00065437425,3670026,0.00010305944,0.06096777,0.0050046626,396809,0.0,0.0,0.0
501795033,3670026,-0.0028121707,-0.0017598032,0.00066073827,3670026,6.121881e-05,0.060944203,0.0063367533,396809,0.0,0.0,0.0
502788046,3670026,-0.0028209197,-0.0017781745,0.0006758758,3670026,4.092122e-06,0.06100725,0.006806756,396809,0.0,0.0,0.0
503786071,3670026,-0.0028481155,-0.0017985331,0.0006955836,3670026,-0.00018616689,0.060884316,0.0072632944,396809,0.0,0.0,0.0
504794061,3670026,-0.002864362,-0.0018077777,0.0007138301,3670026,-0.00024207142,0.06092904,0.0060037826,396809,0.0,0.0,0.0
505786953,3670026,-0.0028749926,-0.001820583,0.00073437963,3670026,-0.00014365303,0.061172497,0.005362579,396809,0.0,0.0,0.0
506789899,3670026,-0.0028653361,-0.0018102182,0.00075363304,3670026,0.00013146321,0.061710473,0.0042197625,396809,0.0,0.0,0.0
507787878,3670026,-0.0028610143,-0.0018124554,0.0007322352,3670026,0.00018968702,0.061378166,0.0018305613,396809,0.0,0.0,0.0
508795800,3670026,-0.002923688,-0.0017982484,0.0006840361,3670026,0.0023084413,0.059986293,0.006403081,396809,0.0,0.0,0.0
509793777,3670026,-0.0029183556,-0.0018586845,0.00066685653,3670026,0.0006110449,0.061540972,0.0066216616,396809,0.0,0.0,0.0
510786783,3670026,-0.002876623,-0.0018596392,0.0005891432,3670026,-0.0014242687,0.060117953,0.0038192633,396809,0.0,0.0,0.0
511794873,3670026,-0.0028513107,-0.001811193,0.0005472274,3670026,-0.0024553095,0.05667346,0.0031634325,396809,0.0,0.0,0.0
512787707,3670026,-0.0028403928,-0.0017883696,0.0005616999,3670026,-0.002873368,0.056374542,0.0032160545,396809,0.0,0.0,0.0
513785687,3670026,-0.0028233624,-0.0017551373,0.0005495229,3670026,-0.004055553,0.055452425,0.0022547592,396809,0.0,0.0,0.0
514788632,3670026,-0.0027906504,-0.001749873,0.0005424479,3670026,-0.004724474,0.055945046,0.0030742805,396809,0.0,0.0,0.0
515786611,3670026,-0.0028057003,-0.0018294083,0.0005411502,3670026,-0.0030978706,0.0556524,0.0017427746,396809,0.0,0.0,0.0
516794521,3670026,-0.0028589682,-0.0018831608,0.0005174529,3670026,-0.0029907601,0.05491101,-0.005297559,396809,0.0,0.0,0.0
517787591,3670026,-0.0028374845,-0.001802876,0.000524666,3670026,-0.0038975591,0.054867417,-0.0047002872,396809,0.0,0.0,0.0
518795603,3670026,-0.0028237088,-0.0018234528,0.0005250803,3670026,-0.003800794,0.054443493,-0.0023863246,396809,0.0,0.0,0.0
519788458,3670026,-0.0028121532,-0.0018507831,0.00052686816,3670026,-0.0037116657,0.05370956,-0.0021340565,396809,0.0,0.0,0.0
520786437,3670026,-0.0027825115,-0.0019019664,0.00054004806,3670026,-0.003443094,0.05316138,-0.00092753215,396809,0.0,0.0,0.0
521794347,3670026,-0.0027824326,-0.0018522012,0.00054832676,3670026,-0.0031898664,0.05390889,0.0040945294,396809,0.0,0.0,0.0
522792326,3670026,-0.0028110144,-0.0018709735,0.0005622465,3670026,-0.0036516392,0.053548727,0.0050208564,396809,0.0,0.0,0.0
523790306,3670026,-0.0028058796,-0.0018902285,0.00057686394,3670026,-0.0036486557,0.052955877,0.0035646942,396809,0.0,0.0,0.0
524793248,3670026,-0.0028350486,-0.0019059516,0.00058860006,3670026,-0.0040659276,0.0529286,0.0036872604,396809,0.0,0.0,0.0
525786392,3670026,-0.0028899398,-0.0019214328,0.0005953599,3670026,-0.005172664,0.052504554,0.0024066656,396809,0.0,0.0,0.0
526789209,3670026,-0.0028779567,-0.001910059,0.000609291,3670026,-0.005071203,0.05246198,0.00038830325,396809,0.0,0.0,0.0
527792150,3670026,-0.0029249005,-0.001979199,0.000623137,3670026,-0.0055263108,0.052205548,0.0010114674,396809,0.0,0.0,0.0
528795096,3670026,-0.0029110203,-0.0019175127,0.0006437192,3670026,-0.0054065213,0.052460596,0.0010671637,396809,0.0,0.0,0.0
529788109,3670026,-0.002859009,-0.0019021716,0.0006686346,3670026,-0.0050673317,0.05219634,0.0025387402,396809,0.0,0.0,0.0
530796016,3670026,-0.0027912594,-0.0018645104,0.0006928451,3670026,-0.0044542905,0.052268565,0.0019014134,396809,0.0,0.0,0.0
531789074,3670026,-0.0028637613,-0.0019487754,0.0007266961,3670026,-0.004835982,0.051857088,0.0017597057,396809,0.0,0.0,0.0
532787164,3670026,-0.0028324567,-0.0019744276,0.00075179676,3670026,-0.004805287,0.05164692,0.0014354549,396809,0.0,0.0,0.0
533794918,3670026,-0.0028127579,-0.0018998446,0.00076197647,3670026,-0.0045326375,0.051812295,-0.0022766723,396809,0.0,0.0,0.0
534787930,3670026,-0.00284007,-0.0018416303,0.00077745155,3670026,-0.0045434358,0.051981326,-0.0029029648,396809,0.0,0.0,0.0
535790874,3670026,-0.0028023191,-0.0017634559,0.00077157596,3670026,-0.00048496283,0.05160006,-0.0023319472,396809,0.0,0.0,0.0
536788874,3670026,-0.0028041932,-0.001714239,0.00076602405,3670026,0.0036957238,0.051565472,-0.001159613,396809,0.0,0.0,0.0
537796760,3670026,-0.0027837,-0.0017078654,0.0007421489,3670026,0.006575385,0.052616205,-0.005001254,396809,0.0,0.0,0.0
538789773,3670026,-0.0027929626,-0.0017007585,0.0007969768,3670026,0.008011299,0.054787904,-0.008534713,396809,0.0,0.0,0.0
539782942,3670026,-0.0028194785,-0.0016984447,0.00084633887,3670026,0.008352185,0.05669025,-0.0060800584,396809,0.0,0.0,0.0
540795663,3670026,-0.002818617,-0.0016986344,0.0008710914,3670026,0.008743469,0.057065297,-0.0055563804,396809,0.0,0.0,0.0
541793638,3670026,-0.0028132922,-0.00168695,0.0009006519,3670026,0.0076012597,0.05748301,-0.005783526,396809,0.0,0.0,0.0
542786651,3670026,-0.002875164,-0.0017193736,0.0009321511,3670026,0.010781058,0.061796166,-0.0028273487,396809,0.0,0.0,0.0
543789659,3670026,-0.0028316486,-0.0016715915,0.0009984454,3670026,0.008491507,0.06448247,-0.0017139692,396809,0.0,0.0,0.0
544792537,3670026,-0.0028352297,-0.0016818391,0.0010203803,3670026,0.008318593,0.0661439,-0.00093033304,396809,0.0,0.0,0.0
545785550,3670026,-0.0027974476,-0.0017047966,0.0010264937,3670026,0.008712197,0.06651993,-0.0013935252,396809,0.0,0.0,0.0
546783712,3670026,-0.0027703138,-0.0016941885,0.0010377665,3670026,0.008740451,0.06715833,-0.0013902022,396809,0.0,0.0,0.0
547796401,3670026,-0.0027330688,-0.0016792308,0.0010493398,3670026,0.00885399,0.0672698,-0.002320835,396809,0.0,0.0,0.0
548789414,3670026,-0.002715798,-0.0016673892,0.0010683945,3670026,0.008970398,0.06730036,-0.0037544637,396809,0.0,0.0,0.0
549787392,3670026,-0.00274337,-0.0017020596,0.0010783811,3670026,0.008646808,0.06672118,-0.004573353,396809,0.0,0.0,0.0
550795439,3670026,-0.002754317,-0.0016921535,0.0010803299,3670026,0.008530595,0.066740334,-0.004501042,396809,0.0,0.0,0.0
551788315,3670026,-0.0027370672,-0.0016449912,0.0010827348,3670026,0.009019421,0.06736499,-0.0034756155,396809,0.0,0.0,0.0
552786293,3670026,-0.0026952126,-0.0016873545,0.0010915754,3670026,0.009413141,0.066571996,-0.00031876325,396809,0.0,0.0,0.0
553794203,3670026,-0.0026915325,-0.0018184683,0.0010988358,3670026,0.009481861,0.06525208,9.7237455e-05,396809,0.0,0.0,0.0
554787213,3670026,-0.002724781,-0.0017637868,0.0010811224,3670026,0.008975528,0.06558697,-0.001670349,396809,0.0,0.0,0.0
555785251,3670026,-0.0027790235,-0.0018435592,0.0010833669,3670026,0.008225402,0.06518036,-0.0026199075,396809,0.0,0.0,0.0
556793099,3670026,-0.0027742728,-0.0018841556,0.0010846684,3670026,0.00807562,0.0648188,-0.002726354,396809,0.0,0.0,0.0
557786220,3670026,-0.0027496347,-0.0018426545,0.0010731376,3670026,0.008273108,0.06484435,-0.002175716,396809,0.0,0.0,0.0
558794020,3670026,-0.0027750616,-0.0018026687,0.0010547526,3670026,0.008280473,0.06545304,-0.0024983122,396809,0.0,0.0,0.0
559787033,3670026,-0.0028117197,-0.001791323,0.0010190062,3670026,0.0079485215,0.065744564,-0.000470986,396809,0.0,0.0,0.0
560789978,3670026,-0.0028074405,-0.001802236,0.0009827721,3670026,0.007800678,0.06557859,0.0012987476,396809,0.0,0.0,0.0
561792920,3670026,-0.002799788,-0.0018173441,0.0009417847,3670026,0.00774533,0.06571864,0.0037245227,396809,0.0,0.0,0.0
562785933,3670026,-0.0027704418,-0.0018608671,0.0009016539,3670026,0.0077338675,0.06542901,0.0025605578,396809,0.0,0.0,0.0
563788875,3670026,-0.0027280527,-0.0018832175,0.000864769,3670026,0.007799267,0.065085776,0.0029148876,396809,0.0,0.0,0.0
564786988,3670026,-0.0027372253,-0.0018743199,0.00081503636,3670026,0.007604817,0.06499528,0.0015499288,396809,0.0,0.0,0.0
565794761,3670026,-0.0027860824,-0.0018797779,0.00076708454,3670026,0.007338411,0.06537694,0.0014554975,396809,0.0,0.0,0.0
566787777,3670026,-0.002804124,-0.0019343618,0.0007201787,3670026,0.007111935,0.0650443,0.00084395125,396809,0.0,0.0,0.0
567785752,3670026,-0.0028318658,-0.001956749,0.0006763373,3670026,0.0069519877,0.06534584,0.0012526357,396809,0.0,0.0,0.0
568788695,3670026,-0.0028341073,-0.0019083377,0.0006292739,3670026,0.006824862,0.064998135,-0.00019397386,396809,0.0,0.0,0.0
569786672,3670026,-0.0028973843,-0.0018890435,0.0005780616,3670026,0.0067131184,0.06557477,-0.0015377059,396809,0.0,0.0,0.0
570794581,3670026,-0.0028629536,-0.0018777504,0.00051713944,3670026,0.0068085357,0.06563573,-0.0019678394,396809,0.0,0.0,0.0
571792729,3670026,-0.0028664435,-0.0019086349,0.00044952807,3670026,0.0071794055,0.065535456,-5.4844244e-05,396809,0.0,0.0,0.0
572795501,3670026,-0.0028067958,-0.001899118,0.0004126462,3670026,0.007881579,0.06443264,-0.00028781817,396809,0.0,0.0,0.0
573793479,3670026,-0.0027831069,-0.0019197881,0.00043701296,3670026,0.007302607,0.06423928,0.0035958004,396809,0.0,0.0,0.0
574786492,3670026,-0.0028263791,-0.0019555446,0.0004718754,3670026,0.0076854136,0.066653945,0.0067457436,396809,0.0,0.0,0.0
575794457,3670026,-0.0028068146,-0.0019359543,0.0005018641,3670026,0.0055260924,0.06582423,0.007378816,396809,0.0,0.0,0.0
576792377,3670026,-0.0028482147,-0.0019660583,0.000525039,3670026,0.0059032445,0.06633555,0.006952568,396809,0.0,0.0,0.0
577790354,3670026,-0.0028303855,-0.0019389137,0.0005307929,3670026,0.005392397,0.06485013,0.0087123625,396809,0.0,0.0,0.0
578788465,3670026,-0.0028719828,-0.0019271197,0.0005143735,3670026,0.0049638273,0.06352256,0.007997518,396809,0.0,0.0,0.0
579796285,3670026,-0.0029544511,-0.0019473572,0.00046668036,3670026,0.003013228,0.06352684,0.0048633185,396809,0.0,0.0,0.0
580789253,3670026,-0.0029914982,-0.0019594019,0.00043846332,3670026,-0.00023586754,0.06338671,0.0035761707,396809,0.0,0.0,0.0
581787274,3670026,-0.0029651972,-0.0019486753,0.00040615024,3670026,-0.0016464201,0.06296247,0.0018904746,396809,0.0,0.0,0.0
582795139,3670026,-0.0029105414,-0.0019248468,0.00035618406,3670026,-0.003267648,0.06322604,0.00522558,396809,0.0,0.0,0.0
583788149,3670026,-0.0028760752,-0.001921489,0.00031378685,3670026,-0.003942152,0.063392244,0.005712964,396809,0.0,0.0,0.0
584786126,3670026,-0.0028691143,-0.0019067973,0.0002802994,3670026,-0.004465356,0.063132994,0.004591059,396809,0.0,0.0,0.0
585794218,3670026,-0.0028495176,-0.0019033536,0.00025389777,3670026,-0.004626592,0.06296703,0.0030419219,396809,0.0,0.0,0.0
586796977,3670026,-0.0028414153,-0.0019267538,0.00021892031,3670026,-0.0047779684,0.062274564,0.0013002935,396809,0.0,0.0,0.0
587785028,3670026,-0.0028449332,-0.0019878196,0.00018874186,3670026,-0.0049526654,0.06161156,0.0007632427,396809,0.0,0.0,0.0
588787967,3670026,-0.0028274346,-0.0019744334,0.0001572102,3670026,-0.0049969666,0.061188843,0.0011006122,396809,0.0,0.0,0.0
589795943,3670026,-0.0028170515,-0.001948713,0.00013199926,3670026,-0.0047988105,0.061493255,0.0022132648,396809,0.0,0.0,0.0
590793850,3670026,-0.002840936,-0.0019842142,0.00012625281,3670026,-0.005140123,0.061215464,0.0031067498,396809,0.0,0.0,0.0
591786870,3670026,-0.0028188347,-0.0019759813,0.00011520799,3670026,-0.005019828,0.060877606,0.0016445913,396809,0.0,0.0,0.0
592789971,3670026,-0.0028563472,-0.0019923858,0.000108777385,3670026,-0.005585959,0.060663633,0.0022134276,396809,0.0,0.0,0.0
593792747,3670026,-0.0028982244,-0.0020152817,0.000114190225,3670026,-0.005881798,0.06101121,-0.0012611974,396809,0.0,0.0,0.0
594785757,3670026,-0.0028550143,-0.0020072765,0.0001348371,3670026,-0.005438446,0.061116856,-0.0020159748,396809,0.0,0.0,0.0
595788700,3670026,-0.0028866823,-0.0019971586,0.00015741405,3670026,-0.0058112047,0.060914665,0.00024922696,396809,0.0,0.0,0.0
596791661,3670026,-0.0028643352,-0.001997016,0.00018811168,3670026,-0.005402843,0.061517015,0.0014889437,396809,0.0,0.0,0.0
597784653,3670026,-0.002816276,-0.0020051713,0.0002354931,3670026,-0.0049259295,0.061604332,0.0056537883,396809,0.0,0.0,0.0
598787595,3670026,-0.0027440286,-0.0019967686,0.00029589448,3670026,-0.004445876,0.061207283,0.0063150823,396809,0.0,0.0,0.0
599790724,3670026,-0.0027555637,-0.0020317629,0.00036235858,3670026,-0.004376834,0.06165649,0.0077036545,396809,0.0,0.0,0.0
600793479,3670026,-0.002766364,-0.002023943,0.00041912292,3670026,-0.004456672,0.061606273,0.008622109,396809,0.0,0.0,0.0
601786491,3670026,-0.0028116591,-0.002042327,0.0004506215,3670026,-0.0047961017,0.061522655,0.0057464135,396809,0.0,0.0,0.0
602794398,3670026,-0.0028317124,-0.002058067,0.0004887554,3670026,-0.004855755,0.06164774,0.004439877,396809,0.0,0.0,0.0
603787507,3670026,-0.0028083518,-0.0020419254,0.0005197188,3670026,-0.004763879,0.061438892,0.001991016,396809,0.0,0.0,0.0
604785387,3670026,-0.0028138128,-0.0020064546,0.00052222423,3670026,-0.0008704161,0.061569117,0.002649596,396809,0.0,0.0,0.0
605793295,3670026,-0.0028427355,-0.0019256752,0.00041266013,3670026,0.0014408418,0.062470675,-0.0011282009,396809,0.0,0.0,0.0
606786495,3670026,-0.0029152848,-0.0019123768,0.00025185605,3670026,0.004477194,0.0647106,-0.0019867334,396809,0.0,0.0,0.0
607794215,3670026,-0.0029300267,-0.0018994609,0.00013479013,3670026,0.006506412,0.06745213,-0.0012444401,396809,0.0,0.0,0.0
608792215,3670026,-0.0029688925,-0.001867364,0.00013961722,3670026,0.0075235036,0.07036995,-0.0013889218,396809,0.0,0.0,0.0
609790167,3670026,-0.0029830958,-0.0018473656,0.00013048078,3670026,0.005370913,0.07277681,-0.0009854716,396809,0.0,0.0,0.0
610788234,3670026,-0.0029705912,-0.0018523451,0.00012873483,3670026,0.004627857,0.073620126,-0.00015220793,396809,0.0,0.0,0.0
611791092,3670026,-0.0029762974,-0.0018244749,0.000103270766,3670026,0.002408765,0.07236953,0.0014956283,396809,0.0,0.0,0.0
612789063,3670026,-0.0029472413,-0.0017999858,6.733168e-05,3670026,0.0015861655,0.07198632,0.001914723,396809,0.0,0.0,0.0
613787040,3670026,-0.002888224,-0.001800596,4.2907195e-05,3670026,0.0011106828,0.073522456,-6.601435e-05,396809,0.0,0.0,0.0
614794946,3670026,-0.0028557898,-0.0017986782,2.997892e-05,3670026,0.00096264126,0.074383885,-0.0011527046,396809,0.0,0.0,0.0
615787963,3670026,-0.002836124,-0.0018295347,2.1052325e-05,3670026,0.0014845923,0.07447941,-0.0005731802,396809,0.0,0.0,0.0
616785938,3670026,-0.002889097,-0.0018213305,2.9657615e-05,3670026,0.0010451818,0.07478403,0.00076749735,396809,0.0,0.0,0.0
617793956,3670026,-0.0028939275,-0.001839398,4.841184e-05,3670026,0.0010634616,0.074728884,0.0002911052,396809,0.0,0.0,0.0
618786861,3670026,-0.0028837882,-0.0018534898,6.6736495e-05,3670026,0.0010375576,0.07422931,0.0006118713,396809,0.0,0.0,0.0
619789795,3670026,-0.0029199217,-0.0018659044,9.633121e-05,3670026,0.00050433946,0.07419319,0.00076634495,396809,0.0,0.0,0.0
620787813,3670026,-0.0029207873,-0.0018607703,0.00014343079,3670026,0.00058441644,0.07483466,-0.00097476883,396809,0.0,0.0,0.0
621795680,3670026,-0.0028908674,-0.0018869247,0.00019299395,3670026,0.00053936796,0.074169785,-0.0017096224,396809,0.0,0.0,0.0
622793655,3670026,-0.002915768,-0.0019026435,0.00024392775,3670026,9.433167e-05,0.074287236,-1.4355688e-05,396809,0.0,0.0,0.0
623786667,3670026,-0.0029453703,-0.0019179955,0.00026915612,3670026,-0.0003098156,0.07438278,0.0004351113,396809,0.0,0.0,0.0
624794771,3670026,-0.0029397742,-0.0019068094,0.0002735564,3670026,-0.000282575,0.074333385,0.0018169275,396809,0.0,0.0,0.0
625787586,3670026,-0.002946912,-0.0018949767,0.00025842947,3670026,-0.00023132004,0.07455788,0.002668835,396809,0.0,0.0,0.0
626785562,3670026,-0.0029237247,-0.0019289008,0.00021589822,3670026,-7.8870195e-05,0.07403573,0.0019085046,396809,0.0,0.0,0.0
627788503,3670026,-0.0028876825,-0.0019316631,0.00016111351,3670026,0.00019356812,0.07357715,-0.002643593,396809,0.0,0.0,0.0
628796409,3670026,-0.0029210572,-0.0019610773,0.00011474359,3670026,0.00011622506,0.07366595,-0.00018677604,396809,0.0,0.0,0.0
629794387,3670026,-0.0029378205,-0.0019898294,8.893592e-05,3670026,1.6348877e-05,0.07370299,0.0013728786,396809,0.0,0.0,0.0
630787399,3670026,-0.0029427006,-0.0019784824,6.73835e-05,3670026,-2.6956386e-05,0.07343671,0.0013239976,396809,0.0,0.0,0.0
631795410,3670026,-0.0029697393,-0.0019913425,4.0967854e-05,3670026,-8.041727e-05,0.073679745,0.002337157,396809,0.0,0.0,0.0
632793304,3670026,-0.0029873047,-0.0020128088,1.8503324e-06,3670026,-0.00010303201,0.07355697,0.005007999,396809,0.0,0.0,0.0
633786293,3670026,-0.0029872656,-0.0020252827,-3.2810003e-05,3670026,-0.00013655936,0.073265776,0.0049016154,396809,0.0,0.0,0.0
634794203,3670026,-0.0029387865,-0.002005874,-5.198689e-05,3670026,0.00027750325,0.07347782,0.0026427603,396809,0.0,0.0,0.0
635792177,3670026,-0.00293732,-0.0020159273,-6.465299e-05,3670026,0.00030630737,0.073386915,0.003318619,396809,0.0,0.0,0.0
636790153,3670026,-0.0029106066,-0.0020057217,-6.9914284e-05,3670026,0.0004296058,0.073272645,0.0026368443,396809,0.0,0.0,0.0
637793094,3670026,-0.0029507484,-0.0019993233,-5.3315136e-05,3670026,0.00033419533,0.0736128,0.0014886799,396809,0.0,0.0,0.0
638796160,3670026,-0.0029503542,-0.001968047,-5.008089e-05,3670026,0.0003166422,0.073418505,0.0005032034,396809,0.0,0.0,0.0
639789043,3670026,-0.0029377774,-0.0019535038,-2.113058e-05,3670026,0.00034151104,0.07338703,1.1089278e-05,396809,0.0,0.0,0.0
640787023,3670026,-0.0029661038,-0.0019761897,2.2047767e-05,3670026,0.00022184984,0.0738038,0.0014629978,396809,0.0,0.0,0.0
641794929,3670026,-0.0029534744,-0.001968975,5.138981e-05,3670026,0.00019262292,0.07353988,0.00014534654,396809,0.0,0.0,0.0
642787940,3670026,-0.0029506483,-0.001985382,6.9496746e-05,3670026,0.00015233205,0.07335477,-0.00016654073,396809,0.0,0.0,0.0
643785917,3670026,-0.0029846404,-0.0020122116,5.0808358e-05,3670026,-0.00013773552,0.07317837,0.0022848076,396809,0.0,0.0,0.0
644793822,3670026,-0.0029210001,-0.00200629,2.5711555e-05,3670026,-0.0005389845,0.07304736,0.002567429,396809,0.0,0.0,0.0
645786942,3670026,-0.0029458194,-0.0019811261,-3.2515552e-05,3670026,-0.0011970816,0.07442073,0.0040492686,396809,0.0,0.0,0.0
646784821,3670026,-0.0029767,-0.0020254494,-0.00010582872,3670026,-0.003893989,0.07798118,0.0036832404,396809,0.0,0.0,0.0
647787751,3670026,-0.003043465,-0.0020856885,-0.00011021943,3670026,-0.006571058,0.08253068,0.0018126569,396809,0.0,0.0,0.0
648795657,3670026,-0.0030453326,-0.0020372884,-0.00013170626,3670026,-0.008017844,0.07945771,-0.00049305166,396809,0.0,0.0,0.0
649788670,3670026,-0.0030791,-0.0019537294,-0.00016564355,3670026,-0.005984075,0.07388094,0.0028481763,396809,0.0,0.0,0.0
650786644,3670026,-0.0030624706,-0.0019083968,-0.00019277984,3670026,-0.00807516,0.072554044,0.0048233927,396809,0.0,0.0,0.0
651789584,3670026,-0.003013865,-0.0018472925,-0.00021035723,3670026,-0.011271495,0.07242273,0.0067028105,396809,0.0,0.0,0.0
652792670,3670026,-0.0030131724,-0.0018122115,-0.00022266615,3670026,-0.012220154,0.071603976,0.0077709164,396809,0.0,0.0,0.0
653785540,3670026,-0.002977577,-0.0017975275,-0.00024121652,3670026,-0.012290136,0.07137962,0.008759375,396809,0.0,0.0,0.0
654788477,3670026,-0.002940073,-0.0018379713,-0.00026517388,3670026,-0.011786182,0.071372256,0.0076301154,396809,0.0,0.0,0.0
655786452,3670026,-0.00292698,-0.0018398432,-0.00026966466,3670026,-0.011967642,0.07138579,0.004149069,396809,0.0,0.0,0.0
656794360,3670026,-0.002903925,-0.0018876768,-0.00026538753,3670026,-0.011805936,0.07093813,0.003652542,396809,0.0,0.0,0.0
657787369,3670026,-0.0029050924,-0.0019655603,-0.00026325556,3670026,-0.013615715,0.07053736,0.0017161983,396809,0.0,0.0,0.0
658795274,3670026,-0.0029459118,-0.0020282397,-0.00022493703,3670026,-0.018649044,0.07112092,-0.0021168087,396809,0.0,0.0,0.0
659788438,3670026,-0.0029565487,-0.0020448922,-0.00022244937,3670026,-0.020623898,0.07053323,-0.005113908,396809,0.0,0.0,0.0
660786260,3670026,-0.0029366172,-0.0019951018,-0.00022179422,3670026,-0.020990526,0.07108531,-0.0081056375,396809,0.0,0.0,0.0
661789204,3670026,-0.0029395625,-0.0019911854,-0.00020878443,3670026,-0.021152666,0.07102323,-0.008193277,396809,0.0,0.0,0.0
662787202,3670026,-0.0029168273,-0.0019847415,-0.0001973672,3670026,-0.021194242,0.070847526,-0.009985855,396809,0.0,0.0,0.0
663795112,3670026,-0.002970239,-0.0019304069,-0.00019465383,3670026,-0.021566853,0.071328424,-0.0097454395,396809,0.0,0.0,0.0
664793057,3670026,-0.002995652,-0.0019074028,-0.00020352328,3670026,-0.021666097,0.071522884,-0.007029487,396809,0.0,0.0,0.0
665786067,3670026,-0.0029771517,-0.0019235397,-0.00019507312,3670026,-0.021518977,0.0711865,-0.0038824761,396809,0.0,0.0,0.0
666789199,3670026,-0.0029561506,-0.0018821339,-0.00018436811,3670026,-0.021382362,0.071281366,-0.0017522451,396809,0.0,0.0,0.0
667791953,3670026,-0.0029479149,-0.0018911507,-0.00017334527,3670026,-0.02127499,0.07169397,0.00019369154,396809,0.0,0.0,0.0
668789923,3670026,-0.0029501456,-0.0018817958,-0.00014786364,3670026,-0.02132981,0.07143551,0.002759646,396809,0.0,0.0,0.0
669792924,3670026,-0.0029450776,-0.001897082,-0.00012222108,3670026,-0.021347705,0.07140186,0.004307161,396809,0.0,0.0,0.0
670795889,3670026,-0.0029266516,-0.0018794675,-8.436813e-05,3670026,-0.021228747,0.0710206,0.003948544,396809,0.0,0.0,0.0
671788814,3670026,-0.002922738,-0.0018952327,-3.6093395e-05,3670026,-0.021322584,0.070849426,0.0064871185,396809,0.0,0.0,0.0
672791754,3670026,-0.002890851,-0.0019216719,9.321219e-06,3670026,-0.021248933,0.070550345,0.004985791,396809,0.0,0.0,0.0
673794695,3670026,-0.0028328414,-0.0019449125,3.8059057e-05,3670026,-0.021073712,0.06983911,0.0039765113,396809,0.0,0.0,0.0
674787705,3670026,-0.0028488517,-0.0018830649,8.0979604e-05,3670026,-0.019249247,0.070148125,-0.0023488908,396809,0.0,0.0,0.0
675785680,3670026,-0.0028544725,-0.0018246586,0.00011668527,3670026,-0.017090563,0.070630156,-0.0058127404,396809,0.0,0.0,0.0
676788620,3670026,-0.0028635147,-0.0018097067,0.00016276514,3670026,-0.014607476,0.07164511,-0.006823956,396809,0.0,0.0,0.0
677791648,3670026,-0.0028830986,-0.0017686309,0.00023912433,3670026,-0.012006698,0.07260423,-0.0034325153,396809,0.0,0.0,0.0
678794502,3670026,-0.0029186911,-0.0017925085,0.00042692016,3670026,-0.012727985,0.07505733,-0.0011099032,396809,0.0,0.0,0.0
679787511,3670026,-0.0029300922,-0.0017636078,0.0005475107,3670026,-0.011987557,0.07304185,-0.00037910795,396809,0.0,0.0,0.0
680795416,3670026,-0.002932669,-0.0017316695,0.0005892437,3670026,-0.012835327,0.07042541,-0.0010038803,396809,0.0,0.0,0.0
681793391,3670026,-0.0029018752,-0.0017264021,0.0006268615,3670026,-0.013894787,0.07081577,-0.0010197915,396809,0.0,0.0,0.0
682786401,3670026,-0.0028517358,-0.0017095706,0.0006419136,3670026,-0.014907974,0.0713048,-0.0010072626,396809,0.0,0.0,0.0
683794306,3670026,-0.0028285978,-0.0017562752,0.00065370323,3670026,-0.014130199,0.07237293,-0.0009913296,396809,0.0,0.0,0.0
684787355,3670026,-0.0028024632,-0.0017805032,0.0006670812,3670026,-0.013422515,0.072256245,0.0011247247,396809,0.0,0.0,0.0
685785311,3670026,-0.0027835057,-0.0017979975,0.0006916471,3670026,-0.013173011,0.072238095,-0.0011360345,396809,0.0,0.0,0.0
686788232,3670026,-0.002761093,-0.0018592897,0.0007127507,3670026,-0.012597306,0.07185661,-0.001300661,396809,0.0,0.0,0.0
687796137,3670026,-0.0027639577,-0.0019075221,0.00072036433,3670026,-0.012562714,0.07089557,-0.00042304405,396809,0.0,0.0,0.0
688789147,3670026,-0.0027373075,-0.0019182657,0.00072960276,3670026,-0.012271642,0.070373684,-0.00038081734,396809,0.0,0.0,0.0
689787122,3670026,-0.002761825,-0.0019428203,0.0007525159,3670026,-0.012442943,0.07041148,0.00043014414,396809,0.0,0.0,0.0
690795028,3670026,-0.0027963165,-0.00198936,0.0007813981,3670026,-0.012759878,0.07031565,0.00040541127,396809,0.0,0.0,0.0
691788103,3670026,-0.0027587547,-0.0020011454,0.00078239216,3670026,-0.012563767,0.069381975,0.00021614367,396809,0.0,0.0,0.0
692786030,3670026,-0.0027656772,-0.0019940208,0.0008021123,3670026,-0.012514998,0.069678284,-0.00060874305,396809,0.0,0.0,0.0
693788987,3670026,-0.0027961894,-0.0020111518,0.0008109217,3670026,-0.012787491,0.06979065,0.00072631077,396809,0.0,0.0,0.0
694786926,3670026,-0.002831365,-0.002014265,0.00085264695,3670026,-0.0127472235,0.069770254,0.0013636019,396809,0.0,0.0,0.0
695784902,3670026,-0.0028497684,-0.001991997,0.0008768844,3670026,-0.01255598,0.06990696,0.0016591168,396809,0.0,0.0,0.0
696792806,3670026,-0.0028622162,-0.002057375,0.0008925452,3670026,-0.012644649,0.07004093,0.0015498697,396809,0.0,0.0,0.0
697795746,3670026,-0.0029001653,-0.0019980897,0.00089668675,3670026,-0.012741451,0.069903076,0.0016137873,396809,0.0,0.0,0.0
698793830,3670026,-0.0029125728,-0.0020300322,0.00089628814,3670026,-0.011756638,0.070286945,0.0024667962,396809,0.0,0.0,0.0
699786730,3670026,-0.0029191247,-0.0020351675,0.0008848529,3670026,-0.011047585,0.06921314,0.0031613063,396809,0.0,0.0,0.0
700789682,3670026,-0.0029264116,-0.0020651675,0.00087158557,3670026,-0.011084567,0.06944483,0.0031718889,396809,0.0,0.0,0.0
701787644,3670026,-0.0029214374,-0.0020659328,0.0008855357,3670026,-0.011036672,0.06926005,0.0031640648,396809,0.0,0.0,0.0
702790584,3670026,-0.0029315567,-0.0020665505,0.00085882284,3670026,-0.011012165,0.069106266,0.0028861435,396809,0.0,0.0,0.0
