timestamp,gyro_device_id,gyro_bias[0],gyro_bias[1],gyro_bias[2],accel_device_id,accel_bias[0],accel_bias[1],accel_bias[2],mag_device_id,mag_bias[0],mag_bias[1],mag_bias[2]
741396389,3670026,-0.00265538,-0.00359258,-0.000250443,3670026,-0.00875374,-0.00487136,0.0460663,396809,0.0,0.0,0.0
741406319,3670026,-0.00265541,-0.00359261,-0.000250445,3670026,-0.00875381,-0.00487139,0.0460666,396809,0.0,0.0,0.0
742399500,3670026,-0.00266614,-0.00360083,-0.000292905,3670026,-0.00875997,-0.00487483,0.04551,396809,0.0,0.0,0.0
743402771,3670026,-0.00265578,-0.00357372,-0.00034226,3670026,-0.00860118,-0.00495733,0.0462717,396809,0.0,0.0,0.0
744400760,3670026,-0.00269112,-0.00359699,-0.000378853,3670026,-0.00862385,-0.00564673,0.0468037,396809,0.0,0.0,0.0
745398943,3670026,-0.00267333,-0.00358297,-0.000374325,3670026,-0.00893021,-0.00499013,0.0460025,396809,0.0,0.0,0.0
746402022,3670026,-0.00266623,-0.00358684,-0.00037267,3670026,-0.00850958,-0.00483875,0.0461335,396809,0.0,0.0,0.0
747400168,3670026,-0.0026627,-0.00357689,-0.000375278,3670026,-0.00857751,-0.00489731,0.0467307,396809,0.0,0.0,0.0
748398315,3670026,-0.00267461,-0.00356835,-0.000378066,3670026,-0.00897226,-0.00518844,0.0470471,396809,0.0,0.0,0.0
749406395,3670026,-0.0026907,-0.00358044,-0.000379821,3670026,-0.0087424,-0.00547245,0.0468993,396809,0.0,0.0,0.0
750399719,3670026,-0.0026941,-0.00358156,-0.000382028,3670026,-0.00867654,-0.00553845,0.04643,396809,0.0,0.0,0.0
751402689,3670026,-0.00270111,-0.00358808,-0.000389892,3670026,-0.0086616,-0.00561581,0.0463424,396809,0.0,0.0,0.0
752400837,3670026,-0.00268803,-0.00365163,-0.000396536,3670026,-0.00779156,-0.00533637,0.0472322,396809,0.0,0.0,0.0
753398985,3670026,-0.00268871,-0.0036617,-0.000398076,3670026,-0.00738246,-0.00474916,0.049917,396809,0.0,0.0,0.0
754402101,3670026,-0.00266729,-0.00364329,-0.000397173,3670026,-0.00857094,-0.00320917,0.0498426,396809,0.0,0.0,0.0
755400246,3670026,-0.00267845,-0.00367058,-0.000399666,3670026,-0.00948102,-0.00244341,0.049654,396809,0.0,0.0,0.0
756398396,3670026,-0.00269939,-0.00366656,-0.000410334,3670026,-0.00851662,-0.00306627,0.0507975,396809,0.0,0.0,0.0
757396626,3670026,-0.00278665,-0.00366665,-0.000427972,3670026,-0.00677419,-0.00304312,0.048465,396809,0.0,0.0,0.0
758399663,3670026,-0.00286437,-0.0037301,-0.000427077,3670026,-0.00582519,-0.00191035,0.0460387,396809,0.0,0.0,0.0
759397805,3670026,-0.00288782,-0.00375979,-0.000420812,3670026,-0.00508406,-0.000396804,0.0450146,396809,0.0,0.0,0.0
760400943,3670026,-0.0028726,-0.00376272,-0.000422689,3670026,-0.00704565,0.000113474,0.0434338,396809,0.0,0.0,0.0
761399069,3670026,-0.00287881,-0.00375837,-0.000422109,3670026,-0.00638939,-0.000445504,0.043689,396809,0.0,0.0,0.0
762402185,3670026,-0.00288856,-0.00375537,-0.000422739,3670026,-0.00665132,-0.000703051,0.0443755,396809,0.0,0.0,0.0
763405298,3670026,-0.00291719,-0.00373871,-0.000425775,3670026,-0.00663629,-0.0013465,0.0440241,396809,0.0,0.0,0.0
764398570,3670026,-0.00286274,-0.00371323,-0.000426855,3670026,-0.00678896,-0.000975471,0.0438947,396809,0.0,0.0,0.0
765401596,3670026,-0.002863,-0.00370744,-0.000427022,3670026,-0.00676236,-0.00101311,0.0449981,396809,0.0,0.0,0.0
766399744,3670026,-0.00285897,-0.00369502,-0.000428329,3670026,-0.00668147,-0.00106973,0.0445303,396809,0.0,0.0,0.0
767397893,3670026,-0.00281702,-0.00366046,-0.000426203,3670026,-0.00634981,-0.00122492,0.0450048,396809,0.0,0.0,0.0
768401009,3670026,-0.00279228,-0.00362448,-0.000426273,3670026,-0.00602515,-0.00128314,0.0451163,396809,0.0,0.0,0.0
769404125,3670026,-0.0028105,-0.00361179,-0.000424922,3670026,-0.0058348,-0.00104267,0.046494,396809,0.0,0.0,0.0
770397307,3670026,-0.00285341,-0.003616,-0.000423286,3670026,-0.00596333,-0.000598265,0.0475055,396809,0.0,0.0,0.0
771400516,3670026,-0.00286173,-0.00358929,-0.000419442,3670026,-0.00589928,-0.000273701,0.048576,396809,0.0,0.0,0.0
772398568,3670026,-0.00284475,-0.00358518,-0.00042333,3670026,-0.00561792,-0.000495777,0.0476967,396809,0.0,0.0,0.0
773406653,3670026,-0.0028218,-0.00358729,-0.000426067,3670026,-0.00547499,-0.000786286,0.0471157,396809,0.0,0.0,0.0
774399837,3670026,-0.0028168,-0.00357852,-0.000426762,3670026,-0.00531836,-0.000806889,0.0468702,396809,0.0,0.0,0.0
775398004,3670026,-0.00279929,-0.00355415,-0.000424922,3670026,-0.00511887,-0.00082303,0.0464863,396809,0.0,0.0,0.0
776406071,3670026,-0.0027995,-0.00355007,-0.000421752,3670026,-0.00496512,-0.00080514,0.0475511,396809,0.0,0.0,0.0
777399254,3670026,-0.00278445,-0.00353044,-0.000419153,3670026,-0.00486571,-0.000807408,0.0477941,396809,0.0,0.0,0.0
778397481,3670026,-0.00280747,-0.00352773,-0.000418033,3670026,-0.00490497,-0.000616428,0.0484447,396809,0.0,0.0,0.0
779400519,3670026,-0.00282676,-0.0035411,-0.000418773,3670026,-0.00503683,-0.000525746,0.0489114,396809,0.0,0.0,0.0
780398669,3670026,-0.00280557,-0.00353091,-0.00042212,3670026,-0.00489618,-0.000653804,0.0485782,396809,0.0,0.0,0.0
781396819,3670026,-0.00278513,-0.00351657,-0.000427269,3670026,-0.00475923,-0.00076605,0.0471983,396809,0.0,0.0,0.0
782399935,3670026,-0.0027972,-0.00350304,-0.000425029,3670026,-0.00479245,-0.000622296,0.0468557,396809,0.0,0.0,0.0
783398087,3670026,-0.00278607,-0.00352607,-0.000427463,3670026,-0.00481162,-0.000783067,0.047517,396809,0.0,0.0,0.0
784406170,3670026,-0.00281043,-0.00354741,-0.00042405,3670026,-0.00496222,-0.000693816,0.0488273,396809,0.0,0.0,0.0
785399442,3670026,-0.00279083,-0.00352142,-0.000420209,3670026,-0.00486033,-0.000690491,0.0491027,396809,0.0,0.0,0.0
786402473,3670026,-0.00279679,-0.00354988,-0.000420059,3670026,-0.00496084,-0.000754462,0.0489468,396809,0.0,0.0,0.0
787405586,3670026,-0.00280956,-0.00354626,-0.000422074,3670026,-0.00491553,-0.000694307,0.0493125,396809,0.0,0.0,0.0
788398771,3670026,-0.00284356,-0.00354198,-0.000417498,3670026,-0.00497165,-0.000505687,0.0503279,396809,0.0,0.0,0.0
789401889,3670026,-0.00281108,-0.00350358,-0.000411858,3670026,-0.00486582,-0.00052648,0.0494738,396809,0.0,0.0,0.0
790400039,3670026,-0.00280262,-0.00351779,-0.000409306,3670026,-0.00485624,-0.000615994,0.049825,396809,0.0,0.0,0.0
791398196,3670026,-0.00280707,-0.00353274,-0.000410055,3670026,-0.00484845,-0.000657679,0.0490761,396809,0.0,0.0,0.0
792401409,3670026,-0.00275698,-0.00350877,-0.000400836,3670026,-0.00479708,-0.000757912,0.0488358,396809,0.0,0.0,0.0
793399459,3670026,-0.00276048,-0.0035153,-0.000393581,3670026,-0.0047809,-0.000767376,0.0489939,396809,0.0,0.0,0.0
794402577,3670026,-0.00273031,-0.00353313,-0.000386148,3670026,-0.00475656,-0.000900925,0.0476871,396809,0.0,0.0,0.0
795395762,3670026,-0.0027734,-0.00350678,-0.000377225,3670026,-0.00471366,-0.000721059,0.0482809,396809,0.0,0.0,0.0
796398882,3670026,-0.00278584,-0.00350039,-0.000361311,3670026,-0.00474158,-0.000653869,0.0488991,396809,0.0,0.0,0.0
797401998,3670026,-0.0028112,-0.00350764,-0.000352827,3670026,-0.00474281,-0.000594706,0.0491083,396809,0.0,0.0,0.0
798405116,3670026,-0.00280543,-0.0035304,-0.000344944,3670026,-0.00480027,-0.000611865,0.0485907,396809,0.0,0.0,0.0
799398443,3670026,-0.00281895,-0.00352526,-0.000334166,3670026,-0.00483373,-0.000553405,0.048872,396809,0.0,0.0,0.0
800396452,3670026,-0.0028439,-0.00356015,-0.000327501,3670026,-0.00492259,-0.000543812,0.0496313,396809,0.0,0.0,0.0
801399612,3670026,-0.00287243,-0.00357894,-0.000322873,3670026,-0.00498554,-0.000518062,0.0498504,396809,0.0,0.0,0.0
802397722,3670026,-0.0028661,-0.00354942,-0.000327698,3670026,-0.00491394,-0.00051099,0.0490414,396809,0.0,0.0,0.0
803400841,3670026,-0.00283157,-0.00350484,-0.000392906,3670026,-0.00483498,-0.00134256,0.0503667,396809,0.0,0.0,0.0
804398992,3670026,-0.00283225,-0.00353435,-0.000422756,3670026,-0.00614206,-0.00165653,0.0507825,396809,0.0,0.0,0.0
805402111,3670026,-0.00285845,-0.00351551,-0.000254211,3670026,-0.00577019,-0.000575567,0.0507635,396809,0.0,0.0,0.0
806400355,3670026,-0.00288515,-0.00351797,-9.88264e-05,3670026,-0.00542907,0.00211146,0.0508361,396809,0.0,0.0,0.0
807398416,3670026,-0.00290795,-0.00353007,-3.20565e-05,3670026,-0.0036031,0.000602744,0.0484505,396809,0.0,0.0,0.0
808406500,3670026,-0.00292026,-0.00356655,2.39098e-05,3670026,-0.00285444,0.00031784,0.0481888,396809,0.0,0.0,0.0
809399687,3670026,-0.00291621,-0.00357116,5.58844e-05,3670026,-0.00293931,0.000460971,0.0481044,396809,0.0,0.0,0.0
810397840,3670026,-0.00291189,-0.00355499,8.06504e-05,3670026,-0.00321913,-0.000132271,0.047616,396809,0.0,0.0,0.0
811400959,3670026,-0.00291411,-0.00355522,9.89513e-05,3670026,-0.00341196,0.000104942,0.0481356,396809,0.0,0.0,0.0
812404076,3670026,-0.00292966,-0.00354703,0.000121178,3670026,-0.00382628,-0.000489436,0.0493867,396809,0.0,0.0,0.0
813397340,3670026,-0.00291128,-0.00353299,0.000144863,3670026,-0.00364411,-0.00038727,0.0483329,396809,0.0,0.0,0.0
814400384,3670026,-0.00293512,-0.00354971,0.000168978,3670026,-0.00354954,-0.000737958,0.047994,396809,0.0,0.0,0.0
815398578,3670026,-0.0029567,-0.00353024,0.000188869,3670026,-0.00390413,-0.0011181,0.0479099,396809,0.0,0.0,0.0
816396688,3670026,-0.00294734,-0.00350964,0.000209205,3670026,-0.0040789,-0.000946523,0.047711,396809,0.0,0.0,0.0
817399808,3670026,-0.00293454,-0.00348667,0.000221457,3670026,-0.00415771,-0.000868258,0.0474357,396809,0.0,0.0,0.0
818397976,3670026,-0.00293272,-0.00350262,0.000233131,3670026,-0.00414054,-0.000856936,0.047581,396809,0.0,0.0,0.0
819401088,3670026,-0.00293904,-0.00348294,0.000247025,3670026,-0.00419954,-0.00069248,0.0470092,396809,0.0,0.0,0.0
820399374,3670026,-0.00294041,-0.00348239,0.000258579,3670026,-0.00443461,-0.000733594,0.0456931,396809,0.0,0.0,0.0
821402353,3670026,-0.0029193,-0.00353069,0.000268897,3670026,-0.00451238,-0.00111147,0.0470879,396809,0.0,0.0,0.0
822405473,3670026,-0.00291144,-0.0035306,0.000274853,3670026,-0.00438868,-0.00111815,0.0483818,396809,0.0,0.0,0.0
823398660,3670026,-0.00288815,-0.00348806,0.000279441,3670026,-0.00404556,-0.00101658,0.0485023,396809,0.0,0.0,0.0
824396813,3670026,-0.00288081,-0.00346864,0.00028006,3670026,-0.0039839,-0.000952609,0.0482806,396809,0.0,0.0,0.0
825404899,3670026,-0.00287144,-0.00345957,0.000281861,3670026,-0.00394236,-0.00096073,0.0479278,396809,0.0,0.0,0.0
826398090,3670026,-0.00290011,-0.00349762,0.00028538,3670026,-0.00420392,-0.000988609,0.0476645,396809,0.0,0.0,0.0
827396313,3670026,-0.00289429,-0.00349342,0.000280544,3670026,-0.00417738,-0.000995486,0.0476229,396809,0.0,0.0,0.0
828399361,3670026,-0.0028882,-0.00347256,0.000277336,3670026,-0.00406568,-0.000948441,0.0479664,396809,0.0,0.0,0.0
829397514,3670026,-0.0028755,-0.00346958,0.000274947,3670026,-0.00396089,-0.000986765,0.0485535,396809,0.0,0.0,0.0
830400635,3670026,-0.00287388,-0.00350604,0.000271417,3670026,-0.00406646,-0.00110642,0.0499277,396809,0.0,0.0,0.0
831398805,3670026,-0.00288708,-0.00348158,0.000267951,3670026,-0.00408344,-0.000986463,0.0486198,396809,0.0,0.0,0.0
832401910,3670026,-0.00292581,-0.00348762,0.000273324,3670026,-0.00415854,-0.00084779,0.0493306,396809,0.0,0.0,0.0
833405029,3670026,-0.00292436,-0.00349885,0.000277854,3670026,-0.00415363,-0.000897103,0.0491251,396809,0.0,0.0,0.0
834398304,3670026,-0.00290661,-0.00347364,0.000269576,3670026,-0.00408428,-0.000886011,0.0484474,396809,0.0,0.0,0.0
835401351,3670026,-0.00291775,-0.00350407,0.000261095,3670026,-0.0041693,-0.000943825,0.0480428,396809,0.0,0.0,0.0
836399492,3670026,-0.00292021,-0.00351251,0.00025246,3670026,-0.00417169,-0.000953727,0.0481456,396809,0.0,0.0,0.0
837397647,3670026,-0.00292473,-0.0035103,0.000240066,3670026,-0.00418393,-0.000922317,0.0490567,396809,0.0,0.0,0.0
838400767,3670026,-0.00290971,-0.00350993,0.000231629,3670026,-0.00419326,-0.000936415,0.0481074,396809,0.0,0.0,0.0
839398922,3670026,-0.00291089,-0.00351547,0.000225683,3670026,-0.00417622,-0.000959431,0.048989,396809,0.0,0.0,0.0
840407020,3670026,-0.00293046,-0.00350541,0.000219545,3670026,-0.00416579,-0.000913084,0.0504999,396809,0.0,0.0,0.0
841400294,3670026,-0.00290221,-0.00347167,0.000211039,3670026,-0.0040826,-0.000918851,0.0503827,396809,0.0,0.0,0.0
842398353,3670026,-0.00291999,-0.00348554,0.000203241,3670026,-0.00411455,-0.00090844,0.0507007,396809,0.0,0.0,0.0
843406458,3670026,-0.00292503,-0.0034763,0.00019448,3670026,-0.00408666,-0.000886048,0.0508181,396809,0.0,0.0,0.0
844399628,3670026,-0.00290825,-0.0034844,0.000182819,3670026,-0.00411095,-0.000918222,0.0493246,396809,0.0,0.0,0.0
845397783,3670026,-0.00292375,-0.00346299,0.000178001,3670026,-0.00409368,-0.000856358,0.0496434,396809,0.0,0.0,0.0
846400906,3670026,-0.00293503,-0.00344181,0.000170526,3670026,-0.00407609,-0.000798997,0.0498969,396809,0.0,0.0,0.0
847404027,3670026,-0.00295115,-0.0034537,0.00016532,3670026,-0.0041101,-0.00078927,0.0492854,396809,0.0,0.0,0.0
848397297,3670026,-0.00295091,-0.00343624,0.000161127,3670026,-0.00412537,-0.000761242,0.0484381,396809,0.0,0.0,0.0
849400337,3670026,-0.00294099,-0.00343147,0.000155625,3670026,-0.00412073,-0.000766006,0.0479629,396809,0.0,0.0,0.0
850398491,3670026,-0.00296872,-0.00344323,0.000153715,3670026,-0.00416281,-0.000741744,0.0477282,396809,0.0,0.0,0.0
851396647,3670026,-0.00294022,-0.00342055,0.000147168,3670026,-0.00411112,-0.000751547,0.0478088,396809,0.0,0.0,0.0
852399769,3670026,-0.00293829,-0.0034128,0.00014111,3670026,-0.00409318,-0.000749273,0.0484521,396809,0.0,0.0,0.0
853397924,3670026,-0.00294735,-0.00342312,0.000134753,3670026,-0.00410864,-0.00075059,0.0483171,396809,0.0,0.0,0.0
854406012,3670026,-0.00294665,-0.00343467,0.000127069,3670026,-0.0041195,-0.000757165,0.0481038,396809,0.0,0.0,0.0
855399292,3670026,-0.00293102,-0.00343297,0.000117369,3670026,-0.00409638,-0.000767843,0.0492921,396809,0.0,0.0,0.0
856402335,3670026,-0.00294499,-0.00345173,0.000111472,3670026,-0.00411734,-0.000766784,0.0493538,396809,0.0,0.0,0.0
857405445,3670026,-0.0029525,-0.00346287,0.000105463,3670026,-0.0041278,-0.000770941,0.0495727,396809,0.0,0.0,0.0
858398635,3670026,-0.00295439,-0.00346561,9.63986e-05,3670026,-0.00412954,-0.000771062,0.0497834,396809,0.0,0.0,0.0
859401757,3670026,-0.00294719,-0.00344474,9.16851e-05,3670026,-0.00411607,-0.000752583,0.0487394,396809,0.0,0.0,0.0
860399913,3670026,-0.00296421,-0.00344122,8.61536e-05,3670026,-0.0041221,-0.000736549,0.0478231,396809,0.0,0.0,0.0
861398071,3670026,-0.00298873,-0.00345859,7.98571e-05,3670026,-0.00415031,-0.000733738,0.0487988,396809,0.0,0.0,0.0
862401313,3670026,-0.00296773,-0.00343809,7.34458e-05,3670026,-0.00412111,-0.000733822,0.048285,396809,0.0,0.0,0.0
863399347,3670026,-0.00298663,-0.00346615,6.739e-05,3670026,-0.00414559,-0.000733996,0.0495661,396809,0.0,0.0,0.0
864397503,3670026,-0.00297574,-0.00348653,5.98606e-05,3670026,-0.00414907,-0.000752418,0.0495838,396809,0.0,0.0,0.0
865400625,3670026,-0.00295497,-0.00345647,5.00559e-05,3670026,-0.00412117,-0.000750629,0.0489661,396809,0.0,0.0,0.0
866398782,3670026,-0.00299908,-0.00346422,4.55692e-05,3670026,-0.00412631,-0.000721683,0.0504361,396809,0.0,0.0,0.0
867396938,3670026,-0.00300988,-0.00346375,3.96402e-05,3670026,-0.00414225,-0.000726924,0.04999,396809,0.0,0.0,0.0
868405028,3670026,-0.0030367,-0.00345193,3.41866e-05,3670026,-0.00414498,-0.000715628,0.0500709,396809,0.0,0.0,0.0
869398370,3670026,-0.00304601,-0.00343769,2.93179e-05,3670026,-0.00412167,-0.000702342,0.0498631,396809,0.0,0.0,0.0
870401345,3670026,-0.0030614,-0.00345541,2.88622e-05,3670026,-0.00415107,-0.00069684,0.0494367,396809,0.0,0.0,0.0
871399497,3670026,-0.00305723,-0.00347547,2.53784e-05,3670026,-0.00418603,-0.000692299,0.0488666,396809,0.0,0.0,0.0
872397697,3670026,-0.00305038,-0.00346261,2.831e-05,3670026,-0.00418186,-0.000686682,0.0480975,396809,0.0,0.0,0.0
873400777,3670026,-0.00304114,-0.00345177,3.19501e-05,3670026,-0.00416671,-0.000684056,0.0481667,396809,0.0,0.0,0.0
874398934,3670026,-0.00303384,-0.00346574,2.96082e-05,3670026,-0.00416177,-0.000689972,0.0485827,396809,0.0,0.0,0.0
875407022,3670026,-0.00302744,-0.00347084,2.80666e-05,3670026,-0.00416631,-0.000693077,0.0486158,396809,0.0,0.0,0.0
876400310,3670026,-0.00302506,-0.00344733,2.52163e-05,3670026,-0.00413696,-0.000684533,0.0490819,396809,0.0,0.0,0.0
877398369,3670026,-0.00302982,-0.00342534,1.86634e-05,3670026,-0.00414701,-0.000681651,0.0491264,396809,0.0,0.0,0.0
878406458,3670026,-0.00305024,-0.00340938,1.56893e-05,3670026,-0.00415696,-0.000678479,0.0488077,396809,0.0,0.0,0.0
879399649,3670026,-0.00306228,-0.00339493,1.29182e-05,3670026,-0.00415638,-0.000674245,0.0485755,396809,0.0,0.0,0.0
880402773,3670026,-0.00304289,-0.00337904,8.25419e-06,3670026,-0.00412558,-0.000671981,0.048626,396809,0.0,0.0,0.0
881405895,3670026,-0.00309961,-0.00342223,4.77327e-06,3670026,-0.00416656,-0.000672568,0.0488789,396809,0.0,0.0,0.0
882404052,3670026,-0.00311788,-0.00342479,2.86245e-06,3670026,-0.00417468,-0.000669607,0.0485996,396809,0.0,0.0,0.0
883397377,3670026,-0.0031142,-0.00341352,-9.21328e-07,3670026,-0.00416984,-0.000659104,0.0476804,396809,0.0,0.0,0.0
884400367,3670026,-0.00310619,-0.0034332,-3.78736e-06,3670026,-0.00416483,-0.000665904,0.0480074,396809,0.0,0.0,0.0
885398523,3670026,-0.00312694,-0.00346365,-5.59113e-06,3670026,-0.00417883,-0.000675218,0.0492762,396809,0.0,0.0,0.0
886401643,3670026,-0.00312229,-0.00344924,-8.78755e-06,3670026,-0.00416887,-0.000670781,0.049056,396809,0.0,0.0,0.0
887399804,3670026,-0.00310746,-0.00345425,-8.55725e-06,3670026,-0.00415058,-0.000674842,0.0492727,396809,0.0,0.0,0.0
888402980,3670026,-0.0030871,-0.00345447,-1.0953e-05,3670026,-0.00415995,-0.000680987,0.0483604,396809,0.0,0.0,0.0
889401093,3670026,-0.00306417,-0.00346336,-1.57032e-05,3670026,-0.00413032,-0.000690785,0.0492241,396809,0.0,0.0,0.0
890399382,3670026,-0.00305803,-0.00346138,-2.14147e-05,3670026,-0.00413124,-0.000690241,0.048971,396809,0.0,0.0,0.0
891397398,3670026,-0.00307134,-0.00347324,-2.42459e-05,3670026,-0.0041488,-0.000693224,0.0485842,396809,0.0,0.0,0.0
892405488,3670026,-0.00310267,-0.00346849,-2.67902e-05,3670026,-0.00415965,-0.000692042,0.0484132,396809,0.0,0.0,0.0
893398679,3670026,-0.00309446,-0.00348491,-2.6705e-05,3670026,-0.00415216,-0.000679363,0.0483484,396809,0.0,0.0,0.0
894401802,3670026,-0.00311545,-0.0034746,-2.6018e-05,3670026,-0.0041332,-0.000673679,0.0477492,396809,0.0,0.0,0.0
895404926,3670026,-0.00313134,-0.00349665,-2.53661e-05,3670026,-0.00416572,-0.000676814,0.0483771,396809,0.0,0.0,0.0
896398118,3670026,-0.00316087,-0.00349588,-2.29912e-05,3670026,-0.00416407,-0.000679982,0.0483834,396809,0.0,0.0,0.0
897401344,3670026,-0.00311304,-0.00348304,-2.31387e-05,3670026,-0.00415815,-0.000675596,0.0486758,396809,0.0,0.0,0.0
898399397,3670026,-0.00312647,-0.00349075,-2.55775e-05,3670026,-0.00417466,-0.000683597,0.0495946,396809,0.0,0.0,0.0
899397555,3670026,-0.00312794,-0.00349982,-3.015e-05,3670026,-0.00420493,-0.000688623,0.050507,396809,0.0,0.0,0.0
900400678,3670026,-0.00308773,-0.0034726,-3.59783e-05,3670026,-0.0042016,-0.000687739,0.0510917,396809,0.0,0.0,0.0
901398837,3670026,-0.00307197,-0.00347036,-3.86095e-05,3670026,-0.00419829,-0.000691034,0.0510018,396809,0.0,0.0,0.0
902396994,3670026,-0.0030644,-0.00346297,-4.46651e-05,3670026,-0.00418729,-0.000678641,0.0494658,396809,0.0,0.0,0.0
903400117,3670026,-0.00307526,-0.00345204,-4.70638e-05,3670026,-0.00418052,-0.000670443,0.0491293,396809,0.0,0.0,0.0
904398393,3670026,-0.00307233,-0.00345425,-5.70216e-05,3670026,-0.00427612,-0.000550508,0.050332,396809,0.0,0.0,0.0
905401454,3670026,-0.00308362,-0.00345163,-0.000192581,3670026,-0.00370606,0.00115256,0.051631,396809,0.0,0.0,0.0
906404521,3670026,-0.00311548,-0.00342706,-0.000194903,3670026,-0.000538761,0.00121141,0.0529772,396809,0.0,0.0,0.0
907397713,3670026,-0.00313447,-0.00339428,-9.35311e-05,3670026,0.00280481,0.00224501,0.0531704,396809,0.0,0.0,0.0
908400837,3670026,-0.00315474,-0.00336132,-8.4508e-05,3670026,0.00515923,0.00163254,0.0524674,396809,0.0,0.0,0.0
909398995,3670026,-0.00316428,-0.00342405,-8.35254e-05,3670026,0.00461218,0.00519312,0.051769,396809,0.0,0.0,0.0
910407084,3670026,-0.00313498,-0.00341324,-8.4678e-05,3670026,0.00347518,0.00579228,0.0501936,396809,0.0,0.0,0.0
911400391,3670026,-0.00313907,-0.00341257,-8.47728e-05,3670026,0.00436384,0.00558774,0.0502817,396809,0.0,0.0,0.0
912398434,3670026,-0.00312256,-0.00343947,-8.62186e-05,3670026,0.0043692,0.00698599,0.0510127,396809,0.0,0.0,0.0
913406524,3670026,-0.00313315,-0.00343752,-8.59647e-05,3670026,0.00420375,0.00710005,0.0516961,396809,0.0,0.0,0.0
914394749,3670026,-0.00312879,-0.003427,-8.0488e-05,3670026,0.0040665,0.0072362,0.0512721,396809,0.0,0.0,0.0
915397874,3670026,-0.00315245,-0.00342555,-7.95537e-05,3670026,0.00381128,0.0072809,0.0509652,396809,0.0,0.0,0.0
916400998,3670026,-0.00314116,-0.00341406,-8.76174e-05,3670026,0.00381602,0.00751162,0.0506949,396809,0.0,0.0,0.0
917399159,3670026,-0.00314025,-0.00341859,-9.29858e-05,3670026,0.00374208,0.0073798,0.0513767,396809,0.0,0.0,0.0
918402393,3670026,-0.00314751,-0.00340398,-9.89708e-05,3670026,0.00355532,0.00739048,0.0509629,396809,0.0,0.0,0.0
919405404,3670026,-0.00315903,-0.0034505,-0.000102394,3670026,0.003611,0.00716438,0.0514455,396809,0.0,0.0,0.0
920403562,3670026,-0.00312938,-0.00346384,-0.000105091,3670026,0.00387608,0.00698493,0.0523816,396809,0.0,0.0,0.0
921401720,3670026,-0.0031196,-0.00345525,-0.000104665,3670026,0.00382065,0.006933,0.0520461,396809,0.0,0.0,0.0
922404844,3670026,-0.00307576,-0.00343061,-0.000103319,3670026,0.00404444,0.00687165,0.0521451,396809,0.0,0.0,0.0
923398037,3670026,-0.00311073,-0.00348428,-9.96967e-05,3670026,0.00392281,0.00679185,0.0531487,396809,0.0,0.0,0.0
924406130,3670026,-0.00307001,-0.00345833,-9.38431e-05,3670026,0.00428705,0.00685839,0.0530203,396809,0.0,0.0,0.0
925399428,3670026,-0.00307303,-0.00345083,-9.45162e-05,3670026,0.00413165,0.00683458,0.0534403,396809,0.0,0.0,0.0
926397478,3670026,-0.00308239,-0.0034626,-7.66839e-05,3670026,0.00413669,0.00687713,0.0540512,396809,0.0,0.0,0.0
927405569,3670026,-0.00307529,-0.00345325,-7.54332e-05,3670026,0.00419779,0.00690508,0.0521076,396809,0.0,0.0,0.0
928403727,3670026,-0.00306113,-0.00344193,-7.31347e-05,3670026,0.0041609,0.00684407,0.0510219,396809,0.0,0.0,0.0
929396920,3670026,-0.0030605,-0.00348086,-8.00705e-05,3670026,0.00416218,0.0066992,0.0515183,396809,0.0,0.0,0.0
930400047,3670026,-0.00307624,-0.0034734,-8.01263e-05,3670026,0.00408266,0.00673626,0.0526467,396809,0.0,0.0,0.0
931403169,3670026,-0.00305858,-0.00347479,-7.819e-05,3670026,0.00419329,0.00673003,0.0520314,396809,0.0,0.0,0.0
932401490,3670026,-0.00303563,-0.00346072,-7.11595e-05,3670026,0.00421701,0.00668776,0.0512968,396809,0.0,0.0,0.0
933404452,3670026,-0.00305518,-0.00347549,-7.84172e-05,3670026,0.00424082,0.00673938,0.0512874,396809,0.0,0.0,0.0
934397645,3670026,-0.00306929,-0.00346262,-8.41335e-05,3670026,0.00420527,0.00680672,0.0513116,396809,0.0,0.0,0.0
935400769,3670026,-0.00305209,-0.00345314,-8.91879e-05,3670026,0.00414551,0.0067044,0.0514204,396809,0.0,0.0,0.0
936398984,3670026,-0.00306614,-0.00345335,-9.11497e-05,3670026,0.00415117,0.00677408,0.0510294,396809,0.0,0.0,0.0
937397087,3670026,-0.00309465,-0.00346929,-8.32004e-05,3670026,0.00412076,0.0068276,0.0516928,396809,0.0,0.0,0.0
938400212,3670026,-0.00308258,-0.00343717,-8.24282e-05,3670026,0.00406608,0.00680804,0.0517835,396809,0.0,0.0,0.0
939398470,3670026,-0.00309982,-0.00344347,-8.4861e-05,3670026,0.00407962,0.00686335,0.0513675,396809,0.0,0.0,0.0
940396530,3670026,-0.00311567,-0.00345619,-8.92814e-05,3670026,0.00404586,0.00687056,0.0511462,396809,0.0,0.0,0.0
941399655,3670026,-0.0031101,-0.0034522,-9.1442e-05,3670026,0.00400839,0.00683122,0.0511686,396809,0.0,0.0,0.0
942402779,3670026,-0.00313113,-0.00345351,-9.74787e-05,3670026,0.004005,0.00687798,0.0518978,396809,0.0,0.0,0.0
943395973,3670026,-0.00316216,-0.00346572,-9.52801e-05,3670026,0.00395705,0.00690964,0.0519627,396809,0.0,0.0,0.0
944404072,3670026,-0.00314913,-0.00348274,-8.34545e-05,3670026,0.00395908,0.00687086,0.050905,396809,0.0,0.0,0.0
945402221,3670026,-0.00314038,-0.00347031,-6.77419e-05,3670026,0.00392158,0.00684443,0.0493685,396809,0.0,0.0,0.0
946400552,3670026,-0.00312998,-0.00349005,-5.4684e-05,3670026,0.00389885,0.00679812,0.0501295,396809,0.0,0.0,0.0
947398539,3670026,-0.00315782,-0.0034874,-3.34497e-05,3670026,0.00391773,0.00686815,0.0512371,396809,0.0,0.0,0.0
948406630,3670026,-0.00316047,-0.00349256,-8.53534e-06,3670026,0.00391186,0.00686908,0.0522017,396809,0.0,0.0,0.0
949399823,3670026,-0.00315729,-0.00349343,2.75179e-05,3670026,0.00389464,0.00685233,0.0518766,396809,0.0,0.0,0.0
950402966,3670026,-0.00315871,-0.00347785,7.60404e-05,3670026,0.00446033,0.00791719,0.0516533,396809,0.0,0.0,0.0
951406074,3670026,-0.00318791,-0.00348291,9.02938e-05,3670026,0.00499689,0.00950088,0.0516239,396809,0.0,0.0,0.0
952404233,3670026,-0.00319393,-0.00352741,1.94376e-05,3670026,0.00354846,0.0106384,0.0495195,396809,0.0,0.0,0.0
953397587,3670026,-0.0032445,-0.00358091,-5.22904e-05,3670026,0.00455993,0.0115315,0.0481299,396809,0.0,0.0,0.0
954400551,3670026,-0.00323456,-0.00358645,-7.98299e-05,3670026,0.00452598,0.0109235,0.0481206,396809,0.0,0.0,0.0
955398709,3670026,-0.00326108,-0.00359378,-9.7219e-05,3670026,0.00492381,0.00956821,0.0494223,396809,0.0,0.0,0.0
956401835,3670026,-0.00324968,-0.00354945,-0.000114457,3670026,0.00491905,0.00758371,0.0499575,396809,0.0,0.0,0.0
957399994,3670026,-0.00327854,-0.00351814,-0.000132788,3670026,0.00410198,0.00521308,0.049724,396809,0.0,0.0,0.0
958398156,3670026,-0.00329711,-0.00352014,-0.000146467,3670026,0.00353724,0.00496126,0.0498543,396809,0.0,0.0,0.0
959401279,3670026,-0.00326479,-0.00349924,-0.000159689,3670026,0.00306834,0.00561054,0.0502787,396809,0.0,0.0,0.0
960399547,3670026,-0.00327079,-0.00349478,-0.000174144,3670026,0.00313821,0.00547494,0.050423,396809,0.0,0.0,0.0
961397620,3670026,-0.00327632,-0.00346013,-0.00018538,3670026,0.00273457,0.0058276,0.0500924,396809,0.0,0.0,0.0
962400722,3670026,-0.00327382,-0.00344104,-0.000196235,3670026,0.00260687,0.00595606,0.0510427,396809,0.0,0.0,0.0
963398881,3670026,-0.00327306,-0.00344536,-0.00020881,3670026,0.00275428,0.00609327,0.0523091,396809,0.0,0.0,0.0
964397041,3670026,-0.00329986,-0.00344117,-0.000219662,3670026,0.00257219,0.00621378,0.0525059,396809,0.0,0.0,0.0
965400166,3670026,-0.00329701,-0.0034413,-0.000225009,3670026,0.00264322,0.00616824,0.0525297,396809,0.0,0.0,0.0
966403292,3670026,-0.00327292,-0.00340973,-0.000232501,3670026,0.00293264,0.00633893,0.052016,396809,0.0,0.0,0.0
967401599,3670026,-0.00325595,-0.0034121,-0.000238606,3670026,0.00305516,0.00620805,0.0520812,396809,0.0,0.0,0.0
968404590,3670026,-0.00326667,-0.003447,-0.000247175,3670026,0.00312197,0.00608354,0.0525399,396809,0.0,0.0,0.0
969402744,3670026,-0.00326355,-0.00344478,-0.000247732,3670026,0.00297601,0.00600003,0.0529069,396809,0.0,0.0,0.0
970400900,3670026,-0.00325113,-0.0034564,-0.000245938,3670026,0.0029622,0.00579508,0.0517039,396809,0.0,0.0,0.0
971399056,3670026,-0.00323867,-0.00346946,-0.000248901,3670026,0.00309422,0.00567415,0.0514065,396809,0.0,0.0,0.0
972397216,3670026,-0.00324975,-0.00350338,-0.000250314,3670026,0.00291964,0.0055004,0.0515625,396809,0.0,0.0,0.0
973400340,3670026,-0.00323785,-0.00350145,-0.000254883,3670026,0.00291053,0.00543964,0.0519718,396809,0.0,0.0,0.0
974398617,3670026,-0.0032431,-0.0035111,-0.00025755,3670026,0.00293115,0.00543517,0.0515961,396809,0.0,0.0,0.0
975396660,3670026,-0.00326968,-0.00352767,-0.000259698,3670026,0.00284413,0.00546595,0.0512696,396809,0.0,0.0,0.0
976399785,3670026,-0.00324982,-0.00353732,-0.000260774,3670026,0.00281837,0.00532975,0.051567,396809,0.0,0.0,0.0
977397970,3670026,-0.00323856,-0.00353902,-0.000258746,3670026,0.00282574,0.00526872,0.0511317,396809,0.0,0.0,0.0
978396105,3670026,-0.00324686,-0.00352661,-0.000257352,3670026,0.00284092,0.00534384,0.0503885,396809,0.0,0.0,0.0
979399236,3670026,-0.00324441,-0.00352596,-0.000252483,3670026,0.00277281,0.00529979,0.0501976,396809,0.0,0.0,0.0
980402356,3670026,-0.00323803,-0.00350796,-0.000250378,3670026,0.00288817,0.00538737,0.0503866,396809,0.0,0.0,0.0
981395645,3670026,-0.00322125,-0.00349846,-0.00024841,3670026,0.00302873,0.0054127,0.0516685,396809,0.0,0.0,0.0
982398675,3670026,-0.00322065,-0.00348513,-0.00024133,3670026,0.00296077,0.00540348,0.0508621,396809,0.0,0.0,0.0
983401801,3670026,-0.00322124,-0.00348528,-0.000240642,3670026,0.00300687,0.00542317,0.0512452,396809,0.0,0.0,0.0
984394998,3670026,-0.00321895,-0.00349818,-0.000235831,3670026,0.00293363,0.00537148,0.0501834,396809,0.0,0.0,0.0
985398160,3670026,-0.00324459,-0.0035023,-0.000233368,3670026,0.00292667,0.0054392,0.0499871,396809,0.0,0.0,0.0
986406216,3670026,-0.00325451,-0.00350472,-0.000228993,3670026,0.00290868,0.00545093,0.0511713,396809,0.0,0.0,0.0
987399407,3670026,-0.00327129,-0.00349465,-0.000222102,3670026,0.00282931,0.00547593,0.0509169,396809,0.0,0.0,0.0
988397674,3670026,-0.00327221,-0.00349266,-0.000217966,3670026,0.00284186,0.00548961,0.0500651,396809,0.0,0.0,0.0
989405660,3670026,-0.00328963,-0.00350333,-0.000218287,3670026,0.00280801,0.00550766,0.0505413,396809,0.0,0.0,0.0
990398854,3670026,-0.00325849,-0.0034776,-0.00021951,3670026,0.00285231,0.00548836,0.0504785,396809,0.0,0.0,0.0
991397014,3670026,-0.00325423,-0.00348682,-0.000221439,3670026,0.00287091,0.00548308,0.0506778,396809,0.0,0.0,0.0
992405107,3670026,-0.00326021,-0.00350304,-0.000219699,3670026,0.00285463,0.00547205,0.0501131,396809,0.0,0.0,0.0
993403267,3670026,-0.00324381,-0.00350439,-0.000218456,3670026,0.00288634,0.00545301,0.0493266,396809,0.0,0.0,0.0
994401427,3670026,-0.00322783,-0.00346793,-0.000216327,3670026,0.00287067,0.00544634,0.0485087,396809,0.0,0.0,0.0
995404693,3670026,-0.00323519,-0.00350796,-0.000214571,3670026,0.00291937,0.00542237,0.0488321,396809,0.0,0.0,0.0
996397748,3670026,-0.00320932,-0.00348564,-0.000208806,3670026,0.00299497,0.00543803,0.0478111,396809,0.0,0.0,0.0
997400875,3670026,-0.00320863,-0.00349255,-0.000207281,3670026,0.00301505,0.00543818,0.0486038,396809,0.0,0.0,0.0
998399035,3670026,-0.00317813,-0.00348891,-0.000202002,3670026,0.0030347,0.00539101,0.049126,396809,0.0,0.0,0.0
999397201,3670026,-0.00315389,-0.00348616,-0.000195907,3670026,0.00307973,0.00538583,0.0490799,396809,0.0,0.0,0.0
1000400328,3670026,-0.00315004,-0.00349959,-0.000187356,3670026,0.00309665,0.00537744,0.0490354,396809,0.0,0.0,0.0
1001398483,3670026,-0.00315638,-0.00348336,-0.000180113,3670026,0.00308561,0.00538627,0.0497583,396809,0.0,0.0,0.0
1002396750,3670026,-0.00318054,-0.00348317,-0.000171657,3670026,0.00308231,0.0053969,0.0501053,396809,0.0,0.0,0.0
1003399771,3670026,-0.00319343,-0.0034696,-0.00016412,3670026,0.00308944,0.0053899,0.0497841,396809,0.0,0.0,0.0
1004397934,3670026,-0.0032167,-0.0034746,-0.000158445,3670026,0.0031106,0.00540948,0.0498303,396809,0.0,0.0,0.0
1005396093,3670026,-0.00324573,-0.00347081,-0.000154182,3670026,0.00312385,0.00543075,0.0497036,396809,0.0,0.0,0.0
1006404268,3670026,-0.00325104,-0.00349059,-0.00014426,3670026,0.00310801,0.00543123,0.0495513,396809,0.0,0.0,0.0
1007397381,3670026,-0.0032493,-0.00349015,-0.000141927,3670026,0.00309516,0.00541006,0.0500766,396809,0.0,0.0,0.0
1008400510,3670026,-0.00326016,-0.0034702,-0.000139701,3670026,0.00307881,0.00541242,0.0499043,396809,0.0,0.0,0.0
1009403778,3670026,-0.00326516,-0.00352245,-0.00013555,3670026,0.00310449,0.00541702,0.0516078,396809,0.0,0.0,0.0
1010396831,3670026,-0.00326318,-0.00349172,-0.000131895,3670026,0.003074,0.00540794,0.0501455,396809,0.0,0.0,0.0
1011399963,3670026,-0.00327873,-0.00348835,-0.000126404,3670026,0.0030564,0.00542139,0.0494128,396809,0.0,0.0,0.0
1012398119,3670026,-0.00330143,-0.00348434,-0.000117218,3670026,0.00305279,0.00544017,0.0503749,396809,0.0,0.0,0.0
1013396309,3670026,-0.00328436,-0.00349243,-0.000109271,3670026,0.00306891,0.00543275,0.0503595,396809,0.0,0.0,0.0
1014399410,3670026,-0.00324023,-0.00349353,-0.000103438,3670026,0.0030701,0.00541657,0.0498897,396809,0.0,0.0,0.0
1015397570,3670026,-0.00322464,-0.00350922,-0.000105159,3670026,0.00306729,0.00542655,0.0496617,396809,0.0,0.0,0.0
1016395835,3670026,-0.00323457,-0.0035079,-0.000101561,3670026,0.00307568,0.00542342,0.050063,396809,0.0,0.0,0.0
1017398859,3670026,-0.00321895,-0.00348785,-9.22387e-05,3670026,0.00306103,0.005397,0.0503229,396809,0.0,0.0,0.0
1018401986,3670026,-0.00321991,-0.00350268,-8.5986e-05,3670026,0.00306864,0.00540429,0.0507071,396809,0.0,0.0,0.0
1019395183,3670026,-0.00322397,-0.00350096,-8.17197e-05,3670026,0.00307258,0.00541427,0.0504549,396809,0.0,0.0,0.0
1020398311,3670026,-0.00323665,-0.0034774,-7.64143e-05,3670026,0.00308793,0.00539072,0.0494811,396809,0.0,0.0,0.0
1021401437,3670026,-0.00325918,-0.00348015,-7.30434e-05,3670026,0.00311511,0.00539684,0.0501011,396809,0.0,0.0,0.0
1022399599,3670026,-0.00325713,-0.00346655,-6.67596e-05,3670026,0.00311078,0.00538323,0.0497923,396809,0.0,0.0,0.0
1023402883,3670026,-0.00327672,-0.00348197,-6.43043e-05,3670026,0.00313313,0.00541845,0.0491466,396809,0.0,0.0,0.0
1024400889,3670026,-0.0032582,-0.00343239,-6.45018e-05,3670026,0.0031111,0.00537671,0.0479779,396809,0.0,0.0,0.0
1025399053,3670026,-0.00327085,-0.00343493,-6.33598e-05,3670026,0.00312759,0.00539839,0.0480261,396809,0.0,0.0,0.0
1026397213,3670026,-0.00328681,-0.00344925,-5.7465e-05,3670026,0.0031335,0.00541184,0.0481692,396809,0.0,0.0,0.0
1027395381,3670026,-0.00329822,-0.00346616,-5.03437e-05,3670026,0.00312722,0.00541492,0.0477388,396809,0.0,0.0,0.0
1028398503,3670026,-0.00330341,-0.00347027,-4.3612e-05,3670026,0.00309002,0.00539369,0.0477792,396809,0.0,0.0,0.0
1029406597,3670026,-0.00333106,-0.003503,-3.7953e-05,3670026,0.00304113,0.00536381,0.0482941,396809,0.0,0.0,0.0
1030394935,3670026,-0.00331725,-0.00349905,-3.34726e-05,3670026,0.0030778,0.00538485,0.0489217,396809,0.0,0.0,0.0
1031397957,3670026,-0.00329886,-0.00347602,-3.22917e-05,3670026,0.0030721,0.00539134,0.0489618,396809,0.0,0.0,0.0
1032401093,3670026,-0.00331152,-0.0034789,-2.78459e-05,3670026,0.00307852,0.0054175,0.0493175,396809,0.0,0.0,0.0
1033404214,3670026,-0.00330208,-0.00348467,-2.12583e-05,3670026,0.00310859,0.00541013,0.0481436,396809,0.0,0.0,0.0
1034397412,3670026,-0.00328629,-0.0034754,-1.88846e-05,3670026,0.00310177,0.00538247,0.0483518,396809,0.0,0.0,0.0
1035400538,3670026,-0.00327931,-0.00347552,-1.70969e-05,3670026,0.0030962,0.00536968,0.0483255,396809,0.0,0.0,0.0
1036398701,3670026,-0.00329983,-0.00348765,-1.18218e-05,3670026,0.00311758,0.00541129,0.0491536,396809,0.0,0.0,0.0
1037396980,3670026,-0.00328361,-0.00348315,-9.72205e-06,3670026,0.00310679,0.00538882,0.0484924,396809,0.0,0.0,0.0
1038399994,3670026,-0.00327897,-0.00345833,-7.66273e-06,3670026,0.00309842,0.00536131,0.0478179,396809,0.0,0.0,0.0
1039403123,3670026,-0.0033051,-0.00347321,-3.37602e-08,3670026,0.00314164,0.00538781,0.0489253,396809,0.0,0.0,0.0
1040396318,3670026,-0.00329596,-0.00349257,3.78971e-06,3670026,0.00314592,0.00540787,0.0495677,396809,0.0,0.0,0.0
1041399448,3670026,-0.0032426,-0.00349026,7.14883e-06,3670026,0.00307377,0.00539866,0.049333,396809,0.0,0.0,0.0
1042402575,3670026,-0.00327688,-0.00348385,7.27884e-06,3670026,0.00313235,0.00538041,0.0493417,396809,0.0,0.0,0.0
1043405752,3670026,-0.00326491,-0.00347192,1.19349e-05,3670026,0.00310398,0.00535505,0.0495234,396809,0.0,0.0,0.0
1044404018,3670026,-0.00328353,-0.00346611,2.01449e-05,3670026,0.00310728,0.00534827,0.0485968,396809,0.0,0.0,0.0
1045402031,3670026,-0.00327621,-0.00346012,3.05484e-05,3670026,0.00307454,0.00531918,0.0471866,396809,0.0,0.0,0.0
1046400200,3670026,-0.00324589,-0.00349505,3.46306e-05,3670026,0.00309367,0.00535767,0.0460188,396809,0.0,0.0,0.0
1047398358,3670026,-0.00326603,-0.00351008,4.00588e-05,3670026,0.00309376,0.00536496,0.0455726,396809,0.0,0.0,0.0
1048401505,3670026,-0.00327445,-0.00346182,4.6104e-05,3670026,0.0030788,0.00530696,0.0468755,396809,0.0,0.0,0.0
1049399650,3670026,-0.00328617,-0.00346885,5.41284e-05,3670026,0.00310567,0.0053168,0.0474398,396809,0.0,0.0,0.0
1050397814,3670026,-0.00332538,-0.00345606,6.07389e-05,3670026,0.00307616,0.00534647,0.0479321,396809,0.0,0.0,0.0
1051396099,3670026,-0.00332637,-0.00348578,6.63769e-05,3670026,0.00306689,0.00532987,0.0471364,396809,0.0,0.0,0.0
1052399112,3670026,-0.00331836,-0.00356386,7.35552e-05,3670026,0.00301169,0.00541224,0.0438945,396809,0.0,0.0,0.0
1053402236,3670026,-0.00333325,-0.0035336,7.37087e-05,3670026,0.00301115,0.00541531,0.0420579,396809,0.0,0.0,0.0
1054395434,3670026,-0.00334527,-0.00345977,6.78439e-05,3670026,0.00322189,0.00536229,0.0435614,396809,0.0,0.0,0.0
1055398565,3670026,-0.00331773,-0.0033566,4.56657e-05,3670026,0.00372894,0.00472357,0.0408491,396809,0.0,0.0,0.0
1056396728,3670026,-0.00335344,-0.0034422,5.64929e-05,3670026,0.00357691,0.0050545,0.0436893,396809,0.0,0.0,0.0
1057404823,3670026,-0.0033676,-0.00345388,6.93044e-05,3670026,0.00373017,0.00500276,0.0444048,396809,0.0,0.0,0.0
1058398161,3670026,-0.00338476,-0.00343301,6.61577e-05,3670026,0.00379049,0.00460101,0.0433863,396809,0.0,0.0,0.0
1059401154,3670026,-0.00340005,-0.00346826,6.17244e-05,3670026,0.0041534,0.00448957,0.0445809,396809,0.0,0.0,0.0
1060399316,3670026,-0.00343191,-0.003532,5.76835e-05,3670026,0.00435299,0.00446883,0.0444638,396809,0.0,0.0,0.0
1061397485,3670026,-0.00341279,-0.00351612,4.79081e-05,3670026,0.00425562,0.004473,0.0465061,396809,0.0,0.0,0.0
1062400605,3670026,-0.00339959,-0.00348601,4.09676e-05,3670026,0.00420809,0.00445586,0.0480193,396809,0.0,0.0,0.0
1063398775,3670026,-0.00341569,-0.00349617,2.74185e-05,3670026,0.00415862,0.00449288,0.049746,396809,0.0,0.0,0.0
1064406871,3670026,-0.00339286,-0.00346977,2.42201e-05,3670026,0.00411681,0.00442201,0.0508171,396809,0.0,0.0,0.0
1065400215,3670026,-0.00337183,-0.00343219,1.77792e-05,3670026,0.00410418,0.00435899,0.0509778,396809,0.0,0.0,0.0
1066398235,3670026,-0.00339671,-0.00345065,1.68837e-05,3670026,0.00414729,0.00436646,0.051029,396809,0.0,0.0,0.0
1067406331,3670026,-0.00345006,-0.00340481,7.07939e-06,3670026,0.00418687,0.00435967,0.0508173,396809,0.0,0.0,0.0
1068399573,3670026,-0.00343336,-0.00341421,-2.13024e-06,3670026,0.00420095,0.00434547,0.0507613,396809,0.0,0.0,0.0
1069402697,3670026,-0.00339732,-0.00339874,-1.02185e-05,3670026,0.00421298,0.00430156,0.0499716,396809,0.0,0.0,0.0
1070405792,3670026,-0.00337587,-0.00340633,-1.68632e-05,3670026,0.00436021,0.00435153,0.0484564,396809,0.0,0.0,0.0
1071403959,3670026,-0.00334626,-0.00345693,-1.96868e-05,3670026,0.00442779,0.00423588,0.0484913,396809,0.0,0.0,0.0
1072397282,3670026,-0.00337995,-0.00341824,-2.36339e-05,3670026,0.00433136,0.004292,0.0478661,396809,0.0,0.0,0.0
1073400287,3670026,-0.00334756,-0.00336831,-2.70264e-05,3670026,0.00434061,0.00422733,0.0475219,396809,0.0,0.0,0.0
1074398452,3670026,-0.00338,-0.00337474,-3.73622e-05,3670026,0.00439245,0.00425089,0.0469047,396809,0.0,0.0,0.0
1075401583,3670026,-0.00342431,-0.00334911,-2.32744e-05,3670026,0.00447749,0.00425267,0.0457643,396809,0.0,0.0,0.0
1076399812,3670026,-0.00343421,-0.00336348,-2.78465e-05,3670026,0.00442754,0.00424716,0.0469391,396809,0.0,0.0,0.0
1077397914,3670026,-0.00343119,-0.00335398,-2.52378e-05,3670026,0.00445022,0.00427463,0.0474622,396809,0.0,0.0,0.0
1078406017,3670026,-0.0034512,-0.00333383,-2.87146e-05,3670026,0.0044072,0.00432312,0.0471612,396809,0.0,0.0,0.0
1079399351,3670026,-0.00345939,-0.00333733,-3.14702e-05,3670026,0.00437026,0.00433848,0.0461751,396809,0.0,0.0,0.0
1080397393,3670026,-0.0034269,-0.00336017,-4.14725e-05,3670026,0.00433519,0.00435813,0.0451119,396809,0.0,0.0,0.0
1081405474,3670026,-0.003425,-0.00334249,-4.46273e-05,3670026,0.00435487,0.00436296,0.0454584,396809,0.0,0.0,0.0
1082398674,3670026,-0.00340623,-0.0033198,-4.83255e-05,3670026,0.00435357,0.00432295,0.0464261,396809,0.0,0.0,0.0
1083401891,3670026,-0.00341375,-0.00331393,-5.00402e-05,3670026,0.00433289,0.00428663,0.0470383,396809,0.0,0.0,0.0
1084399971,3670026,-0.00345286,-0.00334432,-5.07218e-05,3670026,0.00435847,0.00423185,0.0483819,396809,0.0,0.0,0.0
1085398137,3670026,-0.00346284,-0.0033445,-4.05335e-05,3670026,0.0043618,0.00423508,0.0485513,396809,0.0,0.0,0.0
1086401422,3670026,-0.00343928,-0.00332332,-3.18654e-05,3670026,0.00433055,0.00420474,0.0480667,396809,0.0,0.0,0.0
