timestamp,gyro_device_id,gyro_bias[0],gyro_bias[1],gyro_bias[2],accel_device_id,accel_bias[0],accel_bias[1],accel_bias[2],mag_device_id,mag_bias[0],mag_bias[1],mag_bias[2]
99736394,3670026,-0.00640819,-0.00582253,0.000422764,3670026,-0.0110889,-0.0296952,0.0725074,396809,0.0,0.0,0.0
99746323,3670026,-0.0064084,-0.00582272,0.000422778,3670026,-0.0110892,-0.0296962,0.0725098,396809,0.0,0.0,0.0
100734566,3670026,-0.00639308,-0.00577077,0.000287765,3670026,-0.0110383,-0.02956,0.0724752,396809,0.0,0.0,0.0
101732764,3670026,-0.00640388,-0.00575647,0.000140231,3670026,-0.0110391,-0.029562,0.0739129,396809,0.0,0.0,0.0
102735884,3670026,-0.0064122,-0.00573515,1.80672e-05,3670026,-0.0110333,-0.0295464,0.0740211,396809,0.0,0.0,0.0
103739026,3670026,-0.0064058,-0.00567985,4.27511e-05,3670026,-0.0110066,-0.0294751,0.0718031,396809,0.0,0.0,0.0
104732265,3670026,-0.0064532,-0.00568515,6.74396e-05,3670026,-0.0110808,-0.0296736,0.0713675,396809,0.0,0.0,0.0
105735382,3670026,-0.00642127,-0.00562684,9.16319e-05,3670026,-0.0110393,-0.0295625,0.0698226,396809,0.0,0.0,0.0
106733560,3670026,-0.00643853,-0.00561749,0.000113808,3670026,-0.0110667,-0.0296361,0.0719227,396809,0.0,0.0,0.0
107731742,3670026,-0.00645144,-0.00557446,0.000127968,3670026,-0.011074,-0.0296554,0.0718636,396809,0.0,0.0,0.0
108734885,3670026,-0.00642198,-0.00551092,0.000144591,3670026,-0.0110204,-0.029512,0.071379,396809,0.0,0.0,0.0
109738073,3670026,-0.00642068,-0.00546599,0.000164844,3670026,-0.012033,-0.0293277,0.0721613,396809,0.0,0.0,0.0
110736213,3670026,-0.00644171,-0.00544263,0.000180449,3670026,-0.0153614,-0.0297285,0.0717242,396809,0.0,0.0,0.0
111734421,3670026,-0.00645793,-0.00542405,0.000188479,3670026,-0.0178758,-0.0310892,0.0713345,396809,0.0,0.0,0.0
112742508,3670026,-0.0064797,-0.00541543,0.000193836,3670026,-0.0202608,-0.0322636,0.0714925,396809,0.0,0.0,0.0
113735725,3670026,-0.00645962,-0.00537727,0.000199391,3670026,-0.0222466,-0.0326219,0.0698265,396809,0.0,0.0,0.0
114733911,3670026,-0.00647564,-0.00537422,0.000198143,3670026,-0.0238471,-0.0326728,0.0702063,396809,0.0,0.0,0.0
115732093,3670026,-0.00648563,-0.00535528,0.000199053,3670026,-0.0252082,-0.0332647,0.0703248,396809,0.0,0.0,0.0
116735303,3670026,-0.00647047,-0.00531347,0.000196995,3670026,-0.0260248,-0.0334756,0.0703188,396809,0.0,0.0,0.0
117733427,3670026,-0.00647819,-0.00529651,0.000196525,3670026,-0.0264157,-0.0337138,0.0719322,396809,0.0,0.0,0.0
118731636,3670026,-0.00649034,-0.00527416,0.000193642,3670026,-0.0263733,-0.0338065,0.0725772,396809,0.0,0.0,0.0
119734765,3670026,-0.00650691,-0.00525568,0.000199719,3670026,-0.0261396,-0.0338049,0.0739257,396809,0.0,0.0,0.0
120737923,3670026,-0.00650675,-0.00522102,0.000214494,3670026,-0.0255761,-0.0336525,0.0757642,396809,0.0,0.0,0.0
121736106,3670026,-0.00651088,-0.00517952,0.000226714,3670026,-0.0248179,-0.0333406,0.075488,396809,0.0,0.0,0.0
122734293,3670026,-0.00649965,-0.00514648,0.000243304,3670026,-0.024067,-0.0337035,0.0758825,396809,0.0,0.0,0.0
123737448,3670026,-0.00649612,-0.00510816,0.000252918,3670026,-0.0230708,-0.0342162,0.0727353,396809,0.0,0.0,0.0
124735638,3670026,-0.00646245,-0.00507038,0.000286632,3670026,-0.0223891,-0.0345172,0.0741969,396809,0.0,0.0,0.0
125733903,3670026,-0.00650851,-0.00505152,0.000373627,3670026,-0.02168,-0.0340533,0.0745587,396809,0.0,0.0,0.0
126736984,3670026,-0.00650893,-0.00499991,0.000439157,3670026,-0.0205744,-0.0344785,0.0707922,396809,0.0,0.0,0.0
127735175,3670026,-0.00650112,-0.00497731,0.000440158,3670026,-0.0207769,-0.0349156,0.0734375,396809,0.0,0.0,0.0
128733370,3670026,-0.00652356,-0.00498465,0.000444169,3670026,-0.0202107,-0.0365288,0.0784234,396809,0.0,0.0,0.0
129741491,3670026,-0.00652853,-0.00497854,0.000446787,3670026,-0.0231833,-0.0376501,0.0826231,396809,0.0,0.0,0.0
130734718,3670026,-0.00651357,-0.00495927,0.00044273,3670026,-0.02496,-0.0368656,0.0817159,396809,0.0,0.0,0.0
131737878,3670026,-0.00653172,-0.00495862,0.000440322,3670026,-0.0268934,-0.0363993,0.0813039,396809,0.0,0.0,0.0
132741098,3670026,-0.00654948,-0.00494976,0.000437942,3670026,-0.027887,-0.0367026,0.0817226,396809,0.0,0.0,0.0
133734267,3670026,-0.00652606,-0.0049134,0.000435001,3670026,-0.0281505,-0.0365574,0.0812622,396809,0.0,0.0,0.0
134737429,3670026,-0.00651553,-0.0048788,0.000431542,3670026,-0.028151,-0.0365562,0.0796582,396809,0.0,0.0,0.0
135735624,3670026,-0.00649641,-0.00482166,0.000428747,3670026,-0.0276224,-0.0368096,0.0797038,396809,0.0,0.0,0.0
136733820,3670026,-0.00647476,-0.00475434,0.0004249,3670026,-0.0269045,-0.0370425,0.0795316,396809,0.0,0.0,0.0
137736983,3670026,-0.00652133,-0.004711,0.000421945,3670026,-0.0263536,-0.0366693,0.0774041,396809,0.0,0.0,0.0
138740148,3670026,-0.00647119,-0.00468685,0.000416183,3670026,-0.0262716,-0.0366471,0.0791027,396809,0.0,0.0,0.0
139733408,3670026,-0.00656813,-0.0047274,0.000418989,3670026,-0.026353,-0.036345,0.0855839,396809,0.0,0.0,0.0
140741512,3670026,-0.00656982,-0.00467802,0.000412803,3670026,-0.0257453,-0.0367195,0.0826687,396809,0.0,0.0,0.0
141739709,3670026,-0.00651438,-0.00458783,0.000403111,3670026,-0.024712,-0.0367544,0.0814715,396809,0.0,0.0,0.0
142733185,3670026,-0.0065417,-0.00455851,0.000397214,3670026,-0.0243884,-0.0367936,0.0762218,396809,0.0,0.0,0.0
143741076,3670026,-0.00654115,-0.00451277,0.000395535,3670026,-0.0237379,-0.0368641,0.0794135,396809,0.0,0.0,0.0
144734311,3670026,-0.00655537,-0.00448331,0.000395849,3670026,-0.023414,-0.0366664,0.0816257,396809,0.0,0.0,0.0
145737479,3670026,-0.00658011,-0.00442052,0.000400146,3670026,-0.0228726,-0.0362646,0.0820016,396809,0.0,0.0,0.0
146740754,3670026,-0.00659009,-0.00435343,0.000399752,3670026,-0.0222356,-0.036335,0.0796586,396809,0.0,0.0,0.0
147733885,3670026,-0.00656769,-0.00429599,0.000406653,3670026,-0.0217766,-0.0361782,0.0797826,396809,0.0,0.0,0.0
148737056,3670026,-0.006582,-0.00424843,0.000420736,3670026,-0.0214006,-0.0358933,0.0793149,396809,0.0,0.0,0.0
149735257,3670026,-0.00659738,-0.0042572,0.000431802,3670026,-0.0214367,-0.0359895,0.0788765,396809,0.0,0.0,0.0
150733462,3670026,-0.00660265,-0.00425587,0.000442684,3670026,-0.0214095,-0.0359945,0.0799632,396809,0.0,0.0,0.0
151736633,3670026,-0.00660291,-0.00423231,0.000455041,3670026,-0.0212564,-0.0359812,0.0801869,396809,0.0,0.0,0.0
152734839,3670026,-0.00658064,-0.00420798,0.000460046,3670026,-0.0211013,-0.03602,0.080633,396809,0.0,0.0,0.0
153733063,3670026,-0.00658352,-0.00418432,0.000475652,3670026,-0.0209418,-0.0361495,0.0826868,396809,0.0,0.0,0.0
154736221,3670026,-0.00656774,-0.00413976,0.000488865,3670026,-0.020671,-0.0361974,0.0800306,396809,0.0,0.0,0.0
155739391,3670026,-0.00655438,-0.0041196,0.000493512,3670026,-0.0205507,-0.0362532,0.0810387,396809,0.0,0.0,0.0
156732636,3670026,-0.00657473,-0.00410974,0.000507034,3670026,-0.0205245,-0.0363222,0.0847824,396809,0.0,0.0,0.0
157740774,3670026,-0.00659901,-0.0040784,0.0005188,3670026,-0.0203913,-0.0362301,0.087671,396809,0.0,0.0,0.0
158738980,3670026,-0.00655061,-0.00404832,0.000539006,3670026,-0.0202523,-0.036281,0.0865045,396809,0.0,0.0,0.0
159737195,3670026,-0.00654509,-0.0040247,0.000536245,3670026,-0.0201131,-0.0361845,0.0846566,396809,0.0,0.0,0.0
160740473,3670026,-0.00655504,-0.00403327,0.000542333,3670026,-0.0202239,-0.036521,0.0877484,396809,0.0,0.0,0.0
161733646,3670026,-0.0065603,-0.00401742,0.000540811,3670026,-0.0201787,-0.0364992,0.0875839,396809,0.0,0.0,0.0
162736798,3670026,-0.00654921,-0.00397671,0.000537892,3670026,-0.0200852,-0.0364425,0.0866063,396809,0.0,0.0,0.0
163735003,3670026,-0.00655866,-0.00394926,0.000538886,3670026,-0.0200162,-0.0363704,0.0853402,396809,0.0,0.0,0.0
164733216,3670026,-0.00660047,-0.00389593,0.000555838,3670026,-0.019915,-0.0363299,0.0891955,396809,0.0,0.0,0.0
165736395,3670026,-0.00657811,-0.00384373,0.000570118,3670026,-0.0195531,-0.0362988,0.0892502,396809,0.0,0.0,0.0
166734605,3670026,-0.00652687,-0.00377263,0.000572184,3670026,-0.0191224,-0.0364449,0.0868305,396809,0.0,0.0,0.0
167732945,3670026,-0.00652986,-0.00376084,0.000580757,3670026,-0.0191102,-0.0365383,0.0866163,396809,0.0,0.0,0.0
168740971,3670026,-0.00654653,-0.00374978,0.00059037,3670026,-0.0190764,-0.0364939,0.0874819,396809,0.0,0.0,0.0
169739224,3670026,-0.00652059,-0.00370931,0.000598061,3670026,-0.0189595,-0.0364497,0.0861071,396809,0.0,0.0,0.0
170737401,3670026,-0.00651349,-0.00369401,0.000604643,3670026,-0.0189068,-0.0364041,0.0860046,396809,0.0,0.0,0.0
171735617,3670026,-0.00651991,-0.00369749,0.00061241,3670026,-0.0189222,-0.0364461,0.0886464,396809,0.0,0.0,0.0
172738800,3670026,-0.00655427,-0.00369518,0.000613865,3670026,-0.0189407,-0.0365284,0.0914618,396809,0.0,0.0,0.0
173737017,3670026,-0.00658935,-0.00368078,0.000618205,3670026,-0.0189764,-0.0366535,0.0921816,396809,0.0,0.0,0.0
174735267,3670026,-0.00659666,-0.00364414,0.000617466,3670026,-0.0188996,-0.0365879,0.088617,396809,0.0,0.0,0.0
175733454,3670026,-0.00662193,-0.00363982,0.000616939,3670026,-0.0189749,-0.0367689,0.088828,396809,0.0,0.0,0.0
176736656,3670026,-0.00659753,-0.00360287,0.000620278,3670026,-0.0187843,-0.03649,0.089359,396809,0.0,0.0,0.0
177734890,3670026,-0.00660459,-0.00355783,0.000624583,3670026,-0.0186773,-0.0366442,0.0874532,396809,0.0,0.0,0.0
178733079,3670026,-0.00660652,-0.0035141,0.000640828,3670026,-0.0185219,-0.0365622,0.0883646,396809,0.0,0.0,0.0
179736268,3670026,-0.00656972,-0.00348317,0.000641347,3670026,-0.0183928,-0.0365101,0.087612,396809,0.0,0.0,0.0
180734487,3670026,-0.00658269,-0.00345536,0.000646606,3670026,-0.0183444,-0.036566,0.0889338,396809,0.0,0.0,0.0
181732769,3670026,-0.00657893,-0.00342246,0.000659649,3670026,-0.018319,-0.0365953,0.0898279,396809,0.0,0.0,0.0
182735897,3670026,-0.00653356,-0.00335164,0.000657719,3670026,-0.0182727,-0.0365164,0.0880751,396809,0.0,0.0,0.0
183739086,3670026,-0.00649037,-0.00335844,0.000657582,3670026,-0.0181748,-0.0363902,0.0899888,396809,0.0,0.0,0.0
184732536,3670026,-0.00650757,-0.00337631,0.000668018,3670026,-0.0182768,-0.0366048,0.0910948,396809,0.0,0.0,0.0
185740499,3670026,-0.00650828,-0.00335163,0.00066238,3670026,-0.018265,-0.0365913,0.0927752,396809,0.0,0.0,0.0
186738724,3670026,-0.00648111,-0.00331188,0.000657877,3670026,-0.0181662,-0.0364173,0.0941508,396809,0.0,0.0,0.0
187736962,3670026,-0.00647682,-0.00329833,0.00065934,3670026,-0.0181596,-0.0363873,0.0928777,396809,0.0,0.0,0.0
188740250,3670026,-0.00650582,-0.0032902,0.00067244,3670026,-0.0182806,-0.0366249,0.0911598,396809,0.0,0.0,0.0
189733402,3670026,-0.00649649,-0.003265,0.000677008,3670026,-0.0182823,-0.0366269,0.0887479,396809,0.0,0.0,0.0
190736595,3670026,-0.0064697,-0.00319886,0.000673727,3670026,-0.0181253,-0.0363769,0.0878708,396809,0.0,0.0,0.0
191739786,3670026,-0.00648155,-0.00319844,0.000678123,3670026,-0.0181414,-0.0364917,0.0926274,396809,0.0,0.0,0.0
192733047,3670026,-0.00650197,-0.00320339,0.000682558,3670026,-0.0181787,-0.0365722,0.0938141,396809,0.0,0.0,0.0
193736244,3670026,-0.00648566,-0.00314706,0.000684751,3670026,-0.0181026,-0.0364321,0.0949926,396809,0.0,0.0,0.0
194739437,3670026,-0.00647746,-0.00310794,0.000683638,3670026,-0.0181194,-0.036386,0.0970976,396809,0.0,0.0,0.0
195732715,3670026,-0.00650394,-0.00307093,0.000685256,3670026,-0.018279,-0.0365879,0.0953472,396809,0.0,0.0,0.0
196740864,3670026,-0.00653127,-0.00299612,0.000688001,3670026,-0.0182451,-0.036588,0.0927327,396809,0.0,0.0,0.0
197739093,3670026,-0.00653068,-0.00297059,0.000687796,3670026,-0.0181221,-0.0364361,0.0908784,396809,0.0,0.0,0.0
198732603,3670026,-0.00653691,-0.00295451,0.000686081,3670026,-0.0181044,-0.0365567,0.0880816,396809,0.0,0.0,0.0
199735554,3670026,-0.0064947,-0.0029513,0.000684877,3670026,-0.0180581,-0.036377,0.0895764,396809,0.0,0.0,0.0
200738752,3670026,-0.00651037,-0.00291666,0.000685599,3670026,-0.0181734,-0.0364653,0.092076,396809,0.0,0.0,0.0
201736984,3670026,-0.00643758,-0.00288965,0.000677799,3670026,-0.0180904,-0.0364102,0.0943654,396809,0.0,0.0,0.0
202735312,3670026,-0.00647131,-0.00288792,0.000681016,3670026,-0.0181304,-0.0364961,0.0963059,396809,0.0,0.0,0.0
203733450,3670026,-0.00644139,-0.00286219,0.000682407,3670026,-0.0181218,-0.0365014,0.0993864,396809,0.0,0.0,0.0
204736657,3670026,-0.00640696,-0.00284221,0.000693781,3670026,-0.018088,-0.0363787,0.100812,396809,0.0,0.0,0.0
205739850,3670026,-0.00643885,-0.00280728,0.00070932,3670026,-0.0182118,-0.0364911,0.101211,396809,0.0,0.0,0.0
206733121,3670026,-0.00647268,-0.00277977,0.000725991,3670026,-0.0182786,-0.0366063,0.103435,396809,0.0,0.0,0.0
207736319,3670026,-0.00645718,-0.00269992,0.000736838,3670026,-0.0182404,-0.0365723,0.0967031,396809,0.0,0.0,0.0
208734555,3670026,-0.00647743,-0.00265367,0.000755624,3670026,-0.0181268,-0.036593,0.0940951,396809,0.0,0.0,0.0
209732816,3670026,-0.00641565,-0.00265176,0.000772827,3670026,-0.0180472,-0.0368066,0.0967446,396809,0.0,0.0,0.0
210735994,3670026,-0.00641035,-0.00263921,0.000790321,3670026,-0.0179843,-0.0366891,0.0970613,396809,0.0,0.0,0.0
211734231,3670026,-0.00641419,-0.00260288,0.00080862,3670026,-0.0182299,-0.0367034,0.0933429,396809,0.0,0.0,0.0
212737434,3670026,-0.00642181,-0.00261305,0.000822447,3670026,-0.0181276,-0.0367418,0.0939834,396809,0.0,0.0,0.0
213735672,3670026,-0.00642269,-0.00256814,0.000848077,3670026,-0.0182433,-0.0368197,0.0931861,396809,0.0,0.0,0.0
214738877,3670026,-0.006407,-0.00253043,0.000861657,3670026,-0.0181619,-0.0366889,0.0914132,396809,0.0,0.0,0.0
215737115,3670026,-0.00644452,-0.00249747,0.000873908,3670026,-0.018146,-0.0368466,0.0930994,396809,0.0,0.0,0.0
216735450,3670026,-0.00642321,-0.00246351,0.000883471,3670026,-0.0180582,-0.0367161,0.0933743,396809,0.0,0.0,0.0
217738562,3670026,-0.00642116,-0.00247002,0.000896884,3670026,-0.0180275,-0.0366987,0.0937561,396809,0.0,0.0,0.0
218736801,3670026,-0.00646257,-0.00247362,0.000901846,3670026,-0.0179393,-0.0367584,0.0959657,396809,0.0,0.0,0.0
219730266,3670026,-0.00646589,-0.00247109,0.000907772,3670026,-0.0180536,-0.0369732,0.0967686,396809,0.0,0.0,0.0
220733283,3670026,-0.00639374,-0.00240121,0.000905167,3670026,-0.0178683,-0.0369361,0.0924207,396809,0.0,0.0,0.0
221736491,3670026,-0.0063925,-0.0023877,0.000908932,3670026,-0.0178076,-0.0369197,0.0953347,396809,0.0,0.0,0.0
222734734,3670026,-0.00638683,-0.00237024,0.00091146,3670026,-0.0177984,-0.0369438,0.0956198,396809,0.0,0.0,0.0
223733053,3670026,-0.00639,-0.00233787,0.00090597,3670026,-0.0177346,-0.0368585,0.0981509,396809,0.0,0.0,0.0
224736185,3670026,-0.00638709,-0.00231142,0.000906357,3670026,-0.0176625,-0.0367331,0.0975199,396809,0.0,0.0,0.0
225739395,3670026,-0.00637108,-0.00229344,0.000896384,3670026,-0.0176105,-0.0366228,0.0917551,396809,0.0,0.0,0.0
226737639,3670026,-0.00639797,-0.00227598,0.000896122,3670026,-0.0177689,-0.0367706,0.0892473,396809,0.0,0.0,0.0
227735884,3670026,-0.00638156,-0.00232756,0.000879447,3670026,-0.0175449,-0.0366366,0.0909766,396809,0.0,0.0,0.0
228734128,3670026,-0.00640631,-0.00230245,0.000865768,3670026,-0.0176,-0.0368556,0.0926446,396809,0.0,0.0,0.0
229732374,3670026,-0.0064273,-0.00228284,0.000854278,3670026,-0.0175112,-0.0368224,0.0914545,396809,0.0,0.0,0.0
230735681,3670026,-0.00642035,-0.00223163,0.000842063,3670026,-0.0174168,-0.036593,0.0955287,396809,0.0,0.0,0.0
231738800,3670026,-0.00642824,-0.00220714,0.000831846,3670026,-0.0174951,-0.0366624,0.0975472,396809,0.0,0.0,0.0
232732078,3670026,-0.00645395,-0.00218607,0.000820239,3670026,-0.0175603,-0.0367573,0.0997533,396809,0.0,0.0,0.0
233740258,3670026,-0.00638978,-0.002139,0.000802337,3670026,-0.0173765,-0.0365015,0.0983322,396809,0.0,0.0,0.0
234733539,3670026,-0.00643049,-0.00213906,0.000807091,3670026,-0.017511,-0.0367852,0.101122,396809,0.0,0.0,0.0
235736754,3670026,-0.00638727,-0.00209786,0.00080161,3670026,-0.0174107,-0.0366791,0.101069,396809,0.0,0.0,0.0
236735002,3670026,-0.00643186,-0.00209921,0.000798672,3670026,-0.0175287,-0.0368925,0.102976,396809,0.0,0.0,0.0
237733283,3670026,-0.00640877,-0.00207515,0.00079502,3670026,-0.0175092,-0.0367743,0.104154,396809,0.0,0.0,0.0
238736468,3670026,-0.00639752,-0.00205571,0.00078885,3670026,-0.0174768,-0.0367406,0.102298,396809,0.0,0.0,0.0
239734717,3670026,-0.00639637,-0.00202548,0.000782597,3670026,-0.0174019,-0.0369398,0.102696,396809,0.0,0.0,0.0
240737933,3670026,-0.00641225,-0.00203427,0.000784586,3670026,-0.0173412,-0.0368126,0.101683,396809,0.0,0.0,0.0
241736184,3670026,-0.00644375,-0.00202577,0.000778998,3670026,-0.0171291,-0.0367885,0.105762,396809,0.0,0.0,0.0
242734435,3670026,-0.00648674,-0.00201277,0.000774806,3670026,-0.0170926,-0.0370627,0.105766,396809,0.0,0.0,0.0
243732707,3670026,-0.00649703,-0.00199555,0.000768441,3670026,-0.0170649,-0.037146,0.106473,396809,0.0,0.0,0.0
244735958,3670026,-0.00647715,-0.00192692,0.000763935,3670026,-0.0169769,-0.0371576,0.101749,396809,0.0,0.0,0.0
245734221,3670026,-0.00647934,-0.0019111,0.000768281,3670026,-0.0170302,-0.037328,0.101948,396809,0.0,0.0,0.0
246732411,3670026,-0.00645919,-0.00188167,0.000774958,3670026,-0.0169687,-0.0374134,0.100126,396809,0.0,0.0,0.0
247735630,3670026,-0.00644649,-0.0018692,0.000770695,3670026,-0.0168955,-0.0372185,0.100146,396809,0.0,0.0,0.0
248738850,3670026,-0.00646306,-0.00182039,0.000765535,3670026,-0.0169291,-0.0371528,0.100912,396809,0.0,0.0,0.0
249742070,3670026,-0.00653207,-0.00181142,0.000769927,3670026,-0.01709,-0.0374439,0.101551,396809,0.0,0.0,0.0
250735358,3670026,-0.0065306,-0.00178899,0.000768245,3670026,-0.0170993,-0.0374344,0.101926,396809,0.0,0.0,0.0
251733654,3670026,-0.00652115,-0.00176307,0.000776244,3670026,-0.0170561,-0.0373331,0.10138,396809,0.0,0.0,0.0
252736835,3670026,-0.00651643,-0.00177457,0.000783653,3670026,-0.0170606,-0.0374078,0.101615,396809,0.0,0.0,0.0
253740058,3670026,-0.00654832,-0.00173256,0.0007907,3670026,-0.0170544,-0.0373239,0.100889,396809,0.0,0.0,0.0
254738366,3670026,-0.00648882,-0.00171727,0.000787962,3670026,-0.0169736,-0.0372423,0.101096,396809,0.0,0.0,0.0
255736571,3670026,-0.00646874,-0.001673,0.000795478,3670026,-0.0169922,-0.037296,0.0990507,396809,0.0,0.0,0.0
256734828,3670026,-0.00652127,-0.00165725,0.000810071,3670026,-0.0171118,-0.0374424,0.0991735,396809,0.0,0.0,0.0
257738055,3670026,-0.00648858,-0.00161289,0.000819819,3670026,-0.0169135,-0.0370875,0.0992971,396809,0.0,0.0,0.0
258736376,3670026,-0.0065176,-0.00159436,0.000835272,3670026,-0.0169272,-0.0372202,0.100414,396809,0.0,0.0,0.0
259734621,3670026,-0.00657773,-0.00160714,0.000848282,3670026,-0.0168936,-0.0371414,0.106584,396809,0.0,0.0,0.0
260732833,3670026,-0.00652936,-0.00161956,0.000860528,3670026,-0.0167847,-0.0368864,0.107376,396809,0.0,0.0,0.0
261736054,3670026,-0.00652051,-0.00157546,0.000866967,3670026,-0.0169124,-0.0368078,0.107677,396809,0.0,0.0,0.0
262734314,3670026,-0.00654033,-0.00154721,0.000874146,3670026,-0.0170551,-0.0369415,0.102717,396809,0.0,0.0,0.0
263742508,3670026,-0.00651433,-0.00154295,0.000879088,3670026,-0.0170217,-0.036987,0.102912,396809,0.0,0.0,0.0
264735802,3670026,-0.00648486,-0.00150219,0.000876356,3670026,-0.0168849,-0.036891,0.103784,396809,0.0,0.0,0.0
265734117,3670026,-0.00647647,-0.00146899,0.000871662,3670026,-0.0168459,-0.0370449,0.102761,396809,0.0,0.0,0.0
266742258,3670026,-0.00645751,-0.00142188,0.000859768,3670026,-0.0168976,-0.0370048,0.101201,396809,0.0,0.0,0.0
267735553,3670026,-0.00646051,-0.00142037,0.000854213,3670026,-0.0168623,-0.036927,0.102653,396809,0.0,0.0,0.0
268738782,3670026,-0.00649361,-0.00139462,0.000842304,3670026,-0.0168195,-0.0367456,0.101198,396809,0.0,0.0,0.0
269742013,3670026,-0.00654872,-0.00136371,0.000832433,3670026,-0.0169518,-0.0369483,0.101793,396809,0.0,0.0,0.0
270740275,3670026,-0.00654438,-0.00134876,0.000814197,3670026,-0.0167431,-0.0369194,0.101086,396809,0.0,0.0,0.0
271738539,3670026,-0.00654319,-0.00133584,0.000826932,3670026,-0.0169667,-0.0366082,0.103155,396809,0.0,0.0,0.0
272736875,3670026,-0.00655164,-0.0013301,0.00086293,3670026,-0.017213,-0.0362107,0.102698,396809,0.0,0.0,0.0
273735090,3670026,-0.00661489,-0.00133335,0.000890241,3670026,-0.0167195,-0.0364096,0.103807,396809,0.0,0.0,0.0
274738301,3670026,-0.0065926,-0.001342,0.000901503,3670026,-0.0168271,-0.035755,0.103696,396809,0.0,0.0,0.0
275736565,3670026,-0.00659029,-0.00133845,0.000910364,3670026,-0.0175804,-0.0363941,0.106009,396809,0.0,0.0,0.0
276734831,3670026,-0.0066156,-0.00135679,0.000912599,3670026,-0.0178738,-0.0365142,0.108559,396809,0.0,0.0,0.0
277733097,3670026,-0.00669399,-0.00139374,0.000924144,3670026,-0.0170558,-0.0364196,0.107795,396809,0.0,0.0,0.0
278736331,3670026,-0.00671795,-0.00140821,0.000930509,3670026,-0.0153474,-0.0369545,0.104852,396809,0.0,0.0,0.0
279734699,3670026,-0.00675903,-0.00141263,0.000930131,3670026,-0.0155462,-0.0380039,0.102866,396809,0.0,0.0,0.0
280737832,3670026,-0.00677192,-0.00142385,0.000923465,3670026,-0.0151445,-0.037987,0.104067,396809,0.0,0.0,0.0
281736102,3670026,-0.00673299,-0.00139505,0.000921345,3670026,-0.0156005,-0.0382142,0.103778,396809,0.0,0.0,0.0
282734370,3670026,-0.00674899,-0.00139746,0.000910742,3670026,-0.0155479,-0.038522,0.0956321,396809,0.0,0.0,0.0
283732638,3670026,-0.0067249,-0.00139881,0.000899939,3670026,-0.0154548,-0.0384148,0.0997973,396809,0.0,0.0,0.0
284735876,3670026,-0.00672579,-0.00136831,0.000884503,3670026,-0.0151388,-0.0381772,0.100889,396809,0.0,0.0,0.0
285734144,3670026,-0.006721,-0.00131023,0.000872993,3670026,-0.0148806,-0.0377109,0.104243,396809,0.0,0.0,0.0
286732476,3670026,-0.00669509,-0.00125931,0.000868994,3670026,-0.0145162,-0.037686,0.105475,396809,0.0,0.0,0.0
287735659,3670026,-0.00670547,-0.00124539,0.000859631,3670026,-0.01461,-0.0375235,0.105881,396809,0.0,0.0,0.0
288738894,3670026,-0.00668922,-0.00121418,0.000850948,3670026,-0.0145008,-0.0373934,0.104624,396809,0.0,0.0,0.0
289732257,3670026,-0.00666325,-0.0011993,0.00082584,3670026,-0.0140305,-0.0370385,0.104201,396809,0.0,0.0,0.0
290740402,3670026,-0.00665386,-0.00120372,0.000829303,3670026,-0.013648,-0.037129,0.103433,396809,0.0,0.0,0.0
291738672,3670026,-0.00663103,-0.00116477,0.000851024,3670026,-0.0135442,-0.0370973,0.108768,396809,0.0,0.0,0.0
292736945,3670026,-0.0066142,-0.00112275,0.000880311,3670026,-0.0134504,-0.0368169,0.106527,396809,0.0,0.0,0.0
293740396,3670026,-0.00664469,-0.00109387,0.000931923,3670026,-0.0134573,-0.03671,0.103237,396809,0.0,0.0,0.0
294733492,3670026,-0.00662474,-0.00101132,0.000974017,3670026,-0.0131527,-0.0360745,0.103863,396809,0.0,0.0,0.0
295736781,3670026,-0.00659813,-0.00101807,0.00100511,3670026,-0.0129943,-0.0358804,0.103433,396809,0.0,0.0,0.0
296735053,3670026,-0.00662871,-0.000986034,0.0010342,3670026,-0.0130451,-0.0356263,0.103051,396809,0.0,0.0,0.0
297733282,3670026,-0.00664066,-0.000977908,0.00106023,3670026,-0.0130516,-0.0354934,0.102512,396809,0.0,0.0,0.0
298736545,3670026,-0.0066694,-0.000931342,0.00106717,3670026,-0.0132369,-0.0350703,0.0982066,396809,0.0,0.0,0.0
299734799,3670026,-0.00665565,-0.000934913,0.00106336,3670026,-0.0131675,-0.0350733,0.10164,396809,0.0,0.0,0.0
300733144,3670026,-0.00661159,-0.000931396,0.00106788,3670026,-0.0126282,-0.0348936,0.0975454,396809,0.0,0.0,0.0
301736319,3670026,-0.00659484,-0.000884625,0.00109508,3670026,-0.0124091,-0.0342909,0.101311,396809,0.0,0.0,0.0
302734595,3670026,-0.00656138,-0.000850067,0.00110263,3670026,-0.0120765,-0.0338965,0.101494,396809,0.0,0.0,0.0
303732873,3670026,-0.00654843,-0.00086901,0.00105753,3670026,-0.0123648,-0.0340024,0.0976312,396809,0.0,0.0,0.0
304736117,3670026,-0.00663465,-0.000822841,0.000953288,3670026,-0.0127899,-0.0334409,0.101131,396809,0.0,0.0,0.0
305734395,3670026,-0.00662133,-0.00073756,0.000740917,3670026,-0.0111643,-0.0305934,0.104907,396809,0.0,0.0,0.0
306732674,3670026,-0.00665048,-0.000726712,0.000671743,3670026,-0.00799776,-0.0292782,0.108601,396809,0.0,0.0,0.0
307740989,3670026,-0.00666236,-0.000722146,0.000663219,3670026,-0.00696872,-0.0282337,0.111715,396809,0.0,0.0,0.0
308734204,3670026,-0.00669143,-0.000798791,0.00065086,3670026,-0.00598863,-0.0212822,0.105903,396809,0.0,0.0,0.0
309737461,3670026,-0.00673692,-0.000758213,0.000663216,3670026,-0.00557881,-0.0222674,0.10361,396809,0.0,0.0,0.0
310740692,3670026,-0.00679816,-0.000711922,0.000687191,3670026,-0.00442365,-0.023702,0.105604,396809,0.0,0.0,0.0
311734008,3670026,-0.00671355,-0.000710486,0.000707117,3670026,-0.00662547,-0.0216725,0.1038,396809,0.0,0.0,0.0
312737250,3670026,-0.00671704,-0.000618218,0.000885512,3670026,-0.00413438,-0.0198702,0.107868,396809,0.0,0.0,0.0
313735535,3670026,-0.00669829,-0.000591016,0.00109784,3670026,-0.00142594,-0.0167635,0.105843,396809,0.0,0.0,0.0
314733892,3670026,-0.00670346,-0.000602176,0.00118432,3670026,-0.000567074,-0.0146622,0.106506,396809,0.0,0.0,0.0
315737066,3670026,-0.00672837,-0.000590125,0.00122283,3670026,-0.000667974,-0.0146453,0.108498,396809,0.0,0.0,0.0
316735349,3670026,-0.00672238,-0.000560117,0.00125864,3670026,-0.00114702,-0.0147013,0.105885,396809,0.0,0.0,0.0
317733632,3670026,-0.00675436,-0.000560932,0.00130542,3670026,-0.00148196,-0.0147875,0.106409,396809,0.0,0.0,0.0
318741848,3670026,-0.00673282,-0.000566966,0.00131458,3670026,-0.00129421,-0.0148463,0.104101,396809,0.0,0.0,0.0
319740134,3670026,-0.00672059,-0.000561826,0.00133409,3670026,-0.0015022,-0.0147828,0.104708,396809,0.0,0.0,0.0
320733462,3670026,-0.0067548,-0.000558677,0.00136053,3670026,-0.00186472,-0.0147395,0.104347,396809,0.0,0.0,0.0
321736793,3670026,-0.00668919,-0.000552582,0.00137943,3670026,-0.00132454,-0.0146034,0.102404,396809,0.0,0.0,0.0
322734987,3670026,-0.00669444,-0.000536378,0.00141933,3670026,-0.00137495,-0.0142694,0.103694,396809,0.0,0.0,0.0
323733273,3670026,-0.00668288,-0.000507739,0.00144757,3670026,-0.00114241,-0.0137631,0.105575,396809,0.0,0.0,0.0
324731559,3670026,-0.00668349,-0.000458299,0.00148726,3670026,-0.00124795,-0.0129293,0.106084,396809,0.0,0.0,0.0
325734812,3670026,-0.00664586,-0.000419054,0.00153337,3670026,-0.00136069,-0.0122393,0.108403,396809,0.0,0.0,0.0
326738065,3670026,-0.00661877,-0.000386733,0.00157787,3670026,-0.00125348,-0.0117757,0.106502,396809,0.0,0.0,0.0
327731386,3670026,-0.00671831,-0.000389912,0.00162659,3670026,-0.00203544,-0.0116979,0.109828,396809,0.0,0.0,0.0
328734724,3670026,-0.00667494,-0.000367429,0.00166217,3670026,-0.00202515,-0.0114158,0.108713,396809,0.0,0.0,0.0
329737895,3670026,-0.00665517,-0.000359802,0.00170648,3670026,-0.00192827,-0.0112347,0.108422,396809,0.0,0.0,0.0
330736183,3670026,-0.00668463,-0.000257378,0.00178877,3670026,-0.00111152,-0.00759736,0.106289,396809,0.0,0.0,0.0
331734472,3670026,-0.00672958,-0.000192303,0.00184451,3670026,-0.000685731,-0.00608976,0.10796,396809,0.0,0.0,0.0
332732763,3670026,-0.00671527,-0.00018891,0.00184605,3670026,-0.000733749,-0.00558764,0.103584,396809,0.0,0.0,0.0
333736018,3670026,-0.00668705,-0.000188135,0.00183664,3670026,-0.000777652,-0.00551528,0.102799,396809,0.0,0.0,0.0
334734307,3670026,-0.00668984,-0.000194434,0.00183554,3670026,-0.000727813,-0.00547517,0.106144,396809,0.0,0.0,0.0
335732728,3670026,-0.00668589,-0.000194934,0.00182435,3670026,-0.000634363,-0.00549237,0.108589,396809,0.0,0.0,0.0
336735855,3670026,-0.00664011,-0.000241714,0.00180795,3670026,-0.000465021,-0.00560149,0.10596,396809,0.0,0.0,0.0
337734147,3670026,-0.0066151,-0.000235552,0.00179493,3670026,-0.000175276,-0.00561123,0.10537,396809,0.0,0.0,0.0
338737451,3670026,-0.00656045,-0.000177818,0.00175325,3670026,0.000317434,-0.00526219,0.101711,396809,0.0,0.0,0.0
339735697,3670026,-0.00656661,-0.000106161,0.00172592,3670026,0.000426988,-0.00471518,0.101767,396809,0.0,0.0,0.0
340733989,3670026,-0.00663195,-7.57432e-05,0.00171237,3670026,7.04402e-05,-0.004489,0.103099,396809,0.0,0.0,0.0
341732282,3670026,-0.00666162,-7.76258e-05,0.00168836,3670026,8.33057e-05,-0.00449886,0.104132,396809,0.0,0.0,0.0
342740654,3670026,-0.00661316,-5.00574e-05,0.00166633,3670026,0.000499417,-0.004313,0.105198,396809,0.0,0.0,0.0
343738802,3670026,-0.00664646,-4.57653e-05,0.00165217,3670026,0.000266485,-0.00415602,0.106114,396809,0.0,0.0,0.0
344737098,3670026,-0.00671972,-3.47033e-05,0.00164091,3670026,7.76544e-05,-0.00397691,0.105307,396809,0.0,0.0,0.0
345735390,3670026,-0.00671482,-7.13342e-06,0.0016233,3670026,0.000200629,-0.00377887,0.103023,396809,0.0,0.0,0.0
346738659,3670026,-0.00671553,2.9437e-06,0.00158958,3670026,6.10421e-06,-0.00377446,0.09865,396809,0.0,0.0,0.0
347736947,3670026,-0.00674056,1.31823e-05,0.00156775,3670026,9.88895e-05,-0.00373328,0.0990674,396809,0.0,0.0,0.0
348735243,3670026,-0.00677678,2.12695e-05,0.00155267,3670026,0.000177265,-0.00371094,0.099942,396809,0.0,0.0,0.0
349733626,3670026,-0.00675101,3.04525e-05,0.00153295,3670026,0.000173912,-0.00366921,0.103288,396809,0.0,0.0,0.0
350741767,3670026,-0.00669842,4.67085e-05,0.00151371,3670026,0.000251787,-0.00357894,0.102778,396809,0.0,0.0,0.0
351735113,3670026,-0.00673352,6.8342e-05,0.00150434,3670026,0.000370678,-0.0035104,0.105041,396809,0.0,0.0,0.0
352733394,3670026,-0.00666949,0.000130481,0.00147383,3670026,0.000569989,-0.00312004,0.105722,396809,0.0,0.0,0.0
353736658,3670026,-0.00661292,0.000166699,0.00145767,3670026,0.000701104,-0.00288322,0.104476,396809,0.0,0.0,0.0
354734956,3670026,-0.00665679,0.000180932,0.00144869,3670026,0.000668658,-0.00282599,0.105657,396809,0.0,0.0,0.0
355733254,3670026,-0.00665389,0.00014397,0.00142503,3670026,0.000677811,-0.00296208,0.106466,396809,0.0,0.0,0.0
356731698,3670026,-0.00665872,0.000164456,0.00142465,3670026,0.000682529,-0.00291271,0.10885,396809,0.0,0.0,0.0
357734818,3670026,-0.00666205,0.000190688,0.00141775,3670026,0.00065514,-0.00282958,0.107302,396809,0.0,0.0,0.0
358733117,3670026,-0.00668281,0.00021933,0.00141398,3670026,0.000669551,-0.00278439,0.108724,396809,0.0,0.0,0.0
359736383,3670026,-0.00670599,0.000267964,0.0014012,3670026,0.00062455,-0.00271269,0.107394,396809,0.0,0.0,0.0
360734683,3670026,-0.00672743,0.000286099,0.00138179,3670026,0.000590132,-0.00270018,0.108342,396809,0.0,0.0,0.0
361737950,3670026,-0.00670368,0.000304739,0.00133677,3670026,0.000653709,-0.00265686,0.109457,396809,0.0,0.0,0.0
362731283,3670026,-0.00668981,0.000327231,0.0013136,3670026,0.000776082,-0.00264042,0.109734,396809,0.0,0.0,0.0
363734634,3670026,-0.00664712,0.000319091,0.00129636,3670026,0.000804302,-0.0026376,0.10732,396809,0.0,0.0,0.0
364737819,3670026,-0.00665509,0.000315712,0.00128309,3670026,0.000767894,-0.00260497,0.107525,396809,0.0,0.0,0.0
365736121,3670026,-0.0067075,0.000337892,0.00128669,3670026,0.000782971,-0.00255669,0.105963,396809,0.0,0.0,0.0
366734423,3670026,-0.00673748,0.000373323,0.00127348,3670026,0.000736999,-0.00253247,0.104971,396809,0.0,0.0,0.0
367737692,3670026,-0.00674949,0.000374485,0.00124055,3670026,0.000659574,-0.00259463,0.107555,396809,0.0,0.0,0.0
368735994,3670026,-0.00677641,0.000405328,0.00123061,3670026,0.000662753,-0.0025372,0.106011,396809,0.0,0.0,0.0
369734318,3670026,-0.00678265,0.000390955,0.00122418,3670026,0.000657687,-0.0025989,0.104958,396809,0.0,0.0,0.0
370732679,3670026,-0.00676166,0.000409137,0.00121074,3670026,0.000671602,-0.00257244,0.105128,396809,0.0,0.0,0.0
371740838,3670026,-0.00672356,0.000418923,0.00118859,3670026,0.000691295,-0.00252642,0.105989,396809,0.0,0.0,0.0
372734175,3670026,-0.00676458,0.000443934,0.00118063,3670026,0.000739245,-0.00252916,0.106683,396809,0.0,0.0,0.0
373737446,3670026,-0.00669532,0.000476247,0.00114344,3670026,0.000746649,-0.00251823,0.102935,396809,0.0,0.0,0.0
374735758,3670026,-0.00665601,0.000477398,0.00111642,3670026,0.000799354,-0.00252968,0.105763,396809,0.0,0.0,0.0
375734056,3670026,-0.00671146,0.000504313,0.00109966,3670026,0.000714767,-0.00254017,0.10749,396809,0.0,0.0,0.0
376732361,3670026,-0.00672066,0.000538905,0.0010818,3670026,0.000636955,-0.00250234,0.107606,396809,0.0,0.0,0.0
377735727,3670026,-0.0067211,0.000555035,0.00106901,3670026,0.000588563,-0.00250916,0.108591,396809,0.0,0.0,0.0
378733940,3670026,-0.00675318,0.000562665,0.00106791,3670026,0.000593055,-0.00252006,0.107428,396809,0.0,0.0,0.0
379732247,3670026,-0.00676704,0.00057827,0.00105849,3670026,0.000606972,-0.00253107,0.108087,396809,0.0,0.0,0.0
380735520,3670026,-0.00673824,0.000590092,0.0010443,3670026,0.000610956,-0.00247933,0.109775,396809,0.0,0.0,0.0
381738796,3670026,-0.00666687,0.000650672,0.00103363,3670026,0.000831687,-0.00253304,0.103686,396809,0.0,0.0,0.0
382742068,3670026,-0.00673664,0.000653204,0.00103741,3670026,0.000781056,-0.00252319,0.106423,396809,0.0,0.0,0.0
383735410,3670026,-0.00676483,0.000680654,0.00103642,3670026,0.000683668,-0.00250567,0.109703,396809,0.0,0.0,0.0
384733851,3670026,-0.00677756,0.000649521,0.00102947,3670026,0.00074586,-0.0026554,0.106345,396809,0.0,0.0,0.0
385736994,3670026,-0.00674105,0.000682277,0.00104544,3670026,0.000872124,-0.00261169,0.106986,396809,0.0,0.0,0.0
386735301,3670026,-0.00671016,0.000719954,0.00105542,3670026,0.000978556,-0.0027036,0.10266,396809,0.0,0.0,0.0
387733610,3670026,-0.0067123,0.000754311,0.00106788,3670026,0.00100755,-0.00261996,0.104978,396809,0.0,0.0,0.0
388736912,3670026,-0.00668546,0.000795697,0.0010656,3670026,0.000970874,-0.00264488,0.107807,396809,0.0,0.0,0.0
389735202,3670026,-0.00673951,0.000781438,0.00107649,3670026,0.00115585,-0.00260255,0.105924,396809,0.0,0.0,0.0
390733515,3670026,-0.00674777,0.000823082,0.00108692,3670026,0.00107463,-0.00133086,0.107607,396809,0.0,0.0,0.0
391736883,3670026,-0.00677706,0.000813124,0.00103046,3670026,0.000320515,-0.00102412,0.109921,396809,0.0,0.0,0.0
392735096,3670026,-0.00677837,0.000810474,0.000995891,3670026,-0.000199358,-0.000112339,0.11516,396809,0.0,0.0,0.0
393733414,3670026,-0.0067926,0.000804305,0.000983623,3670026,-0.000225695,-0.000125426,0.11582,396809,0.0,0.0,0.0
394736685,3670026,-0.00671585,0.000778776,0.000968816,3670026,0.000223724,7.96224e-05,0.115861,396809,0.0,0.0,0.0
395734997,3670026,-0.00671647,0.000758895,0.00096247,3670026,0.000540867,9.50011e-05,0.110803,396809,0.0,0.0,0.0
396733309,3670026,-0.00669943,0.000787847,0.000962469,3670026,0.000564088,0.000275634,0.108354,396809,0.0,0.0,0.0
397736588,3670026,-0.00666946,0.000812447,0.000953777,3670026,0.000571612,0.000348169,0.111071,396809,0.0,0.0,0.0
398735004,3670026,-0.00672378,0.000855919,0.000944516,3670026,0.00062907,0.000357082,0.112518,396809,0.0,0.0,0.0
399733215,3670026,-0.0067378,0.000873961,0.000938561,3670026,0.000680102,0.00037872,0.113826,396809,0.0,0.0,0.0
400736495,3670026,-0.00673671,0.000893531,0.000940873,3670026,0.000656063,0.000340021,0.112945,396809,0.0,0.0,0.0
401739775,3670026,-0.00675796,0.000913658,0.000940944,3670026,0.000736957,0.000313761,0.111664,396809,0.0,0.0,0.0
402738090,3670026,-0.00672873,0.000919002,0.000933356,3670026,0.000704816,0.000295336,0.109946,396809,0.0,0.0,0.0
403741371,3670026,-0.00677148,0.000935793,0.000938266,3670026,0.000730959,0.00028077,0.111274,396809,0.0,0.0,0.0
404734761,3670026,-0.00675105,0.000953694,0.00092858,3670026,0.000728703,0.00026695,0.111204,396809,0.0,0.0,0.0
405738179,3670026,-0.00672913,0.000968967,0.000929008,3670026,0.000712173,0.000232228,0.109462,396809,0.0,0.0,0.0
406736317,3670026,-0.00678781,0.000993464,0.000934613,3670026,0.000716266,0.000198799,0.111151,396809,0.0,0.0,0.0
407734633,3670026,-0.00677233,0.000990416,0.000934724,3670026,0.000704378,0.000187131,0.111414,396809,0.0,0.0,0.0
408737916,3670026,-0.00676367,0.000987179,0.000934047,3670026,0.000701093,0.000178083,0.109973,396809,0.0,0.0,0.0
409736234,3670026,-0.00676346,0.00101101,0.000934749,3670026,0.000716769,0.000195206,0.107097,396809,0.0,0.0,0.0
410734549,3670026,-0.00682531,0.00106292,0.000938267,3670026,0.00070468,0.000223596,0.104708,396809,0.0,0.0,0.0
411732930,3670026,-0.00680309,0.00105718,0.000936745,3670026,0.000712434,0.00022804,0.106267,396809,0.0,0.0,0.0
412736261,3670026,-0.00682817,0.00106009,0.000927048,3670026,0.000734711,0.000295217,0.107783,396809,0.0,0.0,0.0
413734469,3670026,-0.00684521,0.00107107,0.000925558,3670026,0.000747776,0.000306197,0.107255,396809,0.0,0.0,0.0
414732787,3670026,-0.00685845,0.00108659,0.000934794,3670026,0.000739302,0.00032003,0.11013,396809,0.0,0.0,0.0
415736072,3670026,-0.00682724,0.00110487,0.000932901,3670026,0.000724657,0.000305709,0.110007,396809,0.0,0.0,0.0
416734391,3670026,-0.00683004,0.00111922,0.000927946,3670026,0.000743546,0.000287407,0.11073,396809,0.0,0.0,0.0
417737693,3670026,-0.00683984,0.00111501,0.000925364,3670026,0.000696406,0.000254304,0.106418,396809,0.0,0.0,0.0
418731032,3670026,-0.00680355,0.00113715,0.000918102,3670026,0.000723748,0.000282847,0.108435,396809,0.0,0.0,0.0
419734413,3670026,-0.00683575,0.00116421,0.000913048,3670026,0.000722945,0.000316721,0.110237,396809,0.0,0.0,0.0
420732637,3670026,-0.00682991,0.00114557,0.000911799,3670026,0.000728667,0.000277548,0.107987,396809,0.0,0.0,0.0
421735924,3670026,-0.00683723,0.00114076,0.00090958,3670026,0.000724762,0.000261102,0.110076,396809,0.0,0.0,0.0
422739211,3670026,-0.00683635,0.00112343,0.000918322,3670026,0.000705997,0.000247371,0.108869,396809,0.0,0.0,0.0
423732566,3670026,-0.0068753,0.00115082,0.000927934,3670026,0.000730586,0.00021112,0.110194,396809,0.0,0.0,0.0
424735855,3670026,-0.00686412,0.00116706,0.00093912,3670026,0.000681084,0.000203952,0.108271,396809,0.0,0.0,0.0
425739142,3670026,-0.00686217,0.00116866,0.000935118,3670026,0.000713903,0.000184787,0.108904,396809,0.0,0.0,0.0
426737637,3670026,-0.00682467,0.00117994,0.000934618,3670026,0.000712901,0.00015088,0.10791,396809,0.0,0.0,0.0
427740754,3670026,-0.00686645,0.00121976,0.000954075,3670026,0.000900017,0.000601848,0.109408,396809,0.0,0.0,0.0
428739076,3670026,-0.00682457,0.00122993,0.000993227,3670026,0.00132449,0.00165943,0.109032,396809,0.0,0.0,0.0
429737399,3670026,-0.00683993,0.00122763,0.00102338,3670026,0.00161956,0.00301904,0.107208,396809,0.0,0.0,0.0
430735723,3670026,-0.00685917,0.00123719,0.00104836,3670026,0.00161459,0.00344395,0.106644,396809,0.0,0.0,0.0
431734053,3670026,-0.00691304,0.00124848,0.00105093,3670026,0.00201516,0.00274045,0.107404,396809,0.0,0.0,0.0
432737336,3670026,-0.00691693,0.00123237,0.00105515,3670026,0.00201066,0.00246193,0.108896,396809,0.0,0.0,0.0
433735777,3670026,-0.00692367,0.00128004,0.00108283,3670026,0.000919241,7.90372e-05,0.107525,396809,0.0,0.0,0.0
434733985,3670026,-0.00694419,0.00132704,0.00108396,3670026,0.000855363,-0.00229198,0.110252,396809,0.0,0.0,0.0
435737276,3670026,-0.00697311,0.00134455,0.0010852,3670026,0.00122514,-0.00319066,0.11221,396809,0.0,0.0,0.0
436735601,3670026,-0.00699568,0.00139758,0.00108351,3670026,0.000847459,-0.0047286,0.112162,396809,0.0,0.0,0.0
437733926,3670026,-0.00701146,0.00129162,0.00107535,3670026,-0.000420572,-0.00332135,0.117943,396809,0.0,0.0,0.0
438742273,3670026,-0.0069793,0.0012619,0.00112713,3670026,-0.00247121,-0.0021502,0.111911,396809,0.0,0.0,0.0
439735545,3670026,-0.00698146,0.00132539,0.00114738,3670026,-0.00337576,-0.00219578,0.106131,396809,0.0,0.0,0.0
440734005,3670026,-0.00694879,0.00136554,0.0011601,3670026,-0.00371763,-0.0021764,0.10566,396809,0.0,0.0,0.0
441737164,3670026,-0.00695557,0.00138203,0.00115507,3670026,-0.00399488,-0.00224306,0.106198,396809,0.0,0.0,0.0
442735529,3670026,-0.00697358,0.00132515,0.00115653,3670026,-0.00358662,-0.00267578,0.10685,396809,0.0,0.0,0.0
443733817,3670026,-0.00698173,0.00140198,0.00115417,3670026,-0.00364862,-0.00196308,0.111104,396809,0.0,0.0,0.0
444732144,3670026,-0.00693123,0.00144333,0.00112927,3670026,-0.00324806,-0.00142728,0.104682,396809,0.0,0.0,0.0
445735438,3670026,-0.00689984,0.00145491,0.00110362,3670026,-0.00315417,-0.0012061,0.10467,396809,0.0,0.0,0.0
446733771,3670026,-0.00689664,0.00142519,0.00108002,3670026,-0.00315609,-0.00125557,0.109018,396809,0.0,0.0,0.0
447732272,3670026,-0.00693904,0.00144558,0.00107362,3670026,-0.00322155,-0.000979658,0.109329,396809,0.0,0.0,0.0
448735388,3670026,-0.00687703,0.00146032,0.00105024,3670026,-0.00300604,-0.000823131,0.110199,396809,0.0,0.0,0.0
449733716,3670026,-0.00692994,0.00145095,0.00104591,3670026,-0.00313513,-0.000845156,0.111769,396809,0.0,0.0,0.0
450732045,3670026,-0.00690897,0.001465,0.00103424,3670026,-0.00289172,-0.000720082,0.113533,396809,0.0,0.0,0.0
451735342,3670026,-0.00684713,0.00145793,0.00101849,3670026,-0.0026274,-0.000689837,0.115375,396809,0.0,0.0,0.0
452738639,3670026,-0.00686222,0.00147808,0.00100993,3670026,-0.00255879,-0.000523444,0.116687,396809,0.0,0.0,0.0
453737020,3670026,-0.00685042,0.0015053,0.000973581,3670026,-0.0021457,-0.000536805,0.116015,396809,0.0,0.0,0.0
454735543,3670026,-0.00678584,0.00153008,0.000916004,3670026,-0.000968411,-0.000903763,0.11338,396809,0.0,0.0,0.0
455738592,3670026,-0.00673619,0.00151786,0.000848717,3670026,-0.00143441,-0.00122098,0.111838,396809,0.0,0.0,0.0
456736931,3670026,-0.00681652,0.00154247,0.000786762,3670026,0.00014955,-0.00161517,0.110523,396809,0.0,0.0,0.0
457735253,3670026,-0.00682567,0.00152306,0.000785792,3670026,0.0011453,-0.000715615,0.110671,396809,0.0,0.0,0.0
458733591,3670026,-0.00685553,0.00157314,0.000764472,3670026,0.0019787,-0.00247837,0.109083,396809,0.0,0.0,0.0
459741847,3670026,-0.00689834,0.00156468,0.000742174,3670026,0.00351885,-0.000661499,0.111664,396809,0.0,0.0,0.0
460740179,3670026,-0.00694785,0.00157587,0.000726027,3670026,0.00506415,-0.000796298,0.113412,396809,0.0,0.0,0.0
461733726,3670026,-0.00693047,0.00156571,0.000712752,3670026,0.00540846,-0.000660915,0.113173,396809,0.0,0.0,0.0
462736841,3670026,-0.00694261,0.00154068,0.00071365,3670026,0.00635267,-0.000988384,0.114914,396809,0.0,0.0,0.0
463730255,3670026,-0.00700234,0.0015535,0.000703244,3670026,0.00668587,-0.00166214,0.121024,396809,0.0,0.0,0.0
464738473,3670026,-0.00701936,0.00160704,0.000693968,3670026,0.00627839,-0.00171367,0.120315,396809,0.0,0.0,0.0
465736836,3670026,-0.00699394,0.00158982,0.000678924,3670026,0.00634346,-0.00181516,0.117331,396809,0.0,0.0,0.0
466735138,3670026,-0.00703088,0.00163392,0.00066654,3670026,0.0063039,-0.00173043,0.115809,396809,0.0,0.0,0.0
467738438,3670026,-0.00698152,0.00165141,0.000640829,3670026,0.00639477,-0.00154854,0.113704,396809,0.0,0.0,0.0
468736936,3670026,-0.00694348,0.00166361,0.000650629,3670026,0.00668607,-0.00158008,0.113327,396809,0.0,0.0,0.0
469740073,3670026,-0.00694361,0.00166717,0.00070443,3670026,0.00716266,-0.00194066,0.113499,396809,0.0,0.0,0.0
470738435,3670026,-0.00688733,0.00168223,0.000774851,3670026,0.00763809,-0.00217274,0.113411,396809,0.0,0.0,0.0
471736740,3670026,-0.0068724,0.00170045,0.000864173,3670026,0.00765867,-0.00218819,0.113098,396809,0.0,0.0,0.0
