timestamp,gyro_device_id,gyro_bias[0],gyro_bias[1],gyro_bias[2],accel_device_id,accel_bias[0],accel_bias[1],accel_bias[2],mag_device_id,mag_bias[0],mag_bias[1],mag_bias[2]
17671994,3670026,-0.0139692,-0.00562845,0.01081,3670026,0.0,0.0,0.0747864,396809,0.0,0.0,0.0
17681920,3670026,-0.0139706,-0.00563737,0.0107485,3670026,0.0,0.0,0.0747945,396809,0.0,0.0,0.0
18675388,3670026,-0.0160825,-0.00787199,0.00587557,3670026,0.0,0.0,0.0757495,396809,0.0,0.0,0.0
19673828,3670026,-0.0166768,-0.00897208,0.00173241,3670026,0.0,0.0,0.0766268,396809,0.0,0.0,0.0
20682036,3670026,-0.0168366,-0.00955487,-0.00102976,3670026,0.0,0.0,0.0778516,396809,0.0,0.0,0.0
21675455,3670026,-0.0165487,-0.00957265,-0.00134719,3670026,0.0,0.0,0.0779406,396809,0.0,0.0,0.0
22673899,3670026,-0.0161949,-0.00950115,-0.0015008,3670026,0.0,0.0,0.0786623,396809,0.0,0.0,0.0
23682161,3670026,-0.0160338,-0.00945224,-0.00152474,3670026,0.0,0.0,0.0791215,396809,0.0,0.0,0.0
24675611,3670026,-0.0160386,-0.00945921,-0.00151,3670026,0.0,0.0,0.0799733,396809,0.0,0.0,0.0
25678939,3670026,-0.0159641,-0.00944009,-0.00154188,3670026,-0.0116493,0.0323452,0.0808441,396809,0.0,0.0,0.0
26682471,3670026,-0.0157931,-0.00936618,-0.00174358,3670026,-0.0620936,0.187879,0.0816124,396809,0.0,0.0,0.0
27680682,3670026,-0.0158178,-0.00938416,-0.00169598,3670026,-0.0675732,0.216924,0.0831154,396809,0.0,0.0,0.0
28674101,3670026,-0.0158329,-0.00938671,-0.00158149,3670026,-0.0753432,0.223754,0.0832245,396809,0.0,0.0,0.0
29677457,3670026,-0.0157633,-0.00936929,-0.0014689,3670026,-0.0740974,0.235956,0.0833401,396809,0.0,0.0,0.0
30680862,3670026,-0.0157441,-0.00937736,-0.00139664,3670026,-0.0771082,0.247118,0.0840992,396809,0.0,0.0,0.0
31679202,3670026,-0.0156411,-0.00933535,-0.00134515,3670026,-0.0805459,0.255134,0.0844437,396809,0.0,0.0,0.0
32682558,3670026,-0.0154302,-0.00923822,-0.00133844,3670026,-0.081721,0.259306,0.0852403,396809,0.0,0.0,0.0
33676164,3670026,-0.0151085,-0.00911967,-0.00132753,3670026,-0.0803366,0.257522,0.0858412,396809,0.0,0.0,0.0
34684304,3670026,-0.0148397,-0.00903113,-0.00130656,3670026,-0.0772528,0.251636,0.0866259,396809,0.0,0.0,0.0
35672759,3670026,-0.0145759,-0.00894841,-0.00122483,3670026,-0.0730013,0.242016,0.0882799,396809,0.0,0.0,0.0
36676116,3670026,-0.0142822,-0.0088189,-0.00112143,3670026,-0.0669121,0.229889,0.0892272,396809,0.0,0.0,0.0
37674527,3670026,-0.0140175,-0.00870448,-0.00100811,3670026,-0.0617554,0.218165,0.0894153,396809,0.0,0.0,0.0
38672897,3670026,-0.0138497,-0.00863847,-0.000887032,3670026,-0.0568785,0.208977,0.0901145,396809,0.0,0.0,0.0
39676256,3670026,-0.0136456,-0.00857083,-0.000781648,3670026,-0.0502321,0.198424,0.0913817,396809,0.0,0.0,0.0
40674645,3670026,-0.0134375,-0.00851901,-0.00059549,3670026,-0.0454031,0.187984,0.0908485,396809,0.0,0.0,0.0
41682971,3670026,-0.0132966,-0.00850064,-0.000472331,3670026,-0.040171,0.179384,0.0910174,396809,0.0,0.0,0.0
42676395,3670026,-0.013166,-0.00850652,-0.000333137,3670026,-0.0371599,0.171011,0.0933501,396809,0.0,0.0,0.0
43679754,3670026,-0.0131285,-0.00849436,-0.000229102,3670026,-0.0348604,0.168502,0.0944061,396809,0.0,0.0,0.0
44683199,3670026,-0.0130535,-0.00843559,-0.000227679,3670026,-0.0389937,0.170794,0.0932435,396809,0.0,0.0,0.0
45676536,3670026,-0.0130964,-0.00847538,-0.000234298,3670026,-0.0375017,0.187091,0.0925435,396809,0.0,0.0,0.0
46674928,3670026,-0.013078,-0.00846217,-0.00024379,3670026,-0.0352799,0.189209,0.0943165,396809,0.0,0.0,0.0
47683249,3670026,-0.0130673,-0.00846542,-0.000224536,3670026,-0.0394506,0.186904,0.0912037,396809,0.0,0.0,0.0
48681646,3670026,-0.013093,-0.00848023,-0.00025343,3670026,-0.0379956,0.19013,0.0974166,396809,0.0,0.0,0.0
49675071,3670026,-0.0130761,-0.00845676,-0.000248626,3670026,-0.0403017,0.188838,0.0941029,396809,0.0,0.0,0.0
50673464,3670026,-0.0130268,-0.00845951,-0.000253435,3670026,-0.0408927,0.189138,0.0941028,396809,0.0,0.0,0.0
51681907,3670026,-0.0130185,-0.00843954,-0.000267628,3670026,-0.0405548,0.188639,0.0961064,396809,0.0,0.0,0.0
52675296,3670026,-0.0129584,-0.00840887,-0.000248559,3670026,-0.040707,0.186794,0.095,396809,0.0,0.0,0.0
53673609,3670026,-0.0129226,-0.0083094,-0.000242999,3670026,-0.038775,0.185183,0.0930138,396809,0.0,0.0,0.0
54681936,3670026,-0.0128915,-0.00835281,-0.000221751,3670026,-0.0399936,0.184807,0.0926466,396809,0.0,0.0,0.0
55675362,3670026,-0.0127997,-0.00831584,-0.000208432,3670026,-0.0397642,0.18327,0.0936941,396809,0.0,0.0,0.0
56673756,3670026,-0.0128268,-0.00827744,-0.000160424,3670026,-0.0386386,0.18366,0.0959314,396809,0.0,0.0,0.0
57682083,3670026,-0.0128377,-0.00830544,-0.000175507,3670026,-0.0386972,0.183737,0.0981371,396809,0.0,0.0,0.0
58675620,3670026,-0.0127719,-0.00831835,-0.000108763,3670026,-0.0395488,0.182656,0.0973533,396809,0.0,0.0,0.0
59678871,3670026,-0.0127826,-0.00832421,-8.12971e-05,3670026,-0.0388454,0.181969,0.0976578,396809,0.0,0.0,0.0
60677265,3670026,-0.0126387,-0.00821486,1.27886e-05,3670026,-0.0369254,0.177909,0.0955659,396809,0.0,0.0,0.0
61675659,3670026,-0.0125563,-0.00834075,4.37816e-05,3670026,-0.0408944,0.175321,0.0968884,396809,0.0,0.0,0.0
62679021,3670026,-0.0125846,-0.00833118,7.77968e-05,3670026,-0.0404607,0.175502,0.100107,396809,0.0,0.0,0.0
63677414,3670026,-0.0125307,-0.0082463,0.00012225,3670026,-0.0397995,0.174778,0.0983086,396809,0.0,0.0,0.0
64680775,3670026,-0.012608,-0.00819617,0.000175895,3670026,-0.0395036,0.174948,0.0967079,396809,0.0,0.0,0.0
65674346,3670026,-0.0124994,-0.00817027,0.000230925,3670026,-0.0398539,0.174072,0.0968794,396809,0.0,0.0,0.0
66672597,3670026,-0.0125446,-0.00813162,0.000302285,3670026,-0.0388071,0.174067,0.0963991,396809,0.0,0.0,0.0
67680930,3670026,-0.0125109,-0.00811667,0.000408353,3670026,-0.038911,0.173316,0.0945386,396809,0.0,0.0,0.0
68674354,3670026,-0.0124689,-0.00811386,0.000443792,3670026,-0.0394044,0.172658,0.0964816,396809,0.0,0.0,0.0
69677714,3670026,-0.0124247,-0.00815171,0.000477494,3670026,-0.0405725,0.172515,0.0963042,396809,0.0,0.0,0.0
70676111,3670026,-0.0124984,-0.00812458,0.00051377,3670026,-0.0404011,0.173185,0.0947969,396809,0.0,0.0,0.0
71674559,3670026,-0.0125477,-0.0081222,0.000557578,3670026,-0.0405081,0.173505,0.0956556,396809,0.0,0.0,0.0
72678067,3670026,-0.0126022,-0.00814098,0.000595391,3670026,-0.0407163,0.174114,0.0965524,396809,0.0,0.0,0.0
73676264,3670026,-0.0124554,-0.00805239,0.00059559,3670026,-0.0401555,0.172178,0.0957347,396809,0.0,0.0,0.0
74674659,3670026,-0.0124953,-0.00811002,0.000615189,3670026,-0.0408095,0.172607,0.0962611,396809,0.0,0.0,0.0
75682990,3670026,-0.0124823,-0.00811247,0.000640444,3670026,-0.0409436,0.172404,0.096382,396809,0.0,0.0,0.0
76676489,3670026,-0.0124675,-0.0080914,0.000641662,3670026,-0.0408282,0.17221,0.0965034,396809,0.0,0.0,0.0
77679781,3670026,-0.0125287,-0.00816501,0.0006534,3670026,-0.0414709,0.173404,0.0984017,396809,0.0,0.0,0.0
78678222,3670026,-0.0124827,-0.0081317,0.000661037,3670026,-0.0412223,0.172707,0.0975866,396809,0.0,0.0,0.0
79681540,3670026,-0.0124925,-0.00815575,0.000688629,3670026,-0.0418534,0.173369,0.100516,396809,0.0,0.0,0.0
80679938,3670026,-0.0125141,-0.00810536,0.000688227,3670026,-0.0414984,0.172953,0.09916,396809,0.0,0.0,0.0
81673365,3670026,-0.0125013,-0.00807898,0.000694741,3670026,-0.0411641,0.172467,0.0986451,396809,0.0,0.0,0.0
82676792,3670026,-0.0124786,-0.00805498,0.000707012,3670026,-0.0411108,0.172266,0.0989861,396809,0.0,0.0,0.0
83680159,3670026,-0.0125369,-0.00813351,0.0007098,3670026,-0.0413475,0.173209,0.0997134,396809,0.0,0.0,0.0
84673522,3670026,-0.0125184,-0.00808405,0.000718026,3670026,-0.0412074,0.173048,0.101643,396809,0.0,0.0,0.0
85681861,3670026,-0.0124931,-0.00807909,0.000712193,3670026,-0.0408099,0.172628,0.100226,396809,0.0,0.0,0.0
86675282,3670026,-0.012484,-0.00811291,0.000711598,3670026,-0.0410415,0.172718,0.100238,396809,0.0,0.0,0.0
87673679,3670026,-0.01247,-0.00809398,0.000712175,3670026,-0.0410067,0.172412,0.0999235,396809,0.0,0.0,0.0
88682012,3670026,-0.0124978,-0.00812571,0.000719096,3670026,-0.0411958,0.172775,0.0991406,396809,0.0,0.0,0.0
89675441,3670026,-0.0125646,-0.00815069,0.00071815,3670026,-0.0412342,0.17339,0.0997824,396809,0.0,0.0,0.0
90683889,3670026,-0.0125617,-0.00812513,0.000710722,3670026,-0.0410847,0.173128,0.0992906,396809,0.0,0.0,0.0
91672235,3670026,-0.0126058,-0.00816438,0.00071261,3670026,-0.0413053,0.173811,0.0997687,396809,0.0,0.0,0.0
92675600,3670026,-0.0125289,-0.00809454,0.000709257,3670026,-0.0409342,0.172622,0.100555,396809,0.0,0.0,0.0
93683932,3670026,-0.0125916,-0.00807072,0.000716399,3670026,-0.0409384,0.173006,0.100229,396809,0.0,0.0,0.0
94672398,3670026,-0.0125452,-0.00809875,0.000701176,3670026,-0.0407886,0.173152,0.100322,396809,0.0,0.0,0.0
95675760,3670026,-0.0126102,-0.00810931,0.000696962,3670026,-0.0405872,0.173186,0.101241,396809,0.0,0.0,0.0
96674158,3670026,-0.0125464,-0.00805865,0.000691989,3670026,-0.0408586,0.172597,0.100254,396809,0.0,0.0,0.0
97677692,3670026,-0.0125486,-0.00799823,0.000703773,3670026,-0.0407475,0.171721,0.101418,396809,0.0,0.0,0.0
98680888,3670026,-0.0125902,-0.00804384,0.000717081,3670026,-0.0448428,0.176812,0.102187,396809,0.0,0.0,0.0
99674322,3670026,-0.0125143,-0.00801268,0.00070837,3670026,-0.0438979,0.180876,0.100947,396809,0.0,0.0,0.0
100682653,3670026,-0.0125651,-0.00802538,0.00072296,3670026,-0.0469231,0.179286,0.102493,396809,0.0,0.0,0.0
101681092,3670026,-0.012544,-0.00803229,0.000705611,3670026,-0.042737,0.181343,0.100391,396809,0.0,0.0,0.0
102674482,3670026,-0.0125328,-0.00800649,0.000704372,3670026,-0.0436439,0.176422,0.0993903,396809,0.0,0.0,0.0
103682814,3670026,-0.0125577,-0.00801713,0.000717558,3670026,-0.0452324,0.176961,0.0989293,396809,0.0,0.0,0.0
104681444,3670026,-0.0125713,-0.00797114,0.000748196,3670026,-0.0501098,0.175503,0.0894933,396809,0.0,0.0,0.0
105674646,3670026,-0.0125498,-0.00799002,0.000753292,3670026,-0.049027,0.17515,0.0872669,396809,0.0,0.0,0.0
106682983,3670026,-0.0125391,-0.0080598,0.000768866,3670026,-0.0496361,0.175235,0.0915995,396809,0.0,0.0,0.0
107676410,3670026,-0.0125635,-0.00810581,0.000780977,3670026,-0.0499926,0.176123,0.0970483,396809,0.0,0.0,0.0
108674852,3670026,-0.0124431,-0.00806265,0.000773798,3670026,-0.0490599,0.174249,0.0966629,396809,0.0,0.0,0.0
109673210,3670026,-0.0125025,-0.00810061,0.000780739,3670026,-0.0491134,0.174998,0.0972214,396809,0.0,0.0,0.0
110676574,3670026,-0.0125143,-0.00807408,0.000775973,3670026,-0.0490049,0.175295,0.0966324,396809,0.0,0.0,0.0
111670210,3670026,-0.0125511,-0.00808844,0.00078835,3670026,-0.0491745,0.175875,0.0969247,396809,0.0,0.0,0.0
112673374,3670026,-0.0124872,-0.00803944,0.000783025,3670026,-0.0487223,0.174981,0.0970247,396809,0.0,0.0,0.0
113681707,3670026,-0.012527,-0.00805756,0.000777925,3670026,-0.0487556,0.175563,0.0979646,396809,0.0,0.0,0.0
114680107,3670026,-0.0125242,-0.00805777,0.000784075,3670026,-0.0487201,0.175547,0.0992501,396809,0.0,0.0,0.0
115673606,3670026,-0.0125013,-0.00803726,0.000778698,3670026,-0.0485907,0.175309,0.0999712,396809,0.0,0.0,0.0
116681877,3670026,-0.0125168,-0.00805459,0.000778406,3670026,-0.0486695,0.175504,0.100853,396809,0.0,0.0,0.0
117675307,3670026,-0.0125453,-0.00803252,0.000783562,3670026,-0.0483298,0.175907,0.100699,396809,0.0,0.0,0.0
118683641,3670026,-0.0125584,-0.00799358,0.000790196,3670026,-0.047816,0.17601,0.101115,396809,0.0,0.0,0.0
119677074,3670026,-0.0125344,-0.00792391,0.000806508,3670026,-0.0471626,0.175447,0.100719,396809,0.0,0.0,0.0
120675474,3670026,-0.012615,-0.00797601,0.000819542,3670026,-0.0476129,0.176725,0.100662,396809,0.0,0.0,0.0
121683809,3670026,-0.0126023,-0.00797377,0.000827529,3670026,-0.0473464,0.17655,0.100427,396809,0.0,0.0,0.0
122677294,3670026,-0.0126627,-0.00802696,0.000844453,3670026,-0.0480757,0.177474,0.0987238,396809,0.0,0.0,0.0
123675644,3670026,-0.0125734,-0.00799408,0.000844522,3670026,-0.0475816,0.175774,0.09718,396809,0.0,0.0,0.0
124674042,3670026,-0.0125889,-0.00794629,0.000856979,3670026,-0.0475452,0.176244,0.0961926,396809,0.0,0.0,0.0
125682378,3670026,-0.0125872,-0.00798581,0.000863134,3670026,-0.0473972,0.175843,0.0955346,396809,0.0,0.0,0.0
126675811,3670026,-0.0124751,-0.00797952,0.000865825,3670026,-0.0465704,0.174548,0.0959422,396809,0.0,0.0,0.0
127674232,3670026,-0.0125303,-0.00801888,0.000883361,3670026,-0.0470318,0.175165,0.0972276,396809,0.0,0.0,0.0
128677580,3670026,-0.012564,-0.00805463,0.000886378,3670026,-0.0474793,0.175291,0.0998076,396809,0.0,0.0,0.0
129681046,3670026,-0.012612,-0.00807153,0.000903199,3670026,-0.0477182,0.17558,0.101568,396809,0.0,0.0,0.0
130679352,3670026,-0.0126153,-0.00807539,0.000898946,3670026,-0.0476803,0.175443,0.102343,396809,0.0,0.0,0.0
131682717,3670026,-0.0125797,-0.00802912,0.000900245,3670026,-0.0476103,0.17504,0.103172,396809,0.0,0.0,0.0
132676153,3670026,-0.0125895,-0.00798667,0.000922729,3670026,-0.0476909,0.174806,0.102354,396809,0.0,0.0,0.0
133679519,3670026,-0.0126217,-0.00806981,0.000927527,3670026,-0.0479882,0.175977,0.102492,396809,0.0,0.0,0.0
134682887,3670026,-0.0125706,-0.00805742,0.000939379,3670026,-0.0481722,0.17531,0.100555,396809,0.0,0.0,0.0
135681291,3670026,-0.0125434,-0.00808439,0.000940994,3670026,-0.0484693,0.174873,0.099275,396809,0.0,0.0,0.0
136674831,3670026,-0.0124516,-0.008101,0.000946055,3670026,-0.0482587,0.173445,0.0982368,396809,0.0,0.0,0.0
137673123,3670026,-0.0124346,-0.00808237,0.000943812,3670026,-0.0477573,0.173686,0.0957036,396809,0.0,0.0,0.0
138681455,3670026,-0.012459,-0.00802544,0.000965926,3670026,-0.0476697,0.174492,0.09416,396809,0.0,0.0,0.0
139674893,3670026,-0.0124374,-0.00803428,0.000967145,3670026,-0.0473862,0.173922,0.095788,396809,0.0,0.0,0.0
140673294,3670026,-0.0125074,-0.00813131,0.000988882,3670026,-0.0460486,0.17409,0.101703,396809,0.0,0.0,0.0
141676663,3670026,-0.0125433,-0.00810298,0.00100973,3670026,-0.0465049,0.174033,0.0979767,396809,0.0,0.0,0.0
142675064,3670026,-0.012542,-0.0080808,0.00101211,3670026,-0.0465714,0.173805,0.0972535,396809,0.0,0.0,0.0
143673652,3670026,-0.0123948,-0.00804949,0.00102109,3670026,-0.0469968,0.172316,0.09691,396809,0.0,0.0,0.0
144676835,3670026,-0.0123907,-0.00806029,0.001021,3670026,-0.0468776,0.17223,0.0984658,396809,0.0,0.0,0.0
145680205,3670026,-0.0124962,-0.00811633,0.00102633,3670026,-0.0468777,0.173272,0.100821,396809,0.0,0.0,0.0
146678605,3670026,-0.012531,-0.00807922,0.00101735,3670026,-0.0452461,0.171654,0.10356,396809,0.0,0.0,0.0
147681986,3670026,-0.0125835,-0.00808594,0.00100333,3670026,-0.0453675,0.171783,0.104085,396809,0.0,0.0,0.0
148680376,3670026,-0.0125789,-0.00809589,0.00100997,3670026,-0.0452834,0.171795,0.104175,396809,0.0,0.0,0.0
149683745,3670026,-0.0125408,-0.0080954,0.000994327,3670026,-0.0454986,0.17149,0.103662,396809,0.0,0.0,0.0
150672378,3670026,-0.0125594,-0.00811099,0.000993481,3670026,-0.0456145,0.171616,0.107128,396809,0.0,0.0,0.0
151680548,3670026,-0.0125584,-0.00812074,0.000970624,3670026,-0.0456191,0.171761,0.107442,396809,0.0,0.0,0.0
152673983,3670026,-0.0125889,-0.00812189,0.000942134,3670026,-0.0457769,0.171933,0.10825,396809,0.0,0.0,0.0
153682320,3670026,-0.012629,-0.00810012,0.000932443,3670026,-0.0460198,0.172018,0.109207,396809,0.0,0.0,0.0
154675824,3670026,-0.012495,-0.00802622,0.000908084,3670026,-0.0455704,0.170892,0.105868,396809,0.0,0.0,0.0
155674156,3670026,-0.0125655,-0.00806543,0.000892129,3670026,-0.0458087,0.172125,0.106365,396809,0.0,0.0,0.0
156682496,3670026,-0.0125797,-0.0080556,0.000871905,3670026,-0.0458771,0.172239,0.107849,396809,0.0,0.0,0.0
157675926,3670026,-0.0124951,-0.00797458,0.000850692,3670026,-0.0453977,0.17104,0.107033,396809,0.0,0.0,0.0
158674328,3670026,-0.012509,-0.00796723,0.000842103,3670026,-0.045439,0.171243,0.106219,396809,0.0,0.0,0.0
159682664,3670026,-0.0125573,-0.00799322,0.000839934,3670026,-0.0450887,0.171663,0.105441,396809,0.0,0.0,0.0
160681066,3670026,-0.0125971,-0.00801772,0.00083287,3670026,-0.0449831,0.172078,0.105063,396809,0.0,0.0,0.0
161679586,3670026,-0.0126189,-0.00803052,0.000822972,3670026,-0.0448883,0.17228,0.104564,396809,0.0,0.0,0.0
162677870,3670026,-0.012591,-0.00796987,0.000815287,3670026,-0.0446313,0.171604,0.104043,396809,0.0,0.0,0.0
163676277,3670026,-0.0125686,-0.00800207,0.000820507,3670026,-0.0445377,0.171519,0.1046,396809,0.0,0.0,0.0
164674674,3670026,-0.0125474,-0.00802521,0.000819541,3670026,-0.0444746,0.171571,0.106342,396809,0.0,0.0,0.0
165673075,3670026,-0.0125528,-0.007995,0.000820675,3670026,-0.0442229,0.171972,0.104952,396809,0.0,0.0,0.0
166681412,3670026,-0.0125811,-0.00805698,0.000828782,3670026,-0.0443741,0.172464,0.10534,396809,0.0,0.0,0.0
167674852,3670026,-0.0124608,-0.00801524,0.000817064,3670026,-0.0440719,0.171117,0.107559,396809,0.0,0.0,0.0
168678372,3670026,-0.0125644,-0.00802054,0.000816601,3670026,-0.0443431,0.172227,0.107557,396809,0.0,0.0,0.0
169676617,3670026,-0.0125295,-0.00797808,0.000814912,3670026,-0.0441635,0.171553,0.106399,396809,0.0,0.0,0.0
170675028,3670026,-0.0125202,-0.00797601,0.000830843,3670026,-0.0441738,0.1714,0.104557,396809,0.0,0.0,0.0
171673421,3670026,-0.0126272,-0.00806868,0.00082577,3670026,-0.0444729,0.172282,0.10314,396809,0.0,0.0,0.0
172676790,3670026,-0.0125649,-0.00802169,0.000818856,3670026,-0.0441539,0.17068,0.10325,396809,0.0,0.0,0.0
173675258,3670026,-0.0125778,-0.00807103,0.000837146,3670026,-0.0441664,0.171264,0.105036,396809,0.0,0.0,0.0
174683529,3670026,-0.0125124,-0.00804605,0.000841868,3670026,-0.0444003,0.171728,0.101379,396809,0.0,0.0,0.0
175672165,3670026,-0.0125052,-0.00803535,0.000849929,3670026,-0.0444803,0.171972,0.100647,396809,0.0,0.0,0.0
176675365,3670026,-0.0124688,-0.00805164,0.000858564,3670026,-0.0444322,0.171299,0.102608,396809,0.0,0.0,0.0
177683702,3670026,-0.0124771,-0.0080771,0.000864035,3670026,-0.0445862,0.171385,0.102653,396809,0.0,0.0,0.0
178672169,3670026,-0.0125396,-0.00810206,0.00087035,3670026,-0.044753,0.171761,0.102883,396809,0.0,0.0,0.0
179675556,3670026,-0.0124936,-0.00805188,0.000890999,3670026,-0.0446113,0.170887,0.101858,396809,0.0,0.0,0.0
180673940,3670026,-0.0125458,-0.00809836,0.000901697,3670026,-0.0447704,0.171028,0.10159,396809,0.0,0.0,0.0
181682301,3670026,-0.0126419,-0.00809221,0.000910653,3670026,-0.0451609,0.171451,0.101453,396809,0.0,0.0,0.0
182680886,3670026,-0.0126489,-0.00811518,0.000930639,3670026,-0.0452014,0.17148,0.100819,396809,0.0,0.0,0.0
183674116,3670026,-0.0125865,-0.00809424,0.000946009,3670026,-0.0451489,0.170863,0.0987271,396809,0.0,0.0,0.0
184682450,3670026,-0.0125782,-0.00809428,0.000954676,3670026,-0.0453165,0.17114,0.0980736,396809,0.0,0.0,0.0
185675884,3670026,-0.0125118,-0.00810376,0.00095011,3670026,-0.0451119,0.170658,0.0973766,396809,0.0,0.0,0.0
186679276,3670026,-0.0125915,-0.00816225,0.000969218,3670026,-0.0453849,0.171632,0.0982767,396809,0.0,0.0,0.0
187682670,3670026,-0.0125407,-0.00813244,0.000965436,3670026,-0.0452265,0.170888,0.0983469,396809,0.0,0.0,0.0
188681025,3670026,-0.0125302,-0.00813473,0.000955367,3670026,-0.045022,0.171386,0.0991801,396809,0.0,0.0,0.0
189669644,3670026,-0.0125781,-0.00816064,0.000946035,3670026,-0.0448928,0.171515,0.100029,396809,0.0,0.0,0.0
190677873,3670026,-0.0124432,-0.00808824,0.000917819,3670026,-0.0446836,0.17014,0.0999185,396809,0.0,0.0,0.0
191681202,3670026,-0.0125454,-0.00817673,0.000905108,3670026,-0.0451306,0.17164,0.102289,396809,0.0,0.0,0.0
192674636,3670026,-0.0124633,-0.00814042,0.000884585,3670026,-0.0454176,0.171395,0.103847,396809,0.0,0.0,0.0
193673075,3670026,-0.0124783,-0.00815356,0.000839288,3670026,-0.0452648,0.171099,0.103473,396809,0.0,0.0,0.0
194681374,3670026,-0.012558,-0.00816335,0.000807855,3670026,-0.0454694,0.171114,0.105352,396809,0.0,0.0,0.0
195674809,3670026,-0.0125305,-0.0081368,0.000789509,3670026,-0.0452987,0.170535,0.104351,396809,0.0,0.0,0.0
196678176,3670026,-0.0124902,-0.00810737,0.000769333,3670026,-0.0450452,0.170142,0.101301,396809,0.0,0.0,0.0
197676578,3670026,-0.0125179,-0.00809977,0.000736057,3670026,-0.0450159,0.170621,0.0995427,396809,0.0,0.0,0.0
198675026,3670026,-0.0125636,-0.00811377,0.000742293,3670026,-0.0451606,0.171041,0.0994156,396809,0.0,0.0,0.0
199673425,3670026,-0.0126374,-0.0081236,0.000748084,3670026,-0.0445643,0.171039,0.0984418,396809,0.0,0.0,0.0
200681801,3670026,-0.0125557,-0.00802197,0.000756197,3670026,-0.0452163,0.168243,0.100241,396809,0.0,0.0,0.0
201675154,3670026,-0.0125349,-0.00799164,0.000898865,3670026,-0.0495125,0.168214,0.100541,396809,0.0,0.0,0.0
202683490,3670026,-0.0125669,-0.00794026,0.000940244,3670026,-0.0498792,0.164116,0.100589,396809,0.0,0.0,0.0
203676925,3670026,-0.0126427,-0.00789894,0.00100742,3670026,-0.0400374,0.157806,0.0988232,396809,0.0,0.0,0.0
204680295,3670026,-0.012669,-0.00778854,0.00102744,3670026,-0.0289352,0.132586,0.0991888,396809,0.0,0.0,0.0
205683664,3670026,-0.0126366,-0.0076696,0.00106688,3670026,-0.0199001,0.112165,0.100225,396809,0.0,0.0,0.0
206672146,3670026,-0.0126941,-0.00763054,0.00112247,3670026,-0.0150478,0.0983324,0.101328,396809,0.0,0.0,0.0
207680630,3670026,-0.0127254,-0.00757534,0.00118714,3670026,-0.0154747,0.09003,0.100282,396809,0.0,0.0,0.0
208673906,3670026,-0.0127095,-0.00755874,0.00121757,3670026,-0.013689,0.0881451,0.0996242,396809,0.0,0.0,0.0
209682242,3670026,-0.0128091,-0.00757883,0.00125429,3670026,-0.0120639,0.0854273,0.100806,396809,0.0,0.0,0.0
210675676,3670026,-0.0128608,-0.00759299,0.00129192,3670026,-0.0120079,0.0847097,0.100844,396809,0.0,0.0,0.0
211674078,3670026,-0.012832,-0.00760865,0.00131768,3670026,-0.0117522,0.0834083,0.10036,396809,0.0,0.0,0.0
212682414,3670026,-0.0128727,-0.00760931,0.00136034,3670026,-0.0119447,0.0831797,0.100835,396809,0.0,0.0,0.0
213675850,3670026,-0.0128602,-0.00766855,0.00142798,3670026,-0.0114194,0.0821087,0.100176,396809,0.0,0.0,0.0
214674369,3670026,-0.0128627,-0.00764792,0.00144843,3670026,-0.0118718,0.0818991,0.100552,396809,0.0,0.0,0.0
215682588,3670026,-0.0128647,-0.00765809,0.00143869,3670026,-0.0115926,0.0818562,0.0989348,396809,0.0,0.0,0.0
216676023,3670026,-0.0127945,-0.00772364,0.00140986,3670026,-0.0107356,0.0798056,0.100175,396809,0.0,0.0,0.0
217674427,3670026,-0.0128249,-0.0078018,0.00139522,3670026,-0.00984901,0.0794525,0.102187,396809,0.0,0.0,0.0
218682762,3670026,-0.0127568,-0.00778586,0.00135522,3670026,-0.0098098,0.0787207,0.10258,396809,0.0,0.0,0.0
219681165,3670026,-0.0127903,-0.00782371,0.00125919,3670026,-0.00862025,0.0807682,0.102497,396809,0.0,0.0,0.0
220674599,3670026,-0.0128116,-0.00782384,0.00121237,3670026,-0.00832225,0.0817738,0.103185,396809,0.0,0.0,0.0
221673160,3670026,-0.0127773,-0.00776797,0.00118453,3670026,-0.00776673,0.0811732,0.103356,396809,0.0,0.0,0.0
222681391,3670026,-0.0128509,-0.0077347,0.00120649,3670026,-0.00601674,0.0794233,0.104825,396809,0.0,0.0,0.0
223674775,3670026,-0.0128607,-0.00770358,0.00128884,3670026,-0.0043819,0.0775617,0.10734,396809,0.0,0.0,0.0
224673175,3670026,-0.0128088,-0.00762668,0.00134057,3670026,-0.00462446,0.0723303,0.107604,396809,0.0,0.0,0.0
225681533,3670026,-0.0128662,-0.00757723,0.00140786,3670026,-3.83954e-05,0.0679947,0.108451,396809,0.0,0.0,0.0
226674947,3670026,-0.0128658,-0.00756149,0.00148772,3670026,-0.000822211,0.0673211,0.109328,396809,0.0,0.0,0.0
227673352,3670026,-0.0128329,-0.00752085,0.00154524,3670026,-0.00177382,0.0666726,0.108523,396809,0.0,0.0,0.0
228681688,3670026,-0.0127985,-0.0074909,0.00165344,3670026,-0.000826946,0.0668255,0.10587,396809,0.0,0.0,0.0
229675120,3670026,-0.0126839,-0.00743285,0.00189434,3670026,0.00326158,0.066462,0.10833,396809,0.0,0.0,0.0
230683457,3670026,-0.0126828,-0.00748962,0.00204088,3670026,0.00557127,0.0667941,0.107181,396809,0.0,0.0,0.0
231681859,3670026,-0.0127054,-0.00755556,0.00212077,3670026,0.00536462,0.0668096,0.105263,396809,0.0,0.0,0.0
232675315,3670026,-0.012701,-0.00755947,0.00218862,3670026,0.00476698,0.0663657,0.103974,396809,0.0,0.0,0.0
233683630,3670026,-0.0128068,-0.00762729,0.00225219,3670026,0.00429211,0.0665532,0.103124,396809,0.0,0.0,0.0
234677066,3670026,-0.0127671,-0.00766658,0.00230448,3670026,0.00408851,0.0657123,0.103443,396809,0.0,0.0,0.0
235670700,3670026,-0.0127565,-0.00772724,0.00236359,3670026,0.00424864,0.065243,0.103926,396809,0.0,0.0,0.0
236678836,3670026,-0.0127469,-0.00774561,0.00241309,3670026,0.00423076,0.0651048,0.104281,396809,0.0,0.0,0.0
237682206,3670026,-0.0126944,-0.00773847,0.0024446,3670026,0.0042275,0.0647064,0.102366,396809,0.0,0.0,0.0
238675640,3670026,-0.0126052,-0.00776107,0.00246927,3670026,0.00515346,0.0640809,0.0988889,396809,0.0,0.0,0.0
239674085,3670026,-0.0125711,-0.00782208,0.00250202,3670026,0.00560307,0.0631704,0.098498,396809,0.0,0.0,0.0
240682379,3670026,-0.0125755,-0.00790105,0.00253211,3670026,0.00569655,0.0621073,0.100284,396809,0.0,0.0,0.0
241675813,3670026,-0.0125797,-0.00793698,0.00256143,3670026,0.00558711,0.0615741,0.0977433,396809,0.0,0.0,0.0
242674216,3670026,-0.0126306,-0.00795879,0.00257538,3670026,0.00414442,0.0608626,0.0969242,396809,0.0,0.0,0.0
243682583,3670026,-0.0126055,-0.00800164,0.00259977,3670026,0.00488929,0.0605208,0.0969986,396809,0.0,0.0,0.0
244680956,3670026,-0.0125978,-0.00802896,0.00261137,3670026,0.00477487,0.0599989,0.0993696,396809,0.0,0.0,0.0
245674389,3670026,-0.0125262,-0.00802448,0.00260957,3670026,0.00521367,0.0595027,0.100511,396809,0.0,0.0,0.0
246682904,3670026,-0.0125664,-0.00808863,0.0026128,3670026,0.00504926,0.0590209,0.102347,396809,0.0,0.0,0.0
247681127,3670026,-0.0126002,-0.00811634,0.00260721,3670026,0.00504279,0.0590029,0.102799,396809,0.0,0.0,0.0
248674562,3670026,-0.0125587,-0.00811088,0.00257991,3670026,0.00508386,0.0585148,0.101336,396809,0.0,0.0,0.0
249672964,3670026,-0.0126265,-0.00813184,0.00256624,3670026,0.00516865,0.0590951,0.102221,396809,0.0,0.0,0.0
250676334,3670026,-0.0125512,-0.00804781,0.00251432,3670026,0.00481709,0.0587495,0.101841,396809,0.0,0.0,0.0
251674735,3670026,-0.0125774,-0.00807214,0.00249219,3670026,0.00517539,0.0591417,0.103622,396809,0.0,0.0,0.0
252673141,3670026,-0.0125897,-0.00814817,0.00245435,3670026,0.00544147,0.0586491,0.103331,396809,0.0,0.0,0.0
253676661,3670026,-0.0125144,-0.00815317,0.0023972,3670026,0.00571907,0.0579656,0.102274,396809,0.0,0.0,0.0
254674910,3670026,-0.0125483,-0.00817365,0.00235782,3670026,0.0055364,0.0579159,0.102779,396809,0.0,0.0,0.0
255673323,3670026,-0.0126163,-0.00819575,0.00231373,3670026,0.00522487,0.0579923,0.104752,396809,0.0,0.0,0.0
256676679,3670026,-0.0126516,-0.00820416,0.00226921,3670026,0.0052342,0.0581517,0.104869,396809,0.0,0.0,0.0
257680101,3670026,-0.0126419,-0.00821935,0.00221749,3670026,0.00540938,0.0581963,0.103559,396809,0.0,0.0,0.0
258683417,3670026,-0.0125969,-0.0081743,0.00215978,3670026,0.00538269,0.0580399,0.101607,396809,0.0,0.0,0.0
259681819,3670026,-0.012598,-0.00821218,0.00211837,3670026,0.00560923,0.05811,0.101058,396809,0.0,0.0,0.0
260680409,3670026,-0.0126027,-0.00823997,0.00207423,3670026,0.0055807,0.0579534,0.0998269,396809,0.0,0.0,0.0
261683592,3670026,-0.0125338,-0.0082296,0.00202917,3670026,0.00575173,0.0577773,0.102716,396809,0.0,0.0,0.0
262672058,3670026,-0.0125203,-0.00822667,0.00198216,3670026,0.00593546,0.0578668,0.103956,396809,0.0,0.0,0.0
263675427,3670026,-0.0125449,-0.0082264,0.00193194,3670026,0.00586732,0.0580099,0.107338,396809,0.0,0.0,0.0
264673891,3670026,-0.0125276,-0.00819796,0.00187655,3670026,0.00585039,0.0578877,0.105202,396809,0.0,0.0,0.0
265682170,3670026,-0.0126084,-0.00827869,0.00184388,3670026,0.00582111,0.0578378,0.103526,396809,0.0,0.0,0.0
266675601,3670026,-0.0126011,-0.00826249,0.00176347,3670026,0.00551805,0.0576441,0.103059,396809,0.0,0.0,0.0
267674161,3670026,-0.0125465,-0.00826656,0.00172977,3670026,0.00574633,0.0573511,0.103563,396809,0.0,0.0,0.0
268682339,3670026,-0.0125363,-0.00828806,0.00170997,3670026,0.00589137,0.0573291,0.102945,396809,0.0,0.0,0.0
269675774,3670026,-0.0125793,-0.00828153,0.0016943,3670026,0.00578164,0.0575487,0.104025,396809,0.0,0.0,0.0
270674176,3670026,-0.0126428,-0.00829861,0.00168139,3670026,0.00568546,0.0574403,0.103451,396809,0.0,0.0,0.0
271682618,3670026,-0.0125461,-0.00826305,0.00166014,3670026,0.00589658,0.0574052,0.0997394,396809,0.0,0.0,0.0
272676010,3670026,-0.0124275,-0.00823693,0.00162545,3670026,0.00634944,0.05739,0.099343,396809,0.0,0.0,0.0
273679317,3670026,-0.0125226,-0.00826839,0.00160268,3670026,0.00627586,0.0579203,0.100843,396809,0.0,0.0,0.0
274672950,3670026,-0.0125111,-0.00825064,0.00156264,3670026,0.00592045,0.057689,0.10213,396809,0.0,0.0,0.0
275676161,3670026,-0.0125205,-0.00826447,0.00151901,3670026,0.00589981,0.0576846,0.102231,396809,0.0,0.0,0.0
276679491,3670026,-0.0125487,-0.00830826,0.00149429,3670026,0.00594503,0.058019,0.102612,396809,0.0,0.0,0.0
277677895,3670026,-0.0125723,-0.00825045,0.00145224,3670026,0.00594198,0.0576563,0.103931,396809,0.0,0.0,0.0
278681323,3670026,-0.0125907,-0.00828865,0.00142621,3670026,0.0059344,0.0578852,0.104299,396809,0.0,0.0,0.0
279674699,3670026,-0.0126121,-0.00830428,0.00138877,3670026,0.00591683,0.0579235,0.10424,396809,0.0,0.0,0.0
280673101,3670026,-0.012641,-0.00833053,0.00135531,3670026,0.00586376,0.0579192,0.104158,396809,0.0,0.0,0.0
281681437,3670026,-0.0126319,-0.0083625,0.00133007,3670026,0.00590672,0.0578848,0.0974105,396809,0.0,0.0,0.0
282674873,3670026,-0.0126043,-0.00830249,0.00129346,3670026,0.00579006,0.057498,0.0960535,396809,0.0,0.0,0.0
283673275,3670026,-0.0125568,-0.00832753,0.00126946,3670026,0.00585859,0.0579919,0.0960123,396809,0.0,0.0,0.0
284681614,3670026,-0.0126602,-0.00831832,0.00124548,3670026,0.00574471,0.0576873,0.0949987,396809,0.0,0.0,0.0
285675150,3670026,-0.0126509,-0.0083047,0.00122247,3670026,0.0057205,0.057465,0.0946007,396809,0.0,0.0,0.0
286683397,3670026,-0.0126363,-0.00833755,0.0011967,3670026,0.00571151,0.0575442,0.095708,396809,0.0,0.0,0.0
287681787,3670026,-0.0126515,-0.00839647,0.00117497,3670026,0.00568472,0.0577133,0.0970692,396809,0.0,0.0,0.0
288675222,3670026,-0.0126025,-0.00832617,0.0011355,3670026,0.00556278,0.0573577,0.0987274,396809,0.0,0.0,0.0
289683559,3670026,-0.0125957,-0.00835114,0.00109918,3670026,0.00571476,0.0575412,0.100917,396809,0.0,0.0,0.0
290672027,3670026,-0.0125916,-0.00836486,0.00107221,3670026,0.00576255,0.0575438,0.102872,396809,0.0,0.0,0.0
291675447,3670026,-0.0125802,-0.00834215,0.001038,3670026,0.00565134,0.0574324,0.102564,396809,0.0,0.0,0.0
292678871,3670026,-0.0126758,-0.00837612,0.00100304,3670026,0.00563729,0.0578233,0.104903,396809,0.0,0.0,0.0
293682137,3670026,-0.0126402,-0.00837926,0.000975419,3670026,0.00567291,0.0575912,0.103689,396809,0.0,0.0,0.0
294675572,3670026,-0.0126395,-0.00841778,0.000949399,3670026,0.00560408,0.0577024,0.104651,396809,0.0,0.0,0.0
295673980,3670026,-0.0125999,-0.00838631,0.000920657,3670026,0.00556889,0.0575465,0.104718,396809,0.0,0.0,0.0
296682313,3670026,-0.0126031,-0.00838207,0.000892717,3670026,0.00556583,0.0576534,0.103834,396809,0.0,0.0,0.0
297680715,3670026,-0.0125731,-0.00838833,0.000861957,3670026,0.00562221,0.0577171,0.104388,396809,0.0,0.0,0.0
298674150,3670026,-0.0125502,-0.00838392,0.000834907,3670026,0.0055932,0.0577134,0.102351,396809,0.0,0.0,0.0
299682633,3670026,-0.012522,-0.00836158,0.000810398,3670026,0.00556761,0.0575694,0.101876,396809,0.0,0.0,0.0
300675924,3670026,-0.0125501,-0.00831552,0.000787872,3670026,0.00554501,0.0574048,0.099678,396809,0.0,0.0,0.0
301674327,3670026,-0.0125356,-0.00836013,0.00076926,3670026,0.00551481,0.0575564,0.098703,396809,0.0,0.0,0.0
302682663,3670026,-0.0125847,-0.00837822,0.000755895,3670026,0.00545984,0.0576579,0.0963663,396809,0.0,0.0,0.0
303681066,3670026,-0.0125363,-0.00838653,0.000746816,3670026,0.00550584,0.0577203,0.0944076,396809,0.0,0.0,0.0
304674516,3670026,-0.0125231,-0.00838357,0.000738342,3670026,0.00545463,0.0575463,0.0933387,396809,0.0,0.0,0.0
305672908,3670026,-0.0125654,-0.00839406,0.000737611,3670026,0.00550484,0.0576767,0.0957096,396809,0.0,0.0,0.0
306681414,3670026,-0.0125345,-0.00840677,0.000727697,3670026,0.00549842,0.0575608,0.0979144,396809,0.0,0.0,0.0
307674677,3670026,-0.0125397,-0.00840075,0.000724589,3670026,0.0054601,0.0574954,0.0990292,396809,0.0,0.0,0.0
308673080,3670026,-0.0125886,-0.00843993,0.000722514,3670026,0.00551542,0.0577975,0.101144,396809,0.0,0.0,0.0
309676450,3670026,-0.0125649,-0.00841549,0.000720341,3670026,0.00546377,0.0574868,0.102227,396809,0.0,0.0,0.0
310674853,3670026,-0.0125021,-0.00841961,0.000716953,3670026,0.00550744,0.0574295,0.102769,396809,0.0,0.0,0.0
311678223,3670026,-0.0124618,-0.00840359,0.000709768,3670026,0.00551607,0.057363,0.102822,396809,0.0,0.0,0.0
312676628,3670026,-0.012579,-0.00844675,0.000716504,3670026,0.00550529,0.0577667,0.103796,396809,0.0,0.0,0.0
313680184,3670026,-0.0126275,-0.00845566,0.000725931,3670026,0.00547321,0.0578125,0.104979,396809,0.0,0.0,0.0
314678398,3670026,-0.0126493,-0.00844776,0.000744581,3670026,0.00549486,0.0578041,0.105298,396809,0.0,0.0,0.0
315676804,3670026,-0.0126237,-0.00842672,0.000750509,3670026,0.00547269,0.0575883,0.103533,396809,0.0,0.0,0.0
316675205,3670026,-0.0126125,-0.00841402,0.000761619,3670026,0.00545215,0.0574467,0.103826,396809,0.0,0.0,0.0
317683635,3670026,-0.0125932,-0.00843283,0.00077057,3670026,0.00554872,0.057505,0.103873,396809,0.0,0.0,0.0
318672011,3670026,-0.0126047,-0.0084637,0.000767491,3670026,0.00561187,0.0575868,0.104092,396809,0.0,0.0,0.0
319680402,3670026,-0.0126714,-0.00844034,0.000764595,3670026,0.0053622,0.0576895,0.10203,396809,0.0,0.0,0.0
320673982,3670026,-0.0125824,-0.00839215,0.000752516,3670026,0.00521364,0.0573618,0.0961328,396809,0.0,0.0,0.0
321682122,3670026,-0.012616,-0.00845054,0.000745504,3670026,0.00522366,0.0575375,0.0957155,396809,0.0,0.0,0.0
322680524,3670026,-0.0126112,-0.00844507,0.000736976,3670026,0.00530343,0.0576026,0.0963494,396809,0.0,0.0,0.0
323673960,3670026,-0.0125334,-0.00842357,0.00071991,3670026,0.00524925,0.0573112,0.095684,396809,0.0,0.0,0.0
324677377,3670026,-0.0125133,-0.00842373,0.000697258,3670026,0.00525109,0.0572089,0.0980781,396809,0.0,0.0,0.0
325675733,3670026,-0.01265,-0.00848572,0.000685369,3670026,0.00527238,0.0576772,0.0994508,396809,0.0,0.0,0.0
326674139,3670026,-0.0125789,-0.00849582,0.000675798,3670026,0.00530244,0.0575452,0.0997517,396809,0.0,0.0,0.0
327682474,3670026,-0.0126173,-0.00851368,0.000648651,3670026,0.00537665,0.0574521,0.100662,396809,0.0,0.0,0.0
328675918,3670026,-0.0125776,-0.0084876,0.000634967,3670026,0.00537419,0.0571862,0.10037,396809,0.0,0.0,0.0
329674313,3670026,-0.0126252,-0.00851767,0.000628192,3670026,0.00537875,0.0573738,0.0998916,396809,0.0,0.0,0.0
330682652,3670026,-0.0126802,-0.0085446,0.000622593,3670026,0.00536742,0.0576908,0.100504,396809,0.0,0.0,0.0
331676149,3670026,-0.0125803,-0.00845193,0.000618086,3670026,0.0053244,0.057171,0.100495,396809,0.0,0.0,0.0
332674490,3670026,-0.0126333,-0.00850691,0.000602163,3670026,0.00524771,0.057613,0.0998039,396809,0.0,0.0,0.0
333672893,3670026,-0.0125758,-0.00848003,0.000574787,3670026,0.00520386,0.0574439,0.0991804,396809,0.0,0.0,0.0
334676263,3670026,-0.0126006,-0.00852887,0.000573203,3670026,0.00519422,0.0575211,0.0968018,396809,0.0,0.0,0.0
335679634,3670026,-0.0126677,-0.00850752,0.000571873,3670026,0.00521301,0.0575955,0.0996201,396809,0.0,0.0,0.0
336673069,3670026,-0.0126349,-0.00848102,0.000579453,3670026,0.00523294,0.0573766,0.0986122,396809,0.0,0.0,0.0
337676440,3670026,-0.0127005,-0.0085073,0.000578469,3670026,0.00532503,0.0575906,0.100413,396809,0.0,0.0,0.0
338679919,3670026,-0.0127217,-0.0085145,0.000570631,3670026,0.00537102,0.0576838,0.100467,396809,0.0,0.0,0.0
339673254,3670026,-0.0126211,-0.00846034,0.000559457,3670026,0.0053362,0.0573526,0.100144,396809,0.0,0.0,0.0
340681591,3670026,-0.0126905,-0.00847788,0.000563424,3670026,0.00532416,0.0575285,0.101027,396809,0.0,0.0,0.0
341675020,3670026,-0.0126801,-0.00848733,0.000566988,3670026,0.00532236,0.0575329,0.100725,396809,0.0,0.0,0.0
342683360,3670026,-0.0126762,-0.00846025,0.000559804,3670026,0.00532346,0.0573703,0.10143,396809,0.0,0.0,0.0
343676795,3670026,-0.0126536,-0.00846891,0.000554456,3670026,0.00535216,0.0574843,0.103546,396809,0.0,0.0,0.0
344675198,3670026,-0.0126505,-0.00847287,0.000534153,3670026,0.00533138,0.0576147,0.102941,396809,0.0,0.0,0.0
345678696,3670026,-0.0125863,-0.00845188,0.000510147,3670026,0.00531569,0.0571504,0.100074,396809,0.0,0.0,0.0
346676967,3670026,-0.0126152,-0.00846794,0.000491457,3670026,0.00531033,0.057309,0.0987264,396809,0.0,0.0,0.0
347675378,3670026,-0.0126994,-0.00850853,0.000477579,3670026,0.00531942,0.0576392,0.100125,396809,0.0,0.0,0.0
348678740,3670026,-0.0126496,-0.00848874,0.000460835,3670026,0.00528353,0.0574292,0.100772,396809,0.0,0.0,0.0
349682212,3670026,-0.0126737,-0.00850566,0.000472648,3670026,0.00531297,0.0576182,0.101092,396809,0.0,0.0,0.0
350675544,3670026,-0.0126326,-0.00852644,0.00047529,3670026,0.00509014,0.0576181,0.102567,396809,0.0,0.0,0.0
351678914,3670026,-0.0125729,-0.00855714,0.000487641,3670026,0.00470323,0.0577281,0.10375,396809,0.0,0.0,0.0
352682463,3670026,-0.0126052,-0.00859077,0.000498271,3670026,0.00475514,0.0579235,0.103666,396809,0.0,0.0,0.0
353675722,3670026,-0.0125865,-0.00853874,0.000512276,3670026,0.00483785,0.0575874,0.103726,396809,0.0,0.0,0.0
354679089,3670026,-0.0127002,-0.00856188,0.00052963,3670026,0.00497671,0.0577489,0.103594,396809,0.0,0.0,0.0
355682458,3670026,-0.012617,-0.0085096,0.000509311,3670026,0.00499334,0.0575856,0.104377,396809,0.0,0.0,0.0
356675936,3670026,-0.0125636,-0.00845856,0.000482161,3670026,0.00503721,0.0576751,0.103596,396809,0.0,0.0,0.0
357674296,3670026,-0.0125688,-0.00847253,0.000483269,3670026,0.00522136,0.0579659,0.102898,396809,0.0,0.0,0.0
358682633,3670026,-0.0126004,-0.00851941,0.000479863,3670026,0.00517237,0.0578848,0.103478,396809,0.0,0.0,0.0
359681038,3670026,-0.0125392,-0.00852598,0.000468301,3670026,0.00542734,0.0579329,0.100384,396809,0.0,0.0,0.0
360674470,3670026,-0.0125184,-0.00847745,0.000445705,3670026,0.00522592,0.0576493,0.096334,396809,0.0,0.0,0.0
361672874,3670026,-0.0125259,-0.00853111,0.000435165,3670026,0.00518351,0.0576435,0.0963829,396809,0.0,0.0,0.0
362681209,3670026,-0.0125813,-0.00855909,0.000413127,3670026,0.00505731,0.0578011,0.0973496,396809,0.0,0.0,0.0
363674705,3670026,-0.0125388,-0.00853944,0.000372491,3670026,0.00499018,0.0575217,0.0984317,396809,0.0,0.0,0.0
364673045,3670026,-0.0125902,-0.00855495,0.000347933,3670026,0.00496818,0.057753,0.10024,396809,0.0,0.0,0.0
365681382,3670026,-0.0126078,-0.00857009,0.000356244,3670026,0.00492796,0.0577424,0.101203,396809,0.0,0.0,0.0
366674822,3670026,-0.0126053,-0.00854952,0.000351537,3670026,0.00494113,0.0575179,0.101093,396809,0.0,0.0,0.0
367673218,3670026,-0.0126157,-0.00851635,0.000353856,3670026,0.00493673,0.0574646,0.102996,396809,0.0,0.0,0.0
368681555,3670026,-0.0126515,-0.00853841,0.000382664,3670026,0.00499851,0.0575077,0.103689,396809,0.0,0.0,0.0
369674988,3670026,-0.0125857,-0.00853075,0.000398829,3670026,0.00495662,0.0574317,0.102561,396809,0.0,0.0,0.0
370683425,3670026,-0.0125926,-0.00857293,0.000410989,3670026,0.00491029,0.0575997,0.102734,396809,0.0,0.0,0.0
371676759,3670026,-0.0125795,-0.00860123,0.000434679,3670026,0.0048036,0.0576477,0.105263,396809,0.0,0.0,0.0
372675162,3670026,-0.0126235,-0.00859816,0.000487907,3670026,0.00579778,0.0592879,0.105042,396809,0.0,0.0,0.0
373683495,3670026,-0.012603,-0.00853732,0.000562926,3670026,0.00707662,0.0594891,0.104814,396809,0.0,0.0,0.0
374676929,3670026,-0.0125248,-0.0084538,0.00061043,3670026,0.00753832,0.0578736,0.103873,396809,0.0,0.0,0.0
375680299,3670026,-0.0125861,-0.00846863,0.000635852,3670026,0.00709824,0.0556511,0.104693,396809,0.0,0.0,0.0
376673731,3670026,-0.0124969,-0.00841169,0.000624449,3670026,0.00609478,0.0531015,0.101259,396809,0.0,0.0,0.0
377682166,3670026,-0.0125635,-0.00838776,0.000597984,3670026,0.00729424,0.0487789,0.0998501,396809,0.0,0.0,0.0
378680468,3670026,-0.0126158,-0.00841119,0.000603043,3670026,0.00853813,0.0487654,0.100264,396809,0.0,0.0,0.0
379673903,3670026,-0.0125925,-0.00834337,0.000593896,3670026,0.00913484,0.0466131,0.101204,396809,0.0,0.0,0.0
380682237,3670026,-0.0126699,-0.00835498,0.000585807,3670026,0.0104589,0.0458697,0.103576,396809,0.0,0.0,0.0
381680638,3670026,-0.0126849,-0.00833843,0.000579221,3670026,0.0106582,0.0453138,0.102421,396809,0.0,0.0,0.0
382674072,3670026,-0.0126138,-0.00831709,0.000586593,3670026,0.0104206,0.0455659,0.10275,396809,0.0,0.0,0.0
383682407,3670026,-0.01263,-0.00831236,0.000575204,3670026,0.0112588,0.0451713,0.0987127,396809,0.0,0.0,0.0
384680928,3670026,-0.0126475,-0.00832483,0.000562505,3670026,0.0124311,0.0446026,0.0966362,396809,0.0,0.0,0.0
385674254,3670026,-0.0125984,-0.00831336,0.000569507,3670026,0.0125817,0.0446604,0.0982364,396809,0.0,0.0,0.0
386682576,3670026,-0.0126897,-0.00833269,0.00056591,3670026,0.0124154,0.0449163,0.0992552,396809,0.0,0.0,0.0
387676010,3670026,-0.0126247,-0.00825138,0.000543724,3670026,0.0121036,0.0446708,0.0997686,396809,0.0,0.0,0.0
388674410,3670026,-0.0126224,-0.00826736,0.000527741,3670026,0.0123327,0.0448846,0.0971737,396809,0.0,0.0,0.0
389672871,3670026,-0.012696,-0.00836792,0.000543077,3670026,0.0124596,0.0447904,0.102372,396809,0.0,0.0,0.0
390676178,3670026,-0.0126305,-0.00833833,0.000537879,3670026,0.0126618,0.0446677,0.0994938,396809,0.0,0.0,0.0
391679700,3670026,-0.0126783,-0.00835283,0.000557531,3670026,0.0124655,0.0446969,0.0986926,396809,0.0,0.0,0.0
392672979,3670026,-0.0126341,-0.00830556,0.000570312,3670026,0.012221,0.0444674,0.098842,396809,0.0,0.0,0.0
393676351,3670026,-0.0127015,-0.00835976,0.00059575,3670026,0.0119954,0.0444384,0.100066,396809,0.0,0.0,0.0
394679714,3670026,-0.0126974,-0.00837139,0.000605349,3670026,0.0121575,0.0444292,0.0993088,396809,0.0,0.0,0.0
395673147,3670026,-0.0126316,-0.00834288,0.000620619,3670026,0.0121614,0.0441504,0.0988577,396809,0.0,0.0,0.0
396681537,3670026,-0.0126962,-0.00837109,0.000598894,3670026,0.0120261,0.0443681,0.0997949,396809,0.0,0.0,0.0
397679881,3670026,-0.0126508,-0.00833991,0.000606152,3670026,0.0123794,0.044631,0.0989669,396809,0.0,0.0,0.0
398683252,3670026,-0.0126121,-0.00832702,0.0006168,3670026,0.0123275,0.0443628,0.0991171,396809,0.0,0.0,0.0
399681648,3670026,-0.0126436,-0.00836561,0.000623442,3670026,0.0123184,0.0442784,0.100158,396809,0.0,0.0,0.0
400675081,3670026,-0.0126754,-0.00841393,0.000610965,3670026,0.0121881,0.0440738,0.102547,396809,0.0,0.0,0.0
401683415,3670026,-0.0126435,-0.00842519,0.000571377,3670026,0.0122988,0.0440213,0.102423,396809,0.0,0.0,0.0
402671880,3670026,-0.0125921,-0.00841565,0.000542514,3670026,0.0124897,0.0440734,0.100031,396809,0.0,0.0,0.0
403675247,3670026,-0.0125548,-0.00842584,0.000543117,3670026,0.0127056,0.0440163,0.0983375,396809,0.0,0.0,0.0
404683581,3670026,-0.0124944,-0.00838713,0.00052624,3670026,0.0129512,0.0440548,0.0979399,396809,0.0,0.0,0.0
405672236,3670026,-0.012532,-0.00841111,0.000540135,3670026,0.0128338,0.0439725,0.100983,396809,0.0,0.0,0.0
406675415,3670026,-0.0125087,-0.00837549,0.000531039,3670026,0.0127757,0.0439806,0.100507,396809,0.0,0.0,0.0
407678779,3670026,-0.0125893,-0.00848089,0.000528338,3670026,0.0128866,0.0439684,0.102618,396809,0.0,0.0,0.0
408677219,3670026,-0.0125035,-0.00843227,0.00051877,3670026,0.0130938,0.0438947,0.100895,396809,0.0,0.0,0.0
409680599,3670026,-0.0125202,-0.00847667,0.000527392,3670026,0.0132275,0.0438468,0.0991051,396809,0.0,0.0,0.0
410673977,3670026,-0.012501,-0.00842912,0.000482052,3670026,0.0153911,0.0432133,0.0973107,396809,0.0,0.0,0.0
411682313,3670026,-0.0124456,-0.00837833,0.000379118,3670026,0.0173722,0.0417553,0.0974556,396809,0.0,0.0,0.0
412680710,3670026,-0.0124326,-0.00837133,0.000273267,3670026,0.0173757,0.0399667,0.0976867,396809,0.0,0.0,0.0
413674142,3670026,-0.0124171,-0.00829551,0.000181867,3670026,0.0202327,0.0387075,0.0989662,396809,0.0,0.0,0.0
414682477,3670026,-0.0124624,-0.00829322,0.00014918,3670026,0.020538,0.0374092,0.0991715,396809,0.0,0.0,0.0
415675959,3670026,-0.0124825,-0.00827075,0.000100126,3670026,0.0207674,0.0372705,0.0992396,396809,0.0,0.0,0.0
416674383,3670026,-0.0124951,-0.00824266,7.07946e-05,3670026,0.0203463,0.0374126,0.0985913,396809,0.0,0.0,0.0
417672705,3670026,-0.012572,-0.00828278,5.60242e-05,3670026,0.0201428,0.0381193,0.100237,396809,0.0,0.0,0.0
418676071,3670026,-0.0125623,-0.00823019,4.38303e-05,3670026,0.0200947,0.0361886,0.100221,396809,0.0,0.0,0.0
419684405,3670026,-0.0125224,-0.00824759,3.9443e-05,3670026,0.0200747,0.0371109,0.100164,396809,0.0,0.0,0.0
420672870,3670026,-0.0125302,-0.00824822,2.89909e-05,3670026,0.0197734,0.0371095,0.100645,396809,0.0,0.0,0.0
421676235,3670026,-0.0125633,-0.00829061,1.91707e-05,3670026,0.0197832,0.0370283,0.101368,396809,0.0,0.0,0.0
422679601,3670026,-0.0126116,-0.00832774,1.40862e-05,3670026,0.0195881,0.0368232,0.10164,396809,0.0,0.0,0.0
423673121,3670026,-0.0125477,-0.00830598,9.78473e-06,3670026,0.0194835,0.0365415,0.101723,396809,0.0,0.0,0.0
424681366,3670026,-0.0125662,-0.00833642,1.61475e-05,3670026,0.0196837,0.0365813,0.102046,396809,0.0,0.0,0.0
425679764,3670026,-0.0125655,-0.00835985,2.0925e-05,3670026,0.0198813,0.0365068,0.10173,396809,0.0,0.0,0.0
426678163,3670026,-0.0125154,-0.00836172,2.28617e-05,3670026,0.0198407,0.0360894,0.101036,396809,0.0,0.0,0.0
427681542,3670026,-0.0125606,-0.00839417,2.04814e-05,3670026,0.0197286,0.0361316,0.10157,396809,0.0,0.0,0.0
428674960,3670026,-0.0125751,-0.00838862,1.71219e-05,3670026,0.0193593,0.0361222,0.0998462,396809,0.0,0.0,0.0
429683295,3670026,-0.0125184,-0.00840705,-2.20486e-05,3670026,0.0192834,0.036504,0.100027,396809,0.0,0.0,0.0
430671879,3670026,-0.0125147,-0.00842101,-2.49913e-05,3670026,0.0194685,0.0365683,0.099679,396809,0.0,0.0,0.0
431675119,3670026,-0.0124681,-0.00842904,-2.33961e-05,3670026,0.0194343,0.0365041,0.0990451,396809,0.0,0.0,0.0
