timestamp,gyro_device_id,gyro_bias[0],gyro_bias[1],gyro_bias[2],accel_device_id,accel_bias[0],accel_bias[1],accel_bias[2],mag_device_id,mag_bias[0],mag_bias[1],mag_bias[2]
141099398,3670026,-0.00367471,-0.00311039,8.63732e-05,3670026,-0.0211705,0.000770897,0.0466245,396809,0.0,0.0,0.0
141218571,3670026,-0.0036776,-0.00311286,8.59512e-05,3670026,-0.0211871,0.000771502,0.0467399,396809,0.0,0.0,0.0
142216748,3670026,-0.00368557,-0.00308175,3.12606e-05,3670026,-0.0211826,0.000771336,0.0478774,396809,0.0,0.0,0.0
143220013,3670026,-0.0036896,-0.00305117,-1.62927e-05,3670026,-0.0211172,0.000768956,0.0482476,396809,0.0,0.0,0.0
144218071,3670026,-0.00372364,-0.00304649,-5.19044e-05,3670026,-0.0244218,-0.00236274,0.0482745,396809,0.0,0.0,0.0
145221217,3670026,-0.00372823,-0.00303211,-6.65277e-05,3670026,-0.0285785,-0.00491739,0.0484373,396809,0.0,0.0,0.0
146219393,3670026,-0.0037225,-0.00301502,-5.77929e-05,3670026,-0.0303351,-0.0065363,0.0480122,396809,0.0,0.0,0.0
147222583,3670026,-0.00373201,-0.00303101,-5.93281e-05,3670026,-0.0331407,-0.00794725,0.0506434,396809,0.0,0.0,0.0
148215750,3670026,-0.00370616,-0.00301722,-6.5367e-05,3670026,-0.0362328,-0.00656724,0.0544303,396809,0.0,0.0,0.0
149218895,3670026,-0.0036962,-0.00302888,-6.53137e-05,3670026,-0.0306715,-0.00602469,0.0547229,396809,0.0,0.0,0.0
150222175,3670026,-0.00367725,-0.00302716,-6.61292e-05,3670026,-0.0358154,0.000249931,0.0568856,396809,0.0,0.0,0.0
151220221,3670026,-0.00369806,-0.00305386,-6.61634e-05,3670026,-0.0396006,0.00517232,0.0546,396809,0.0,0.0,0.0
152218398,3670026,-0.0037043,-0.00305374,-6.45229e-05,3670026,-0.0366307,0.00502597,0.0500885,396809,0.0,0.0,0.0
153221542,3670026,-0.00373649,-0.00301278,-7.72311e-05,3670026,-0.022507,0.00550174,0.0481939,396809,0.0,0.0,0.0
154219767,3670026,-0.00374741,-0.00303761,-0.000112133,3670026,-0.0184257,0.00856301,0.0475817,396809,0.0,0.0,0.0
155217901,3670026,-0.00375488,-0.00306216,-0.000106824,3670026,-0.0162486,0.0131535,0.0463233,396809,0.0,0.0,0.0
156221045,3670026,-0.0037973,-0.00305903,-9.796e-05,3670026,-0.0163246,0.013502,0.0479794,396809,0.0,0.0,0.0
157219332,3670026,-0.00377864,-0.00302921,-9.51325e-05,3670026,-0.0151446,0.0131785,0.0495362,396809,0.0,0.0,0.0
158217407,3670026,-0.00372077,-0.00301238,-0.000100055,3670026,-0.009462,0.0121139,0.0503339,396809,0.0,0.0,0.0
159220552,3670026,-0.00367961,-0.00300903,-0.000101909,3670026,-0.00622261,0.0116087,0.0495239,396809,0.0,0.0,0.0
160218737,3670026,-0.00365464,-0.00301882,-0.000100677,3670026,-0.00436455,0.0110573,0.0519317,396809,0.0,0.0,0.0
161216908,3670026,-0.00362568,-0.00302879,-9.79039e-05,3670026,-0.00324086,0.0105944,0.0508201,396809,0.0,0.0,0.0
162220054,3670026,-0.00357876,-0.00304649,-9.78326e-05,3670026,-0.00187945,0.0105782,0.052233,396809,0.0,0.0,0.0
163213267,3670026,-0.00354959,-0.00306426,-9.81093e-05,3670026,-0.00169555,0.0100811,0.0497409,396809,0.0,0.0,0.0
164221590,3670026,-0.00356217,-0.0030628,-9.81208e-05,3670026,-0.00168385,0.0100847,0.0506351,396809,0.0,0.0,0.0
165214592,3670026,-0.00355388,-0.00307675,-0.000100039,3670026,-0.00172058,0.00991142,0.0508192,396809,0.0,0.0,0.0
166217780,3670026,-0.00351904,-0.00306156,-0.000101806,3670026,-0.00176227,0.00969067,0.049533,396809,0.0,0.0,0.0
167220883,3670026,-0.00350699,-0.0030686,-0.000103181,3670026,-0.00191825,0.00977341,0.0482554,396809,0.0,0.0,0.0
168219070,3670026,-0.0035194,-0.00309005,-0.00010373,3670026,-0.002014,0.0099916,0.0484986,396809,0.0,0.0,0.0
169217245,3670026,-0.00356248,-0.00311132,-0.000103213,3670026,-0.00183333,0.0104794,0.0476839,396809,0.0,0.0,0.0
170220390,3670026,-0.00356119,-0.00306109,-0.000103793,3670026,-0.00119782,0.0104398,0.0491073,396809,0.0,0.0,0.0
171218714,3670026,-0.0036269,-0.00306206,-9.99935e-05,3670026,-0.000554479,0.0109915,0.0504351,396809,0.0,0.0,0.0
172216752,3670026,-0.00361985,-0.00305683,-0.000100273,3670026,-0.000543076,0.0108483,0.0512828,396809,0.0,0.0,0.0
173219895,3670026,-0.00360875,-0.00305904,-9.85424e-05,3670026,-0.000668175,0.0109364,0.0502598,396809,0.0,0.0,0.0
174218076,3670026,-0.00366724,-0.00305974,-9.39605e-05,3670026,-0.000223533,0.0113513,0.0504635,396809,0.0,0.0,0.0
175216314,3670026,-0.00368422,-0.00304045,-9.04173e-05,3670026,7.70878e-05,0.011353,0.0504562,396809,0.0,0.0,0.0
176219402,3670026,-0.00368955,-0.00303904,-8.68323e-05,3670026,0.000132454,0.0113594,0.0506379,396809,0.0,0.0,0.0
177212616,3670026,-0.00370278,-0.00305425,-8.12717e-05,3670026,9.78931e-05,0.0115836,0.0513613,396809,0.0,0.0,0.0
178215916,3670026,-0.00373264,-0.00306434,-7.601e-05,3670026,0.000186569,0.0117935,0.0509594,396809,0.0,0.0,0.0
179213956,3670026,-0.00376174,-0.00304739,-6.69393e-05,3670026,0.000448355,0.0119067,0.0517332,396809,0.0,0.0,0.0
180222057,3670026,-0.00375114,-0.00304084,-6.14589e-05,3670026,0.000437786,0.0119227,0.0521967,396809,0.0,0.0,0.0
181220237,3670026,-0.00375312,-0.00303684,-5.65146e-05,3670026,0.000470094,0.0119595,0.052849,396809,0.0,0.0,0.0
182218416,3670026,-0.00375622,-0.00303346,-5.16114e-05,3670026,0.000505705,0.0119453,0.0551414,396809,0.0,0.0,0.0
183216598,3670026,-0.0037493,-0.00302844,-4.79948e-05,3670026,0.000528262,0.011843,0.0541547,396809,0.0,0.0,0.0
184219744,3670026,-0.00372786,-0.0030291,-4.32412e-05,3670026,0.000446983,0.011799,0.0543085,396809,0.0,0.0,0.0
185218034,3670026,-0.00374265,-0.00302901,-3.96025e-05,3670026,0.000516934,0.0118351,0.0532933,396809,0.0,0.0,0.0
186216106,3670026,-0.00375493,-0.00304055,-3.36998e-05,3670026,0.000512528,0.0119169,0.053094,396809,0.0,0.0,0.0
187219252,3670026,-0.00372386,-0.00303601,-2.61935e-05,3670026,0.000443358,0.0118054,0.0528129,396809,0.0,0.0,0.0
188217432,3670026,-0.00373137,-0.00305826,-2.15786e-05,3670026,0.000386093,0.0118568,0.0519582,396809,0.0,0.0,0.0
189215616,3670026,-0.00373365,-0.00305509,-1.52735e-05,3670026,0.000407822,0.0118552,0.0522157,396809,0.0,0.0,0.0
190218760,3670026,-0.00373299,-0.00303574,-1.04437e-05,3670026,0.000468804,0.0118288,0.0528981,396809,0.0,0.0,0.0
191211976,3670026,-0.00374551,-0.00302688,-3.50078e-06,3670026,0.000525652,0.0118405,0.0526483,396809,0.0,0.0,0.0
192215240,3670026,-0.00379848,-0.00306341,5.83562e-06,3670026,0.000534529,0.0120229,0.0525164,396809,0.0,0.0,0.0
193218292,3670026,-0.00378449,-0.00305936,1.52934e-05,3670026,0.000513231,0.0119811,0.0510951,396809,0.0,0.0,0.0
194221434,3670026,-0.00379382,-0.00307716,2.41927e-05,3670026,0.000487686,0.0120366,0.0521139,396809,0.0,0.0,0.0
195219596,3670026,-0.00379357,-0.00309155,2.92508e-05,3670026,0.000461106,0.0120915,0.054525,396809,0.0,0.0,0.0
196217777,3670026,-0.00380803,-0.00309095,3.695e-05,3670026,0.000486455,0.0121177,0.0541824,396809,0.0,0.0,0.0
197220924,3670026,-0.00379547,-0.00309462,4.52126e-05,3670026,0.000465076,0.0120957,0.0549596,396809,0.0,0.0,0.0
198219106,3670026,-0.00381409,-0.00309473,5.27544e-05,3670026,0.000495357,0.0121332,0.0556016,396809,0.0,0.0,0.0
199217401,3670026,-0.00379301,-0.00308376,5.73223e-05,3670026,0.000480313,0.0120502,0.0535475,396809,0.0,0.0,0.0
200220434,3670026,-0.00379055,-0.00303886,6.21555e-05,3670026,0.000565386,0.0119781,0.0545269,396809,0.0,0.0,0.0
201218626,3670026,-0.00378782,-0.00306621,6.85916e-05,3670026,0.000520463,0.0120075,0.0537445,396809,0.0,0.0,0.0
202216796,3670026,-0.00379243,-0.00306531,7.39097e-05,3670026,0.000529589,0.0120119,0.0541279,396809,0.0,0.0,0.0
203219945,3670026,-0.00377789,-0.00304722,7.6387e-05,3670026,0.000538699,0.0119548,0.0542297,396809,0.0,0.0,0.0
204218124,3670026,-0.00377765,-0.00306548,7.66332e-05,3670026,0.000521813,0.0119813,0.0548533,396809,0.0,0.0,0.0
205221272,3670026,-0.00377867,-0.00308414,8.0713e-05,3670026,0.000498546,0.0119785,0.0542545,396809,0.0,0.0,0.0
206219453,3670026,-0.0038027,-0.00309268,8.31401e-05,3670026,0.000510852,0.0120199,0.0543179,396809,0.0,0.0,0.0
207217635,3670026,-0.00381472,-0.00310863,8.50768e-05,3670026,0.000503685,0.0120425,0.0538139,396809,0.0,0.0,0.0
208220809,3670026,-0.00379719,-0.00311519,8.54538e-05,3670026,0.000481033,0.0120203,0.0534544,396809,0.0,0.0,0.0
209218963,3670026,-0.00385142,-0.00310579,8.69783e-05,3670026,0.000530712,0.0120877,0.0530079,396809,0.0,0.0,0.0
210222255,3670026,-0.0038441,-0.00308984,8.9112e-05,3670026,0.000539881,0.0120423,0.0536162,396809,0.0,0.0,0.0
211220292,3670026,-0.00387582,-0.00308628,9.11375e-05,3670026,0.000567209,0.0121039,0.0532791,396809,0.0,0.0,0.0
212218473,3670026,-0.0038806,-0.00306323,9.39306e-05,3670026,0.000590693,0.0120771,0.0527861,396809,0.0,0.0,0.0
213221620,3670026,-0.00387039,-0.0030295,9.43563e-05,3670026,0.000614551,0.0120241,0.054966,396809,0.0,0.0,0.0
214219802,3670026,-0.00386219,-0.00302292,9.33652e-05,3670026,0.000611076,0.0120327,0.0539496,396809,0.0,0.0,0.0
215222995,3670026,-0.00384414,-0.00302028,9.09622e-05,3670026,0.000606244,0.0120328,0.0544628,396809,0.0,0.0,0.0
216221132,3670026,-0.003832,-0.00301474,9.05447e-05,3670026,0.000601727,0.0119973,0.0549764,396809,0.0,0.0,0.0
217214406,3670026,-0.00385001,-0.00306177,9.32255e-05,3670026,0.000591899,0.0120602,0.0562549,396809,0.0,0.0,0.0
218222460,3670026,-0.0038503,-0.00308374,9.51345e-05,3670026,0.000578066,0.0120132,0.0550246,396809,0.0,0.0,0.0
219220641,3670026,-0.00387225,-0.00310375,9.7614e-05,3670026,0.000571338,0.0120554,0.0550669,396809,0.0,0.0,0.0
220218822,3670026,-0.00387585,-0.003073,9.92991e-05,3670026,0.000579053,0.0120193,0.0560894,396809,0.0,0.0,0.0
221217004,3670026,-0.00389656,-0.00306959,0.000103688,3670026,0.000589663,0.0120355,0.0548428,396809,0.0,0.0,0.0
222220151,3670026,-0.00387497,-0.00305477,0.000105796,3670026,0.000583057,0.0119963,0.0537489,396809,0.0,0.0,0.0
223218338,3670026,-0.00389923,-0.00306462,0.000109451,3670026,0.000593828,0.0120573,0.0541013,396809,0.0,0.0,0.0
224216601,3670026,-0.00387683,-0.00305462,0.000108957,3670026,0.000588324,0.012002,0.0530245,396809,0.0,0.0,0.0
225219661,3670026,-0.00388032,-0.00305176,0.000107095,3670026,0.000590809,0.0119943,0.0536746,396809,0.0,0.0,0.0
226217842,3670026,-0.0038771,-0.00303824,0.000105418,3670026,0.000592929,0.012011,0.0523429,396809,0.0,0.0,0.0
227221030,3670026,-0.00389311,-0.00305128,0.000105234,3670026,0.000589532,0.0120323,0.0525495,396809,0.0,0.0,0.0
228219171,3670026,-0.00388643,-0.00302038,0.000101563,3670026,0.000594232,0.0120079,0.0532167,396809,0.0,0.0,0.0
229217353,3670026,-0.00388542,-0.00301298,9.73433e-05,3670026,0.000595249,0.012033,0.0543163,396809,0.0,0.0,0.0
230220500,3670026,-0.00386744,-0.00299177,9.24324e-05,3670026,0.000594771,0.0119827,0.0553157,396809,0.0,0.0,0.0
231218771,3670026,-0.00386016,-0.00301454,8.99919e-05,3670026,0.000597111,0.0119999,0.056118,396809,0.0,0.0,0.0
232221829,3670026,-0.0039098,-0.00300247,8.75996e-05,3670026,0.000613658,0.0120483,0.0567369,396809,0.0,0.0,0.0
233215044,3670026,-0.00394426,-0.00301798,8.74808e-05,3670026,0.000617001,0.0120813,0.0557147,396809,0.0,0.0,0.0
234218191,3670026,-0.00392764,-0.00300249,8.65838e-05,3670026,0.000618642,0.0120292,0.0565198,396809,0.0,0.0,0.0
235221339,3670026,-0.00390835,-0.00298269,8.39533e-05,3670026,0.000611848,0.0119955,0.0546328,396809,0.0,0.0,0.0
236219569,3670026,-0.00393282,-0.00303037,8.3652e-05,3670026,0.000597882,0.0120861,0.0535879,396809,0.0,0.0,0.0
237217702,3670026,-0.003907,-0.00305515,7.88649e-05,3670026,0.000588225,0.0120931,0.0527178,396809,0.0,0.0,0.0
238220954,3670026,-0.00389521,-0.00303536,7.66132e-05,3670026,0.000583674,0.0120124,0.0528149,396809,0.0,0.0,0.0
239219029,3670026,-0.00389462,-0.00302769,7.36634e-05,3670026,0.00059243,0.0120523,0.0539482,396809,0.0,0.0,0.0
240217211,3670026,-0.00390649,-0.0030379,7.2301e-05,3670026,0.000596591,0.0121182,0.0546983,396809,0.0,0.0,0.0
241220388,3670026,-0.00389843,-0.00300311,6.98675e-05,3670026,0.000599192,0.0120416,0.0537167,396809,0.0,0.0,0.0
242218539,3670026,-0.00389664,-0.00301256,6.75883e-05,3670026,0.000601733,0.0120747,0.0555861,396809,0.0,0.0,0.0
243221686,3670026,-0.00388413,-0.00302966,6.51927e-05,3670026,0.000604304,0.0120943,0.0541682,396809,0.0,0.0,0.0
244219867,3670026,-0.00386848,-0.00302433,6.41401e-05,3670026,0.00059889,0.0120647,0.0527477,396809,0.0,0.0,0.0
245218208,3670026,-0.00385487,-0.0030002,5.90699e-05,3670026,0.000596987,0.0120721,0.052617,396809,0.0,0.0,0.0
246216230,3670026,-0.00389304,-0.00301366,5.8233e-05,3670026,0.000607459,0.0121078,0.0534661,396809,0.0,0.0,0.0
247219377,3670026,-0.00389423,-0.00300364,5.53412e-05,3670026,0.000606666,0.0121067,0.0533845,396809,0.0,0.0,0.0
248212611,3670026,-0.00389969,-0.00302065,5.51585e-05,3670026,0.000612676,0.0121004,0.053102,396809,0.0,0.0,0.0
249220711,3670026,-0.00385905,-0.00306614,5.14137e-05,3670026,0.000584301,0.012119,0.0494109,396809,0.0,0.0,0.0
250218887,3670026,-0.00385907,-0.00307589,4.28331e-05,3670026,0.00060303,0.0121702,0.0462242,396809,0.0,0.0,0.0
251212101,3670026,-0.00388428,-0.0030712,3.43195e-05,3670026,0.000597792,0.0121376,0.0464179,396809,0.0,0.0,0.0
252215336,3670026,-0.00389194,-0.00300696,2.27579e-05,3670026,0.000600545,0.0120647,0.0470641,396809,0.0,0.0,0.0
253218394,3670026,-0.00390998,-0.00301144,6.04865e-06,3670026,0.000540815,0.0121582,0.0503348,396809,0.0,0.0,0.0
254211609,3670026,-0.00394908,-0.00297662,-6.50802e-06,3670026,0.000630967,0.0120152,0.0522467,396809,0.0,0.0,0.0
255219723,3670026,-0.0039378,-0.00297644,-0.000105573,3670026,0.000895861,0.0136889,0.0534516,396809,0.0,0.0,0.0
256217904,3670026,-0.00390969,-0.00297935,-0.000171958,3670026,8.43305e-06,0.0140145,0.052643,396809,0.0,0.0,0.0
257216087,3670026,-0.00391579,-0.00294622,-0.000144463,3670026,0.00137041,0.0119058,0.0522711,396809,0.0,0.0,0.0
258219231,3670026,-0.00390688,-0.00292135,-0.000135063,3670026,0.00176342,0.010291,0.0527178,396809,0.0,0.0,0.0
259222501,3670026,-0.00390796,-0.00292804,-0.000123583,3670026,0.00217747,0.0114875,0.0532379,396809,0.0,0.0,0.0
260215592,3670026,-0.00394709,-0.00295393,-0.000113998,3670026,0.00326809,0.0121979,0.0554008,396809,0.0,0.0,0.0
261218739,3670026,-0.0039715,-0.0029677,-0.00010653,3670026,0.00504318,0.0122789,0.0568207,396809,0.0,0.0,0.0
262221886,3670026,-0.00393938,-0.00294892,-0.000100583,3670026,0.00489462,0.0127139,0.0554725,396809,0.0,0.0,0.0
263220073,3670026,-0.00395547,-0.00297192,-9.63462e-05,3670026,0.00522011,0.0130344,0.0562363,396809,0.0,0.0,0.0
264218249,3670026,-0.00397167,-0.00298505,-9.05913e-05,3670026,0.00558188,0.0129974,0.0583812,396809,0.0,0.0,0.0
265221394,3670026,-0.00395481,-0.00300603,-8.81561e-05,3670026,0.00609975,0.0132355,0.0593979,396809,0.0,0.0,0.0
266219744,3670026,-0.00393532,-0.0029959,-8.38428e-05,3670026,0.00626979,0.013301,0.0573222,396809,0.0,0.0,0.0
267217756,3670026,-0.00391274,-0.00300271,-8.0334e-05,3670026,0.00662928,0.0133527,0.0552832,396809,0.0,0.0,0.0
268220904,3670026,-0.00392118,-0.00301642,-8.0691e-05,3670026,0.00672669,0.0133829,0.0561184,396809,0.0,0.0,0.0
269219090,3670026,-0.00390824,-0.00301192,-7.96554e-05,3670026,0.00672227,0.0133096,0.0544447,396809,0.0,0.0,0.0
270217264,3670026,-0.00393399,-0.00301832,-7.6882e-05,3670026,0.00649907,0.013365,0.0543784,396809,0.0,0.0,0.0
271215444,3670026,-0.00393992,-0.00301519,-7.5693e-05,3670026,0.00649765,0.0134578,0.0530717,396809,0.0,0.0,0.0
272218591,3670026,-0.00393295,-0.00303647,-7.34847e-05,3670026,0.00642231,0.0131532,0.0545445,396809,0.0,0.0,0.0
273216876,3670026,-0.00395881,-0.00305009,-7.26433e-05,3670026,0.00626198,0.0131406,0.0538736,396809,0.0,0.0,0.0
274219921,3670026,-0.00394894,-0.00303514,-7.01771e-05,3670026,0.00613015,0.0130643,0.0519693,396809,0.0,0.0,0.0
275213133,3670026,-0.00398387,-0.00302829,-7.03723e-05,3670026,0.00602463,0.0132928,0.0521423,396809,0.0,0.0,0.0
276221253,3670026,-0.00398916,-0.00305976,-7.02808e-05,3670026,0.00603542,0.0131334,0.0525732,396809,0.0,0.0,0.0
277214466,3670026,-0.0040284,-0.00305232,-7.04627e-05,3670026,0.00578007,0.013268,0.0532653,396809,0.0,0.0,0.0
278217607,3670026,-0.0040141,-0.00305784,-7.22525e-05,3670026,0.00587425,0.0132062,0.0516448,396809,0.0,0.0,0.0
279220753,3670026,-0.00400417,-0.00305097,-7.31379e-05,3670026,0.00571777,0.0130592,0.0508683,396809,0.0,0.0,0.0
280219118,3670026,-0.00400359,-0.0030779,-7.2345e-05,3670026,0.00574112,0.0129309,0.0521292,396809,0.0,0.0,0.0
281217116,3670026,-0.00400367,-0.0030809,-7.05102e-05,3670026,0.00577945,0.012943,0.0507807,396809,0.0,0.0,0.0
282220261,3670026,-0.0040204,-0.00308553,-6.75854e-05,3670026,0.00574144,0.0129793,0.05297,396809,0.0,0.0,0.0
283218442,3670026,-0.00399503,-0.00308223,-6.3319e-05,3670026,0.00580091,0.0129028,0.0527623,396809,0.0,0.0,0.0
284216622,3670026,-0.00399706,-0.00307988,-5.82176e-05,3670026,0.0057786,0.0129064,0.0545979,396809,0.0,0.0,0.0
285219769,3670026,-0.00401316,-0.00308287,-5.42849e-05,3670026,0.00576123,0.0129638,0.0546796,396809,0.0,0.0,0.0
286217960,3670026,-0.00398996,-0.00307714,-5.27223e-05,3670026,0.00581394,0.0129235,0.0533099,396809,0.0,0.0,0.0
287216243,3670026,-0.00399269,-0.00309013,-5.03813e-05,3670026,0.00580102,0.0129039,0.0524957,396809,0.0,0.0,0.0
288219293,3670026,-0.00395918,-0.00306537,-5.13847e-05,3670026,0.00582562,0.0128502,0.0509811,396809,0.0,0.0,0.0
289212491,3670026,-0.003962,-0.00308228,-5.6246e-05,3670026,0.00589372,0.0128774,0.0513055,396809,0.0,0.0,0.0
290220604,3670026,-0.00396434,-0.00308083,-6.3526e-05,3670026,0.00593879,0.0129264,0.051765,396809,0.0,0.0,0.0
291218787,3670026,-0.00396944,-0.00308297,-6.71517e-05,3670026,0.00585595,0.0128658,0.0535148,396809,0.0,0.0,0.0
292221932,3670026,-0.00397076,-0.00309268,-6.91337e-05,3670026,0.00587824,0.0128608,0.0526101,396809,0.0,0.0,0.0
293220114,3670026,-0.00397539,-0.00310521,-6.97103e-05,3670026,0.00588887,0.0128658,0.0533971,396809,0.0,0.0,0.0
294218413,3670026,-0.00397477,-0.00309088,-6.58485e-05,3670026,0.00582543,0.0128283,0.0531456,396809,0.0,0.0,0.0
295221439,3670026,-0.00397023,-0.00310364,-6.0189e-05,3670026,0.00577997,0.0127542,0.054251,396809,0.0,0.0,0.0
296219620,3670026,-0.00397478,-0.00312506,-5.35663e-05,3670026,0.0058051,0.0127739,0.0541538,396809,0.0,0.0,0.0
297217800,3670026,-0.00398463,-0.00312284,-5.13266e-05,3670026,0.00579004,0.0127827,0.0525475,396809,0.0,0.0,0.0
298215976,3670026,-0.00397487,-0.00312137,-4.98268e-05,3670026,0.005821,0.0127871,0.0513368,396809,0.0,0.0,0.0
299219127,3670026,-0.00398581,-0.00311645,-4.89403e-05,3670026,0.0057694,0.0127667,0.0512036,396809,0.0,0.0,0.0
300217308,3670026,-0.00397886,-0.00312834,-5.29275e-05,3670026,0.00578784,0.0127966,0.0508097,396809,0.0,0.0,0.0
301220596,3670026,-0.00396359,-0.00313216,-3.38404e-05,3670026,0.00598188,0.0126505,0.0516299,396809,0.0,0.0,0.0
302223601,3670026,-0.00390892,-0.00310727,-9.15092e-05,3670026,0.00496667,0.0102501,0.051229,396809,0.0,0.0,0.0
303211849,3670026,-0.00390547,-0.00315875,-0.000255789,3670026,0.00316037,0.00819306,0.0523245,396809,0.0,0.0,0.0
304219971,3670026,-0.00394995,-0.00320517,-0.000352752,3670026,0.00466194,0.0077819,0.053187,396809,0.0,0.0,0.0
305218145,3670026,-0.00394622,-0.00320064,-0.000398031,3670026,0.00616548,0.0069879,0.0548731,396809,0.0,0.0,0.0
306221291,3670026,-0.00397695,-0.00319337,-0.000427982,3670026,0.00769376,0.00516285,0.0547515,396809,0.0,0.0,0.0
307219469,3670026,-0.00398896,-0.00318408,-0.000450055,3670026,0.00814655,0.004388,0.0562839,396809,0.0,0.0,0.0
308217775,3670026,-0.00398892,-0.00320314,-0.000469578,3670026,0.00892001,0.00510115,0.0547319,396809,0.0,0.0,0.0
309220809,3670026,-0.00396606,-0.00319884,-0.00048851,3670026,0.00883134,0.00568587,0.0542395,396809,0.0,0.0,0.0
310218978,3670026,-0.00400598,-0.00321935,-0.000508042,3670026,0.00901102,0.0055112,0.053922,396809,0.0,0.0,0.0
311217156,3670026,-0.00397863,-0.0032106,-0.000520875,3670026,0.00909415,0.0059271,0.0533775,396809,0.0,0.0,0.0
312220330,3670026,-0.00398006,-0.00317467,-0.000531782,3670026,0.00870792,0.00601801,0.0518678,396809,0.0,0.0,0.0
313218483,3670026,-0.00400412,-0.00318806,-0.000542822,3670026,0.00863079,0.00614927,0.0513017,396809,0.0,0.0,0.0
314216663,3670026,-0.00400565,-0.00318017,-0.000550621,3670026,0.00860778,0.0063037,0.0525566,396809,0.0,0.0,0.0
315215007,3670026,-0.0040128,-0.0031639,-0.000561383,3670026,0.00860094,0.0065373,0.0527534,396809,0.0,0.0,0.0
316218007,3670026,-0.00402981,-0.00316197,-0.000563977,3670026,0.00838004,0.00659169,0.0529027,396809,0.0,0.0,0.0
317216170,3670026,-0.00402935,-0.00318277,-0.000566055,3670026,0.00841337,0.00640082,0.0517511,396809,0.0,0.0,0.0
318219317,3670026,-0.00402979,-0.0031814,-0.000568224,3670026,0.00852041,0.00642046,0.0522678,396809,0.0,0.0,0.0
319222550,3670026,-0.00398155,-0.00313217,-0.000567674,3670026,0.00879059,0.00653388,0.0526421,396809,0.0,0.0,0.0
320215676,3670026,-0.00400951,-0.00317304,-0.00056952,3670026,0.0087808,0.00641678,0.0526786,396809,0.0,0.0,0.0
321218822,3670026,-0.0040285,-0.00316705,-0.000564946,3670026,0.00865146,0.00651671,0.0513343,396809,0.0,0.0,0.0
322222127,3670026,-0.00398488,-0.00313402,-0.000556872,3670026,0.00881061,0.00649684,0.0517761,396809,0.0,0.0,0.0
323220148,3670026,-0.00400453,-0.00312942,-0.000550355,3670026,0.00872263,0.00659466,0.0506797,396809,0.0,0.0,0.0
324218329,3670026,-0.0040057,-0.0031294,-0.00054577,3670026,0.00878253,0.00661547,0.049082,396809,0.0,0.0,0.0
325221474,3670026,-0.00401496,-0.00316453,-0.000535912,3670026,0.00864843,0.00645021,0.0502305,396809,0.0,0.0,0.0
326219654,3670026,-0.0039964,-0.00318293,-0.000525034,3670026,0.00859199,0.00626585,0.0492598,396809,0.0,0.0,0.0
327222800,3670026,-0.00400071,-0.00318116,-0.000516112,3670026,0.00859947,0.00628935,0.0490443,396809,0.0,0.0,0.0
328220981,3670026,-0.00401682,-0.00319493,-0.00050793,3670026,0.00858019,0.00629252,0.0494742,396809,0.0,0.0,0.0
329219352,3670026,-0.00401347,-0.00319363,-0.000495607,3670026,0.00851515,0.00625831,0.0512796,396809,0.0,0.0,0.0
330217384,3670026,-0.00403931,-0.00319271,-0.000482823,3670026,0.00847212,0.0063292,0.0527294,396809,0.0,0.0,0.0
331215520,3670026,-0.00403064,-0.00321034,-0.000471002,3670026,0.00845309,0.0062395,0.0543026,396809,0.0,0.0,0.0
332213699,3670026,-0.00402385,-0.0032074,-0.000455724,3670026,0.00836411,0.00619512,0.0547176,396809,0.0,0.0,0.0
333216872,3670026,-0.00403336,-0.00324988,-0.000448189,3670026,0.00835888,0.00610182,0.0542834,396809,0.0,0.0,0.0
334215026,3670026,-0.00404093,-0.00323734,-0.000438794,3670026,0.00836957,0.00615424,0.0534251,396809,0.0,0.0,0.0
335213205,3670026,-0.00403148,-0.00320226,-0.00042521,3670026,0.00828519,0.00618875,0.0529007,396809,0.0,0.0,0.0
336221474,3670026,-0.00402726,-0.00321135,-0.000414479,3670026,0.00835701,0.00616783,0.0526759,396809,0.0,0.0,0.0
337219498,3670026,-0.00404695,-0.00321866,-0.000403077,3670026,0.00833563,0.0061943,0.0525074,396809,0.0,0.0,0.0
338217677,3670026,-0.00406753,-0.0032233,-0.000389353,3670026,0.00830775,0.00622443,0.0523201,396809,0.0,0.0,0.0
339220870,3670026,-0.00406507,-0.00320536,-0.000377993,3670026,0.00825704,0.00624923,0.0550282,396809,0.0,0.0,0.0
340219022,3670026,-0.00407708,-0.00321742,-0.000368784,3670026,0.00826327,0.00624511,0.0532515,396809,0.0,0.0,0.0
341217183,3670026,-0.00407418,-0.00323104,-0.000358627,3670026,0.00825791,0.00621968,0.0538098,396809,0.0,0.0,0.0
342220346,3670026,-0.00406609,-0.00325126,-0.00034509,3670026,0.00818362,0.00615939,0.0544137,396809,0.0,0.0,0.0
343218714,3670026,-0.00406235,-0.0032473,-0.000334834,3670026,0.00824338,0.00617447,0.0541469,396809,0.0,0.0,0.0
344216688,3670026,-0.00408556,-0.00325012,-0.000325154,3670026,0.00825088,0.00620951,0.053364,396809,0.0,0.0,0.0
345219834,3670026,-0.00406484,-0.00324161,-0.000312729,3670026,0.00821735,0.00617108,0.0528422,396809,0.0,0.0,0.0
346213047,3670026,-0.00408292,-0.00322923,-0.000302585,3670026,0.00825994,0.00622578,0.0526503,396809,0.0,0.0,0.0
347221218,3670026,-0.00406318,-0.00322876,-0.000291321,3670026,0.00823961,0.00618894,0.0519091,396809,0.0,0.0,0.0
348224304,3670026,-0.00407037,-0.00325168,-0.000283614,3670026,0.00830579,0.00620619,0.0517952,396809,0.0,0.0,0.0
349212549,3670026,-0.00403862,-0.0031994,-0.000270025,3670026,0.008262,0.0061907,0.0509472,396809,0.0,0.0,0.0
350220832,3670026,-0.00405356,-0.00322137,-0.000258463,3670026,0.00828364,0.0062063,0.0520171,396809,0.0,0.0,0.0
351223810,3670026,-0.00406807,-0.00322862,-0.000242845,3670026,0.00823693,0.00619774,0.0530008,396809,0.0,0.0,0.0
352217060,3670026,-0.00408369,-0.00324495,-0.000230024,3670026,0.0082918,0.00623796,0.0533364,396809,0.0,0.0,0.0
353220168,3670026,-0.00406406,-0.00323251,-0.000218828,3670026,0.00825025,0.00620596,0.0517563,396809,0.0,0.0,0.0
354218447,3670026,-0.00406709,-0.00324854,-0.000207558,3670026,0.00827093,0.00621043,0.0525601,396809,0.0,0.0,0.0
355216531,3670026,-0.00405925,-0.0032491,-0.000195825,3670026,0.00828126,0.00621437,0.0531867,396809,0.0,0.0,0.0
356219716,3670026,-0.00404182,-0.00323247,-0.00018548,3670026,0.00826496,0.00620065,0.0528469,396809,0.0,0.0,0.0
357222818,3670026,-0.00402608,-0.00321859,-0.000176896,3670026,0.0082539,0.00619177,0.0531581,396809,0.0,0.0,0.0
358220997,3670026,-0.0040298,-0.00323688,-0.000167332,3670026,0.00828446,0.00620842,0.0540245,396809,0.0,0.0,0.0
359219178,3670026,-0.00404962,-0.00324764,-0.000156165,3670026,0.00832819,0.00624628,0.054981,396809,0.0,0.0,0.0
360217356,3670026,-0.00404101,-0.00324097,-0.000144522,3670026,0.0082977,0.00622708,0.0553731,396809,0.0,0.0,0.0
361220622,3670026,-0.00402941,-0.00323259,-0.00013225,3670026,0.00827068,0.00620122,0.0541045,396809,0.0,0.0,0.0
362218680,3670026,-0.00403375,-0.00323003,-0.000121378,3670026,0.00828731,0.00620986,0.0528449,396809,0.0,0.0,0.0
363216857,3670026,-0.00405821,-0.00325619,-0.000108645,3670026,0.00827892,0.0062188,0.0535296,396809,0.0,0.0,0.0
364220005,3670026,-0.00405654,-0.00325436,-9.72516e-05,3670026,0.0082647,0.00621333,0.0540378,396809,0.0,0.0,0.0
365218185,3670026,-0.00405336,-0.00326745,-8.677e-05,3670026,0.00826737,0.00622034,0.0557643,396809,0.0,0.0,0.0
366216365,3670026,-0.00407244,-0.00324964,-7.91975e-05,3670026,0.00829872,0.00624116,0.0549217,396809,0.0,0.0,0.0
367219509,3670026,-0.00404439,-0.00323546,-7.01282e-05,3670026,0.00827142,0.00621514,0.0541173,396809,0.0,0.0,0.0
368217844,3670026,-0.00405222,-0.00323341,-6.21897e-05,3670026,0.00830016,0.0062347,0.0536921,396809,0.0,0.0,0.0
369215868,3670026,-0.00405354,-0.00323048,-5.13911e-05,3670026,0.00831102,0.00623998,0.0527985,396809,0.0,0.0,0.0
370219013,3670026,-0.00406865,-0.00321372,-4.17781e-05,3670026,0.00829555,0.00624457,0.0533508,396809,0.0,0.0,0.0
371217230,3670026,-0.00408351,-0.00323635,-3.13705e-05,3670026,0.00831362,0.00625755,0.0531392,396809,0.0,0.0,0.0
372215370,3670026,-0.00409881,-0.00323042,-2.18723e-05,3670026,0.00830865,0.00625996,0.0524053,396809,0.0,0.0,0.0
373218516,3670026,-0.00411461,-0.00324505,-1.49595e-05,3670026,0.00830883,0.00626042,0.0529122,396809,0.0,0.0,0.0
374221661,3670026,-0.00409878,-0.00322121,-7.86748e-06,3670026,0.00825441,0.00622414,0.0546131,396809,0.0,0.0,0.0
375219967,3670026,-0.0040906,-0.00325963,1.20688e-06,3670026,0.00828702,0.00623844,0.0541371,396809,0.0,0.0,0.0
376218031,3670026,-0.00410131,-0.00325953,8.80862e-06,3670026,0.0082834,0.00623845,0.0550335,396809,0.0,0.0,0.0
377221164,3670026,-0.0040904,-0.0032633,1.39988e-05,3670026,0.00830397,0.00625256,0.0550349,396809,0.0,0.0,0.0
378219343,3670026,-0.00407752,-0.00324855,1.92988e-05,3670026,0.00827581,0.00623713,0.0525244,396809,0.0,0.0,0.0
379217524,3670026,-0.00409037,-0.00327048,2.99486e-05,3670026,0.00829446,0.00624855,0.053723,396809,0.0,0.0,0.0
380220666,3670026,-0.00407842,-0.00327408,3.69121e-05,3670026,0.00826341,0.00622626,0.0540254,396809,0.0,0.0,0.0
381218848,3670026,-0.0040754,-0.00328811,4.34027e-05,3670026,0.00828776,0.00624102,0.0544607,396809,0.0,0.0,0.0
382217243,3670026,-0.00408464,-0.00328471,5.10837e-05,3670026,0.00829395,0.00624896,0.0547356,396809,0.0,0.0,0.0
383220169,3670026,-0.0040643,-0.00327922,5.87966e-05,3670026,0.00826991,0.0062325,0.0547123,396809,0.0,0.0,0.0
384218348,3670026,-0.00405652,-0.00327517,6.46356e-05,3670026,0.00829283,0.00624636,0.055136,396809,0.0,0.0,0.0
385221492,3670026,-0.00404397,-0.0032836,6.91969e-05,3670026,0.00830561,0.00625918,0.0533389,396809,0.0,0.0,0.0
386219673,3670026,-0.00404866,-0.00328682,7.74344e-05,3670026,0.008275,0.0062431,0.0514762,396809,0.0,0.0,0.0
387217850,3670026,-0.00401476,-0.00328139,8.65146e-05,3670026,0.00828841,0.00624718,0.0504171,396809,0.0,0.0,0.0
388216030,3670026,-0.00399328,-0.00327611,9.46737e-05,3670026,0.00827345,0.00623417,0.050019,396809,0.0,0.0,0.0
389219312,3670026,-0.00403896,-0.00328291,0.000104144,3670026,0.00830291,0.00625674,0.0518588,396809,0.0,0.0,0.0
390217353,3670026,-0.00404951,-0.00330108,0.000115245,3670026,0.00830253,0.00624405,0.0526038,396809,0.0,0.0,0.0
391220497,3670026,-0.00404865,-0.00330113,0.000123236,3670026,0.00827448,0.00622534,0.0525763,396809,0.0,0.0,0.0
392213709,3670026,-0.00405995,-0.00331797,0.000129387,3670026,0.00829233,0.00624152,0.0531772,396809,0.0,0.0,0.0
393216854,3670026,-0.00407363,-0.00334337,0.000136577,3670026,0.00830392,0.00625786,0.0529955,396809,0.0,0.0,0.0
394219999,3670026,-0.0040602,-0.0033164,0.000142096,3670026,0.00827229,0.00623052,0.0533414,396809,0.0,0.0,0.0
395213212,3670026,-0.00408711,-0.00331741,0.000149793,3670026,0.00829165,0.006245,0.0540567,396809,0.0,0.0,0.0
396216473,3670026,-0.0040859,-0.00332518,0.000157108,3670026,0.00830442,0.00624814,0.0553463,396809,0.0,0.0,0.0
397219501,3670026,-0.00407117,-0.00330927,0.000161598,3670026,0.00826966,0.0062243,0.0541875,396809,0.0,0.0,0.0
398212713,3670026,-0.00401441,-0.00329084,0.000164631,3670026,0.00824622,0.00619751,0.0523747,396809,0.0,0.0,0.0
399215858,3670026,-0.00403664,-0.0032941,0.000169707,3670026,0.00830401,0.00623416,0.0533126,396809,0.0,0.0,0.0
400219020,3670026,-0.00405299,-0.0032677,0.000179426,3670026,0.00825605,0.00621085,0.0530778,396809,0.0,0.0,0.0
401217214,3670026,-0.00407742,-0.00327588,0.000186279,3670026,0.00826822,0.00621886,0.053777,396809,0.0,0.0,0.0
402220325,3670026,-0.00408119,-0.0032728,0.000187412,3670026,0.0082773,0.00623099,0.0537536,396809,0.0,0.0,0.0
403218644,3670026,-0.00410014,-0.00325772,0.000188914,3670026,0.00827256,0.00621255,0.0548408,396809,0.0,0.0,0.0
404221660,3670026,-0.00407464,-0.00329576,0.000187134,3670026,0.0082367,0.00624894,0.0536848,396809,0.0,0.0,0.0
405214860,3670026,-0.00408043,-0.00331045,0.000171765,3670026,0.00937318,0.00592909,0.0535609,396809,0.0,0.0,0.0
406222970,3670026,-0.00402775,-0.00325738,3.58769e-05,3670026,0.0109,0.00385744,0.052726,396809,0.0,0.0,0.0
407221148,3670026,-0.00403184,-0.00325514,-2.1763e-05,3670026,0.0105251,0.00382023,0.0549168,396809,0.0,0.0,0.0
408219386,3670026,-0.00407319,-0.00328679,-4.46522e-05,3670026,0.010474,0.00510156,0.0551733,396809,0.0,0.0,0.0
409217505,3670026,-0.00407948,-0.00328915,-7.22552e-05,3670026,0.0115383,0.00696081,0.0549373,396809,0.0,0.0,0.0
410220843,3670026,-0.00407344,-0.00328567,-8.58294e-05,3670026,0.0124115,0.00766786,0.053667,396809,0.0,0.0,0.0
411218827,3670026,-0.00409302,-0.00331348,-0.000101572,3670026,0.0136714,0.0083786,0.053826,396809,0.0,0.0,0.0
412221972,3670026,-0.00407932,-0.00332873,-0.000111875,3670026,0.0139575,0.00922072,0.0538556,396809,0.0,0.0,0.0
413220151,3670026,-0.00406753,-0.00332231,-0.000117644,3670026,0.0139781,0.0090776,0.0559189,396809,0.0,0.0,0.0
414218328,3670026,-0.00407111,-0.00331647,-0.00011562,3670026,0.0137435,0.0091004,0.0561185,396809,0.0,0.0,0.0
415221471,3670026,-0.00407667,-0.00331856,-0.000106958,3670026,0.0137633,0.00890879,0.0562211,396809,0.0,0.0,0.0
416214688,3670026,-0.00407379,-0.00331334,-0.000101616,3670026,0.013844,0.00896277,0.0563935,396809,0.0,0.0,0.0
417217974,3670026,-0.00408021,-0.00330291,-9.48474e-05,3670026,0.0136618,0.00861659,0.0538165,396809,0.0,0.0,0.0
418216006,3670026,-0.00411125,-0.00332352,-9.38936e-05,3670026,0.0134921,0.00833603,0.0532547,396809,0.0,0.0,0.0
419219150,3670026,-0.00414208,-0.00332002,-9.14428e-05,3670026,0.0131944,0.00833411,0.0534159,396809,0.0,0.0,0.0
420222294,3670026,-0.00413891,-0.00330184,-9.14045e-05,3670026,0.0131091,0.00836406,0.0535901,396809,0.0,0.0,0.0
421220510,3670026,-0.00412498,-0.00328946,-9.39137e-05,3670026,0.0132327,0.00836961,0.0531598,396809,0.0,0.0,0.0
422213685,3670026,-0.00413593,-0.00328824,-9.9915e-05,3670026,0.0134134,0.00853713,0.0542744,396809,0.0,0.0,0.0
423221798,3670026,-0.00411085,-0.00326508,-0.000105326,3670026,0.0134658,0.00856428,0.05344,396809,0.0,0.0,0.0
424220146,3670026,-0.0041035,-0.00327584,-0.000107331,3670026,0.0133988,0.00841747,0.0526358,396809,0.0,0.0,0.0
425218153,3670026,-0.00411394,-0.00329549,-0.00010456,3670026,0.0133086,0.00831859,0.0519588,396809,0.0,0.0,0.0
426221296,3670026,-0.00409719,-0.00329714,-0.000100258,3670026,0.013418,0.00824655,0.0525444,396809,0.0,0.0,0.0
427219474,3670026,-0.00413959,-0.00331821,-8.81276e-05,3670026,0.0130457,0.00824058,0.0536613,396809,0.0,0.0,0.0
428217720,3670026,-0.0041335,-0.00330527,-7.8045e-05,3670026,0.0131688,0.00829816,0.0540993,396809,0.0,0.0,0.0
429215830,3670026,-0.00413417,-0.00331896,-6.74472e-05,3670026,0.0131188,0.00822752,0.0536131,396809,0.0,0.0,0.0
430218974,3670026,-0.00412294,-0.00330787,-6.36416e-05,3670026,0.0130696,0.00821189,0.051358,396809,0.0,0.0,0.0
431222299,3670026,-0.00411015,-0.00328144,-6.22948e-05,3670026,0.0131306,0.00827112,0.0512226,396809,0.0,0.0,0.0
432215333,3670026,-0.00414869,-0.00330907,-5.48469e-05,3670026,0.0131638,0.00833738,0.0523836,396809,0.0,0.0,0.0
433218475,3670026,-0.00410017,-0.00329524,-5.19112e-05,3670026,0.0132731,0.00825629,0.0523862,396809,0.0,0.0,0.0
434221618,3670026,-0.00410644,-0.00329765,-5.40822e-05,3670026,0.0133062,0.008288,0.0524802,396809,0.0,0.0,0.0
435214871,3670026,-0.00407657,-0.00326714,-5.41433e-05,3670026,0.0135371,0.00835662,0.0538097,396809,0.0,0.0,0.0
436217974,3670026,-0.00405056,-0.00326312,-5.09827e-05,3670026,0.0135106,0.00827663,0.0538858,396809,0.0,0.0,0.0
437221118,3670026,-0.00401676,-0.00325138,-4.93354e-05,3670026,0.0135945,0.00823467,0.0534232,396809,0.0,0.0,0.0
438219466,3670026,-0.00405244,-0.00327333,-4.38571e-05,3670026,0.0134715,0.00824618,0.0527668,396809,0.0,0.0,0.0
439217479,3670026,-0.00409294,-0.00329534,-3.53887e-05,3670026,0.0133316,0.00826093,0.0505895,396809,0.0,0.0,0.0
440220639,3670026,-0.00410748,-0.00327895,-2.88505e-05,3670026,0.0132473,0.00832817,0.0486733,396809,0.0,0.0,0.0
441218794,3670026,-0.00410724,-0.00327651,-2.60932e-05,3670026,0.013272,0.00834175,0.0502848,396809,0.0,0.0,0.0
442221995,3670026,-0.00409723,-0.00324767,-2.46478e-05,3670026,0.0132319,0.00835313,0.0514095,396809,0.0,0.0,0.0
443220115,3670026,-0.00411259,-0.00326564,-2.36944e-05,3670026,0.0132511,0.00835855,0.0524624,396809,0.0,0.0,0.0
444218293,3670026,-0.00411634,-0.00327782,-2.21008e-05,3670026,0.0132793,0.00835241,0.0530311,396809,0.0,0.0,0.0
445216638,3670026,-0.00411521,-0.0032902,-1.94636e-05,3670026,0.0132772,0.00832368,0.0535644,396809,0.0,0.0,0.0
446219668,3670026,-0.00410225,-0.00328419,-1.84291e-05,3670026,0.0132237,0.0082885,0.0535028,396809,0.0,0.0,0.0
447217791,3670026,-0.00411433,-0.00330508,-1.38146e-05,3670026,0.0132591,0.00830208,0.0544074,396809,0.0,0.0,0.0
448220934,3670026,-0.00409761,-0.00329101,-9.70686e-06,3670026,0.0132207,0.00828011,0.0537595,396809,0.0,0.0,0.0
449214240,3670026,-0.00411539,-0.00331672,-5.78957e-06,3670026,0.0133035,0.00831948,0.0542709,396809,0.0,0.0,0.0
450217289,3670026,-0.00411325,-0.00332568,-9.38637e-07,3670026,0.0132394,0.00828901,0.05411,396809,0.0,0.0,0.0
451220428,3670026,-0.00411878,-0.00332723,-8.97559e-07,3670026,0.0132163,0.0082883,0.0532835,396809,0.0,0.0,0.0
452218609,3670026,-0.00412525,-0.00333374,2.6394e-06,3670026,0.0132165,0.00829573,0.0534984,396809,0.0,0.0,0.0
453216787,3670026,-0.0041361,-0.00334092,5.25243e-06,3670026,0.0132167,0.00830323,0.054323,396809,0.0,0.0,0.0
454219929,3670026,-0.00413504,-0.00333675,9.06686e-06,3670026,0.0131781,0.00828667,0.0537432,396809,0.0,0.0,0.0
455218106,3670026,-0.00413124,-0.00333671,1.26784e-05,3670026,0.0132128,0.00829362,0.0542884,396809,0.0,0.0,0.0
456216446,3670026,-0.00412931,-0.00332718,1.5021e-05,3670026,0.0132131,0.00829308,0.0537452,396809,0.0,0.0,0.0
457219426,3670026,-0.00411783,-0.00330361,1.46364e-05,3670026,0.0131749,0.00828082,0.0537087,396809,0.0,0.0,0.0
458217618,3670026,-0.00413999,-0.00330513,1.2876e-05,3670026,0.013243,0.00834364,0.0530786,396809,0.0,0.0,0.0
459220746,3670026,-0.0041249,-0.00329575,1.52473e-05,3670026,0.0132087,0.00832147,0.0531824,396809,0.0,0.0,0.0
460218925,3670026,-0.00412658,-0.00329748,1.85939e-05,3670026,0.0132304,0.00833569,0.0526882,396809,0.0,0.0,0.0
461212134,3670026,-0.00411457,-0.00328546,2.1977e-05,3670026,0.0132935,0.00836792,0.0530033,396809,0.0,0.0,0.0
462215277,3670026,-0.00409864,-0.00326851,2.58722e-05,3670026,0.0133551,0.00839812,0.0532525,396809,0.0,0.0,0.0
463218586,3670026,-0.00409434,-0.00326333,3.0116e-05,3670026,0.0133013,0.00836931,0.0525701,396809,0.0,0.0,0.0
464211630,3670026,-0.0041036,-0.00327771,3.51924e-05,3670026,0.0133365,0.00839218,0.0527529,396809,0.0,0.0,0.0
465219739,3670026,-0.00412485,-0.00328463,4.02241e-05,3670026,0.0133541,0.00841101,0.0530583,396809,0.0,0.0,0.0
466217916,3670026,-0.00412321,-0.00327246,4.09065e-05,3670026,0.0132945,0.00837773,0.052354,396809,0.0,0.0,0.0
467221058,3670026,-0.00412154,-0.00327547,4.42049e-05,3670026,0.013237,0.00833702,0.0512356,396809,0.0,0.0,0.0
468214269,3670026,-0.00414581,-0.00329484,4.71054e-05,3670026,0.0132691,0.00836246,0.0508001,396809,0.0,0.0,0.0
469217412,3670026,-0.00417533,-0.00332519,4.77382e-05,3670026,0.0133751,0.00837187,0.0497761,396809,0.0,0.0,0.0
470220762,3670026,-0.0041726,-0.00333036,4.84788e-05,3670026,0.0133114,0.00832176,0.0481466,396809,0.0,0.0,0.0
471218730,3670026,-0.00417965,-0.0033253,4.88954e-05,3670026,0.0133641,0.00834957,0.0466778,396809,0.0,0.0,0.0
472221873,3670026,-0.00421877,-0.0033572,5.07509e-05,3670026,0.0133632,0.00838726,0.0477718,396809,0.0,0.0,0.0
473220051,3670026,-0.00420684,-0.00333677,4.81834e-05,3670026,0.0133831,0.00838107,0.0481623,396809,0.0,0.0,0.0
474218227,3670026,-0.0041891,-0.00332973,4.45613e-05,3670026,0.0133227,0.00835471,0.0461717,396809,0.0,0.0,0.0
475216403,3670026,-0.0041736,-0.00333024,4.05393e-05,3670026,0.0133563,0.00834308,0.0483292,396809,0.0,0.0,0.0
476219545,3670026,-0.00415502,-0.0033381,3.02848e-05,3670026,0.0133526,0.00832709,0.0493025,396809,0.0,0.0,0.0
477222923,3670026,-0.00411482,-0.00332524,2.04146e-05,3670026,0.0132802,0.00826538,0.0506901,396809,0.0,0.0,0.0
478220864,3670026,-0.00412185,-0.00334835,1.12036e-05,3670026,0.0133158,0.00826891,0.0528265,396809,0.0,0.0,0.0
479219040,3670026,-0.00414281,-0.00335878,-3.59529e-06,3670026,0.0133641,0.00831278,0.0529398,396809,0.0,0.0,0.0
480217218,3670026,-0.00412373,-0.00334079,-1.82623e-05,3670026,0.0133299,0.00830251,0.0523906,396809,0.0,0.0,0.0
481220396,3670026,-0.00410243,-0.00333591,-3.01339e-05,3670026,0.0133212,0.00829016,0.0520352,396809,0.0,0.0,0.0
482218536,3670026,-0.00410099,-0.0033348,-4.19192e-05,3670026,0.0133451,0.00831125,0.0526929,396809,0.0,0.0,0.0
483221680,3670026,-0.00408314,-0.00333164,-4.96575e-05,3670026,0.0134051,0.00833994,0.0513913,396809,0.0,0.0,0.0
