timestamp,gyro_device_id,gyro_bias[0],gyro_bias[1],gyro_bias[2],accel_device_id,accel_bias[0],accel_bias[1],accel_bias[2],mag_device_id,mag_bias[0],mag_bias[1],mag_bias[2]
37321921,3670026,0.0008747561,0.0033676974,0.008393213,3670026,0.00061248767,0.0,-0.061245214,396809,0.0,0.0,0.0
37336625,3670026,0.0008748123,0.003367914,0.008393752,3670026,0.000612527,0.0,-0.06124915,396809,0.0,0.0,0.0
38325065,3670026,0.0010468635,0.0028617287,0.007934125,3670026,0.0006113404,0.0,-0.0625446,396809,0.0,0.0,0.0
39323434,3670026,0.0011794878,0.0023910825,0.0075159627,3670026,0.00061264564,0.0,-0.064774394,396809,0.0,0.0,0.0
40326772,3670026,0.0012572568,0.0020378365,0.0071188174,3670026,0.0006108221,0.0,-0.067071706,396809,0.0,0.0,0.0
41325194,3670026,0.0012974226,0.0018731494,0.006905034,3670026,0.0006573722,-4.5924867e-06,-0.06815366,396809,0.0,0.0,0.0
42323515,3670026,0.0013302822,0.001838719,0.0067322357,3670026,0.0019912354,-3.836432e-05,-0.0684707,396809,0.0,0.0,0.0
43321887,3670026,0.0013594568,0.0018001666,0.006575633,3670026,0.009140763,-0.00070597976,-0.06887303,396809,0.0,0.0,0.0
44325226,3670026,0.0013822711,0.0017340648,0.006352069,3670026,0.029177375,-0.0034672923,-0.068981774,396809,0.0,0.0,0.0
45323598,3670026,0.0014105451,0.0016783519,0.0061757755,3670026,0.05619639,-0.010840379,-0.06987556,396809,0.0,0.0,0.0
46321972,3670026,0.0014338164,0.0016207794,0.006062261,3670026,0.10275714,-0.021444093,-0.07058119,396809,0.0,0.0,0.0
47325309,3670026,0.0014374292,0.0015449211,0.00588849,3670026,0.15035373,-0.02540022,-0.06990374,396809,0.0,0.0,0.0
48323766,3670026,0.0014629215,0.0014938293,0.0057149734,3670026,0.18173039,-0.033797786,-0.07094342,396809,0.0,0.0,0.0
49327023,3670026,0.0014821391,0.0014688029,0.0055933413,3670026,0.19890292,-0.042961467,-0.071734875,396809,0.0,0.0,0.0
50320430,3670026,0.0014917928,0.0014456506,0.0054996344,3670026,0.21416284,-0.042506315,-0.07136479,396809,0.0,0.0,0.0
51323767,3670026,0.0015148668,0.001449045,0.0054562744,3670026,0.22114608,-0.04999342,-0.07129839,396809,0.0,0.0,0.0
52322140,3670026,0.0015216192,0.0015329075,0.0054476773,3670026,0.2568043,-0.05479386,-0.07094524,396809,0.0,0.0,0.0
53320512,3670026,0.0014732943,0.0015551624,0.0054559135,3670026,0.26586485,-0.030218557,-0.07311351,396809,0.0,0.0,0.0
54323852,3670026,0.001488603,0.001573001,0.005424126,3670026,0.28113362,-0.046539012,-0.07298743,396809,0.0,0.0,0.0
55322391,3670026,0.0014860951,0.0015874372,0.0054384847,3670026,0.28676793,-0.053518828,-0.071256265,396809,0.0,0.0,0.0
56320599,3670026,0.0014867597,0.0015816933,0.0054301023,3670026,0.29201558,-0.055795696,-0.06971906,396809,0.0,0.0,0.0
57323939,3670026,0.00147079,0.0015555868,0.005406398,3670026,0.29567325,-0.05812744,-0.066750325,396809,0.0,0.0,0.0
58322313,3670026,0.0014972127,0.0015216805,0.005418546,3670026,0.30033845,-0.0613034,-0.065909296,396809,0.0,0.0,0.0
59325653,3670026,0.0014790068,0.0014049697,0.0053415024,3670026,0.2969573,-0.06509689,-0.06532818,396809,0.0,0.0,0.0
60324026,3670026,0.0014945149,0.0013064535,0.0053767744,3670026,0.2977527,-0.06982021,-0.06559863,396809,0.0,0.0,0.0
61322400,3670026,0.001497359,0.0011151352,0.0053646523,3670026,0.2882747,-0.06714059,-0.06617904,396809,0.0,0.0,0.0
62325909,3670026,0.0015649331,0.000918285,0.0053357165,3670026,0.27105713,-0.063379556,-0.06723729,396809,0.0,0.0,0.0
63319149,3670026,0.0016797764,0.0007231375,0.0053594145,3670026,0.25186604,-0.05759307,-0.06512438,396809,0.0,0.0,0.0
64322490,3670026,0.0018109395,0.00052809966,0.005269874,3670026,0.22998744,-0.052836545,-0.063782044,396809,0.0,0.0,0.0
65320862,3670026,0.0018228962,0.00035888684,0.005235528,3670026,0.2216384,-0.042758983,-0.06314871,396809,0.0,0.0,0.0
66319236,3670026,0.0018273938,0.00022320879,0.0051639793,3670026,0.21561421,-0.036586743,-0.060853742,396809,0.0,0.0,0.0
67322577,3670026,0.0018626497,9.9746416e-05,0.0050874385,3670026,0.21012644,-0.03403736,-0.060383134,396809,0.0,0.0,0.0
68320951,3670026,0.0018724038,1.2166896e-05,0.0050107534,3670026,0.20755242,-0.033394463,-0.05927587,396809,0.0,0.0,0.0
69324510,3670026,0.0018451932,-0.00011676258,0.004896887,3670026,0.20406252,-0.033573445,-0.05919552,396809,0.0,0.0,0.0
70322667,3670026,0.0018136357,-0.000270259,0.004818425,3670026,0.20129542,-0.03563309,-0.05983144,396809,0.0,0.0,0.0
71321042,3670026,0.001803809,-0.00043802778,0.0046932967,3670026,0.1980136,-0.040883087,-0.062058777,396809,0.0,0.0,0.0
72324382,3670026,0.0017887991,-0.00054006896,0.0045572794,3670026,0.19505224,-0.044082236,-0.06245335,396809,0.0,0.0,0.0
73322782,3670026,0.0017008459,-0.00061614066,0.00444192,3670026,0.19045353,-0.045278568,-0.06536792,396809,0.0,0.0,0.0
74326099,3670026,0.0016533281,-0.0006316256,0.0043323855,3670026,0.18888812,-0.04492992,-0.06595581,396809,0.0,0.0,0.0
75324472,3670026,0.0015865166,-0.0006600648,0.0042173555,3670026,0.18647842,-0.044340827,-0.06618328,396809,0.0,0.0,0.0
76322847,3670026,0.0015040652,-0.0006853399,0.004100077,3670026,0.18379582,-0.043334037,-0.0654521,396809,0.0,0.0,0.0
77326194,3670026,0.0014515094,-0.00067311653,0.003927949,3670026,0.1809318,-0.042204253,-0.063371666,396809,0.0,0.0,0.0
78319627,3670026,0.0014298345,-0.00069758436,0.0038332397,3670026,0.18088913,-0.042592198,-0.06360541,396809,0.0,0.0,0.0
79322938,3670026,0.0013632526,-0.00067498867,0.0037162695,3670026,0.18038532,-0.040132664,-0.06295312,396809,0.0,0.0,0.0
80321424,3670026,0.0013328657,-0.0006500193,0.0036712606,3670026,0.18350181,-0.038590774,-0.06243906,396809,0.0,0.0,0.0
81324654,3670026,0.0013299425,-0.0006519246,0.0036315573,3670026,0.18432629,-0.039658427,-0.061894633,396809,0.0,0.0,0.0
82323029,3670026,0.0013629037,-0.0007019062,0.0036105097,3670026,0.17474215,-0.03933655,-0.061364893,396809,0.0,0.0,0.0
83321404,3670026,0.0014171713,-0.0007267527,0.0035758691,3670026,0.15989628,-0.04224311,-0.059659507,396809,0.0,0.0,0.0
84324747,3670026,0.0014665484,-0.00072951266,0.0034991642,3670026,0.14966893,-0.041724656,-0.057268195,396809,0.0,0.0,0.0
85323121,3670026,0.0015271477,-0.00074116385,0.0034321814,3670026,0.15068041,-0.03913506,-0.057042245,396809,0.0,0.0,0.0
86321527,3670026,0.0015656243,-0.0007599846,0.0033870582,3670026,0.15287676,-0.036396608,-0.057635356,396809,0.0,0.0,0.0
87324949,3670026,0.0015339293,-0.00079140696,0.0033000107,3670026,0.15059274,-0.035448983,-0.057723284,396809,0.0,0.0,0.0
88323212,3670026,0.0014943547,-0.0008047586,0.0032704577,3670026,0.14697221,-0.033383332,-0.058752775,396809,0.0,0.0,0.0
89321587,3670026,0.0013949096,-0.0007581191,0.0031933878,3670026,0.13798325,-0.027667703,-0.058728,396809,0.0,0.0,0.0
90324929,3670026,0.0012987679,-0.00072388304,0.0031165485,3670026,0.12959342,-0.02403127,-0.058169756,396809,0.0,0.0,0.0
91318337,3670026,0.001263494,-0.0007120256,0.0030668592,3670026,0.12668253,-0.022367343,-0.05805987,396809,0.0,0.0,0.0
92321679,3670026,0.0012213723,-0.00069289596,0.0029806073,3670026,0.12309766,-0.021134568,-0.05731885,396809,0.0,0.0,0.0
93325020,3670026,0.0011718939,-0.000698561,0.0029093758,3670026,0.12024779,-0.021777378,-0.057761103,396809,0.0,0.0,0.0
94318542,3670026,0.0011536481,-0.0007125011,0.0028639126,3670026,0.11968804,-0.022725178,-0.05796019,396809,0.0,0.0,0.0
95321771,3670026,0.0011140242,-0.00071321125,0.0027914804,3670026,0.11803947,-0.022917252,-0.05801604,396809,0.0,0.0,0.0
96320146,3670026,0.0010961619,-0.00072449003,0.0027294587,3670026,0.117112935,-0.02308477,-0.05903057,396809,0.0,0.0,0.0
97323528,3670026,0.0010835229,-0.00074527314,0.0026629677,3670026,0.11597706,-0.023106439,-0.057753082,396809,0.0,0.0,0.0
98321863,3670026,0.0010873425,-0.000784458,0.0026123906,3670026,0.115679435,-0.023512451,-0.05712176,396809,0.0,0.0,0.0
99320239,3670026,0.0010505096,-0.0008096503,0.0025569904,3670026,0.11532705,-0.023792516,-0.059139516,396809,0.0,0.0,0.0
100323600,3670026,0.0010635605,-0.00085059385,0.0024930134,3670026,0.114446335,-0.024065422,-0.060505576,396809,0.0,0.0,0.0
101322118,3670026,0.0010813943,-0.00096678524,0.0024549754,3670026,0.11380706,-0.024450587,-0.060205493,396809,0.0,0.0,0.0
102325296,3670026,0.0010927576,-0.00096010865,0.002381738,3670026,0.11312722,-0.024309492,-0.056967523,396809,0.0,0.0,0.0
103323671,3670026,0.0010888651,-0.0009812543,0.0023389705,3670026,0.11356529,-0.024431713,-0.055042896,396809,0.0,0.0,0.0
104322046,3670026,0.0010845928,-0.00095618475,0.0022787729,3670026,0.11306401,-0.0242097,-0.05279886,396809,0.0,0.0,0.0
105325465,3670026,0.0010434691,-0.00088333775,0.0022227399,3670026,0.112597145,-0.023817439,-0.052617487,396809,0.0,0.0,0.0
106328731,3670026,0.0010157685,-0.00089857046,0.0021853566,3670026,0.113065556,-0.023637816,-0.05225278,396809,0.0,0.0,0.0
107322138,3670026,0.0009779152,-0.00089779875,0.0021339778,3670026,0.11220196,-0.023392554,-0.05185305,396809,0.0,0.0,0.0
108320516,3670026,0.0009774354,-0.00087488245,0.0021007892,3670026,0.11229203,-0.023575893,-0.05420241,396809,0.0,0.0,0.0
109323857,3670026,0.00098968,-0.00091248506,0.002045554,3670026,0.11160545,-0.02372672,-0.05500926,396809,0.0,0.0,0.0
110322230,3670026,0.0009812508,-0.0009322008,0.0020027126,3670026,0.11165685,-0.023838298,-0.055289026,396809,0.0,0.0,0.0
111320610,3670026,0.0010014989,-0.00097606925,0.0019626503,3670026,0.111646004,-0.024084888,-0.055482827,396809,0.0,0.0,0.0
112324000,3670026,0.0009941752,-0.0010261101,0.0018989824,3670026,0.11085467,-0.024252161,-0.054526437,396809,0.0,0.0,0.0
113322322,3670026,0.0010080016,-0.0010078367,0.001865738,3670026,0.11107215,-0.024266912,-0.054160226,396809,0.0,0.0,0.0
114325664,3670026,0.0010035986,-0.0009787772,0.0018266176,3670026,0.11108267,-0.02437417,-0.053691283,396809,0.0,0.0,0.0
115324054,3670026,0.0010233858,-0.0009861795,0.0017840684,3670026,0.11059989,-0.024384364,-0.052716605,396809,0.0,0.0,0.0
116327380,3670026,0.0010549879,-0.0010080974,0.0017280882,3670026,0.11009363,-0.024059694,-0.056918416,396809,0.0,0.0,0.0
117325755,3670026,0.0010438776,-0.0010280091,0.0016868694,3670026,0.111106835,-0.02397635,-0.060229372,396809,0.0,0.0,0.0
118324130,3670026,0.001021141,-0.00105464,0.0016162771,3670026,0.110814966,-0.023789726,-0.06212411,396809,0.0,0.0,0.0
119327577,3670026,0.00100436,-0.0010848456,0.0015673933,3670026,0.11115433,-0.023906881,-0.06283679,396809,0.0,0.0,0.0
120325871,3670026,0.0010157585,-0.0011158895,0.0015009926,3670026,0.11064932,-0.023880053,-0.062399782,396809,0.0,0.0,0.0
121324221,3670026,0.0010114893,-0.001101491,0.0014432826,3670026,0.11037978,-0.023785796,-0.061995387,396809,0.0,0.0,0.0
122322599,3670026,0.0009931565,-0.0010910818,0.0014117556,3670026,0.1102969,-0.023946285,-0.05953032,396809,0.0,0.0,0.0
123320970,3670026,0.000980608,-0.0010907765,0.001383182,3670026,0.11012469,-0.024069576,-0.058146946,396809,0.0,0.0,0.0
124329279,3670026,0.0009851061,-0.001113502,0.0013626869,3670026,0.11019443,-0.024199212,-0.05750588,396809,0.0,0.0,0.0
125322686,3670026,0.00097542256,-0.0011179573,0.0013440247,3670026,0.10957003,-0.02421137,-0.055521037,396809,0.0,0.0,0.0
126326156,3670026,0.001000893,-0.0011527754,0.001351422,3670026,0.109493144,-0.02405939,-0.057179336,396809,0.0,0.0,0.0
127319434,3670026,0.0010164093,-0.0011839755,0.0013603808,3670026,0.110290855,-0.024172409,-0.058266804,396809,0.0,0.0,0.0
128327758,3670026,0.0009882374,-0.001150939,0.0013672934,3670026,0.109817155,-0.02382487,-0.058800656,396809,0.0,0.0,0.0
129321150,3670026,0.0010496419,-0.001183777,0.0013815972,3670026,0.10981148,-0.02407134,-0.05582232,396809,0.0,0.0,0.0
130324509,3670026,0.001021034,-0.0011623478,0.001373189,3670026,0.1089855,-0.02415844,-0.052181393,396809,0.0,0.0,0.0
131322880,3670026,0.0009962027,-0.0011573988,0.0013670279,3670026,0.10923294,-0.024367837,-0.04982811,396809,0.0,0.0,0.0
132321240,3670026,0.0009559056,-0.0011515432,0.0012704664,3670026,0.10940485,-0.0242377,-0.04987451,396809,0.0,0.0,0.0
133324743,3670026,0.0009740067,-0.0011456882,0.0011401331,3670026,0.10933357,-0.023941675,-0.05087193,396809,0.0,0.0,0.0
134322955,3670026,0.0009477158,-0.0010831289,0.0010371763,3670026,0.110035904,-0.02352437,-0.05269939,396809,0.0,0.0,0.0
135326296,3670026,0.0009268431,-0.0010839112,0.00092321495,3670026,0.10985316,-0.023362897,-0.053586964,396809,0.0,0.0,0.0
136324670,3670026,0.000980828,-0.0010430028,0.000772311,3670026,0.11879599,-0.024557738,-0.053812277,396809,0.0,0.0,0.0
137328026,3670026,0.0010108178,-0.0010392957,0.0007311124,3670026,0.11762719,-0.023803642,-0.053383574,396809,0.0,0.0,0.0
138326385,3670026,0.0010408246,-0.0010742754,0.0006943397,3670026,0.10994937,-0.019817146,-0.050906893,396809,0.0,0.0,0.0
139324759,3670026,0.0010919409,-0.0011356651,0.0006382619,3670026,0.09498505,-0.014868208,-0.04869271,396809,0.0,0.0,0.0
140318324,3670026,0.0011389717,-0.0011955306,0.00057402457,3670026,0.076089635,-0.010372776,-0.048460227,396809,0.0,0.0,0.0
141321505,3670026,0.0012101774,-0.001213142,0.0005360106,3670026,0.06411201,-0.007803122,-0.049396604,396809,0.0,0.0,0.0
142324846,3670026,0.0012864019,-0.0012135309,0.0005089983,3670026,0.05330116,-0.0050991126,-0.049637984,396809,0.0,0.0,0.0
143323219,3670026,0.0013497975,-0.0011990664,0.00041847842,3670026,0.045546394,-0.0040768334,-0.05044842,396809,0.0,0.0,0.0
144321677,3670026,0.0014124764,-0.0011793537,0.00033791058,3670026,0.041235436,-0.0035987815,-0.052763917,396809,0.0,0.0,0.0
145324933,3670026,0.0014193367,-0.0012639571,0.00032921782,3670026,0.042656973,-0.0014582605,-0.055522475,396809,0.0,0.0,0.0
146323308,3670026,0.0013630523,-0.0012461572,0.0003707573,3670026,0.04290549,-0.0012512639,-0.061462987,396809,0.0,0.0,0.0
147321679,3670026,0.0013264761,-0.0012188572,0.00045545324,3670026,0.0424618,-0.00033590713,-0.06356344,396809,0.0,0.0,0.0
148320070,3670026,0.0012628054,-0.0011181459,0.00049516856,3670026,0.04050847,0.0018893316,-0.061610647,396809,0.0,0.0,0.0
149323393,3670026,0.0011894903,-0.0010715636,0.0005862173,3670026,0.038714968,0.0030528454,-0.05966,396809,0.0,0.0,0.0
150321766,3670026,0.00114006,-0.0010956668,0.0006940561,3670026,0.037618417,0.0022721922,-0.057505414,396809,0.0,0.0,0.0
151325222,3670026,0.0011359764,-0.0010859558,0.00078757934,3670026,0.03780289,0.0023042827,-0.05491232,396809,0.0,0.0,0.0
152323479,3670026,0.0011695097,-0.0011391634,0.000896724,3670026,0.038800314,0.0013181339,-0.053795926,396809,0.0,0.0,0.0
153326819,3670026,0.0011930711,-0.0010970901,0.0009389021,3670026,0.03942125,0.0019459082,-0.05147553,396809,0.0,0.0,0.0
154320225,3670026,0.0011882117,-0.0011318197,0.0009756793,3670026,0.03936476,0.0012628388,-0.05062238,396809,0.0,0.0,0.0
155323564,3670026,0.0011994444,-0.0011583235,0.0009408439,3670026,0.039534703,0.00025870174,-0.049951967,396809,0.0,0.0,0.0
156321937,3670026,0.0011952963,-0.0011803866,0.00092917966,3670026,0.037953563,0.00093415694,-0.051015984,396809,0.0,0.0,0.0
157320310,3670026,0.0011832808,-0.0012121416,0.00090531935,3670026,0.034647755,0.0024024996,-0.052140187,396809,0.0,0.0,0.0
158323745,3670026,0.0011630058,-0.001197129,0.00090696686,3670026,0.032480218,0.002331914,-0.05216053,396809,0.0,0.0,0.0
159326989,3670026,0.0012060063,-0.0012068369,0.0008701771,3670026,0.031283088,0.0021841798,-0.05182435,396809,0.0,0.0,0.0
160325361,3670026,0.0011981593,-0.0012388158,0.0008274782,3670026,0.031333823,0.0020734488,-0.051886614,396809,0.0,0.0,0.0
161323734,3670026,0.0012459371,-0.0012265906,0.00076965766,3670026,0.030184401,0.0015041685,-0.05093791,396809,0.0,0.0,0.0
162322147,3670026,0.0012423432,-0.0011998245,0.00071070483,3670026,0.029719792,0.0011800695,-0.052108407,396809,0.0,0.0,0.0
163325445,3670026,0.001199351,-0.0012441557,0.0006343875,3670026,0.02931633,0.0001166104,-0.051320758,396809,0.0,0.0,0.0
164323818,3670026,0.0012251436,-0.0011994516,0.0005698922,3670026,0.029325265,0.00022871103,-0.049942393,396809,0.0,0.0,0.0
165322316,3670026,0.0011954807,-0.0012058752,0.0004990293,3670026,0.02888734,-0.0002928561,-0.049304053,396809,0.0,0.0,0.0
166325529,3670026,0.0011974566,-0.0011680154,0.0004217154,3670026,0.028687397,-0.0002190131,-0.049356718,396809,0.0,0.0,0.0
167323901,3670026,0.0011889088,-0.0011944019,0.0003516786,3670026,0.02845664,-0.0009913882,-0.049480855,396809,0.0,0.0,0.0
168322274,3670026,0.001190534,-0.0012409736,0.00030785816,3670026,0.028413922,-0.0019057101,-0.048460603,396809,0.0,0.0,0.0
169325658,3670026,0.0011443206,-0.0012531446,0.00025260248,3670026,0.027606279,-0.0023390593,-0.048096824,396809,0.0,0.0,0.0
170323987,3670026,0.0011811537,-0.0012294154,0.0002302886,3670026,0.027989075,-0.0021455595,-0.049370345,396809,0.0,0.0,0.0
171327322,3670026,0.0011991026,-0.0012566162,0.00018959782,3670026,0.028009856,-0.0026815422,-0.04868541,396809,0.0,0.0,0.0
172320877,3670026,0.0011803441,-0.001277733,0.00014910378,3670026,0.027761986,-0.0030839513,-0.04743356,396809,0.0,0.0,0.0
173324077,3670026,0.001201255,-0.0012907141,0.00011296738,3670026,0.027954346,-0.0035410337,-0.04417387,396809,0.0,0.0,0.0
174322437,3670026,0.0012133897,-0.001290003,7.176933e-05,3670026,0.028201586,-0.0037395896,-0.040899973,396809,0.0,0.0,0.0
175325775,3670026,0.0011731478,-0.0012512866,2.3188122e-06,3670026,0.027895521,-0.0033151794,-0.04206309,396809,0.0,0.0,0.0
176324214,3670026,0.0010960123,-0.0012533654,-1.5214697e-05,3670026,0.027054949,-0.0031903044,-0.044251222,396809,0.0,0.0,0.0
177322518,3670026,0.0010285926,-0.0012415793,-3.7157388e-05,3670026,0.026392795,-0.0030172835,-0.04690529,396809,0.0,0.0,0.0
178325862,3670026,0.0009843406,-0.0012698253,-5.036543e-05,3670026,0.025963038,-0.0032762233,-0.048469752,396809,0.0,0.0,0.0
179314504,3670026,0.0009785098,-0.0012688495,-7.111409e-05,3670026,0.025877792,-0.0032696547,-0.05026714,396809,0.0,0.0,0.0
180322605,3670026,0.00097999,-0.0012713426,-0.000106401334,3670026,0.02585484,-0.0032898122,-0.049839344,396809,0.0,0.0,0.0
181325935,3670026,0.0010758325,-0.0013039465,-0.00012313305,3670026,0.026730638,-0.003626788,-0.04512517,396809,0.0,0.0,0.0
182324306,3670026,0.0010940795,-0.0013817896,-0.00015382317,3670026,0.026939822,-0.0044386587,-0.03981023,396809,0.0,0.0,0.0
183322715,3670026,0.0010300444,-0.0014062267,-0.00017828125,3670026,0.026418073,-0.0047618067,-0.035957728,396809,0.0,0.0,0.0
184326018,3670026,0.0009644546,-0.0014077063,-0.00019688363,3670026,0.025931343,-0.0048297625,-0.03787109,396809,0.0,0.0,0.0
185324386,3670026,0.0009349824,-0.0013588886,-0.00022557068,3670026,0.025855886,-0.0043680677,-0.03481004,396809,0.0,0.0,0.0
186322759,3670026,0.00088878896,-0.0012642777,-0.00023244956,3670026,0.025739847,-0.0037654438,-0.03543084,396809,0.0,0.0,0.0
187321127,3670026,0.0007880513,-0.0012335505,-0.00021028494,3670026,0.025527267,-0.003508127,-0.035565004,396809,0.0,0.0,0.0
188324465,3670026,0.00074638653,-0.0012893528,-0.00020512707,3670026,0.025199154,-0.0037510688,-0.038799655,396809,0.0,0.0,0.0
189322835,3670026,0.0007633846,-0.0013268105,-0.000240929,3670026,0.025148416,-0.0039649154,-0.04380417,396809,0.0,0.0,0.0
190326266,3670026,0.0007557672,-0.0013529047,-0.00022337487,3670026,0.024882,-0.0040997937,-0.048604317,396809,0.0,0.0,0.0
191329510,3670026,0.0008050417,-0.0013687138,-0.00018781256,3670026,0.025146404,-0.0042244773,-0.052128416,396809,0.0,0.0,0.0
192322913,3670026,0.00083862396,-0.001398068,-0.00015640927,3670026,0.025113918,-0.004379108,-0.05377039,396809,0.0,0.0,0.0
193326250,3670026,0.0008771442,-0.0014183775,-0.00014121507,3670026,0.025197921,-0.004443699,-0.055911735,396809,0.0,0.0,0.0
194324620,3670026,0.00091164885,-0.0014128634,-0.00012832819,3670026,0.025220651,-0.0044170567,-0.057124306,396809,0.0,0.0,0.0
195322991,3670026,0.00097063574,-0.0014164448,-0.00012722524,3670026,0.025432052,-0.004410825,-0.05738575,396809,0.0,0.0,0.0
196326327,3670026,0.0009696113,-0.0013583574,-0.00013438902,3670026,0.025370136,-0.00414387,-0.056379918,396809,0.0,0.0,0.0
197324807,3670026,0.0009873781,-0.001391817,-0.00014180956,3670026,0.02545593,-0.0043519503,-0.055357985,396809,0.0,0.0,0.0
198328041,3670026,0.0010089831,-0.0013923194,-0.00015226172,3670026,0.025691532,-0.004319791,-0.054673374,396809,0.0,0.0,0.0
199326403,3670026,0.0010053548,-0.0014393693,-0.00018575879,3670026,0.025596535,-0.004475377,-0.05330537,396809,0.0,0.0,0.0
200324773,3670026,0.0010277197,-0.0014362604,-0.00024332633,3670026,0.025699753,-0.004376527,-0.054012526,396809,0.0,0.0,0.0
201323149,3670026,0.0010285266,-0.0014156691,-0.0002988357,3670026,0.02560461,-0.0043382873,-0.05404962,396809,0.0,0.0,0.0
202326478,3670026,0.0010598103,-0.0014254383,-0.0002995211,3670026,0.025489999,-0.0043253074,-0.05411458,396809,0.0,0.0,0.0
203319880,3670026,0.001098202,-0.0014976315,-0.00028249153,3670026,0.025634717,-0.0044104382,-0.05341503,396809,0.0,0.0,0.0
204323364,3670026,0.0011219707,-0.0015206079,-0.00030362007,3670026,0.025529345,-0.004355241,-0.052614525,396809,0.0,0.0,0.0
205321586,3670026,0.0011238968,-0.0015438838,-0.00033602037,3670026,0.025620444,-0.004364112,-0.052705467,396809,0.0,0.0,0.0
206319955,3670026,0.0011220463,-0.0015398277,-0.0003649919,3670026,0.025594423,-0.004336565,-0.052187245,396809,0.0,0.0,0.0
207323291,3670026,0.0011014398,-0.0015419722,-0.00038421896,3670026,0.025547765,-0.004325698,-0.052189227,396809,0.0,0.0,0.0
208321660,3670026,0.0010945578,-0.0015007243,-0.0004088412,3670026,0.025614493,-0.004361212,-0.052451372,396809,0.0,0.0,0.0
209324996,3670026,0.001072368,-0.0014816964,-0.0004218394,3670026,0.025716,-0.0043911734,-0.052314512,396809,0.0,0.0,0.0
210323365,3670026,0.0010799498,-0.0014925578,-0.00043050575,3670026,0.025541967,-0.0043363525,-0.0508884,396809,0.0,0.0,0.0
211326895,3670026,0.0010566815,-0.0015125565,-0.0004401425,3670026,0.02555226,-0.0043546064,-0.049831912,396809,0.0,0.0,0.0
212325071,3670026,0.0010383935,-0.0014861276,-0.0004413593,3670026,0.025321288,-0.004259444,-0.049259413,396809,0.0,0.0,0.0
213323439,3670026,0.0010342062,-0.0014879842,-0.0004460601,3670026,0.025399698,-0.004233793,-0.04972626,396809,0.0,0.0,0.0
214326774,3670026,0.0010217986,-0.0014861264,-0.00044011194,3670026,0.025377758,-0.0041916794,-0.04965318,396809,0.0,0.0,0.0
215325167,3670026,0.0010216234,-0.0015052753,-0.00042201046,3670026,0.020591147,-0.0039755693,-0.051106006,396809,0.0,0.0,0.0
216323516,3670026,0.0010489076,-0.0015490383,-0.00044117816,3670026,0.011371233,-0.0029449412,-0.053281333,396809,0.0,0.0,0.0
217326847,3670026,0.0010640727,-0.0015760654,-0.00047700552,3670026,0.0038679482,-0.0030251876,-0.05512506,396809,0.0,0.0,0.0
218325216,3670026,0.0010910174,-0.001603797,-0.00048685094,3670026,-0.0012068339,-0.004505331,-0.05561539,396809,0.0,0.0,0.0
219328555,3670026,0.0011215274,-0.0016082134,-0.0005025872,3670026,-0.0034085365,-0.0075158174,-0.05590141,396809,0.0,0.0,0.0
220321955,3670026,0.0011041346,-0.0015863274,-0.00049442606,3670026,-0.0022754746,-0.009256402,-0.055365667,396809,0.0,0.0,0.0
221320324,3670026,0.001122218,-0.0015913894,-0.00048140337,3670026,-0.0031892166,-0.008636045,-0.055654716,396809,0.0,0.0,0.0
222328694,3670026,0.0010971654,-0.0015706067,-0.0004736461,3670026,-0.0026176295,-0.010227025,-0.055896565,396809,0.0,0.0,0.0
223322024,3670026,0.0010801001,-0.0015400576,-0.00046478581,3670026,-0.0028851596,-0.011083513,-0.054945234,396809,0.0,0.0,0.0
224320402,3670026,0.0010618768,-0.0015321082,-0.0004556622,3670026,-0.0030472996,-0.0117222965,-0.055386093,396809,0.0,0.0,0.0
225323727,3670026,0.0010706004,-0.0014676397,-0.00045590344,3670026,-0.0034536526,-0.011876468,-0.056225542,396809,0.0,0.0,0.0
231323868,3670026,0.0010989611,-0.0014235713,-0.0004954856,3670026,-0.0026167962,-0.0120957615,-0.05254709,396809,0.0,0.0,0.0
232327202,3670026,0.001109508,-0.0014448101,-0.0005309186,3670026,-0.005794804,-0.015413866,-0.053367317,396809,0.0,0.0,0.0
233320604,3670026,0.0011202423,-0.0014403837,-0.0005595002,3670026,-0.008045009,-0.018706786,-0.05498402,396809,0.0,0.0,0.0
234318970,3670026,0.0011490642,-0.0014663493,-0.0005652136,3670026,-0.010213769,-0.020872494,-0.05665208,396809,0.0,0.0,0.0
235322305,3670026,0.0011654056,-0.001459833,-0.000569495,3670026,-0.0111735845,-0.021646503,-0.057437077,396809,0.0,0.0,0.0
236320769,3670026,0.0011636217,-0.0014681463,-0.00057596137,3670026,-0.011165676,-0.021723978,-0.057516113,396809,0.0,0.0,0.0
237319042,3670026,0.0011891167,-0.0014755304,-0.00059542886,3670026,-0.011527678,-0.02155327,-0.05729571,396809,0.0,0.0,0.0
238327362,3670026,0.0011710379,-0.0015107269,-0.0006097295,3670026,-0.010982448,-0.021217601,-0.055638418,396809,0.0,0.0,0.0
239325710,3670026,0.0011939916,-0.0014921717,-0.0006472624,3670026,-0.010839296,-0.021176929,-0.0533675,396809,0.0,0.0,0.0
240329043,3670026,0.0011605545,-0.0014732879,-0.000707377,3670026,-0.010542042,-0.021468582,-0.0533274,396809,0.0,0.0,0.0
241322442,3670026,0.0011814889,-0.0015094711,-0.0007541516,3670026,-0.009907011,-0.021941798,-0.056096744,396809,0.0,0.0,0.0
242320810,3670026,0.0011687647,-0.0015240065,-0.00079183053,3670026,-0.009714129,-0.022314113,-0.05719852,396809,0.0,0.0,0.0
243329283,3670026,0.0010978396,-0.001516988,-0.0008218088,3670026,-0.010395968,-0.02227052,-0.056703154,396809,0.0,0.0,0.0
244317543,3670026,0.0011209042,-0.0015184307,-0.0008459473,3670026,-0.009623944,-0.022321641,-0.053800974,396809,0.0,0.0,0.0
245320876,3670026,0.001175246,-0.0015330563,-0.00088250363,3670026,-0.008806148,-0.022605844,-0.054075938,396809,0.0,0.0,0.0
246324210,3670026,0.001179122,-0.0015112918,-0.0008914137,3670026,-0.008534464,-0.022310305,-0.05471721,396809,0.0,0.0,0.0
247322589,3670026,0.0011637324,-0.0015410584,-0.00089347415,3670026,-0.008779194,-0.022735538,-0.053242773,396809,0.0,0.0,0.0
248320983,3670026,0.0011204247,-0.0015718959,-0.00081519515,3670026,-0.009715486,-0.023009365,-0.053146582,396809,0.0,0.0,0.0
249324280,3670026,0.0010605726,-0.0015713628,-0.0007216331,3670026,-0.010747121,-0.02279952,-0.05108588,396809,0.0,0.0,0.0
250322823,3670026,0.0010945521,-0.0015678082,-0.00062134344,3670026,-0.010797087,-0.022674583,-0.05059186,396809,0.0,0.0,0.0
251325977,3670026,0.0010885847,-0.0015264872,-0.00048862305,3670026,-0.011155779,-0.022077575,-0.05005043,396809,0.0,0.0,0.0
252324344,3670026,0.0011207446,-0.0014730655,-0.00037395032,3670026,-0.011356274,-0.0213845,-0.05241577,396809,0.0,0.0,0.0
253322710,3670026,0.0011645762,-0.0014844931,-0.00025709785,3670026,-0.0111248735,-0.021448905,-0.053196236,396809,0.0,0.0,0.0
254326070,3670026,0.001197377,-0.0014907249,-0.00015953365,3670026,-0.010989961,-0.02142646,-0.05457332,396809,0.0,0.0,0.0
255324410,3670026,0.0011518586,-0.0014815304,-0.00010830883,3670026,-0.011626918,-0.021265132,-0.054798186,396809,0.0,0.0,0.0
256322776,3670026,0.0010888748,-0.0014951087,-4.1289488e-05,3670026,-0.012394904,-0.02132099,-0.05485715,396809,0.0,0.0,0.0
257321145,3670026,0.0011286277,-0.0014937036,4.6511623e-06,3670026,-0.012219557,-0.021273583,-0.05619288,396809,0.0,0.0,0.0
258319508,3670026,0.0010987939,-0.0015024625,5.9646012e-05,3670026,-0.012525082,-0.021301601,-0.054906372,396809,0.0,0.0,0.0
259322841,3670026,0.0010421436,-0.0014839468,0.0001016632,3670026,-0.012976772,-0.021148449,-0.055722594,396809,0.0,0.0,0.0
260321207,3670026,0.0010868554,-0.0015081884,0.00015525699,3670026,-0.012768292,-0.021277389,-0.054994766,396809,0.0,0.0,0.0
261329578,3670026,0.0011333282,-0.0015018749,0.00019982764,3670026,-0.012595337,-0.02126278,-0.05391715,396809,0.0,0.0,0.0
262322942,3670026,0.0011370737,-0.0015101401,0.00023897622,3670026,-0.012667873,-0.02134889,-0.05019851,396809,0.0,0.0,0.0
263321271,3670026,0.0011827587,-0.0015175985,0.0002729772,3670026,-0.012473047,-0.021394981,-0.049797643,396809,0.0,0.0,0.0
264324603,3670026,0.0012057197,-0.0015172097,0.00028768578,3670026,-0.012267433,-0.021376917,-0.050075114,396809,0.0,0.0,0.0
265322969,3670026,0.0012061743,-0.0015280464,0.0002913965,3670026,-0.012309775,-0.021464868,-0.050509457,396809,0.0,0.0,0.0
266321336,3670026,0.0011886755,-0.0015359059,0.00027620766,3670026,-0.0124445995,-0.021557637,-0.05130228,396809,0.0,0.0,0.0
267319699,3670026,0.0011700492,-0.0015214336,0.0002598107,3670026,-0.01282211,-0.021973036,-0.051361386,396809,0.0,0.0,0.0
268323112,3670026,0.0011569828,-0.0015468027,0.00025628175,3670026,-0.013713491,-0.023978135,-0.050508995,396809,0.0,0.0,0.0
269321397,3670026,0.0011387512,-0.0015445093,0.00023723279,3670026,-0.014691518,-0.024546199,-0.049971797,396809,0.0,0.0,0.0
270324729,3670026,0.001111078,-0.0015271353,0.0001785103,3670026,-0.016502235,-0.02536276,-0.05097316,396809,0.0,0.0,0.0
271323114,3670026,0.0010507714,-0.0015404806,4.7965368e-05,3670026,-0.01932961,-0.025480822,-0.05273096,396809,0.0,0.0,0.0
272321459,3670026,0.0010200749,-0.0016046909,-0.00015790397,3670026,-0.023713041,-0.024389721,-0.055036306,396809,0.0,0.0,0.0
273319837,3670026,0.0009999119,-0.0016624929,-0.0002992437,3670026,-0.026652725,-0.024527913,-0.057829805,396809,0.0,0.0,0.0
274323158,3670026,0.0010638252,-0.0016725294,-0.0003389137,3670026,-0.031248517,-0.024005674,-0.058726646,396809,0.0,0.0,0.0
275321684,3670026,0.0010748948,-0.0016888496,-0.00038167773,3670026,-0.03148692,-0.022872116,-0.05926879,396809,0.0,0.0,0.0
276319888,3670026,0.0011333766,-0.0016570083,-0.00042234943,3670026,-0.03445892,-0.023314826,-0.059558216,396809,0.0,0.0,0.0
277323218,3670026,0.0011703961,-0.0016838122,-0.00046031925,3670026,-0.034547348,-0.021858377,-0.06000691,396809,0.0,0.0,0.0
278321627,3670026,0.001142847,-0.0016550677,-0.00051259814,3670026,-0.03453267,-0.022383662,-0.060897205,396809,0.0,0.0,0.0
279319955,3670026,0.0011753059,-0.0016525079,-0.0005580612,3670026,-0.03449755,-0.022002768,-0.059746217,396809,0.0,0.0,0.0
280323279,3670026,0.0011159028,-0.0016450536,-0.0005848367,3670026,-0.034640137,-0.02192835,-0.0589748,396809,0.0,0.0,0.0
281321644,3670026,0.0009983713,-0.0016739233,-0.00062151934,3670026,-0.03541111,-0.022316834,-0.059291095,396809,0.0,0.0,0.0
282320137,3670026,0.0009838286,-0.0016728372,-0.00065245474,3670026,-0.035586152,-0.022076868,-0.05779262,396809,0.0,0.0,0.0
283323339,3670026,0.00094526896,-0.0017101057,-0.0008256628,3670026,-0.040356077,-0.021645835,-0.064027175,396809,0.0,0.0,0.0
284321707,3670026,0.0008949553,-0.0017806165,-0.0010151354,3670026,-0.04582147,-0.021269277,-0.06950008,396809,0.0,0.0,0.0
285325048,3670026,0.00086420024,-0.0017983298,-0.0011578811,3670026,-0.048889264,-0.021239864,-0.071451984,396809,0.0,0.0,0.0
286323399,3670026,0.0008957372,-0.0017806395,-0.001235484,3670026,-0.049850494,-0.021309666,-0.07154609,396809,0.0,0.0,0.0
287326730,3670026,0.0009219984,-0.0017646743,-0.001276142,3670026,-0.049905453,-0.021053903,-0.0705884,396809,0.0,0.0,0.0
288325094,3670026,0.0009528362,-0.0017516004,-0.0013185847,3670026,-0.04983368,-0.020643933,-0.06879297,396809,0.0,0.0,0.0
289318654,3670026,0.00097221544,-0.0017509692,-0.0013594008,3670026,-0.05004663,-0.020563845,-0.06720516,396809,0.0,0.0,0.0
290321823,3670026,0.00097481604,-0.001753481,-0.0013803373,3670026,-0.049668945,-0.020222126,-0.06538434,396809,0.0,0.0,0.0
291320187,3670026,0.0009387172,-0.0017685349,-0.0013906927,3670026,-0.04998282,-0.020348806,-0.063588016,396809,0.0,0.0,0.0
292323547,3670026,0.000895963,-0.0017680072,-0.0014070969,3670026,-0.049995624,-0.020280661,-0.06131883,396809,0.0,0.0,0.0
293321891,3670026,0.0008753151,-0.0017777355,-0.0014326812,3670026,-0.05027432,-0.020304568,-0.060469255,396809,0.0,0.0,0.0
294325212,3670026,0.00090430543,-0.0017660524,-0.0014585278,3670026,-0.04976035,-0.02006909,-0.059441566,396809,0.0,0.0,0.0
295323612,3670026,0.00094445085,-0.0017893789,-0.0014959446,3670026,-0.049384303,-0.020182967,-0.059623852,396809,0.0,0.0,0.0
296321942,3670026,0.0009852702,-0.0017876904,-0.0014974526,3670026,-0.049030278,-0.020214956,-0.05854394,396809,0.0,0.0,0.0
297320303,3670026,0.0010253972,-0.0017653382,-0.0015023039,3670026,-0.048618454,-0.01999956,-0.058545027,396809,0.0,0.0,0.0
298323633,3670026,0.0010545383,-0.0017554502,-0.0014954688,3670026,-0.048113495,-0.019905774,-0.05783023,396809,0.0,0.0,0.0
299326965,3670026,0.0010737132,-0.0017599573,-0.0014880587,3670026,-0.048017558,-0.02001844,-0.058255866,396809,0.0,0.0,0.0
300325392,3670026,0.0010664305,-0.0017529227,-0.0014791656,3670026,-0.04794522,-0.019949585,-0.058608185,396809,0.0,0.0,0.0
301323693,3670026,0.0010717137,-0.0017420787,-0.0014704361,3670026,-0.04806044,-0.01987485,-0.0583494,396809,0.0,0.0,0.0
302322057,3670026,0.0010577932,-0.0017456895,-0.0014408565,3670026,-0.048525646,-0.020022592,-0.057880927,396809,0.0,0.0,0.0
303320442,3670026,0.0009975701,-0.0017611742,-0.0013953801,3670026,-0.04875967,-0.020187126,-0.057476297,396809,0.0,0.0,0.0
304323749,3670026,0.0009796149,-0.0017682429,-0.0013829963,3670026,-0.04872354,-0.020144576,-0.05635249,396809,0.0,0.0,0.0
305327078,3670026,0.0009626404,-0.0017882915,-0.0013674501,3670026,-0.048823692,-0.020149805,-0.055369165,396809,0.0,0.0,0.0
306325443,3670026,0.0009733595,-0.0018085476,-0.0013588679,3670026,-0.04897911,-0.020250976,-0.054965667,396809,0.0,0.0,0.0
307323895,3670026,0.0010152062,-0.0018314876,-0.0013488883,3670026,-0.04903349,-0.020336406,-0.054180674,396809,0.0,0.0,0.0
308322169,3670026,0.0010435707,-0.001822999,-0.0013258796,3670026,-0.04901403,-0.020358453,-0.053341612,396809,0.0,0.0,0.0
309325498,3670026,0.0011009661,-0.0018547651,-0.001300878,3670026,-0.048714403,-0.020459194,-0.05532111,396809,0.0,0.0,0.0
310323861,3670026,0.0011048206,-0.0018497354,-0.0012413699,3670026,-0.048847206,-0.02056942,-0.054688353,396809,0.0,0.0,0.0
311322230,3670026,0.0010559519,-0.0018599329,-0.0011417143,3670026,-0.051805675,-0.019395841,-0.05602451,396809,0.0,0.0,0.0
312325555,3670026,0.0010584326,-0.0018791407,-0.001165949,3670026,-0.054498106,-0.0198072,-0.059508264,396809,0.0,0.0,0.0
313323916,3670026,0.0010206645,-0.0019053478,-0.0011275829,3670026,-0.058263652,-0.018369444,-0.06306543,396809,0.0,0.0,0.0
314322388,3670026,0.0010301806,-0.0018224079,-0.001091224,3670026,-0.05920038,-0.018043026,-0.06374418,396809,0.0,0.0,0.0
315320642,3670026,0.0010205926,-0.0017869929,-0.0010789433,3670026,-0.059525926,-0.018049538,-0.06368559,396809,0.0,0.0,0.0
316323972,3670026,0.0009854836,-0.001768803,-0.0010417062,3670026,-0.059628937,-0.018255537,-0.063695036,396809,0.0,0.0,0.0
317322335,3670026,0.0009823692,-0.0017391843,-0.001022756,3670026,-0.05998065,-0.018221568,-0.06314448,396809,0.0,0.0,0.0
318320697,3670026,0.000970601,-0.001775311,-0.0009850021,3670026,-0.063848466,-0.016682442,-0.065836914,396809,0.0,0.0,0.0
319324027,3670026,0.0009237886,-0.0018144848,-0.00089698733,3670026,-0.07052661,-0.013857935,-0.06962915,396809,0.0,0.0,0.0
320327356,3670026,0.00090700656,-0.0018697986,-0.00083212723,3670026,-0.07733938,-0.012476091,-0.072242126,396809,0.0,0.0,0.0
321320886,3670026,0.0009326388,-0.0019291646,-0.0008043527,3670026,-0.08126141,-0.011942268,-0.07033674,396809,0.0,0.0,0.0
322324082,3670026,0.00097466813,-0.0018505164,-0.00076761545,3670026,-0.082832165,-0.0140513545,-0.068775155,396809,0.0,0.0,0.0
323322444,3670026,0.001020169,-0.0018431401,-0.0007445699,3670026,-0.08433114,-0.014443188,-0.068055354,396809,0.0,0.0,0.0
324325773,3670026,0.0010387363,-0.0018065228,-0.00071331754,3670026,-0.08425534,-0.0147671,-0.06547876,396809,0.0,0.0,0.0
325319169,3670026,0.0010259951,-0.0017735476,-0.00069675595,3670026,-0.08505784,-0.015640993,-0.06389667,396809,0.0,0.0,0.0
326322499,3670026,0.0009908722,-0.0017282749,-0.00067549373,3670026,-0.08525759,-0.016243443,-0.061738852,396809,0.0,0.0,0.0
327325828,3670026,0.0010187698,-0.0017296338,-0.00066707,3670026,-0.08489948,-0.016350793,-0.058919974,396809,0.0,0.0,0.0
328319434,3670026,0.0009778173,-0.0017634976,-0.0006593076,3670026,-0.085124716,-0.016748026,-0.057743523,396809,0.0,0.0,0.0
329327521,3670026,0.0009384764,-0.0018097687,-0.0006677795,3670026,-0.085426986,-0.017088497,-0.057770777,396809,0.0,0.0,0.0
330320917,3670026,0.00091401464,-0.0018061844,-0.0006969989,3670026,-0.08534734,-0.0168903,-0.05771239,396809,0.0,0.0,0.0
331329212,3670026,0.0009541276,-0.0017747058,-0.0007281488,3670026,-0.08519498,-0.016525997,-0.05762887,396809,0.0,0.0,0.0
332322628,3670026,0.0010067666,-0.0017601942,-0.00074092764,3670026,-0.08451966,-0.016354164,-0.05777229,396809,0.0,0.0,0.0
333325936,3670026,0.0010220519,-0.0017559577,-0.00071711664,3670026,-0.08424911,-0.016480405,-0.056187227,396809,0.0,0.0,0.0
334324297,3670026,0.00097074243,-0.0017502002,-0.0006545998,3670026,-0.08512037,-0.016832784,-0.055900965,396809,0.0,0.0,0.0
335322663,3670026,0.0009719734,-0.0017439566,-0.0005991265,3670026,-0.08483108,-0.01705237,-0.053987004,396809,0.0,0.0,0.0
336321023,3670026,0.0009685364,-0.0017347845,-0.00051004434,3670026,-0.0846731,-0.017370729,-0.053244907,396809,0.0,0.0,0.0
337324350,3670026,0.0009952515,-0.0017482176,-0.00037879177,3670026,-0.084262215,-0.017979186,-0.052819803,396809,0.0,0.0,0.0
338322712,3670026,0.001014656,-0.0017434628,-0.00021916282,3670026,-0.08429276,-0.018618979,-0.053413372,396809,0.0,0.0,0.0
339321113,3670026,0.0010482431,-0.0016999762,-4.610265e-05,3670026,-0.08422593,-0.019037059,-0.05575766,396809,0.0,0.0,0.0
340324404,3670026,0.0010448515,-0.0016928724,0.00013238467,3670026,-0.0840162,-0.019560514,-0.056987308,396809,0.0,0.0,0.0
341322768,3670026,0.0010357117,-0.0016767504,0.00028158477,3670026,-0.08442836,-0.02002737,-0.05613875,396809,0.0,0.0,0.0
342326093,3670026,0.0010262268,-0.0016421846,0.0004269098,3670026,-0.08405497,-0.020301169,-0.05348946,396809,0.0,0.0,0.0
343324473,3670026,0.0010135898,-0.001636812,0.00057442795,3670026,-0.08397272,-0.02071407,-0.05082459,396809,0.0,0.0,0.0
344322817,3670026,0.0010065498,-0.0016257329,0.00073137874,3670026,-0.084363736,-0.021147847,-0.048375286,396809,0.0,0.0,0.0
345326146,3670026,0.0010227489,-0.0016732501,0.0009071638,3670026,-0.08355117,-0.021646176,-0.046046086,396809,0.0,0.0,0.0
346324593,3670026,0.0010288613,-0.0017091194,0.0011065318,3670026,-0.08377631,-0.022211578,-0.045802236,396809,0.0,0.0,0.0
347322868,3670026,0.0010072218,-0.0017221755,0.0013618682,3670026,-0.08382095,-0.022696422,-0.04690116,396809,0.0,0.0,0.0
348326205,3670026,0.0009840709,-0.0017398236,0.0015746948,3670026,-0.08345683,-0.022984529,-0.049650006,396809,0.0,0.0,0.0
349324583,3670026,0.0009565511,-0.0017459017,0.001792535,3670026,-0.08375272,-0.023326684,-0.051313415,396809,0.0,0.0,0.0
350322921,3670026,0.0009430581,-0.0017560383,0.0019873935,3670026,-0.0833056,-0.02346794,-0.0537926,396809,0.0,0.0,0.0
351321281,3670026,0.0009721545,-0.0017664635,0.0021921566,3670026,-0.0831822,-0.023673559,-0.05528762,396809,0.0,0.0,0.0
352324613,3670026,0.0009954997,-0.0017867467,0.0023567132,3670026,-0.08308453,-0.023857249,-0.055297405,396809,0.0,0.0,0.0
353323077,3670026,0.0010334394,-0.0017250305,0.0024701455,3670026,-0.082660824,-0.02375872,-0.05671542,396809,0.0,0.0,0.0
354321331,3670026,0.0011032345,-0.0016763771,0.0025561182,3670026,-0.082861304,-0.023785545,-0.057217307,396809,0.0,0.0,0.0
355324702,3670026,0.0011338611,-0.0016501511,0.002601021,3670026,-0.08249528,-0.023376701,-0.05678116,396809,0.0,0.0,0.0
356318054,3670026,0.0011465864,-0.0016257192,0.0025680207,3670026,-0.08282452,-0.023587983,-0.05690392,396809,0.0,0.0,0.0
357321383,3670026,0.0011804027,-0.0016107041,0.0025438908,3670026,-0.08306972,-0.023657816,-0.056296468,396809,0.0,0.0,0.0
