timestamp,gyro_device_id,gyro_bias[0],gyro_bias[1],gyro_bias[2],accel_device_id,accel_bias[0],accel_bias[1],accel_bias[2],mag_device_id,mag_bias[0],mag_bias[1],mag_bias[2]
85845148,2162698,0.00455496,-0.000317579,-0.0132468,2162698,0.0715305,0.12622,-0.381015,73225,0.0,0.0,0.0
85855156,2162698,0.00455496,-0.00031757,-0.0132466,2162698,0.0715305,0.12622,-0.381015,73225,0.0,0.0,0.0
86856266,2162698,0.00457781,-0.000353685,-0.0132239,2162698,0.0738119,0.128096,-0.381369,73225,0.0,0.0,0.0
87847361,2162698,0.00459403,-0.000358109,-0.0132015,2162698,0.074163,0.130879,-0.38271,73225,0.0,0.0,0.0
88848464,2162698,0.00461122,-0.000370645,-0.0131854,2162698,0.0765962,0.134834,-0.388897,73225,0.0,0.0,0.0
89849561,2162698,0.00461613,-0.00038176,-0.0131734,2162698,0.0787929,0.136549,-0.39638,73225,0.0,0.0,0.0
90850667,2162698,0.00463201,-0.000412627,-0.0131631,2162698,0.0831808,0.139355,-0.399888,73225,0.0,0.0,0.0
91851773,2162698,0.00464228,-0.000456266,-0.0131511,2162698,0.0885254,0.140225,-0.398101,73225,0.0,0.0,0.0
92852881,2162698,0.00463872,-0.000456259,-0.0131666,2162698,0.0884689,0.139748,-0.398815,73225,0.0,0.0,0.0
93853993,2162698,0.00465901,-0.000471844,-0.0131799,2162698,0.0889424,0.140656,-0.400382,73225,0.0,0.0,0.0
94845090,2162698,0.00465969,-0.000530906,-0.0131748,2162698,0.0893347,0.141051,-0.400996,73225,0.0,0.0,0.0
95846195,2162698,0.00468446,-0.000575312,-0.013189,2162698,0.0885891,0.140946,-0.399475,73225,0.0,0.0,0.0
96847310,2162698,0.00471054,-0.00062195,-0.0131974,2162698,0.0878966,0.14041,-0.396276,73225,0.0,0.0,0.0
97848422,2162698,0.00474794,-0.000638105,-0.0132086,2162698,0.0879919,0.13955,-0.392899,73225,0.0,0.0,0.0
98849524,2162698,0.00476905,-0.000665559,-0.0132103,2162698,0.0896547,0.140052,-0.387628,73225,0.0,0.0,0.0
99850637,2162698,0.00477441,-0.000673112,-0.0132145,2162698,0.0919312,0.147163,-0.383912,73225,0.0,0.0,0.0
100851747,2162698,0.00477992,-0.000676887,-0.0132134,2162698,0.0934972,0.145322,-0.382661,73225,0.0,0.0,0.0
101852855,2162698,0.00478328,-0.00068089,-0.0132113,2162698,0.0953513,0.146203,-0.389204,73225,0.0,0.0,0.0
102843955,2162698,0.00479118,-0.000681397,-0.0132143,2162698,0.0953066,0.149011,-0.390441,73225,0.0,0.0,0.0
103845065,2162698,0.00478861,-0.00069068,-0.0132141,2162698,0.0954074,0.148802,-0.394305,73225,0.0,0.0,0.0
104846174,2162698,0.00479289,-0.000687887,-0.0132145,2162698,0.0954129,0.148828,-0.397304,73225,0.0,0.0,0.0
105847283,2162698,0.00479448,-0.000676628,-0.0132199,2162698,0.0954614,0.148778,-0.400026,73225,0.0,0.0,0.0
106848390,2162698,0.00482253,-0.000719569,-0.0132223,2162698,0.0948894,0.148382,-0.399926,73225,0.0,0.0,0.0
107849497,2162698,0.00487777,-0.000763175,-0.0132257,2162698,0.0943022,0.147693,-0.397459,73225,0.0,0.0,0.0
108850604,2162698,0.00491965,-0.000771614,-0.0132311,2162698,0.0940808,0.146933,-0.399134,73225,0.0,0.0,0.0
109851706,2162698,0.00495642,-0.000850021,-0.0132237,2162698,0.0924251,0.146193,-0.401797,73225,0.0,0.0,0.0
110852807,2162698,0.00495431,-0.000876399,-0.0132182,2162698,0.0916828,0.146141,-0.401208,73225,0.0,0.0,0.0
111853907,2162698,0.00499915,-0.000875434,-0.0132225,2162698,0.0917847,0.145115,-0.395794,73225,0.0,0.0,0.0
112855006,2162698,0.00500715,-0.000898567,-0.0132148,2162698,0.0913507,0.145015,-0.392027,73225,0.0,0.0,0.0
113846094,2162698,0.00500268,-0.000933888,-0.0131982,2162698,0.0905213,0.145062,-0.397295,73225,0.0,0.0,0.0
114847192,2162698,0.00506035,-0.000923444,-0.0131992,2162698,0.0907574,0.143827,-0.398585,73225,0.0,0.0,0.0
115848289,2162698,0.00502199,-0.000940806,-0.013184,2162698,0.0904204,0.144581,-0.39675,73225,0.0,0.0,0.0
116849389,2162698,0.00498026,-0.000968965,-0.0131739,2162698,0.0898595,0.145302,-0.396675,73225,0.0,0.0,0.0
117850480,2162698,0.00497572,-0.00096012,-0.0131767,2162698,0.0900121,0.145383,-0.396194,73225,0.0,0.0,0.0
118851575,2162698,0.00501833,-0.000942904,-0.0131953,2162698,0.0903633,0.1449,-0.394492,73225,0.0,0.0,0.0
119852670,2162698,0.00502024,-0.000949413,-0.0131846,2162698,0.090232,0.14485,-0.397455,73225,0.0,0.0,0.0
120843754,2162698,0.00500294,-0.00096114,-0.0131681,2162698,0.0900898,0.145017,-0.399995,73225,0.0,0.0,0.0
121844865,2162698,0.00503746,-0.000938829,-0.0131781,2162698,0.090274,0.144634,-0.400907,73225,0.0,0.0,0.0
122845942,2162698,0.00503135,-0.000965898,-0.0131538,2162698,0.0900821,0.144666,-0.39869,73225,0.0,0.0,0.0
123847035,2162698,0.00501511,-0.000986871,-0.0131383,2162698,0.0900259,0.14483,-0.395575,73225,0.0,0.0,0.0
124848128,2162698,0.00509356,-0.000956443,-0.0131321,2162698,0.0903471,0.144129,-0.39831,73225,0.0,0.0,0.0
125849233,2162698,0.00507147,-0.000984468,-0.0130942,2162698,0.0900471,0.144279,-0.400223,73225,0.0,0.0,0.0
126850313,2162698,0.0051084,-0.000960085,-0.0130713,2162698,0.0902542,0.144004,-0.399664,73225,0.0,0.0,0.0
127851405,2162698,0.00508401,-0.000970272,-0.0130368,2162698,0.089808,0.143766,-0.399998,73225,0.0,0.0,0.0
128852497,2162698,0.00507464,-0.000983163,-0.0129779,2162698,0.0898402,0.143439,-0.400064,73225,0.0,0.0,0.0
129853590,2162698,0.00506877,-0.00101722,-0.0129196,2162698,0.0923257,0.143027,-0.399206,73225,0.0,0.0,0.0
130844669,2162698,0.00511647,-0.000995881,-0.0128923,2162698,0.0904046,0.147661,-0.399394,73225,0.0,0.0,0.0
131845766,2162698,0.0051042,-0.00100917,-0.0128405,2162698,0.0921716,0.14649,-0.398334,73225,0.0,0.0,0.0
132846852,2162698,0.00505589,-0.00100375,-0.012805,2162698,0.0923261,0.14202,-0.395426,73225,0.0,0.0,0.0
133847946,2162698,0.00509773,-0.00100629,-0.0127767,2162698,0.0923516,0.14459,-0.398205,73225,0.0,0.0,0.0
134849035,2162698,0.00510545,-0.000969907,-0.0127652,2162698,0.0903141,0.144929,-0.402023,73225,0.0,0.0,0.0
135850126,2162698,0.00510011,-0.000969385,-0.0127698,2162698,0.0898083,0.144741,-0.399598,73225,0.0,0.0,0.0
136851219,2162698,0.00509213,-0.000951402,-0.0127662,2162698,0.0898864,0.144788,-0.397623,73225,0.0,0.0,0.0
137852307,2162698,0.00507482,-0.00100174,-0.0127677,2162698,0.0899387,0.144715,-0.395136,73225,0.0,0.0,0.0
138853397,2162698,0.00509275,-0.000974185,-0.0127974,2162698,0.0903467,0.144573,-0.392325,73225,0.0,0.0,0.0
139854485,2162698,0.00507682,-0.00102441,-0.0128044,2162698,0.0898361,0.144663,-0.391896,73225,0.0,0.0,0.0
140855572,2162698,0.00504918,-0.00103204,-0.0128196,2162698,0.0898275,0.144992,-0.391678,73225,0.0,0.0,0.0
141846648,2162698,0.00502519,-0.0010318,-0.0128373,2162698,0.0899085,0.145359,-0.39029,73225,0.0,0.0,0.0
142847736,2162698,0.00503626,-0.00100813,-0.0128756,2162698,0.0902982,0.145046,-0.392913,73225,0.0,0.0,0.0
143848834,2162698,0.00501999,-0.00102584,-0.0128957,2162698,0.0900392,0.14532,-0.392365,73225,0.0,0.0,0.0
144849912,2162698,0.00504805,-0.0010226,-0.0129171,2162698,0.0901156,0.144887,-0.389437,73225,0.0,0.0,0.0
145851003,2162698,0.00502999,-0.00106584,-0.01292,2162698,0.0895902,0.145214,-0.385845,73225,0.0,0.0,0.0
146852071,2162698,0.00503055,-0.00100469,-0.0129378,2162698,0.0903306,0.145192,-0.38608,73225,0.0,0.0,0.0
147853153,2162698,0.00504257,-0.000984352,-0.0129539,2162698,0.0905444,0.145054,-0.389351,73225,0.0,0.0,0.0
148844227,2162698,0.00507847,-0.000971992,-0.0129787,2162698,0.0907186,0.144711,-0.391136,73225,0.0,0.0,0.0
149845315,2162698,0.00507434,-0.000972605,-0.0129664,2162698,0.090774,0.144764,-0.39303,73225,0.0,0.0,0.0
150846387,2162698,0.00503728,-0.000955358,-0.0129905,2162698,0.0910753,0.145094,-0.4,73225,0.0,0.0,0.0
151847466,2162698,0.00501517,-0.000932847,-0.0129996,2162698,0.0913398,0.145367,-0.400002,73225,0.0,0.0,0.0
152848543,2162698,0.00504435,-0.000919843,-0.0130146,2162698,0.0914648,0.144905,-0.399925,73225,0.0,0.0,0.0
153849617,2162698,0.00505431,-0.000917446,-0.0130352,2162698,0.0913982,0.144575,-0.400793,73225,0.0,0.0,0.0
154850688,2162698,0.00505055,-0.000886418,-0.0130546,2162698,0.0915817,0.144292,-0.400537,73225,0.0,0.0,0.0
155851759,2162698,0.00501811,-0.000899024,-0.013031,2162698,0.0914847,0.144441,-0.399643,73225,0.0,0.0,0.0
156852829,2162698,0.00502489,-0.000986602,-0.0130276,2162698,0.0913124,0.144634,-0.396411,73225,0.0,0.0,0.0
157853899,2162698,0.00496262,-0.00100266,-0.0130588,2162698,0.0913398,0.144617,-0.396744,73225,0.0,0.0,0.0
158844963,2162698,0.00501696,-0.000963211,-0.0130862,2162698,0.0917335,0.144643,-0.396085,73225,0.0,0.0,0.0
159846026,2162698,0.00501474,-0.000984191,-0.0130859,2162698,0.0916689,0.145107,-0.394723,73225,0.0,0.0,0.0
160847085,2162698,0.00496191,-0.0010061,-0.0131017,2162698,0.0915653,0.145021,-0.399481,73225,0.0,0.0,0.0
161848146,2162698,0.00492966,-0.000955096,-0.0131229,2162698,0.091756,0.144741,-0.399689,73225,0.0,0.0,0.0
162849205,2162698,0.00490103,-0.000866198,-0.0131578,2162698,0.0921821,0.144634,-0.401083,73225,0.0,0.0,0.0
163850281,2162698,0.00490074,-0.000868035,-0.0131705,2162698,0.0918233,0.14464,-0.403031,73225,0.0,0.0,0.0
164851323,2162698,0.0049138,-0.000833208,-0.0131813,2162698,0.0919893,0.144695,-0.401249,73225,0.0,0.0,0.0
165852386,2162698,0.00490884,-0.00079618,-0.0132,2162698,0.0921129,0.144871,-0.399919,73225,0.0,0.0,0.0
166853440,2162698,0.00489738,-0.000772434,-0.0131921,2162698,0.0920479,0.14497,-0.401018,73225,0.0,0.0,0.0
167854497,2162698,0.00484732,-0.000800162,-0.0131699,2162698,0.0919873,0.14496,-0.400022,73225,0.0,0.0,0.0
168855555,2162698,0.00480126,-0.000777249,-0.0131611,2162698,0.0920526,0.144912,-0.400369,73225,0.0,0.0,0.0
169846601,2162698,0.00478981,-0.000771625,-0.0131722,2162698,0.0920558,0.144935,-0.399999,73225,0.0,0.0,0.0
170847659,2162698,0.00481349,-0.00073786,-0.0132003,2162698,0.0920715,0.144832,-0.398211,73225,0.0,0.0,0.0
171848726,2162698,0.00481189,-0.00075446,-0.0131828,2162698,0.0920541,0.144905,-0.398902,73225,0.0,0.0,0.0
172849788,2162698,0.00478197,-0.000768082,-0.0131818,2162698,0.0921375,0.144919,-0.395487,73225,0.0,0.0,0.0
173850843,2162698,0.00479926,-0.000732598,-0.0132001,2162698,0.0921606,0.144842,-0.391955,73225,0.0,0.0,0.0
174851889,2162698,0.00478012,-0.000747648,-0.013195,2162698,0.0921276,0.144934,-0.395508,73225,0.0,0.0,0.0
175852946,2162698,0.00480067,-0.00073467,-0.0131926,2162698,0.0922062,0.14487,-0.389414,73225,0.0,0.0,0.0
176843992,2162698,0.00482393,-0.000711323,-0.0131718,2162698,0.0922355,0.144794,-0.391106,73225,0.0,0.0,0.0
177845052,2162698,0.00481803,-0.000687549,-0.0131408,2162698,0.0923464,0.144748,-0.387229,73225,0.0,0.0,0.0
178846107,2162698,0.00483463,-0.000684757,-0.0131555,2162698,0.0923549,0.144676,-0.385804,73225,0.0,0.0,0.0
179847165,2162698,0.00482308,-0.000719481,-0.0131467,2162698,0.0923632,0.144619,-0.384051,73225,0.0,0.0,0.0
180848239,2162698,0.00487209,-0.000680591,-0.0131679,2162698,0.0923702,0.144825,-0.383987,73225,0.0,0.0,0.0
181849283,2162698,0.0048364,-0.000677446,-0.0131542,2162698,0.0923636,0.14509,-0.399809,73225,0.0,0.0,0.0
182850354,2162698,0.00481638,-0.00064585,-0.0131354,2162698,0.0926475,0.145254,-0.400788,73225,0.0,0.0,0.0
183851401,2162698,0.00484377,-0.000653327,-0.0131016,2162698,0.0926098,0.145184,-0.399294,73225,0.0,0.0,0.0
184852460,2162698,0.00484097,-0.000673783,-0.0130798,2162698,0.0926253,0.145199,-0.399074,73225,0.0,0.0,0.0
185853519,2162698,0.0048252,-0.000609701,-0.0130895,2162698,0.0925711,0.145178,-0.4,73225,0.0,0.0,0.0
186844574,2162698,0.00482886,-0.000597898,-0.0130764,2162698,0.0926132,0.145242,-0.40007,73225,0.0,0.0,0.0
187845627,2162698,0.00480449,-0.000583631,-0.0130652,2162698,0.0925122,0.145138,-0.398446,73225,0.0,0.0,0.0
188846687,2162698,0.00481704,-0.000573767,-0.0130736,2162698,0.0921776,0.145147,-0.395751,73225,0.0,0.0,0.0
189847747,2162698,0.00482119,-0.000556524,-0.0130888,2162698,0.0921915,0.14462,-0.4,73225,0.0,0.0,0.0
190848808,2162698,0.00480356,-0.00058662,-0.0130938,2162698,0.0922051,0.144554,-0.399041,73225,0.0,0.0,0.0
191849869,2162698,0.0047727,-0.000564226,-0.0130909,2162698,0.0921245,0.144663,-0.395485,73225,0.0,0.0,0.0
192850929,2162698,0.00477355,-0.000575103,-0.0130907,2162698,0.0919714,0.144615,-0.392209,73225,0.0,0.0,0.0
193851991,2162698,0.00475673,-0.000651401,-0.0130584,2162698,0.0918434,0.14431,-0.385926,73225,0.0,0.0,0.0
194853048,2162698,0.00474696,-0.000645089,-0.0130565,2162698,0.0918097,0.144287,-0.384845,73225,0.0,0.0,0.0
195854108,2162698,0.00474446,-0.000630743,-0.0130622,2162698,0.0917979,0.144333,-0.382787,73225,0.0,0.0,0.0
196855168,2162698,0.0047147,-0.000659746,-0.0130466,2162698,0.0918472,0.144237,-0.383182,73225,0.0,0.0,0.0
197846221,2162698,0.00469569,-0.000674106,-0.0130585,2162698,0.0918644,0.144247,-0.383213,73225,0.0,0.0,0.0
198847281,2162698,0.00473828,-0.000651324,-0.0130907,2162698,0.0919566,0.144454,-0.383669,73225,0.0,0.0,0.0
199848344,2162698,0.0047032,-0.000643064,-0.0129433,2162698,0.0921677,0.144636,-0.383633,73225,0.0,0.0,0.0
200849397,2162698,0.00470711,-0.000660479,-0.0129121,2162698,0.0925501,0.145342,-0.383244,73225,0.0,0.0,0.0
201850457,2162698,0.00473023,-0.00062165,-0.0128846,2162698,0.0913897,0.147796,-0.380261,73225,0.0,0.0,0.0
202851516,2162698,0.00480086,-0.00060912,-0.0128644,2162698,0.0913851,0.149407,-0.378142,73225,0.0,0.0,0.0
203852576,2162698,0.00492075,-0.000649217,-0.0128352,2162698,0.089255,0.153802,-0.378908,73225,0.0,0.0,0.0
204843626,2162698,0.00507503,-0.000694556,-0.0128305,2162698,0.0857762,0.164283,-0.380231,73225,0.0,0.0,0.0
205844686,2162698,0.00519271,-0.000730422,-0.0128169,2162698,0.084285,0.174182,-0.380197,73225,0.0,0.0,0.0
206845747,2162698,0.00530175,-0.000733882,-0.0128246,2162698,0.0820704,0.18254,-0.37993,73225,0.0,0.0,0.0
207846809,2162698,0.00544737,-0.000742642,-0.0128479,2162698,0.0815678,0.191769,-0.380621,73225,0.0,0.0,0.0
208847871,2162698,0.00542865,-0.000763796,-0.0128354,2162698,0.0826176,0.190848,-0.379856,73225,0.0,0.0,0.0
209848933,2162698,0.00532617,-0.000679685,-0.0128092,2162698,0.0804908,0.189978,-0.385235,73225,0.0,0.0,0.0
210849998,2162698,0.00529532,-0.000690663,-0.0126559,2162698,0.0788232,0.193675,-0.388366,73225,0.0,0.0,0.0
211851058,2162698,0.00533707,-0.000694991,-0.0125607,2162698,0.0763967,0.193237,-0.399969,73225,0.0,0.0,0.0
212852135,2162698,0.00551095,-0.000706894,-0.0125438,2162698,0.0720267,0.191654,-0.394976,73225,0.0,0.0,0.0
213853187,2162698,0.00567838,-0.000777356,-0.0125662,2162698,0.067055,0.191878,-0.381278,73225,0.0,0.0,0.0
214844242,2162698,0.00570888,-0.000815156,-0.0125536,2162698,0.0661527,0.192492,-0.373194,73225,0.0,0.0,0.0
215845308,2162698,0.00571374,-0.000803317,-0.0125277,2162698,0.0661833,0.192283,-0.367652,73225,0.0,0.0,0.0
216846377,2162698,0.0057077,-0.000774187,-0.0125218,2162698,0.0663229,0.192079,-0.363926,73225,0.0,0.0,0.0
217847442,2162698,0.00575002,-0.000752898,-0.0125506,2162698,0.0660534,0.191892,-0.360808,73225,0.0,0.0,0.0
218848513,2162698,0.00570445,-0.000766617,-0.0125572,2162698,0.0658477,0.192033,-0.358299,73225,0.0,0.0,0.0
219849579,2162698,0.00558693,-0.000744014,-0.0125549,2162698,0.0653669,0.192608,-0.35858,73225,0.0,0.0,0.0
220850649,2162698,0.00556569,-0.000731932,-0.012574,2162698,0.0652808,0.192757,-0.36004,73225,0.0,0.0,0.0
221851720,2162698,0.00551152,-0.000744224,-0.0125684,2162698,0.0647807,0.19296,-0.36046,73225,0.0,0.0,0.0
222852788,2162698,0.00544619,-0.000752937,-0.0125692,2162698,0.0641607,0.193403,-0.368162,73225,0.0,0.0,0.0
223853859,2162698,0.00541336,-0.000786471,-0.0125693,2162698,0.0635328,0.19338,-0.367844,73225,0.0,0.0,0.0
224854931,2162698,0.00539165,-0.000773828,-0.0125529,2162698,0.0635289,0.193712,-0.371936,73225,0.0,0.0,0.0
225845992,2162698,0.00539911,-0.000783583,-0.0125639,2162698,0.0635034,0.193629,-0.378901,73225,0.0,0.0,0.0
226847067,2162698,0.00545833,-0.000811384,-0.0126074,2162698,0.0636319,0.192823,-0.382385,73225,0.0,0.0,0.0
227848144,2162698,0.00543607,-0.000869336,-0.0126239,2162698,0.0628327,0.192554,-0.381192,73225,0.0,0.0,0.0
228849212,2162698,0.00539518,-0.000882282,-0.0126512,2162698,0.0623468,0.192768,-0.382989,73225,0.0,0.0,0.0
229850286,2162698,0.00538517,-0.000922417,-0.0126812,2162698,0.0620761,0.192555,-0.384063,73225,0.0,0.0,0.0
230851361,2162698,0.00532038,-0.000941808,-0.0127092,2162698,0.0616248,0.192602,-0.38632,73225,0.0,0.0,0.0
231852443,2162698,0.00526019,-0.000934877,-0.0127338,2162698,0.0613393,0.192751,-0.391513,73225,0.0,0.0,0.0
232843502,2162698,0.00522963,-0.000915045,-0.0127663,2162698,0.0611812,0.192549,-0.391657,73225,0.0,0.0,0.0
233844584,2162698,0.00523698,-0.000919056,-0.0127861,2162698,0.0614028,0.19281,-0.393372,73225,0.0,0.0,0.0
234845655,2162698,0.00522051,-0.000910296,-0.0129021,2162698,0.0634509,0.194139,-0.395524,73225,0.0,0.0,0.0
235846732,2162698,0.00521286,-0.000894104,-0.0130372,2162698,0.0651076,0.193006,-0.392582,73225,0.0,0.0,0.0
236847817,2162698,0.00527357,-0.000869905,-0.0131669,2162698,0.0668502,0.194705,-0.388897,73225,0.0,0.0,0.0
237848888,2162698,0.00522544,-0.000925051,-0.0133569,2162698,0.0668506,0.194706,-0.388899,73225,0.0,0.0,0.0
238849966,2162698,0.00502512,-0.00105012,-0.0134461,2162698,0.0685844,0.190538,-0.383296,73225,0.0,0.0,0.0
239851046,2162698,0.00488035,-0.00108028,-0.0134625,2162698,0.068898,0.185186,-0.372252,73225,0.0,0.0,0.0
240852149,2162698,0.00479763,-0.00107848,-0.013472,2162698,0.0685046,0.181157,-0.361393,73225,0.0,0.0,0.0
241853207,2162698,0.00479049,-0.00106591,-0.0134789,2162698,0.0680769,0.180956,-0.348572,73225,0.0,0.0,0.0
242844283,2162698,0.00480568,-0.00105151,-0.0134835,2162698,0.0675405,0.181701,-0.339492,73225,0.0,0.0,0.0
243845362,2162698,0.0048935,-0.00107886,-0.0135287,2162698,0.0681111,0.184694,-0.334101,73225,0.0,0.0,0.0
244846458,2162698,0.00491818,-0.0011178,-0.0135443,2162698,0.0685086,0.185266,-0.333757,73225,0.0,0.0,0.0
245847535,2162698,0.00492599,-0.00116155,-0.0135642,2162698,0.0693049,0.185186,-0.334261,73225,0.0,0.0,0.0
246848614,2162698,0.00494359,-0.00121823,-0.0135787,2162698,0.0712523,0.185739,-0.336942,73225,0.0,0.0,0.0
247849704,2162698,0.00497224,-0.00123054,-0.0136332,2162698,0.0721554,0.185237,-0.341388,73225,0.0,0.0,0.0
248850788,2162698,0.00501435,-0.00125996,-0.0137217,2162698,0.0743898,0.184643,-0.349856,73225,0.0,0.0,0.0
249851874,2162698,0.00499584,-0.0013104,-0.0137851,2162698,0.0754198,0.18139,-0.363017,73225,0.0,0.0,0.0
250852960,2162698,0.00500765,-0.00136497,-0.0138581,2162698,0.075704,0.178515,-0.370848,73225,0.0,0.0,0.0
251854047,2162698,0.00495987,-0.00143763,-0.0139486,2162698,0.0749705,0.17437,-0.372775,73225,0.0,0.0,0.0
252855133,2162698,0.00487054,-0.00146912,-0.014007,2162698,0.0725973,0.171921,-0.375653,73225,0.0,0.0,0.0
253846218,2162698,0.0047732,-0.00147242,-0.0140525,2162698,0.0702447,0.170775,-0.383818,73225,0.0,0.0,0.0
254847296,2162698,0.00474097,-0.00147132,-0.0141038,2162698,0.0696091,0.170706,-0.389776,73225,0.0,0.0,0.0
255848383,2162698,0.00475392,-0.00151362,-0.0141388,2162698,0.0702677,0.170629,-0.390585,73225,0.0,0.0,0.0
256849470,2162698,0.00475892,-0.00151283,-0.0141922,2162698,0.07013,0.170865,-0.393191,73225,0.0,0.0,0.0
257850559,2162698,0.00474674,-0.0015116,-0.0142384,2162698,0.0698741,0.17023,-0.39634,73225,0.0,0.0,0.0
258851647,2162698,0.00476456,-0.00152383,-0.0142849,2162698,0.0702385,0.170668,-0.400001,73225,0.0,0.0,0.0
259852746,2162698,0.00483393,-0.00152622,-0.0143912,2162698,0.0693433,0.170867,-0.401036,73225,0.0,0.0,0.0
260843815,2162698,0.00490152,-0.00155891,-0.0144518,2162698,0.0683672,0.170114,-0.400029,73225,0.0,0.0,0.0
261844905,2162698,0.00494065,-0.00156512,-0.0144782,2162698,0.0666681,0.169018,-0.399504,73225,0.0,0.0,0.0
262845998,2162698,0.00502234,-0.00160002,-0.014458,2162698,0.0656601,0.170457,-0.395829,73225,0.0,0.0,0.0
263847089,2162698,0.00509816,-0.00164359,-0.0142932,2162698,0.06274,0.173811,-0.393318,73225,0.0,0.0,0.0
264848182,2162698,0.00521822,-0.00167594,-0.0141931,2162698,0.0582652,0.176688,-0.385992,73225,0.0,0.0,0.0
265849284,2162698,0.00534257,-0.00168516,-0.0141445,2162698,0.0543025,0.17819,-0.380653,73225,0.0,0.0,0.0
266850371,2162698,0.0054955,-0.00171095,-0.0140972,2162698,0.0500192,0.180616,-0.378416,73225,0.0,0.0,0.0
267851467,2162698,0.00555859,-0.00170663,-0.0140251,2162698,0.048533,0.181103,-0.383513,73225,0.0,0.0,0.0
268852567,2162698,0.00554059,-0.00171081,-0.0137824,2162698,0.044939,0.185989,-0.389367,73225,0.0,0.0,0.0
269853663,2162698,0.00555908,-0.00178825,-0.0135408,2162698,0.0393878,0.191725,-0.396754,73225,0.0,0.0,0.0
270844747,2162698,0.00549706,-0.00183286,-0.0133324,2162698,0.0336051,0.199496,-0.390575,73225,0.0,0.0,0.0
271845846,2162698,0.00552761,-0.00189676,-0.0131907,2162698,0.0244396,0.20537,-0.392424,73225,0.0,0.0,0.0
272846946,2162698,0.00560037,-0.00195838,-0.01307,2162698,0.014683,0.211461,-0.399866,73225,0.0,0.0,0.0
273848046,2162698,0.00560903,-0.00196051,-0.0129363,2162698,0.00726554,0.216355,-0.394148,73225,0.0,0.0,0.0
274849147,2162698,0.00558788,-0.00193352,-0.012859,2162698,0.00170456,0.220537,-0.387013,73225,0.0,0.0,0.0
275850248,2162698,0.00561557,-0.00182588,-0.0127974,2162698,-0.00256471,0.223088,-0.386257,73225,0.0,0.0,0.0
276851348,2162698,0.0057188,-0.00170724,-0.0127707,2162698,-0.00663816,0.226545,-0.39827,73225,0.0,0.0,0.0
277852449,2162698,0.00572645,-0.00166247,-0.0127978,2162698,-0.013555,0.233663,-0.39857,73225,0.0,0.0,0.0
278843541,2162698,0.00572429,-0.00167612,-0.0128,2162698,-0.0162426,0.236871,-0.398445,73225,0.0,0.0,0.0
279844645,2162698,0.00566689,-0.00166417,-0.0127754,2162698,-0.0173923,0.237892,-0.399003,73225,0.0,0.0,0.0
280845753,2162698,0.00550261,-0.00175823,-0.0128904,2162698,-0.0213541,0.242725,-0.399574,73225,0.0,0.0,0.0
281846860,2162698,0.00546087,-0.00190372,-0.0129887,2162698,-0.0295324,0.250075,-0.399988,73225,0.0,0.0,0.0
282847963,2162698,0.00551691,-0.00194286,-0.0130235,2162698,-0.0368902,0.254852,-0.39777,73225,0.0,0.0,0.0
283849071,2162698,0.00560319,-0.00187176,-0.0130339,2162698,-0.0427396,0.256608,-0.397004,73225,0.0,0.0,0.0
284850180,2162698,0.00574872,-0.00181082,-0.0131042,2162698,-0.0427564,0.256624,-0.396993,73225,0.0,0.0,0.0
285851291,2162698,0.00584827,-0.00171756,-0.0131631,2162698,-0.0448552,0.257929,-0.395235,73225,0.0,0.0,0.0
286852403,2162698,0.00591213,-0.00162289,-0.0132116,2162698,-0.0486055,0.259471,-0.392605,73225,0.0,0.0,0.0
287853513,2162698,0.00592655,-0.00159472,-0.0132462,2162698,-0.0496874,0.259838,-0.391226,73225,0.0,0.0,0.0
288844636,2162698,0.00589602,-0.00160979,-0.0132956,2162698,-0.0489332,0.258574,-0.388637,73225,0.0,0.0,0.0
289845729,2162698,0.00589883,-0.00162242,-0.0133377,2162698,-0.0483365,0.258752,-0.394803,73225,0.0,0.0,0.0
290846844,2162698,0.00581915,-0.00162038,-0.013377,2162698,-0.048406,0.256804,-0.39425,73225,0.0,0.0,0.0
291847960,2162698,0.00583831,-0.00166281,-0.0134213,2162698,-0.0479552,0.257028,-0.400508,73225,0.0,0.0,0.0
292849078,2162698,0.00583322,-0.00173362,-0.0134637,2162698,-0.0474644,0.256902,-0.400596,73225,0.0,0.0,0.0
293850197,2162698,0.00576023,-0.00175466,-0.0134923,2162698,-0.0476975,0.256635,-0.397949,73225,0.0,0.0,0.0
294851316,2162698,0.00575574,-0.00175293,-0.0135217,2162698,-0.0477579,0.256571,-0.394865,73225,0.0,0.0,0.0
295852436,2162698,0.00576821,-0.00176467,-0.0135437,2162698,-0.0478322,0.256407,-0.396631,73225,0.0,0.0,0.0
296853570,2162698,0.00575027,-0.00175765,-0.0135665,2162698,-0.0477152,0.256495,-0.399944,73225,0.0,0.0,0.0
297854679,2162698,0.00580039,-0.00182132,-0.0135952,2162698,-0.0482391,0.255708,-0.401803,73225,0.0,0.0,0.0
298845791,2162698,0.00574382,-0.0018364,-0.0136215,2162698,-0.0484836,0.256325,-0.4,73225,0.0,0.0,0.0
299846915,2162698,0.00570557,-0.00185006,-0.0136535,2162698,-0.0486979,0.256681,-0.399364,73225,0.0,0.0,0.0
300848042,2162698,0.00569434,-0.00188446,-0.0136769,2162698,-0.0489802,0.256755,-0.4,73225,0.0,0.0,0.0
301849167,2162698,0.00569509,-0.00184598,-0.0136988,2162698,-0.049032,0.256948,-0.4,73225,0.0,0.0,0.0
302850297,2162698,0.00575301,-0.00194403,-0.0137238,2162698,-0.0487322,0.257073,-0.399966,73225,0.0,0.0,0.0
303851422,2162698,0.00578873,-0.00200524,-0.0137437,2162698,-0.0471676,0.258037,-0.395251,73225,0.0,0.0,0.0
304852551,2162698,0.00576271,-0.00203813,-0.0137652,2162698,-0.045912,0.25709,-0.392612,73225,0.0,0.0,0.0
305843670,2162698,0.0057544,-0.00205108,-0.01378,2162698,-0.0453434,0.256789,-0.395819,73225,0.0,0.0,0.0
306844802,2162698,0.00575298,-0.00207322,-0.0138053,2162698,-0.044407,0.256824,-0.399425,73225,0.0,0.0,0.0
307845935,2162698,0.00571408,-0.00203847,-0.0138119,2162698,-0.0455597,0.255454,-0.39581,73225,0.0,0.0,0.0
308847069,2162698,0.00575392,-0.00204107,-0.013828,2162698,-0.0456108,0.256446,-0.398569,73225,0.0,0.0,0.0
309848206,2162698,0.00581451,-0.00210826,-0.0138495,2162698,-0.0446472,0.257262,-0.399912,73225,0.0,0.0,0.0
310849343,2162698,0.00580893,-0.00210392,-0.0138506,2162698,-0.0446531,0.257102,-0.399803,73225,0.0,0.0,0.0
311850477,2162698,0.00580737,-0.00210307,-0.0138462,2162698,-0.0447063,0.257074,-0.398569,73225,0.0,0.0,0.0
312851625,2162698,0.0057539,-0.00207322,-0.0138579,2162698,-0.0448164,0.25713,-0.398373,73225,0.0,0.0,0.0
313852753,2162698,0.0057956,-0.00207071,-0.0138693,2162698,-0.0447842,0.257028,-0.401062,73225,0.0,0.0,0.0
314853893,2162698,0.00582983,-0.00213466,-0.0138807,2162698,-0.0451666,0.256868,-0.400727,73225,0.0,0.0,0.0
315855034,2162698,0.00582137,-0.00214037,-0.0138809,2162698,-0.045116,0.256884,-0.402041,73225,0.0,0.0,0.0
316846164,2162698,0.00582063,-0.00218058,-0.0138851,2162698,-0.0455223,0.256879,-0.399981,73225,0.0,0.0,0.0
317847307,2162698,0.00580121,-0.00220351,-0.0138972,2162698,-0.0457567,0.2571,-0.4,73225,0.0,0.0,0.0
318848451,2162698,0.00575197,-0.00221931,-0.0139117,2162698,-0.0458947,0.257609,-0.39953,73225,0.0,0.0,0.0
319849597,2162698,0.00574824,-0.00218758,-0.0139202,2162698,-0.0455999,0.25761,-0.4,73225,0.0,0.0,0.0
320850747,2162698,0.00581266,-0.00220212,-0.0139401,2162698,-0.0458289,0.256988,-0.399995,73225,0.0,0.0,0.0
321851898,2162698,0.00586374,-0.00224608,-0.0139563,2162698,-0.0462704,0.2566,-0.399998,73225,0.0,0.0,0.0
322853040,2162698,0.00587255,-0.0022747,-0.0139607,2162698,-0.0465137,0.256535,-0.4,73225,0.0,0.0,0.0
323844178,2162698,0.00585665,-0.00226299,-0.013965,2162698,-0.0464523,0.256671,-0.400028,73225,0.0,0.0,0.0
324845330,2162698,0.00591459,-0.00222559,-0.0139852,2162698,-0.0461946,0.256387,-0.399945,73225,0.0,0.0,0.0
325846482,2162698,0.00590882,-0.00225519,-0.0139939,2162698,-0.0463678,0.25648,-0.400007,73225,0.0,0.0,0.0
326847634,2162698,0.005961,-0.0022171,-0.0139999,2162698,-0.046139,0.256348,-0.4,73225,0.0,0.0,0.0
327848787,2162698,0.00596088,-0.00227228,-0.0140065,2162698,-0.0454432,0.256292,-0.400002,73225,0.0,0.0,0.0
328849941,2162698,0.00589874,-0.00255194,-0.0141203,2162698,-0.0495937,0.258113,-0.400081,73225,0.0,0.0,0.0
329851097,2162698,0.00580058,-0.00273533,-0.0148209,2162698,-0.0594328,0.264604,-0.400001,73225,0.0,0.0,0.0
330852270,2162698,0.00585809,-0.00278732,-0.0154258,2162698,-0.0704392,0.26774,-0.4,73225,0.0,0.0,0.0
331853410,2162698,0.00594653,-0.00281396,-0.015881,2162698,-0.0709172,0.26737,-0.399995,73225,0.0,0.0,0.0
332854567,2162698,0.00606381,-0.00272482,-0.0162537,2162698,-0.075919,0.264915,-0.400883,73225,0.0,0.0,0.0
333845711,2162698,0.006155,-0.00263677,-0.0164834,2162698,-0.084171,0.261694,-0.4,73225,0.0,0.0,0.0
334846867,2162698,0.00614738,-0.00245707,-0.0165536,2162698,-0.0925438,0.256202,-0.399996,73225,0.0,0.0,0.0
335848021,2162698,0.00611289,-0.00230994,-0.0166054,2162698,-0.0994702,0.251616,-0.399939,73225,0.0,0.0,0.0
336849174,2162698,0.00606564,-0.00221535,-0.0166516,2162698,-0.103294,0.248483,-0.399961,73225,0.0,0.0,0.0
337850329,2162698,0.0062038,-0.00227058,-0.0167158,2162698,-0.108358,0.241078,-0.399942,73225,0.0,0.0,0.0
338851474,2162698,0.00624501,-0.00229028,-0.0167971,2162698,-0.113748,0.235265,-0.399986,73225,0.0,0.0,0.0
339852620,2162698,0.00629597,-0.002249,-0.0168367,2162698,-0.117731,0.23202,-0.400654,73225,0.0,0.0,0.0
340843752,2162698,0.00631635,-0.00225152,-0.0168504,2162698,-0.119163,0.231611,-0.399998,73225,0.0,0.0,0.0
341844895,2162698,0.00629439,-0.00218903,-0.0168478,2162698,-0.119538,0.233822,-0.39989,73225,0.0,0.0,0.0
342846037,2162698,0.00616061,-0.00209185,-0.0168569,2162698,-0.118338,0.232582,-0.399989,73225,0.0,0.0,0.0
343847178,2162698,0.00600587,-0.0020474,-0.0167995,2162698,-0.117003,0.231314,-0.397964,73225,0.0,0.0,0.0
344848318,2162698,0.00586872,-0.00202834,-0.0167016,2162698,-0.116079,0.229944,-0.394992,73225,0.0,0.0,0.0
345849456,2162698,0.00585881,-0.00200074,-0.0166295,2162698,-0.115705,0.22726,-0.39392,73225,0.0,0.0,0.0
346850591,2162698,0.00582256,-0.0019909,-0.0165593,2162698,-0.115607,0.226764,-0.398236,73225,0.0,0.0,0.0
347851725,2162698,0.00583751,-0.00196007,-0.0165218,2162698,-0.115804,0.226458,-0.399998,73225,0.0,0.0,0.0
348852856,2162698,0.00583858,-0.0019052,-0.0164889,2162698,-0.11621,0.22664,-0.4,73225,0.0,0.0,0.0
349853987,2162698,0.0058354,-0.00183865,-0.0164489,2162698,-0.116486,0.226726,-0.401761,73225,0.0,0.0,0.0
350855119,2162698,0.00583224,-0.00182428,-0.0163963,2162698,-0.117162,0.226892,-0.399995,73225,0.0,0.0,0.0
351846246,2162698,0.00575039,-0.0018271,-0.0163191,2162698,-0.118057,0.227109,-0.398722,73225,0.0,0.0,0.0
352847366,2162698,0.00576344,-0.00178067,-0.016155,2162698,-0.117792,0.227059,-0.398968,73225,0.0,0.0,0.0
353848494,2162698,0.00583106,-0.00173162,-0.0160228,2162698,-0.118414,0.228014,-0.398967,73225,0.0,0.0,0.0
354849623,2162698,0.00582972,-0.00170248,-0.0159731,2162698,-0.119614,0.227625,-0.399998,73225,0.0,0.0,0.0
355850753,2162698,0.00592554,-0.0016468,-0.0158296,2162698,-0.120599,0.225244,-0.399959,73225,0.0,0.0,0.0
356851880,2162698,0.00603244,-0.0016458,-0.0156212,2162698,-0.122744,0.214984,-0.399999,73225,0.0,0.0,0.0
357853004,2162698,0.00605201,-0.00171419,-0.0154561,2162698,-0.124753,0.205809,-0.398768,73225,0.0,0.0,0.0
358844133,2162698,0.00606146,-0.00177691,-0.0152924,2162698,-0.128101,0.197363,-0.396111,73225,0.0,0.0,0.0
359845245,2162698,0.00616974,-0.00183234,-0.0150847,2162698,-0.134748,0.187291,-0.394807,73225,0.0,0.0,0.0
360846373,2162698,0.00618093,-0.00181339,-0.0149779,2162698,-0.139504,0.183873,-0.4,73225,0.0,0.0,0.0
361847495,2162698,0.00601529,-0.00180184,-0.0149005,2162698,-0.144237,0.181768,-0.399906,73225,0.0,0.0,0.0
362848620,2162698,0.00584822,-0.00183276,-0.0148337,2162698,-0.146987,0.180131,-0.399957,73225,0.0,0.0,0.0
363849745,2162698,0.00582848,-0.00187047,-0.0147686,2162698,-0.147717,0.180256,-0.398801,73225,0.0,0.0,0.0
364850873,2162698,0.00580195,-0.00180549,-0.0147055,2162698,-0.148782,0.180664,-0.399991,73225,0.0,0.0,0.0
365851993,2162698,0.00582801,-0.00171659,-0.0146365,2162698,-0.149237,0.180998,-0.400001,73225,0.0,0.0,0.0
366853116,2162698,0.00586628,-0.00171748,-0.0144737,2162698,-0.153229,0.17702,-0.399934,73225,0.0,0.0,0.0
367854243,2162698,0.00606289,-0.00177507,-0.0140801,2162698,-0.161678,0.166862,-0.399531,73225,0.0,0.0,0.0
368845356,2162698,0.00614543,-0.00183101,-0.0138371,2162698,-0.169505,0.161288,-0.39727,73225,0.0,0.0,0.0
369846477,2162698,0.00612037,-0.00185471,-0.0137294,2162698,-0.172621,0.160805,-0.399952,73225,0.0,0.0,0.0
370847602,2162698,0.00599261,-0.00182991,-0.0136484,2162698,-0.175313,0.162375,-0.399146,73225,0.0,0.0,0.0
371848727,2162698,0.00595184,-0.00176499,-0.0135699,2162698,-0.17671,0.16395,-0.398188,73225,0.0,0.0,0.0
372849852,2162698,0.00589909,-0.00169149,-0.0134815,2162698,-0.177983,0.165597,-0.398071,73225,0.0,0.0,0.0
373850978,2162698,0.00579797,-0.00166584,-0.0134019,2162698,-0.179098,0.166894,-0.39746,73225,0.0,0.0,0.0
374852103,2162698,0.00579227,-0.00163133,-0.0133332,2162698,-0.179657,0.16764,-0.395517,73225,0.0,0.0,0.0
375843220,2162698,0.00576977,-0.00160042,-0.0132653,2162698,-0.18005,0.168195,-0.398399,73225,0.0,0.0,0.0
376844352,2162698,0.00574871,-0.00157792,-0.013197,2162698,-0.180287,0.168744,-0.399125,73225,0.0,0.0,0.0
377845473,2162698,0.00571409,-0.0015941,-0.013132,2162698,-0.180538,0.169489,-0.399938,73225,0.0,0.0,0.0
378846601,2162698,0.00565096,-0.00155067,-0.0130683,2162698,-0.180476,0.169608,-0.399381,73225,0.0,0.0,0.0
379847730,2162698,0.00560648,-0.00154758,-0.0130084,2162698,-0.180658,0.168692,-0.399598,73225,0.0,0.0,0.0
