timestamp,gyro_device_id,gyro_bias[0],gyro_bias[1],gyro_bias[2],accel_device_id,accel_bias[0],accel_bias[1],accel_bias[2],mag_device_id,mag_bias[0],mag_bias[1],mag_bias[2]
18515730,3670026,0.0019740507,-0.0036329261,-0.015089252,3670026,-1.2935067e-08,3.6808103e-08,-0.17386,396809,0.0,0.0,0.0
18525660,3670026,0.0019741033,-0.0036330228,-0.0150896525,3670026,-1.2935411e-08,3.680908e-08,-0.17386462,396809,0.0,0.0,0.0
19518820,3670026,0.0019535501,-0.0035143215,-0.012420767,3670026,-0.00018554775,0.00037309632,-0.16977796,396809,0.0,0.0,0.0
20516946,3670026,0.001947,-0.003453553,-0.010582619,3670026,-0.0013615579,0.0017979403,-0.16876993,396809,0.0,0.0,0.0
21515070,3670026,0.001916652,-0.0033859855,-0.009082165,3670026,-0.0045920713,0.00502232,-0.1683322,396809,0.0,0.0,0.0
22518162,3670026,0.0018109862,-0.0032182354,-0.0068788533,3670026,-0.011359468,0.007889735,-0.16932537,396809,0.0,0.0,0.0
23516447,3670026,0.0016390925,-0.0030549765,-0.0051937867,3670026,-0.02071184,0.010804618,-0.16989924,396809,0.0,0.0,0.0
24514415,3670026,0.0014542881,-0.0029766501,-0.004168824,3670026,-0.030789558,0.015745923,-0.17155579,396809,0.0,0.0,0.0
25517507,3670026,0.0012825916,-0.0029351234,-0.0034416567,3670026,-0.03924163,0.021886945,-0.17255667,396809,0.0,0.0,0.0
26520602,3670026,0.0011206884,-0.0029382238,-0.0029599194,3670026,-0.046828624,0.030441351,-0.174011,396809,0.0,0.0,0.0
27513762,3670026,0.0009602944,-0.0029911136,-0.0027292406,3670026,-0.054767407,0.043475173,-0.17741263,396809,0.0,0.0,0.0
28516855,3670026,0.0007551762,-0.0030300454,-0.0024172934,3670026,-0.06154097,0.05925318,-0.17937177,396809,0.0,0.0,0.0
29514985,3670026,0.00057920674,-0.0031033163,-0.0020717198,3670026,-0.06697234,0.07567273,-0.18230273,396809,0.0,0.0,0.0
30518278,3670026,0.00035445127,-0.003204118,-0.0023285553,3670026,-0.071923934,0.09517801,-0.1847204,396809,0.0,0.0,0.0
31516205,3670026,0.00012890942,-0.0032911503,-0.002186684,3670026,-0.07685284,0.11710225,-0.18835452,396809,0.0,0.0,0.0
32524265,3670026,-0.00010593996,-0.0033478804,-0.0020763394,3670026,-0.08029236,0.14157186,-0.19174536,396809,0.0,0.0,0.0
33517428,3670026,-0.00034256128,-0.0033607534,-0.0021557116,3670026,-0.08083669,0.16680205,-0.19345023,396809,0.0,0.0,0.0
34520524,3670026,-0.00044495272,-0.003585166,-0.0021822762,3670026,-0.10417794,0.17735928,-0.19611965,396809,0.0,0.0,0.0
35518652,3670026,-0.0005448795,-0.003651187,-0.0022041574,3670026,-0.11072882,0.18809871,-0.1965631,396809,0.0,0.0,0.0
36516781,3670026,-0.0006054096,-0.0036946265,-0.0021994694,3670026,-0.11446388,0.19723888,-0.19127136,396809,0.0,0.0,0.0
37515066,3670026,-0.00061920966,-0.0038076146,-0.0021589776,3670026,-0.1237207,0.20063163,-0.17809695,396809,0.0,0.0,0.0
38518007,3670026,-0.00055895007,-0.0036567347,-0.0021863317,3670026,-0.113069065,0.19802542,-0.16965373,396809,0.0,0.0,0.0
39521102,3670026,-0.0002913306,-0.0037080182,-0.002165874,3670026,-0.118445225,0.18253326,-0.15841855,396809,0.0,0.0,0.0
40514267,3670026,5.6251138e-05,-0.003481693,-0.0022276263,3670026,-0.0997025,0.15806104,-0.1521704,396809,0.0,0.0,0.0
41517378,3670026,0.00026277284,-0.0031834915,-0.0022802283,3670026,-0.075554505,0.14078818,-0.1482211,396809,0.0,0.0,0.0
42515492,3670026,0.00035486332,-0.0029091088,-0.0023755315,3670026,-0.05177655,0.13426457,-0.14274044,396809,0.0,0.0,0.0
43513623,3670026,0.00052017794,-0.0028557878,-0.0023473268,3670026,-0.047072966,0.122194424,-0.13852349,396809,0.0,0.0,0.0
44516919,3670026,0.0008248505,-0.002661328,-0.0023615116,3670026,-0.031048287,0.098211214,-0.13429025,396809,0.0,0.0,0.0
45514850,3670026,0.00088586356,-0.002584914,-0.0022143368,3670026,-0.024120605,0.093927905,-0.13091704,396809,0.0,0.0,0.0
46517949,3670026,0.00093884335,-0.0025063427,-0.002126871,3670026,-0.017727599,0.089036085,-0.12740777,396809,0.0,0.0,0.0
47516079,3670026,0.0010078652,-0.0024731378,-0.0020518552,3670026,-0.01348925,0.08364752,-0.12474133,396809,0.0,0.0,0.0
48514234,3670026,0.0010786308,-0.0024188329,-0.0019275388,3670026,-0.007963166,0.077847555,-0.12208284,396809,0.0,0.0,0.0
49517308,3670026,0.0010844149,-0.0023748004,-0.0017814916,3670026,-0.004352855,0.075645044,-0.11963646,396809,0.0,0.0,0.0
50515439,3670026,0.0010932374,-0.0023493813,-0.0016539225,3670026,-0.0009067276,0.07365717,-0.117819756,396809,0.0,0.0,0.0
51513571,3670026,0.0011171299,-0.0022920317,-0.0015263396,3670026,0.004148618,0.07034422,-0.11596579,396809,0.0,0.0,0.0
52516669,3670026,0.0011498216,-0.0022986666,-0.001425809,3670026,0.004839283,0.066022515,-0.11326192,396809,0.0,0.0,0.0
53524734,3670026,0.0011931837,-0.0022518449,-0.0013636025,3670026,0.010426531,0.06264624,-0.11197076,396809,0.0,0.0,0.0
54512936,3670026,0.0011907934,-0.0022563254,-0.0013046507,3670026,0.0126805585,0.06134724,-0.11062132,396809,0.0,0.0,0.0
55516083,3670026,0.0012145634,-0.0021915396,-0.0012083143,3670026,0.017776677,0.058774192,-0.109061114,396809,0.0,0.0,0.0
56524096,3670026,0.0012127169,-0.0021860907,-0.0011012933,3670026,0.021639153,0.057486713,-0.107915066,396809,0.0,0.0,0.0
57517309,3670026,0.0012317133,-0.0021741972,-0.0010258699,3670026,0.025760202,0.054370187,-0.10614906,396809,0.0,0.0,0.0
58520362,3670026,0.0012588607,-0.0021490373,-0.0009777884,3670026,0.031921566,0.051293243,-0.10466062,396809,0.0,0.0,0.0
59523461,3670026,0.0012554456,-0.0021398577,-0.00089070265,3670026,0.03855137,0.05070111,-0.10406541,396809,0.0,0.0,0.0
60516629,3670026,0.0012193731,-0.0021250674,-0.0008107377,3670026,0.045307107,0.05094778,-0.10270653,396809,0.0,0.0,0.0
61519729,3670026,0.0012254667,-0.0021087874,-0.0007656619,3670026,0.05153451,0.049655594,-0.10148178,396809,0.0,0.0,0.0
62522944,3670026,0.0011697975,-0.0020648541,-0.0007027955,3670026,0.0577336,0.051969763,-0.10091299,396809,0.0,0.0,0.0
63515996,3670026,0.0011674557,-0.0020514473,-0.00068562024,3670026,0.0650596,0.051315,-0.09962574,396809,0.0,0.0,0.0
64514129,3670026,0.001198739,-0.0020494568,-0.00068575144,3670026,0.07258388,0.050087146,-0.0991679,396809,0.0,0.0,0.0
65517237,3670026,0.0011964228,-0.0020012907,-0.0006533081,3670026,0.07906131,0.05024701,-0.09836081,396809,0.0,0.0,0.0
66520326,3670026,0.0011878246,-0.0019881346,-0.00056433585,3670026,0.083128706,0.049922127,-0.09758707,396809,0.0,0.0,0.0
67523430,3670026,0.0011977372,-0.0019974583,-0.00052488974,3670026,0.091299236,0.049653403,-0.09768629,396809,0.0,0.0,0.0
68516601,3670026,0.0011801235,-0.0019904787,-0.00050334446,3670026,0.096933566,0.049800616,-0.097289614,396809,0.0,0.0,0.0
69519815,3670026,0.0012074069,-0.0019675228,-0.00044773522,3670026,0.101943836,0.0482329,-0.09623614,396809,0.0,0.0,0.0
70517835,3670026,0.0012123634,-0.001997396,-0.00042392284,3670026,0.10847299,0.047951575,-0.096030846,396809,0.0,0.0,0.0
71515970,3670026,0.0012315414,-0.001984537,-0.0004334455,3670026,0.116458654,0.047299303,-0.09584559,396809,0.0,0.0,0.0
72519071,3670026,0.0012269163,-0.002004759,-0.00043571254,3670026,0.12270263,0.04739783,-0.09531638,396809,0.0,0.0,0.0
73517280,3670026,0.0012387536,-0.0020305936,-0.00042725954,3670026,0.1300783,0.047333978,-0.09517159,396809,0.0,0.0,0.0
74520308,3670026,0.0012150055,-0.002003271,-0.0003705729,3670026,0.1362476,0.04724768,-0.09519345,396809,0.0,0.0,0.0
75518444,3670026,0.0011959106,-0.0020075112,-0.00032786475,3670026,0.1428982,0.04714752,-0.09494083,396809,0.0,0.0,0.0
76516580,3670026,0.0012130762,-0.0019651393,-0.0003013993,3670026,0.14953004,0.04588211,-0.09491252,396809,0.0,0.0,0.0
77514719,3670026,0.0012061638,-0.0019751322,-0.0002787031,3670026,0.15716988,0.04550825,-0.09480269,396809,0.0,0.0,0.0
78517818,3670026,0.001192461,-0.0019816423,-0.00025618638,3670026,0.16303967,0.045270763,-0.09458584,396809,0.0,0.0,0.0
79515956,3670026,0.001189034,-0.0019466827,-0.0002446674,3670026,0.16819382,0.045318954,-0.09481119,396809,0.0,0.0,0.0
80514212,3670026,0.001180878,-0.0019339052,-0.00024872646,3670026,0.1742232,0.04530968,-0.09490981,396809,0.0,0.0,0.0
81517200,3670026,0.0011679535,-0.0019391569,-0.00019252628,3670026,0.17746867,0.045195024,-0.09476274,396809,0.0,0.0,0.0
82515352,3670026,0.0011767091,-0.0019243404,-0.00017415483,3670026,0.18278527,0.044821415,-0.09486403,396809,0.0,0.0,0.0
83518431,3670026,0.0011989418,-0.0019189008,-0.00013934524,3670026,0.18672387,0.044453416,-0.0950264,396809,0.0,0.0,0.0
84516568,3670026,0.001213134,-0.0019040861,-9.926882e-05,3670026,0.19119608,0.04383717,-0.09486946,396809,0.0,0.0,0.0
85514717,3670026,0.00124188,-0.0019083973,-5.071427e-05,3670026,0.19936816,0.043164868,-0.09504641,396809,0.0,0.0,0.0
86517808,3670026,0.0012364087,-0.0018975695,-1.6068181e-05,3670026,0.20250085,0.04254959,-0.094668426,396809,0.0,0.0,0.0
87516113,3670026,0.0012424621,-0.0019035001,3.1281405e-05,3670026,0.20763932,0.04209033,-0.09493781,396809,0.0,0.0,0.0
88524015,3670026,0.0012342664,-0.0019210197,6.8589514e-05,3670026,0.21496984,0.04141277,-0.094918095,396809,0.0,0.0,0.0
89517185,3670026,0.0012313908,-0.0019520757,0.00014356994,3670026,0.220449,0.041138742,-0.09479345,396809,0.0,0.0,0.0
90515323,3670026,0.0012662448,-0.0019532675,0.00017538975,3670026,0.22512017,0.040653467,-0.09513555,396809,0.0,0.0,0.0
91523387,3670026,0.0012864834,-0.0019417739,0.00019761444,3670026,0.2293396,0.040037002,-0.09508898,396809,0.0,0.0,0.0
92516564,3670026,0.0013243231,-0.0019593548,0.00024191049,3670026,0.2334042,0.03963027,-0.09508319,396809,0.0,0.0,0.0
93514702,3670026,0.0013249577,-0.001969649,0.00026486273,3670026,0.23805733,0.0395433,-0.095379084,396809,0.0,0.0,0.0
94517958,3670026,0.0012939039,-0.0019617921,0.0002823527,3670026,0.23836927,0.039534952,-0.095012665,396809,0.0,0.0,0.0
95515944,3670026,0.0012748615,-0.0019763568,0.0003184767,3670026,0.2428683,0.039648134,-0.095538214,396809,0.0,0.0,0.0
96514081,3670026,0.0012605101,-0.0019925549,0.00032603805,3670026,0.24990147,0.039273333,-0.0958264,396809,0.0,0.0,0.0
97522151,3670026,0.0012411547,-0.0019860358,0.00032326457,3670026,0.25469062,0.038801305,-0.095653,396809,0.0,0.0,0.0
98515355,3670026,0.0012391487,-0.0020200484,0.00033375504,3670026,0.25895295,0.03847397,-0.09608642,396809,0.0,0.0,0.0
99518428,3670026,0.0012367255,-0.002023619,0.0003124055,3670026,0.26349,0.041715335,-0.09636177,396809,0.0,0.0,0.0
100516565,3670026,0.0012514944,-0.0020779495,0.00038406785,3670026,0.25370413,0.039713226,-0.09552046,396809,0.0,0.0,0.0
101514867,3670026,0.0012818757,-0.0021241154,0.00039727165,3670026,0.2551626,0.03878427,-0.09581997,396809,0.0,0.0,0.0
102517807,3670026,0.0012778972,-0.0021011084,0.00042257705,3670026,0.2531444,0.038599193,-0.09545883,396809,0.0,0.0,0.0
103515949,3670026,0.0012688568,-0.0020898292,0.00047646716,3670026,0.25223082,0.0337794,-0.09613486,396809,0.0,0.0,0.0
104514086,3670026,0.0012053554,-0.0020563144,0.0004720046,3670026,0.25934184,0.039313205,-0.096203186,396809,0.0,0.0,0.0
105517200,3670026,0.0011899987,-0.002002788,0.0004958296,3670026,0.26108444,0.03856929,-0.096012935,396809,0.0,0.0,0.0
106515364,3670026,0.0012020816,-0.00200525,0.0005470767,3670026,0.26291642,0.041295465,-0.0964041,396809,0.0,0.0,0.0
107518431,3670026,0.0011775751,-0.002019249,0.0005132516,3670026,0.26716757,0.047800664,-0.096943706,396809,0.0,0.0,0.0
108516762,3670026,0.001206406,-0.001966385,0.0004004706,3670026,0.2671006,0.051975384,-0.09748394,396809,0.0,0.0,0.0
109524692,3670026,0.0011746136,-0.0019794758,0.00030200128,3670026,0.26562327,0.052747212,-0.09917102,396809,0.0,0.0,0.0
110517813,3670026,0.0010551418,-0.0019941179,0.00016803284,3670026,0.24475071,0.053398382,-0.09903136,396809,0.0,0.0,0.0
111520917,3670026,0.0008520754,-0.0020135685,7.2539464e-05,3670026,0.24798949,0.050146796,-0.099686325,396809,0.0,0.0,0.0
112524109,3670026,0.0008019921,-0.0020980295,7.909743e-06,3670026,0.2467619,0.052716296,-0.10062524,396809,0.0,0.0,0.0
113517201,3670026,0.0009154451,-0.0021182839,-9.282297e-06,3670026,0.21889655,0.044071127,-0.10059296,396809,0.0,0.0,0.0
114515385,3670026,0.0010381967,-0.0021129488,1.6648726e-05,3670026,0.19009303,0.041805897,-0.10053632,396809,0.0,0.0,0.0
115518438,3670026,0.001053761,-0.0021015126,-0.00017036281,3670026,0.1553731,0.039152306,-0.10076686,396809,0.0,0.0,0.0
116516577,3670026,0.0010036784,-0.0021565694,-0.000427025,3670026,0.106950924,0.033677973,-0.100152254,396809,0.0,0.0,0.0
117514716,3670026,0.0010305853,-0.0021863354,-0.0005157526,3670026,0.07515909,0.024922134,-0.10007183,396809,0.0,0.0,0.0
118522786,3670026,0.0011965416,-0.002137015,-0.00044846287,3670026,0.06651988,0.023980392,-0.10007592,396809,0.0,0.0,0.0
119516068,3670026,0.0012748967,-0.0020670486,-0.00044201166,3670026,0.06361265,0.025010701,-0.100063376,396809,0.0,0.0,0.0
120519065,3670026,0.0014638087,-0.0020427294,-0.0004899991,3670026,0.074428506,0.02457537,-0.100104295,396809,0.0,0.0,0.0
121522169,3670026,0.0014578801,-0.0020569344,-0.0006010955,3670026,0.06703248,0.02492266,-0.100263946,396809,0.0,0.0,0.0
122520308,3670026,0.001428413,-0.0020977822,-0.00075882656,3670026,0.048855454,0.024578968,-0.09935413,396809,0.0,0.0,0.0
123523413,3670026,0.0013211534,-0.0020840112,-0.0008082351,3670026,0.030456621,0.025001004,-0.09945728,396809,0.0,0.0,0.0
124516586,3670026,0.0012205323,-0.001965302,-0.0007114408,3670026,0.020140802,0.021569537,-0.099417455,396809,0.0,0.0,0.0
125519692,3670026,0.0012206383,-0.0018210722,-0.000672537,3670026,0.014538958,0.012567854,-0.09929663,396809,0.0,0.0,0.0
126522906,3670026,0.0013042204,-0.0017607441,-0.0008325909,3670026,0.0064892164,-0.0036084754,-0.09929811,396809,0.0,0.0,0.0
127515969,3670026,0.0014306393,-0.001674645,-0.00080997153,3670026,-0.0032008004,-0.018033879,-0.09889026,396809,0.0,0.0,0.0
128514107,3670026,0.0015825592,-0.001677655,-0.0009565362,3670026,-0.0149035845,-0.032110136,-0.0991704,396809,0.0,0.0,0.0
129517213,3670026,0.0017055159,-0.0016065809,-0.0009545137,3670026,-0.02624243,-0.04482399,-0.098703645,396809,0.0,0.0,0.0
130520318,3670026,0.001793125,-0.0015348836,-0.0009148754,3670026,-0.031816315,-0.058985163,-0.09864106,396809,0.0,0.0,0.0
131518458,3670026,0.0018908733,-0.0014863703,-0.00097620016,3670026,-0.038321402,-0.07290479,-0.099014066,396809,0.0,0.0,0.0
132521561,3670026,0.001922947,-0.0014649284,-0.000978092,3670026,-0.040834967,-0.085395716,-0.09914412,396809,0.0,0.0,0.0
133514897,3670026,0.0017833222,-0.0015060664,-0.0010637407,3670026,-0.040214863,-0.09057373,-0.09317446,396809,0.0,0.0,0.0
134512874,3670026,0.0014693885,-0.0016871627,-0.0012065503,3670026,-0.03868477,-0.089769915,-0.09262381,396809,0.0,0.0,0.0
135520947,3670026,0.0011885858,-0.0017607014,-0.0010486197,3670026,-0.035980403,-0.084277734,-0.08708347,396809,0.0,0.0,0.0
136519084,3670026,0.0010425181,-0.0018309669,-0.0009621165,3670026,-0.03554669,-0.07623498,-0.0784411,396809,0.0,0.0,0.0
137517225,3670026,0.0010550476,-0.0018820388,-0.00092180807,3670026,-0.035145935,-0.07124254,-0.072202206,396809,0.0,0.0,0.0
138520334,3670026,0.0011866116,-0.0020006215,-0.00082605967,3670026,-0.035431612,-0.065621056,-0.06671608,396809,0.0,0.0,0.0
139518467,3670026,0.0013177829,-0.0020787169,-0.0007812344,3670026,-0.036238518,-0.063371874,-0.062203955,396809,0.0,0.0,0.0
140516732,3670026,0.0014034662,-0.0020682567,-0.00074282236,3670026,-0.037746567,-0.060973126,-0.05790102,396809,0.0,0.0,0.0
141519711,3670026,0.0014258003,-0.0020271556,-0.00069901283,3670026,-0.039477754,-0.05969663,-0.055237062,396809,0.0,0.0,0.0
142522817,3670026,0.0013822874,-0.0020712276,-0.00055793655,3670026,-0.040105335,-0.05864293,-0.05629006,396809,0.0,0.0,0.0
143516031,3670026,0.0012837788,-0.0020776538,-0.00044478543,3670026,-0.039374944,-0.05710699,-0.055859827,396809,0.0,0.0,0.0
144519094,3670026,0.0012459784,-0.0021070635,-0.00034897335,3670026,-0.039336104,-0.056426268,-0.054757714,396809,0.0,0.0,0.0
145522237,3670026,0.0012324626,-0.0021665278,-0.0002610129,3670026,-0.039450135,-0.05517969,-0.054330636,396809,0.0,0.0,0.0
146515373,3670026,0.0012768015,-0.002194071,-0.00019273991,3670026,-0.040212866,-0.056299873,-0.054802444,396809,0.0,0.0,0.0
147523674,3670026,0.0012543427,-0.0022074198,-0.00016445738,3670026,-0.040054344,-0.054733783,-0.053917736,396809,0.0,0.0,0.0
148516620,3670026,0.0012300775,-0.002155662,-0.00014693984,3670026,-0.039820757,-0.0550038,-0.052923515,396809,0.0,0.0,0.0
149519772,3670026,0.0012084909,-0.0021594435,-0.00014353891,3670026,-0.03985709,-0.055334747,-0.052071787,396809,0.0,0.0,0.0
150517861,3670026,0.001204403,-0.0021134447,-0.00014094211,3670026,-0.039778564,-0.05508733,-0.052206624,396809,0.0,0.0,0.0
151520984,3670026,0.0012305538,-0.0021747157,-0.0001391497,3670026,-0.0397586,-0.0556555,-0.05156712,396809,0.0,0.0,0.0
152519109,3670026,0.0012206332,-0.0021666787,-0.00013868854,3670026,-0.039475825,-0.055318188,-0.051186398,396809,0.0,0.0,0.0
153517245,3670026,0.0012443061,-0.0021508015,-0.00014567164,3670026,-0.03937729,-0.055288732,-0.050399303,396809,0.0,0.0,0.0
154515561,3670026,0.0012243859,-0.0021062414,-0.00016376025,3670026,-0.039552577,-0.054820143,-0.04898563,396809,0.0,0.0,0.0
155518498,3670026,0.0012708473,-0.0021259366,-0.00019458294,3670026,-0.03926734,-0.05480978,-0.04736087,396809,0.0,0.0,0.0
156521597,3670026,0.001238593,-0.002089369,-0.00019892985,3670026,-0.039611265,-0.054646034,-0.046646964,396809,0.0,0.0,0.0
157519735,3670026,0.0012274592,-0.0020831446,-0.00022476024,3670026,-0.039639995,-0.054320432,-0.045346666,396809,0.0,0.0,0.0
158517898,3670026,0.0012065873,-0.0020951938,-0.0002307133,3670026,-0.0398107,-0.054278415,-0.045338903,396809,0.0,0.0,0.0
159516025,3670026,0.0011371372,-0.0021393755,-0.00026317255,3670026,-0.03921839,-0.050652225,-0.044041716,396809,0.0,0.0,0.0
160519120,3670026,0.0010994878,-0.0020567677,-0.00020847408,3670026,-0.038995404,-0.04677734,-0.04507377,396809,0.0,0.0,0.0
161512493,3670026,0.0010278997,-0.0021210809,-0.0001942648,3670026,-0.03931363,-0.042628475,-0.04669627,396809,0.0,0.0,0.0
162515398,3670026,0.001012244,-0.0021150233,-0.00016928591,3670026,-0.039640967,-0.04061335,-0.048904426,396809,0.0,0.0,0.0
163518503,3670026,0.0010293751,-0.0021011564,-0.00014887728,3670026,-0.039826855,-0.04012068,-0.049489032,396809,0.0,0.0,0.0
164516642,3670026,0.0010707089,-0.00212417,-0.00015253977,3670026,-0.039987497,-0.040668953,-0.04946545,396809,0.0,0.0,0.0
165524794,3670026,0.0011214012,-0.002097855,-0.0001433304,3670026,-0.039672706,-0.040206805,-0.04885553,396809,0.0,0.0,0.0
166517889,3670026,0.0011359083,-0.0020530233,-0.00012112082,3670026,-0.03934394,-0.039931174,-0.048696123,396809,0.0,0.0,0.0
167516037,3670026,0.0011815679,-0.0020373354,-0.00011996779,3670026,-0.039164938,-0.03976523,-0.048796866,396809,0.0,0.0,0.0
168519133,3670026,0.0011760005,-0.002031982,-0.00012119703,3670026,-0.039110612,-0.039677475,-0.048534274,396809,0.0,0.0,0.0
169517270,3670026,0.0011695557,-0.0020226764,-0.00012585091,3670026,-0.039107505,-0.03962828,-0.047528666,396809,0.0,0.0,0.0
170520372,3670026,0.0011705416,-0.002035428,-0.00013627317,3670026,-0.03927873,-0.039748687,-0.047270756,396809,0.0,0.0,0.0
171518515,3670026,0.0011337282,-0.0020528245,-0.00015746524,3670026,-0.039685626,-0.039722834,-0.047785636,396809,0.0,0.0,0.0
172521717,3670026,0.0011056887,-0.0020469807,-0.00019170773,3670026,-0.0401724,-0.03972471,-0.047365796,396809,0.0,0.0,0.0
173519759,3670026,0.0010865226,-0.0020497374,-0.00020134832,3670026,-0.040104613,-0.03955788,-0.046608217,396809,0.0,0.0,0.0
174522864,3670026,0.0011127709,-0.0020541677,-0.00022142439,3670026,-0.039880436,-0.03952659,-0.044965528,396809,0.0,0.0,0.0
175516043,3670026,0.0009955508,-0.0020368155,-0.00017614893,3670026,-0.039912988,-0.03256037,-0.04288248,396809,0.0,0.0,0.0
176514199,3670026,0.0008568141,-0.0020291177,-0.00031244726,3670026,-0.038900655,-0.024079261,-0.036820523,396809,0.0,0.0,0.0
177517282,3670026,0.0007396142,-0.002093839,-0.00036920744,3670026,-0.038266834,-0.014009828,-0.027669,396809,0.0,0.0,0.0
178515422,3670026,0.0007638171,-0.0021265182,-0.00030392507,3670026,-0.037889127,-0.010741445,-0.023808617,396809,0.0,0.0,0.0
179518633,3670026,0.0008019202,-0.0021396826,-0.00036414654,3670026,-0.039645318,-0.012354098,-0.019405387,396809,0.0,0.0,0.0
180516674,3670026,0.0008906132,-0.0021631457,-0.00031771458,3670026,-0.03941078,-0.016888909,-0.015961688,396809,0.0,0.0,0.0
181514804,3670026,0.00095020817,-0.0021909382,-0.00033339576,3670026,-0.041077696,-0.017899524,-0.0130776055,396809,0.0,0.0,0.0
182517941,3670026,0.0009531364,-0.0021274746,-0.0002802161,3670026,-0.044960223,-0.01809117,-0.013408706,396809,0.0,0.0,0.0
183516048,3670026,0.0009587087,-0.0021077374,-0.00034203692,3670026,-0.047512215,-0.01519381,-0.014338904,396809,0.0,0.0,0.0
184519212,3670026,0.0009788296,-0.0019444715,-0.00026745725,3670026,-0.047217507,-0.012224564,-0.016590836,396809,0.0,0.0,0.0
185517292,3670026,0.0010374901,-0.0017619967,-0.0002854032,3670026,-0.046033796,-0.009435504,-0.019112846,396809,0.0,0.0,0.0
186515549,3670026,0.0012006278,-0.0016399374,-0.00029356254,3670026,-0.042151008,-0.009032191,-0.020348746,396809,0.0,0.0,0.0
187518535,3670026,0.0012549981,-0.0015977096,-0.00030873826,3670026,-0.04432622,-0.012252023,-0.022427732,396809,0.0,0.0,0.0
188516674,3670026,0.0012439417,-0.0016263407,-0.00032606188,3670026,-0.044007413,-0.014398351,-0.022688407,396809,0.0,0.0,0.0
189519779,3670026,0.0011787285,-0.0016394296,-0.00031738696,3670026,-0.045731425,-0.017687615,-0.024146704,396809,0.0,0.0,0.0
190517918,3670026,0.001128849,-0.0016535339,-0.0003099751,3670026,-0.046061322,-0.01969996,-0.025463939,396809,0.0,0.0,0.0
191516056,3670026,0.0010574515,-0.0016608314,-0.00030490776,3670026,-0.046945862,-0.021756487,-0.026757745,396809,0.0,0.0,0.0
192519163,3670026,0.001068598,-0.0016630981,-0.00029696777,3670026,-0.04665471,-0.021863438,-0.028207563,396809,0.0,0.0,0.0
193517460,3670026,0.0011235495,-0.0016683117,-0.0003126255,3670026,-0.046680987,-0.02168231,-0.030169029,396809,0.0,0.0,0.0
194515440,3670026,0.0010112084,-0.0016676262,-0.00033453316,3670026,-0.046449754,-0.022142647,-0.030726882,396809,0.0,0.0,0.0
195518590,3670026,0.0010197007,-0.0017882355,-0.0003419482,3670026,-0.04659131,-0.021734804,-0.03125502,396809,0.0,0.0,0.0
196516681,3670026,0.0010097335,-0.0017855756,-0.00033779725,3670026,-0.04641167,-0.021766199,-0.031489454,396809,0.0,0.0,0.0
197514822,3670026,0.0010111389,-0.001792081,-0.00034587624,3670026,-0.046461716,-0.02191031,-0.032525446,396809,0.0,0.0,0.0
198517925,3670026,0.0010047987,-0.0018250876,-0.0003569171,3670026,-0.04667553,-0.0218285,-0.03312169,396809,0.0,0.0,0.0
199516065,3670026,0.0010082483,-0.0017796572,-0.00029657682,3670026,-0.046985846,-0.025432484,-0.03748098,396809,0.0,0.0,0.0
200519171,3670026,0.0010982354,-0.0017877956,-0.00023285013,3670026,-0.04865606,-0.033811957,-0.04123085,396809,0.0,0.0,0.0
201517307,3670026,0.0012202479,-0.001825195,-0.00013186132,3670026,-0.051266897,-0.041969895,-0.04566474,396809,0.0,0.0,0.0
202515445,3670026,0.0013815085,-0.001882084,-0.00015061797,3670026,-0.053463448,-0.049578078,-0.050744787,396809,0.0,0.0,0.0
203518549,3670026,0.0013607607,-0.0018324535,-0.00029729118,3670026,-0.052870996,-0.05106019,-0.054746103,396809,0.0,0.0,0.0
204516719,3670026,0.0013787283,-0.0018041274,-0.00038791116,3670026,-0.05467412,-0.054370306,-0.05743565,396809,0.0,0.0,0.0
205514826,3670026,0.0013107209,-0.0016798322,-0.00046300425,3670026,-0.051095344,-0.04883517,-0.05550516,396809,0.0,0.0,0.0
206517932,3670026,0.001281791,-0.0016221806,-0.00056891073,3670026,-0.051632836,-0.04553606,-0.056091934,396809,0.0,0.0,0.0
207516069,3670026,0.0013112559,-0.0015496868,-0.00061510876,3670026,-0.051688332,-0.043952245,-0.054268118,396809,0.0,0.0,0.0
208514207,3670026,0.0013700057,-0.001503233,-0.0006737826,3670026,-0.050352678,-0.042219914,-0.05494821,396809,0.0,0.0,0.0
209517312,3670026,0.0013994522,-0.0015256259,-0.00077773555,3670026,-0.05452905,-0.037953336,-0.05329234,396809,0.0,0.0,0.0
210515451,3670026,0.0013439518,-0.0016814651,-0.0007353676,3670026,-0.054674003,-0.033301905,-0.053464938,396809,0.0,0.0,0.0
211513619,3670026,0.0012555303,-0.0018161986,-0.0006443004,3670026,-0.053978097,-0.028350212,-0.0525937,396809,0.0,0.0,0.0
212521660,3670026,0.0011887195,-0.0018490006,-0.00061235495,3670026,-0.050324224,-0.026514804,-0.051971536,396809,0.0,0.0,0.0
213514836,3670026,0.0011709839,-0.0018259044,-0.00046718845,3670026,-0.04948251,-0.031618837,-0.052920505,396809,0.0,0.0,0.0
214517940,3670026,0.0011736661,-0.0018708442,-0.00040954255,3670026,-0.04749119,-0.034025338,-0.052865043,396809,0.0,0.0,0.0
215516091,3670026,0.0011999662,-0.0019086655,-0.00039813473,3670026,-0.046712603,-0.03693688,-0.052274425,396809,0.0,0.0,0.0
216519179,3670026,0.0012726216,-0.0019363951,-0.0003498843,3670026,-0.048478287,-0.04113893,-0.05283639,396809,0.0,0.0,0.0
217517318,3670026,0.0013654808,-0.0019435376,-0.0003651334,3670026,-0.048986726,-0.041714378,-0.050396048,396809,0.0,0.0,0.0
218515526,3670026,0.0012596626,-0.0019521951,-0.00034142876,3670026,-0.048057318,-0.03934441,-0.044195775,396809,0.0,0.0,0.0
219518563,3670026,0.0011712171,-0.0019818046,-0.00029065978,3670026,-0.047465425,-0.037942465,-0.03871238,396809,0.0,0.0,0.0
220516699,3670026,0.0011637424,-0.0019741033,-0.0002670161,3670026,-0.047343824,-0.037635397,-0.03695079,396809,0.0,0.0,0.0
221524769,3670026,0.0011485013,-0.0019840468,-0.00025970023,3670026,-0.046874832,-0.037641153,-0.036249306,396809,0.0,0.0,0.0
222517942,3670026,0.0011248125,-0.0020001465,-0.0002490884,3670026,-0.046311382,-0.037406214,-0.03569464,396809,0.0,0.0,0.0
223521046,3670026,0.0011024713,-0.0020187409,-0.00024345494,3670026,-0.04640729,-0.03656868,-0.03452851,396809,0.0,0.0,0.0
224524151,3670026,0.001056213,-0.0020526154,-0.0002487015,3670026,-0.047264006,-0.03365698,-0.031632442,396809,0.0,0.0,0.0
225517423,3670026,0.001201642,-0.0020559134,-0.00016299772,3670026,-0.04517816,-0.04141596,-0.03264716,396809,0.0,0.0,0.0
226515462,3670026,0.0013073514,-0.0020685466,-0.00017480583,3670026,-0.043585368,-0.046299897,-0.0345955,396809,0.0,0.0,0.0
227518566,3670026,0.0013614531,-0.0020562098,-0.00021524812,3670026,-0.0433946,-0.050114658,-0.03641195,396809,0.0,0.0,0.0
228516705,3670026,0.0013758317,-0.0020384793,-0.00022580523,3670026,-0.04424673,-0.052227244,-0.037211686,396809,0.0,0.0,0.0
229514843,3670026,0.0013416631,-0.0020001698,-0.0002240842,3670026,-0.04535447,-0.05146861,-0.037392996,396809,0.0,0.0,0.0
230517950,3670026,0.0013083648,-0.0019789971,-0.0002231154,3670026,-0.046230193,-0.051237762,-0.0360703,396809,0.0,0.0,0.0
231516087,3670026,0.001265162,-0.0019398537,-0.00022149396,3670026,-0.04706068,-0.050918195,-0.035783757,396809,0.0,0.0,0.0
232514339,3670026,0.0012429139,-0.0019196589,-0.00022197227,3670026,-0.047543608,-0.05088074,-0.03696233,396809,0.0,0.0,0.0
233517330,3670026,0.001213159,-0.0018716693,-0.00021792395,3670026,-0.047636554,-0.050572645,-0.03793387,396809,0.0,0.0,0.0
234515468,3670026,0.0012118889,-0.0018551097,-0.00022138726,3670026,-0.04781835,-0.05073989,-0.038487222,396809,0.0,0.0,0.0
235518575,3670026,0.0011589454,-0.001842387,-0.00021004144,3670026,-0.047731753,-0.050462592,-0.038432393,396809,0.0,0.0,0.0
236516712,3670026,0.0011522725,-0.0018428018,-0.00019495616,3670026,-0.04850683,-0.052338343,-0.039280385,396809,0.0,0.0,0.0
237519819,3670026,0.0011021645,-0.0018588395,-0.00015273225,3670026,-0.048247624,-0.050518937,-0.04015991,396809,0.0,0.0,0.0
238517957,3670026,0.0010812515,-0.0018738008,-0.00010105383,3670026,-0.048365764,-0.04982347,-0.041012827,396809,0.0,0.0,0.0
239516244,3670026,0.001059525,-0.0018899483,-0.00010033726,3670026,-0.048029874,-0.049447957,-0.040490013,396809,0.0,0.0,0.0
240519199,3670026,0.001056276,-0.001878235,-0.00010804425,3670026,-0.04785755,-0.04908514,-0.04157634,396809,0.0,0.0,0.0
241522304,3670026,0.0010381207,-0.0019173765,-8.8099536e-05,3670026,-0.04802846,-0.045364678,-0.040005606,396809,0.0,0.0,0.0
242515478,3670026,0.0010054287,-0.0019355316,-0.00013942458,3670026,-0.048612293,-0.038384832,-0.038505625,396809,0.0,0.0,0.0
243513641,3670026,0.00087784376,-0.001966708,-0.00014800348,3670026,-0.049272403,-0.02899964,-0.035408568,396809,0.0,0.0,0.0
244521686,3670026,0.00085162785,-0.0020160913,-0.00012235848,3670026,-0.05145272,-0.02322006,-0.034027167,396809,0.0,0.0,0.0
245514856,3670026,0.00089965365,-0.002060641,-8.586619e-05,3670026,-0.05285496,-0.022065386,-0.03692664,396809,0.0,0.0,0.0
246513162,3670026,0.0009806121,-0.0020884492,-7.591982e-05,3670026,-0.052905466,-0.021302165,-0.03977506,396809,0.0,0.0,0.0
247516111,3670026,0.0009881987,-0.002083418,-9.4854615e-05,3670026,-0.05292365,-0.02007266,-0.04122615,396809,0.0,0.0,0.0
248514243,3670026,0.0010048251,-0.002064473,-9.850773e-05,3670026,-0.05305332,-0.019604282,-0.041948743,396809,0.0,0.0,0.0
249517351,3670026,0.0010457006,-0.002060053,-9.949462e-05,3670026,-0.052712422,-0.020001147,-0.045258857,396809,0.0,0.0,0.0
250515501,3670026,0.0011203368,-0.002054039,-0.0001021991,3670026,-0.051481877,-0.020564739,-0.04874092,396809,0.0,0.0,0.0
251518593,3670026,0.0011158197,-0.002003507,-9.1592956e-05,3670026,-0.05143116,-0.019811995,-0.05039162,396809,0.0,0.0,0.0
252516782,3670026,0.0011032211,-0.0019950494,-9.215394e-05,3670026,-0.05169231,-0.019823229,-0.04890198,396809,0.0,0.0,0.0
253514879,3670026,0.001106334,-0.0020178352,-9.426931e-05,3670026,-0.051791646,-0.020034868,-0.04943714,396809,0.0,0.0,0.0
254513018,3670026,0.0010795109,-0.0020148815,-9.358222e-05,3670026,-0.05194278,-0.020582125,-0.051777158,396809,0.0,0.0,0.0
255516117,3670026,0.001067121,-0.0020045657,-0.00013870107,3670026,-0.0516486,-0.021015167,-0.05504318,396809,0.0,0.0,0.0
256524188,3670026,0.001099311,-0.0020147592,-0.00018180539,3670026,-0.05136973,-0.02216,-0.05944491,396809,0.0,0.0,0.0
257517402,3670026,0.0010488718,-0.0020209793,-0.00021090478,3670026,-0.05127304,-0.021221178,-0.0610745,396809,0.0,0.0,0.0
258520468,3670026,0.0010747619,-0.0020264334,-0.00014668195,3670026,-0.052391812,-0.023382112,-0.06331551,396809,0.0,0.0,0.0
259523573,3670026,0.0010422443,-0.001998464,-7.0283575e-05,3670026,-0.051178776,-0.019089354,-0.06267778,396809,0.0,0.0,0.0
260516748,3670026,0.0010377654,-0.0019997892,1.436e-05,3670026,-0.050801277,-0.015888067,-0.06102684,396809,0.0,0.0,0.0
261519854,3670026,0.0010404831,-0.002027509,6.236619e-05,3670026,-0.0508213,-0.0154914195,-0.06025734,396809,0.0,0.0,0.0
262522960,3670026,0.0010844322,-0.0020674055,0.000116602634,3670026,-0.051367674,-0.015305066,-0.059786156,396809,0.0,0.0,0.0
263516134,3670026,0.0010605585,-0.0020631498,0.00019336863,3670026,-0.051023103,-0.014649707,-0.059826188,396809,0.0,0.0,0.0
264514324,3670026,0.0010840264,-0.0021134582,0.00022615655,3670026,-0.05106641,-0.014183698,-0.059012324,396809,0.0,0.0,0.0
265517379,3670026,0.0010693199,-0.0020607691,0.00026494637,3670026,-0.05024267,-0.014633962,-0.057624977,396809,0.0,0.0,0.0
266520485,3670026,0.0010627756,-0.0020457122,0.00029511462,3670026,-0.049847983,-0.014821827,-0.0561891,396809,0.0,0.0,0.0
267518625,3670026,0.0010509688,-0.002013429,0.0003177182,3670026,-0.04937101,-0.014979387,-0.05538143,396809,0.0,0.0,0.0
268521732,3670026,0.0010558723,-0.0020206063,0.0003285614,3670026,-0.049497247,-0.015042852,-0.05397046,396809,0.0,0.0,0.0
269519872,3670026,0.0010771893,-0.0020216794,0.0002859999,3670026,-0.049164046,-0.016235884,-0.054140322,396809,0.0,0.0,0.0
270518019,3670026,0.0010990888,-0.0019623463,0.00018044976,3670026,-0.049203254,-0.018638378,-0.056332745,396809,0.0,0.0,0.0
271516291,3670026,0.0010951861,-0.0019599593,0.00010282245,3670026,-0.04898121,-0.019654548,-0.05703877,396809,0.0,0.0,0.0
272519259,3670026,0.0011150163,-0.0019699512,4.5463257e-05,3670026,-0.04915053,-0.021591663,-0.0563742,396809,0.0,0.0,0.0
273517400,3670026,0.0010966434,-0.001984768,2.031975e-05,3670026,-0.049657825,-0.022027103,-0.054552976,396809,0.0,0.0,0.0
274520507,3670026,0.0011046731,-0.0019616995,2.877995e-05,3670026,-0.04953998,-0.022415869,-0.052127935,396809,0.0,0.0,0.0
275518652,3670026,0.0011241467,-0.0019937041,-1.2382806e-05,3670026,-0.049595382,-0.024159057,-0.051675014,396809,0.0,0.0,0.0
276521786,3670026,0.0011359148,-0.0020082318,-4.024525e-05,3670026,-0.050272755,-0.027128639,-0.050922338,396809,0.0,0.0,0.0
277519897,3670026,0.0010933887,-0.0019782844,-2.0340321e-05,3670026,-0.050318707,-0.028699545,-0.049449578,396809,0.0,0.0,0.0
280519286,3670026,0.0010323244,-0.0019876927,-5.007671e-05,3670026,-0.050160225,-0.030424945,-0.049406275,396809,0.0,0.0,0.0
283518674,3670026,0.00095252297,-0.0019242315,-0.00014170217,3670026,-0.049577422,-0.030441891,-0.04852644,396809,0.0,0.0,0.0
284521781,3670026,0.0009775135,-0.0019329921,-0.00013453951,3670026,-0.049799778,-0.03063342,-0.04980236,396809,0.0,0.0,0.0
285515085,3670026,0.0009859484,-0.0019417338,-0.00014541588,3670026,-0.04998343,-0.031038519,-0.049579468,396809,0.0,0.0,0.0
286518086,3670026,0.0010152888,-0.0019574692,-0.00014579654,3670026,-0.049823534,-0.03044451,-0.049541626,396809,0.0,0.0,0.0
287516273,3670026,0.0010493587,-0.00197635,-0.00014353247,3670026,-0.050026245,-0.03029088,-0.04951893,396809,0.0,0.0,0.0
288519313,3670026,0.0010471857,-0.0019578703,-0.00014245084,3670026,-0.04967754,-0.029965967,-0.04831515,396809,0.0,0.0,0.0
289517485,3670026,0.0010752521,-0.0019396339,-0.00014075304,3670026,-0.049878944,-0.029988036,-0.047417372,396809,0.0,0.0,0.0
290515596,3670026,0.0010997262,-0.0019442164,-0.00013731333,3670026,-0.049831357,-0.029979894,-0.04799846,396809,0.0,0.0,0.0
291518704,3670026,0.001078512,-0.0019446505,-0.00014432594,3670026,-0.05002809,-0.02995939,-0.046960108,396809,0.0,0.0,0.0
292517006,3670026,0.0010760616,-0.0019465132,-0.00014807089,3670026,-0.049997095,-0.029841324,-0.04574805,396809,0.0,0.0,0.0
293514989,3670026,0.0010909913,-0.0019693729,-0.0001479273,3670026,-0.050021358,-0.029904615,-0.04561987,396809,0.0,0.0,0.0
294518096,3670026,0.0010498262,-0.0019426876,-0.00016332611,3670026,-0.0501557,-0.029614843,-0.045466725,396809,0.0,0.0,0.0
295516239,3670026,0.0010497777,-0.0019544812,-0.00017104257,3670026,-0.050330438,-0.0296732,-0.04555861,396809,0.0,0.0,0.0
296514381,3670026,0.0010392749,-0.0019085597,-0.00018461156,3670026,-0.050585527,-0.029509988,-0.0436637,396809,0.0,0.0,0.0
297517498,3670026,0.0010260581,-0.001903212,-0.00019638505,3670026,-0.05062248,-0.029420031,-0.043789368,396809,0.0,0.0,0.0
298515630,3670026,0.0010010053,-0.0019324049,-0.00020792223,3670026,-0.05077071,-0.029391756,-0.04349892,396809,0.0,0.0,0.0
299513947,3670026,0.001000945,-0.0019737303,-0.00021122552,3670026,-0.05084299,-0.029408833,-0.044154268,396809,0.0,0.0,0.0
300516881,3670026,0.0009928592,-0.0019545243,-0.00017992742,3670026,-0.051062774,-0.030269403,-0.04494587,396809,0.0,0.0,0.0
301515025,3670026,0.0010419915,-0.0019597176,-0.00019623239,3670026,-0.05174986,-0.034228366,-0.047147073,396809,0.0,0.0,0.0
302518131,3670026,0.0011479707,-0.0020043184,-0.00012524903,3670026,-0.052992962,-0.041226674,-0.048342768,396809,0.0,0.0,0.0
303521284,3670026,0.001121769,-0.0019698094,-0.0001343113,3670026,-0.05208615,-0.039369155,-0.049002375,396809,0.0,0.0,0.0
304514416,3670026,0.001158731,-0.0019855315,-0.0001170679,3670026,-0.053768493,-0.044643976,-0.050795406,396809,0.0,0.0,0.0
305517527,3670026,0.0011458164,-0.0019485352,-0.00013742487,3670026,-0.05383998,-0.045430686,-0.050853133,396809,0.0,0.0,0.0
306515669,3670026,0.0011053224,-0.0019138147,-0.0001396545,3670026,-0.054123715,-0.045913056,-0.049581803,396809,0.0,0.0,0.0
307513809,3670026,0.0010670784,-0.001902871,-0.00014842268,3670026,-0.054212622,-0.046245728,-0.048231967,396809,0.0,0.0,0.0
308516919,3670026,0.0010223408,-0.0018982707,-0.00015694584,3670026,-0.05411068,-0.046456408,-0.046870377,396809,0.0,0.0,0.0
309515063,3670026,0.000970069,-0.0018910683,-0.00016353095,3670026,-0.05396168,-0.046784595,-0.044160936,396809,0.0,0.0,0.0
310518275,3670026,0.00095959497,-0.0018890353,-0.0001743404,3670026,-0.05363212,-0.046614565,-0.041678764,396809,0.0,0.0,0.0
311516311,3670026,0.00093813293,-0.0018940857,-0.00018159702,3670026,-0.05365164,-0.046786245,-0.039886042,396809,0.0,0.0,0.0
312524387,3670026,0.0009115944,-0.0018802978,-0.00018691231,3670026,-0.053573653,-0.046788447,-0.03809486,396809,0.0,0.0,0.0
313517562,3670026,0.00087762636,-0.00186456,-0.0001926631,3670026,-0.05348043,-0.04656138,-0.037462518,396809,0.0,0.0,0.0
314515704,3670026,0.00090086303,-0.0018407794,-0.00019855349,3670026,-0.053504687,-0.046690196,-0.036023878,396809,0.0,0.0,0.0
315523784,3670026,0.0009026137,-0.0018403586,-0.00020344814,3670026,-0.053465698,-0.046696637,-0.034995176,396809,0.0,0.0,0.0
316516956,3670026,0.000916895,-0.0018323434,-0.0002177968,3670026,-0.053399984,-0.04658724,-0.034653876,396809,0.0,0.0,0.0
317515205,3670026,0.00093357376,-0.0018476554,-0.00023146068,3670026,-0.053728398,-0.04670708,-0.035013027,396809,0.0,0.0,0.0
318523173,3670026,0.0009347842,-0.0018548608,-0.00023376386,3670026,-0.053817432,-0.046659023,-0.03574034,396809,0.0,0.0,0.0
319516353,3670026,0.0009579368,-0.001868873,-0.00017368382,3670026,-0.054618306,-0.04723596,-0.03585615,396809,0.0,0.0,0.0
320514492,3670026,0.00094617624,-0.0019059852,-7.2245806e-05,3670026,-0.055663504,-0.047223303,-0.03542582,396809,0.0,0.0,0.0
321517612,3670026,0.0009638993,-0.0019139573,-5.361761e-05,3670026,-0.055720344,-0.047475103,-0.035076596,396809,0.0,0.0,0.0
322515744,3670026,0.0009671418,-0.0019186857,-3.3946235e-05,3670026,-0.055776134,-0.04770245,-0.03554671,396809,0.0,0.0,0.0
323518853,3670026,0.0009587322,-0.0019209776,-2.7398459e-05,3670026,-0.055458356,-0.04747342,-0.036280192,396809,0.0,0.0,0.0
324517144,3670026,0.000978049,-0.0019441519,-1.9795012e-05,3670026,-0.05562743,-0.04740156,-0.03705514,396809,0.0,0.0,0.0
325515140,3670026,0.0009811912,-0.0019556277,-1.4726035e-05,3670026,-0.055719707,-0.04749227,-0.0372146,396809,0.0,0.0,0.0
326523214,3670026,0.0009797327,-0.0019314708,-9.1512374e-07,3670026,-0.05567462,-0.047591735,-0.03706687,396809,0.0,0.0,0.0
327521359,3670026,0.0009848868,-0.001955371,1.5787027e-05,3670026,-0.055372104,-0.04743947,-0.037166424,396809,0.0,0.0,0.0
328514535,3670026,0.0009572948,-0.0019479615,3.0388466e-05,3670026,-0.055465683,-0.04768985,-0.034770723,396809,0.0,0.0,0.0
329517644,3670026,0.00094859116,-0.0019517048,3.7587295e-05,3670026,-0.055419575,-0.04772534,-0.03447038,396809,0.0,0.0,0.0
330520789,3670026,0.0009615296,-0.0019640713,4.3208245e-05,3670026,-0.05531744,-0.047772303,-0.03411104,396809,0.0,0.0,0.0
331514043,3670026,0.00093941943,-0.0019567488,4.769273e-05,3670026,-0.055498756,-0.047804836,-0.03492591,396809,0.0,0.0,0.0
332517040,3670026,0.00092799205,-0.0019344707,5.248938e-05,3670026,-0.055238526,-0.04756191,-0.034967925,396809,0.0,0.0,0.0
333515183,3670026,0.0009225752,-0.0019475596,6.174003e-05,3670026,-0.05541847,-0.047723725,-0.035651937,396809,0.0,0.0,0.0
334513327,3670026,0.00094209553,-0.0019344682,6.374154e-05,3670026,-0.05541988,-0.047752734,-0.035380047,396809,0.0,0.0,0.0
335516457,3670026,0.0009364862,-0.0019230495,6.6339395e-05,3670026,-0.055244662,-0.047565896,-0.0363355,396809,0.0,0.0,0.0
336514580,3670026,0.0009107207,-0.0019973288,7.3675634e-05,3670026,-0.055447955,-0.047923695,-0.034881085,396809,0.0,0.0,0.0
337512723,3670026,0.0009392889,-0.0019686015,7.258676e-05,3670026,-0.055391982,-0.047904782,-0.037194096,396809,0.0,0.0,0.0
338516018,3670026,0.0009578753,-0.0019406449,6.7425135e-05,3670026,-0.055138268,-0.047737315,-0.038713325,396809,0.0,0.0,0.0
339518942,3670026,0.00095358334,-0.0019560924,6.583926e-05,3670026,-0.055030722,-0.04761242,-0.03916557,396809,0.0,0.0,0.0
340517091,3670026,0.000926546,-0.001932279,5.294986e-05,3670026,-0.05533324,-0.047836788,-0.038227566,396809,0.0,0.0,0.0
341520200,3670026,0.00092828774,-0.0019091576,3.4799545e-05,3670026,-0.055193298,-0.047768947,-0.03824349,396809,0.0,0.0,0.0
342518343,3670026,0.00091762317,-0.0019012856,1.45778795e-05,3670026,-0.055077955,-0.04765907,-0.0384781,396809,0.0,0.0,0.0
343516483,3670026,0.00092031,-0.0019105054,-3.9090696e-06,3670026,-0.05518124,-0.04766755,-0.03807717,396809,0.0,0.0,0.0
344519593,3670026,0.0009231237,-0.0019338214,-2.047793e-05,3670026,-0.055301204,-0.04769226,-0.038251605,396809,0.0,0.0,0.0
345512927,3670026,0.00093179644,-0.0019304086,-3.457153e-05,3670026,-0.055329584,-0.047732275,-0.039639395,396809,0.0,0.0,0.0
346520847,3670026,0.0009277399,-0.0019284441,-5.941863e-05,3670026,-0.05485499,-0.04734947,-0.040438116,396809,0.0,0.0,0.0
