timestamp,gyro_device_id,gyro_bias[0],gyro_bias[1],gyro_bias[2],accel_device_id,accel_bias[0],accel_bias[1],accel_bias[2],mag_device_id,mag_bias[0],mag_bias[1],mag_bias[2]
143363429,3670026,-0.003950008,-0.0073146187,-4.8989685e-05,3670026,0.0,0.0,0.011849514,396809,0.0,0.0,0.0
143373358,3670026,-0.003950433,-0.0073154164,-4.887086e-05,3670026,0.0,0.0,0.011892144,396809,0.0,0.0,0.0
144361356,3670026,-0.003959914,-0.007373751,-0.00015727372,3670026,0.0,0.0,0.01378488,396809,0.0,0.0,0.0
145359321,3670026,-0.003954704,-0.007408852,-0.00026857364,3670026,0.0,0.0,0.014904241,396809,0.0,0.0,0.0
146357216,3670026,-0.003935241,-0.0074061668,-0.000350061,3670026,0.003395356,0.015926471,0.016169578,396809,0.0,0.0,0.0
147360112,3670026,-0.0039599747,-0.007421846,-0.00033869385,3670026,-0.012693279,0.027880436,0.015940769,396809,0.0,0.0,0.0
148363044,3670026,-0.003950791,-0.0073881815,-0.00031945863,3670026,-0.025115518,0.015336244,0.014617386,396809,0.0,0.0,0.0
149355972,3670026,-0.00396503,-0.007409044,-0.00031926692,3670026,-0.027599726,0.013249406,0.014875935,396809,0.0,0.0,0.0
150363832,3670026,-0.003959788,-0.00739675,-0.00034796304,3670026,-0.028267685,0.01313717,0.0154615175,396809,0.0,0.0,0.0
151361764,3670026,-0.003975699,-0.0074085346,-0.0003555834,3670026,-0.032648772,0.009518659,0.016112376,396809,0.0,0.0,0.0
152354731,3670026,-0.0039685206,-0.0073654205,-0.00034843571,3670026,-0.03412733,0.0068898364,0.014961481,396809,0.0,0.0,0.0
153362591,3670026,-0.0039948374,-0.0073712072,-0.0003624035,3670026,-0.03335348,0.00549015,0.014673612,396809,0.0,0.0,0.0
154360522,3670026,-0.004040047,-0.007320686,-0.00037134145,3670026,-0.03039513,0.004558325,0.013924862,396809,0.0,0.0,0.0
155363526,3670026,-0.004057557,-0.007361333,-0.00037254082,3670026,-0.030832764,0.0021638894,0.01393921,396809,0.0,0.0,0.0
156361351,3670026,-0.004065194,-0.0073967455,-0.00037233534,3670026,-0.03655565,0.0027088174,0.015548015,396809,0.0,0.0,0.0
157359286,3670026,-0.0040510558,-0.0074197897,-0.00037207775,3670026,-0.0394054,-0.0015776863,0.015541885,396809,0.0,0.0,0.0
158362179,3670026,-0.0040288744,-0.007392737,-0.00036925086,3670026,-0.03982473,-0.0020149641,0.016807145,396809,0.0,0.0,0.0
159355147,3670026,-0.0040217484,-0.007373035,-0.00036721362,3670026,-0.038669247,-0.0006059572,0.017705219,396809,0.0,0.0,0.0
160363012,3670026,-0.004045018,-0.0074179093,-0.00036673335,3670026,-0.038156945,0.00033586385,0.016871873,396809,0.0,0.0,0.0
161365905,3670026,-0.0040435973,-0.007359682,-0.0003646171,3670026,-0.037037544,0.0010407547,0.01729972,396809,0.0,0.0,0.0
162363901,3670026,-0.0040529906,-0.0073079076,-0.00036221414,3670026,-0.03525455,0.001692534,0.018852495,396809,0.0,0.0,0.0
163361781,3670026,-0.004102211,-0.007303299,-0.0003376933,3670026,-0.03462132,0.0031104945,0.016565286,396809,0.0,0.0,0.0
164364669,3670026,-0.004180056,-0.0072279917,-0.00030472194,3670026,-0.03210109,0.006748973,0.014978128,396809,0.0,0.0,0.0
165352863,3670026,-0.004121064,-0.007227635,-0.0002806883,3670026,-0.031233096,0.0039911103,0.013555023,396809,0.0,0.0,0.0
166360566,3670026,-0.004086621,-0.0072672004,-0.0002655133,3670026,-0.031860683,0.002368501,0.016299276,396809,0.0,0.0,0.0
167363434,3670026,-0.0040451675,-0.0072219376,-0.00025877578,3670026,-0.0311751,0.0015132073,0.015466567,396809,0.0,0.0,0.0
168366344,3670026,-0.004056289,-0.0072075957,-0.0002730905,3670026,-0.03032706,0.0013698516,0.01516812,396809,0.0,0.0,0.0
169364345,3670026,-0.004053932,-0.00718361,-0.0002857352,3670026,-0.030078745,0.001327447,0.016135454,396809,0.0,0.0,0.0
170362205,3670026,-0.004082435,-0.007137578,-0.00028544222,3670026,-0.028273128,0.0014414862,0.015607051,396809,0.0,0.0,0.0
171365097,3670026,-0.0040718396,-0.0071185343,-0.0002746854,3670026,-0.028192937,0.0006635874,0.01634062,396809,0.0,0.0,0.0
172363031,3670026,-0.0040350524,-0.0071125864,-0.0002866054,3670026,-0.028568223,-0.00014828873,0.018760914,396809,0.0,0.0,0.0
173360963,3670026,-0.00407152,-0.007137838,-0.00031959492,3670026,-0.028809384,0.0005855333,0.016482363,396809,0.0,0.0,0.0
174363863,3670026,-0.0041042333,-0.0071538724,-0.00038944374,3670026,-0.029055031,0.0015549703,0.014877897,396809,0.0,0.0,0.0
175361800,3670026,-0.0042095724,-0.0071862787,-0.00047753527,3670026,-0.028698651,0.0038622913,0.014328274,396809,0.0,0.0,0.0
176359849,3670026,-0.004194639,-0.0071421177,-0.000547761,3670026,-0.027851136,0.0034692509,0.015751122,396809,0.0,0.0,0.0
177357684,3670026,-0.004147873,-0.007096696,-0.0006117026,3670026,-0.02685028,0.0025389716,0.0151965935,396809,0.0,0.0,0.0
178365531,3670026,-0.00419767,-0.007031277,-0.00065761874,3670026,-0.024152733,0.004307474,0.016421523,396809,0.0,0.0,0.0
179358501,3670026,-0.0040958533,-0.0071345177,-0.00074931653,3670026,-0.025220437,0.0010557108,0.020777095,396809,0.0,0.0,0.0
180361401,3670026,-0.0040573063,-0.0070659323,-0.00078714994,3670026,-0.025054572,0.0013053239,0.020680605,396809,0.0,0.0,0.0
181364300,3670026,-0.004112145,-0.007055557,-0.00080559,3670026,-0.025452668,0.001276661,0.019263078,396809,0.0,0.0,0.0
182362235,3670026,-0.0041201697,-0.00709393,-0.0008381676,3670026,-0.025610272,0.0013214177,0.020746099,396809,0.0,0.0,0.0
183365244,3670026,-0.0040711174,-0.0070108115,-0.00088186644,3670026,-0.023860082,0.0009867072,0.021135146,396809,0.0,0.0,0.0
184363071,3670026,-0.004037734,-0.007013672,-0.0009157024,3670026,-0.02330334,0.00017111292,0.02429478,396809,0.0,0.0,0.0
185361005,3670026,-0.0041025034,-0.007012617,-0.0009327894,3670026,-0.023428861,0.0010721699,0.026792252,396809,0.0,0.0,0.0
186363920,3670026,-0.0041143526,-0.007034567,-0.0009242467,3670026,-0.023630854,0.0013785912,0.02953516,396809,0.0,0.0,0.0
187356916,3670026,-0.0041550673,-0.007003544,-0.000909371,3670026,-0.022188216,0.0019063292,0.029130634,396809,0.0,0.0,0.0
188359788,3670026,-0.004217489,-0.007139257,-0.000892728,3670026,-0.021710703,0.0040124645,0.02651818,396809,0.0,0.0,0.0
189362677,3670026,-0.004205902,-0.0071238508,-0.0008837133,3670026,-0.02151442,0.004261261,0.0233034,396809,0.0,0.0,0.0
190365687,3670026,-0.0041291914,-0.0070358794,-0.00085067755,3670026,-0.021491215,0.0021477824,0.021419039,396809,0.0,0.0,0.0
191363514,3670026,-0.0041744257,-0.0071166595,-0.0008508816,3670026,-0.021419667,0.0024181884,0.019565426,396809,0.0,0.0,0.0
192361450,3670026,-0.0042202193,-0.0071937717,-0.00083284185,3670026,-0.020787435,0.0031748237,0.019220171,396809,0.0,0.0,0.0
193364351,3670026,-0.0042554294,-0.007144794,-0.0008464548,3670026,-0.02084285,0.0031258655,0.020490577,396809,0.0,0.0,0.0
194362287,3670026,-0.00426348,-0.0071477983,-0.00086984015,3670026,-0.020891344,0.0031914092,0.022490349,396809,0.0,0.0,0.0
195365188,3670026,-0.004244578,-0.0071182405,-0.00088208687,3670026,-0.02056075,0.003011121,0.02138873,396809,0.0,0.0,0.0
196363125,3670026,-0.00418926,-0.0070891865,-0.00088011526,3670026,-0.02003882,0.002597147,0.023584783,396809,0.0,0.0,0.0
197361169,3670026,-0.004156265,-0.0071385913,-0.0008970416,3670026,-0.020175427,0.0015785956,0.022463912,396809,0.0,0.0,0.0
198359043,3670026,-0.0041270163,-0.007061322,-0.0008949957,3670026,-0.0195323,0.002062034,0.022316014,396809,0.0,0.0,0.0
199361899,3670026,-0.004146668,-0.007038234,-0.00089128414,3670026,-0.019470563,0.0028418866,0.025250535,396809,0.0,0.0,0.0
200359836,3670026,-0.004094979,-0.006998151,-0.00085877103,3670026,-0.019038795,0.0025509722,0.023975428,396809,0.0,0.0,0.0
201362739,3670026,-0.0041114897,-0.0070699602,-0.0008535281,3670026,-0.01902603,0.0021404477,0.022041252,396809,0.0,0.0,0.0
202360676,3670026,-0.0041146674,-0.007079306,-0.0008497479,3670026,-0.019044692,0.0019234457,0.021163236,396809,0.0,0.0,0.0
203363577,3670026,-0.0040841936,-0.0070483787,-0.0008422984,3670026,-0.01890235,0.0019917975,0.02132399,396809,0.0,0.0,0.0
204361629,3670026,-0.0040940032,-0.0070219855,-0.00083918974,3670026,-0.018519873,0.002456965,0.022092361,396809,0.0,0.0,0.0
205359451,3670026,-0.0041430695,-0.007122056,-0.0008210383,3670026,-0.018206337,0.0020908415,0.02008027,396809,0.0,0.0,0.0
206357389,3670026,-0.0041196104,-0.0071111294,-0.0008151853,3670026,-0.01824613,0.002140353,0.017198937,396809,0.0,0.0,0.0
207360293,3670026,-0.004178359,-0.007198339,-0.00083494675,3670026,-0.018761983,0.002287534,0.01608331,396809,0.0,0.0,0.0
208363200,3670026,-0.0041414946,-0.0070071258,-0.0008407258,3670026,-0.017514488,0.0025534602,0.017374506,396809,0.0,0.0,0.0
209356211,3670026,-0.0041363095,-0.0070114965,-0.0008474272,3670026,-0.017742245,0.002554413,0.017902689,396809,0.0,0.0,0.0
210364036,3670026,-0.0041412096,-0.007031471,-0.000824688,3670026,-0.018824864,0.0023540326,0.019391973,396809,0.0,0.0,0.0
211367086,3670026,-0.0041440446,-0.007125101,-0.0007706796,3670026,-0.01992433,0.0056110993,0.018217862,396809,0.0,0.0,0.0
212364873,3670026,-0.0041801087,-0.007059938,-0.00069074,3670026,-0.013230972,0.00540743,0.02009849,396809,0.0,0.0,0.0
213362822,3670026,-0.0041977754,-0.007053343,-0.0006326836,3670026,-0.009547558,0.0009313533,0.02095967,396809,0.0,0.0,0.0
214360749,3670026,-0.004208348,-0.007040561,-0.00058173685,3670026,-0.005201516,-0.0032787542,0.020901987,396809,0.0,0.0,0.0
215363680,3670026,-0.0041818684,-0.0070418934,-0.00055138697,3670026,-0.0067339856,-0.0018956049,0.022862485,396809,0.0,0.0,0.0
216361629,3670026,-0.004201476,-0.0070691346,-0.0005296034,3670026,-0.006190951,-0.001637037,0.024684543,396809,0.0,0.0,0.0
217364492,3670026,-0.004201109,-0.00710391,-0.0005111311,3670026,-0.0050384346,0.00033980623,0.025798332,396809,0.0,0.0,0.0
218362570,3670026,-0.0042375308,-0.007124976,-0.0005009652,3670026,-0.0025066216,-0.00048608042,0.026270052,396809,0.0,0.0,0.0
219355403,3670026,-0.004218675,-0.0071134074,-0.0004782944,3670026,-0.0029692538,-0.00017299582,0.027285848,396809,0.0,0.0,0.0
220363274,3670026,-0.004265843,-0.007147431,-0.00045625848,3670026,-0.0030087421,-0.00020584259,0.029346395,396809,0.0,0.0,0.0
221366175,3670026,-0.004258591,-0.0071056946,-0.00043239022,3670026,-0.0031889502,-0.00015681366,0.03040743,396809,0.0,0.0,0.0
222364152,3670026,-0.0041048992,-0.0070329276,-0.0004029401,3670026,-0.001714457,0.0011109235,0.02904592,396809,0.0,0.0,0.0
223362049,3670026,-0.0041352003,-0.007076892,-0.00038039885,3670026,-0.002015257,0.0011597893,0.027697073,396809,0.0,0.0,0.0
224364952,3670026,-0.004171615,-0.007105573,-0.00035361043,3670026,-0.0030586284,0.0006313689,0.025496526,396809,0.0,0.0,0.0
225363043,3670026,-0.0041508004,-0.0070197787,-0.00035224832,3670026,-0.0024273852,0.0019268253,0.025842022,396809,0.0,0.0,0.0
226355864,3670026,-0.004246878,-0.0069833025,-0.00033749896,3670026,-0.0043659965,0.0029048298,0.024095913,396809,0.0,0.0,0.0
227363733,3670026,-0.0042668344,-0.0070363698,-0.00033885342,3670026,-0.0048065395,0.0021822352,0.022010949,396809,0.0,0.0,0.0
228366635,3670026,-0.0042214002,-0.0070464755,-0.0003465813,3670026,-0.0037101498,0.0022688261,0.022664791,396809,0.0,0.0,0.0
229364573,3670026,-0.004107313,-0.0070075286,-0.00035102697,3670026,-0.0016160319,0.0027257428,0.021356117,396809,0.0,0.0,0.0
230362511,3670026,-0.0041212724,-0.0070264237,-0.0003533986,3670026,-0.0014703512,0.0031292213,0.021507531,396809,0.0,0.0,0.0
231365417,3670026,-0.004097968,-0.0069885934,-0.00035088972,3670026,-0.0015287038,0.0030378017,0.020666022,396809,0.0,0.0,0.0
232358528,3670026,-0.004079093,-0.0070367972,-0.0003546897,3670026,-0.0008976474,0.0028546979,0.020539634,396809,0.0,0.0,0.0
233361290,3670026,-0.004152587,-0.0069634425,-0.0003505351,3670026,-0.0023847779,0.0033960086,0.017657673,396809,0.0,0.0,0.0
234364199,3670026,-0.0041351635,-0.007057943,-0.0003775437,3670026,-0.0017184068,0.0028557568,0.01970955,396809,0.0,0.0,0.0
235362132,3670026,-0.004127753,-0.0070130243,-0.0004046899,3670026,-0.0015305247,0.003418698,0.021318603,396809,0.0,0.0,0.0
236355105,3670026,-0.004125576,-0.0069722203,-0.00042394132,3670026,-0.0016946684,0.003489502,0.022120927,396809,0.0,0.0,0.0
237362994,3670026,-0.00417749,-0.006974198,-0.00045341178,3670026,-0.0022198083,0.0037485766,0.022919592,396809,0.0,0.0,0.0
238360919,3670026,-0.004109462,-0.0070079356,-0.00045661733,3670026,-0.0011253828,0.0035233716,0.022776693,396809,0.0,0.0,0.0
239359007,3670026,-0.0041701193,-0.006998499,-0.00046372454,3670026,-0.0018964026,0.0038056655,0.020321514,396809,0.0,0.0,0.0
240361756,3670026,-0.0041802465,-0.0069864877,-0.00046780097,3670026,-0.0020056951,0.0039395653,0.021199629,396809,0.0,0.0,0.0
241364656,3670026,-0.004162302,-0.0069674477,-0.0004742664,3670026,-0.0019062457,0.004020705,0.021603832,396809,0.0,0.0,0.0
242362596,3670026,-0.004205305,-0.0070177405,-0.00047531349,3670026,-0.001971907,0.004018658,0.02163042,396809,0.0,0.0,0.0
243355599,3670026,-0.00410902,-0.0069550993,-0.00047019034,3670026,-0.0014112053,0.004065814,0.0238681,396809,0.0,0.0,0.0
244363460,3670026,-0.0041483724,-0.0069974707,-0.00045760054,3670026,-0.0014647229,0.0042015137,0.024446517,396809,0.0,0.0,0.0
245361376,3670026,-0.0041654077,-0.0069770124,-0.00044971993,3670026,-0.0015843099,0.0043952414,0.02330057,396809,0.0,0.0,0.0
246364285,3670026,-0.004176434,-0.006922662,-0.00043509787,3670026,-0.0019388468,0.004448184,0.022397267,396809,0.0,0.0,0.0
247357254,3670026,-0.0041741286,-0.006900215,-0.00042290965,3670026,-0.0018239033,0.004725208,0.023856197,396809,0.0,0.0,0.0
248360162,3670026,-0.004178193,-0.0069844243,-0.00042939454,3670026,-0.0016802739,0.0044343914,0.025558406,396809,0.0,0.0,0.0
249358105,3670026,-0.00417065,-0.006930277,-0.0004413215,3670026,-0.0017610396,0.0045088246,0.025620548,396809,0.0,0.0,0.0
250361021,3670026,-0.004194374,-0.0069854194,-0.00043772455,3670026,-0.0017244539,0.0043801274,0.026620729,396809,0.0,0.0,0.0
251363928,3670026,-0.0042220773,-0.006983457,-0.00043345283,3670026,-0.0018219101,0.004409347,0.026420174,396809,0.0,0.0,0.0
252356889,3670026,-0.004237929,-0.007006275,-0.0004103342,3670026,-0.0018973388,0.004217262,0.027404865,396809,0.0,0.0,0.0
253364747,3670026,-0.004201399,-0.006969843,-0.00038625998,3670026,-0.0017096614,0.0043482673,0.028019052,396809,0.0,0.0,0.0
254362686,3670026,-0.004193057,-0.0069790715,-0.00037206037,3670026,-0.0017319552,0.00427559,0.02647721,396809,0.0,0.0,0.0
255360625,3670026,-0.0041844305,-0.006991875,-0.00035836402,3670026,-0.0015841329,0.004334766,0.024574134,396809,0.0,0.0,0.0
256363529,3670026,-0.004185506,-0.0069438983,-0.00033777943,3670026,-0.0015819314,0.0043526907,0.02397801,396809,0.0,0.0,0.0
257361490,3670026,-0.0041903267,-0.0069336826,-0.00032461548,3670026,-0.0016038048,0.00442335,0.02260178,396809,0.0,0.0,0.0
258359407,3670026,-0.0042160167,-0.0069304593,-0.0002963376,3670026,-0.0015771545,0.0044255396,0.022289488,396809,0.0,0.0,0.0
259362311,3670026,-0.0041946676,-0.0069281287,-0.00025993123,3670026,-0.0015608503,0.0044484576,0.021849152,396809,0.0,0.0,0.0
260365215,3670026,-0.0042129406,-0.006936678,-0.00023021041,3670026,-0.0015858484,0.004479072,0.022572152,396809,0.0,0.0,0.0
261358189,3670026,-0.004177745,-0.0068746633,-0.00019143448,3670026,-0.0015285874,0.0044266046,0.022328136,396809,0.0,0.0,0.0
262366061,3670026,-0.004156742,-0.006894622,-0.00015799183,3670026,-0.001531248,0.004386381,0.02076954,396809,0.0,0.0,0.0
263363997,3670026,-0.004153149,-0.006954656,-0.0001293659,3670026,-0.0014215445,0.0043283193,0.023392942,396809,0.0,0.0,0.0
264361967,3670026,-0.0041535404,-0.0068843407,-0.0001005545,3670026,-0.0015561498,0.004288367,0.02379797,396809,0.0,0.0,0.0
265364840,3670026,-0.0041696588,-0.006940513,-5.5608707e-05,3670026,-0.0014815867,0.0040842984,0.022071976,396809,0.0,0.0,0.0
266362780,3670026,-0.0041411496,-0.006929976,-6.9788885e-06,3670026,-0.0014338292,0.004028014,0.023450933,396809,0.0,0.0,0.0
267360726,3670026,-0.004155097,-0.0068964735,4.4640383e-05,3670026,-0.0014072488,0.004228182,0.024323197,396809,0.0,0.0,0.0
268363622,3670026,-0.0041803494,-0.0068729427,9.70819e-05,3670026,-0.0016341074,0.004349925,0.02417673,396809,0.0,0.0,0.0
269361576,3670026,-0.0041608196,-0.0068920925,0.00013794268,3670026,-0.0013908735,0.004311303,0.024644718,396809,0.0,0.0,0.0
270364466,3670026,-0.0042152093,-0.0068569547,0.00016683494,3670026,-0.0017390453,0.0046564536,0.023088325,396809,0.0,0.0,0.0
271362453,3670026,-0.004234409,-0.006833825,0.000199831,3670026,-0.0019474732,0.0048757745,0.023184216,396809,0.0,0.0,0.0
272365321,3670026,-0.004187842,-0.0068252524,0.00022542293,3670026,-0.0017208053,0.0050460934,0.023112744,396809,0.0,0.0,0.0
273363263,3670026,-0.004156042,-0.0068374616,0.0002564567,3670026,-0.0015706273,0.0048110974,0.024016408,396809,0.0,0.0,0.0
274366200,3670026,-0.004160681,-0.006832722,0.00028266996,3670026,-0.00063949847,0.0039501763,0.023685887,396809,0.0,0.0,0.0
275364090,3670026,-0.00411996,-0.0068195737,0.00029980871,3670026,-0.00031296138,0.0037482604,0.023060646,396809,0.0,0.0,0.0
276362029,3670026,-0.0041317535,-0.006828357,0.0003231555,3670026,0.00053058105,0.0035976903,0.023959542,396809,0.0,0.0,0.0
277364933,3670026,-0.004098551,-0.006797672,0.00031682567,3670026,-0.0005195448,0.0036912123,0.023972757,396809,0.0,0.0,0.0
278362932,3670026,-0.0041249758,-0.0068648094,0.00034512582,3670026,0.00041800336,0.006594392,0.02587002,396809,0.0,0.0,0.0
279355847,3670026,-0.0041793715,-0.0068953903,0.0003970917,3670026,0.0065761604,0.008625872,0.026101822,396809,0.0,0.0,0.0
280363715,3670026,-0.0041912585,-0.0069373706,0.0004395118,3670026,0.009411788,0.010682725,0.022794016,396809,0.0,0.0,0.0
281361654,3670026,-0.004177161,-0.006888001,0.0005370529,3670026,0.012132941,0.010471249,0.022799337,396809,0.0,0.0,0.0
282359597,3670026,-0.004163976,-0.006954619,0.00070690847,3670026,0.014557695,0.01554262,0.019095097,396809,0.0,0.0,0.0
283357533,3670026,-0.0041539622,-0.006896713,0.0008098128,3670026,0.016763508,0.015232228,0.015775276,396809,0.0,0.0,0.0
284365396,3670026,-0.0041270903,-0.0068629514,0.0008876049,3670026,0.016824663,0.01678814,0.020840228,396809,0.0,0.0,0.0
285358425,3670026,-0.004165246,-0.0068359403,0.0010370645,3670026,0.020132598,0.017353563,0.024173576,396809,0.0,0.0,0.0
286361281,3670026,-0.004141493,-0.0067941328,0.0011333501,3670026,0.021160921,0.020083746,0.024285374,396809,0.0,0.0,0.0
287364184,3670026,-0.004162776,-0.006784273,0.0011829602,3670026,0.02181963,0.020211687,0.024020309,396809,0.0,0.0,0.0
288367088,3670026,-0.004215291,-0.0067473296,0.0011904107,3670026,0.022117067,0.019566247,0.025130702,396809,0.0,0.0,0.0
289365027,3670026,-0.004154043,-0.006799873,0.0011862991,3670026,0.02237102,0.020141937,0.024815824,396809,0.0,0.0,0.0
290362966,3670026,-0.004115225,-0.0068274266,0.0011691822,3670026,0.022972273,0.02005645,0.025001792,396809,0.0,0.0,0.0
291360906,3670026,-0.0040985118,-0.0068839164,0.0011568817,3670026,0.023625335,0.019488322,0.022532793,396809,0.0,0.0,0.0
292358966,3670026,-0.00407856,-0.00689311,0.0011427711,3670026,0.024058182,0.019261274,0.021125894,396809,0.0,0.0,0.0
293356785,3670026,-0.0040541156,-0.0068686707,0.0011160736,3670026,0.024377964,0.01946724,0.022876743,396809,0.0,0.0,0.0
294359687,3670026,-0.004051787,-0.0068535847,0.0010847705,3670026,0.024897002,0.020157035,0.024595715,396809,0.0,0.0,0.0
295362592,3670026,-0.0040365853,-0.006810935,0.0010374414,3670026,0.025007846,0.020266209,0.025316492,396809,0.0,0.0,0.0
296360653,3670026,-0.0040133623,-0.006798522,0.0010021396,3670026,0.025703425,0.02050433,0.02689216,396809,0.0,0.0,0.0
297363435,3670026,-0.004018416,-0.0067958385,0.0009893252,3670026,0.025577018,0.020380355,0.026460543,396809,0.0,0.0,0.0
298361375,3670026,-0.0040470026,-0.0068558725,0.0009877667,3670026,0.025519278,0.019859767,0.026706109,396809,0.0,0.0,0.0
299364280,3670026,-0.0041110613,-0.006901293,0.0009943892,3670026,0.02484449,0.019334152,0.026674235,396809,0.0,0.0,0.0
300362220,3670026,-0.0040850444,-0.0068795774,0.001016201,3670026,0.024865502,0.019276908,0.026301228,396809,0.0,0.0,0.0
301365120,3670026,-0.004116203,-0.006924951,0.0010165641,3670026,0.024773648,0.018986965,0.025290148,396809,0.0,0.0,0.0
302363059,3670026,-0.0040820953,-0.0068644118,0.0010063988,3670026,0.025033718,0.01941243,0.025093772,396809,0.0,0.0,0.0
303361093,3670026,-0.0040619816,-0.0068294974,0.0009882315,3670026,0.025682803,0.01998126,0.026439298,396809,0.0,0.0,0.0
304363904,3670026,-0.0040658,-0.006827968,0.0009907263,3670026,0.025454681,0.019753499,0.027033707,396809,0.0,0.0,0.0
305361841,3670026,-0.0040937504,-0.0068356926,0.0010238299,3670026,0.02550117,0.020185197,0.02772885,396809,0.0,0.0,0.0
306354818,3670026,-0.004089417,-0.0068032076,0.0010522581,3670026,0.025009688,0.01985924,0.026682224,396809,0.0,0.0,0.0
307362684,3670026,-0.0040989337,-0.0068581114,0.0010754945,3670026,0.025146047,0.019753676,0.025592001,396809,0.0,0.0,0.0
308360623,3670026,-0.0041030906,-0.0069099176,0.0010943509,3670026,0.025122289,0.019428262,0.023765648,396809,0.0,0.0,0.0
309363526,3670026,-0.004132038,-0.006913994,0.0011341821,3670026,0.024682615,0.019203804,0.026361741,396809,0.0,0.0,0.0
310361573,3670026,-0.0041428553,-0.0069329673,0.0011876485,3670026,0.024676615,0.019314082,0.026966656,396809,0.0,0.0,0.0
311364369,3670026,-0.004121792,-0.0069144415,0.0012380525,3670026,0.024730666,0.019454608,0.025327286,396809,0.0,0.0,0.0
312357344,3670026,-0.0041130893,-0.006886766,0.0012812944,3670026,0.024694169,0.019663414,0.022620764,396809,0.0,0.0,0.0
313355320,3670026,-0.004102893,-0.006858471,0.0013042444,3670026,0.02460213,0.019758197,0.021059971,396809,0.0,0.0,0.0
314363150,3670026,-0.004041545,-0.006841329,0.001324134,3670026,0.025168592,0.019885998,0.019038599,396809,0.0,0.0,0.0
315361088,3670026,-0.0040568775,-0.006880272,0.001352385,3670026,0.025122317,0.019693768,0.020413302,396809,0.0,0.0,0.0
316363992,3670026,-0.004064085,-0.006878737,0.0013680639,3670026,0.024997344,0.019521106,0.020953817,396809,0.0,0.0,0.0
317362000,3670026,-0.0040934603,-0.006919151,0.0013931317,3670026,0.025029073,0.019351047,0.021412086,396809,0.0,0.0,0.0
318364850,3670026,-0.004100015,-0.0069105607,0.0014162622,3670026,0.025023893,0.019347938,0.024035571,396809,0.0,0.0,0.0
319362773,3670026,-0.0041097812,-0.006903011,0.0014223593,3670026,0.02497196,0.019329045,0.025213467,396809,0.0,0.0,0.0
320360711,3670026,-0.0041044788,-0.006903774,0.0014086053,3670026,0.025071084,0.01938229,0.024676038,396809,0.0,0.0,0.0
321358649,3670026,-0.00407408,-0.0068477793,0.001346351,3670026,0.024892122,0.019221693,0.023744352,396809,0.0,0.0,0.0
322366518,3670026,-0.004111522,-0.0068859803,0.0012942024,3670026,0.025123598,0.019470079,0.021121027,396809,0.0,0.0,0.0
323364457,3670026,-0.004107434,-0.006880335,0.0012289024,3670026,0.025228493,0.019548703,0.02203454,396809,0.0,0.0,0.0
324362530,3670026,-0.0040902644,-0.0068704854,0.0011476331,3670026,0.025150212,0.019404618,0.02212792,396809,0.0,0.0,0.0
325365298,3670026,-0.004103196,-0.0068976465,0.0010721886,3670026,0.025241204,0.019404404,0.022905165,396809,0.0,0.0,0.0
326358308,3670026,-0.00406814,-0.006921038,0.0009857693,3670026,0.02534668,0.01927647,0.024353264,396809,0.0,0.0,0.0
327361174,3670026,-0.004073374,-0.0069245882,0.00092763494,3670026,0.025501264,0.019413905,0.024841111,396809,0.0,0.0,0.0
328364078,3670026,-0.0040885247,-0.0069127823,0.00088318076,3670026,0.02533567,0.019391658,0.02384501,396809,0.0,0.0,0.0
329362016,3670026,-0.0040894714,-0.006906122,0.0008585116,3670026,0.025396343,0.01944582,0.023041127,396809,0.0,0.0,0.0
330359954,3670026,-0.0041003847,-0.006919281,0.0008244258,3670026,0.025430396,0.019459963,0.020733634,396809,0.0,0.0,0.0
331362958,3670026,-0.004124279,-0.006940685,0.0007866595,3670026,0.02522898,0.019380275,0.01885351,396809,0.0,0.0,0.0
332360795,3670026,-0.00412573,-0.006912312,0.00074656866,3670026,0.025486626,0.019499732,0.018918462,396809,0.0,0.0,0.0
333358733,3670026,-0.004179391,-0.0068917125,0.0007174975,3670026,0.025414152,0.019653732,0.023291612,396809,0.0,0.0,0.0
334356683,3670026,-0.004213339,-0.0069332374,0.0006912865,3670026,0.025309397,0.019468095,0.022718567,396809,0.0,0.0,0.0
335364540,3670026,-0.0042109457,-0.0069491104,0.0006547198,3670026,0.02535067,0.019431293,0.0212656,396809,0.0,0.0,0.0
336362482,3670026,-0.004195025,-0.0070189415,0.0006341089,3670026,0.025706658,0.019551003,0.018665621,396809,0.0,0.0,0.0
337365379,3670026,-0.0041251276,-0.0069774315,0.0006175238,3670026,0.025667211,0.019449001,0.016463717,396809,0.0,0.0,0.0
338363485,3670026,-0.004155813,-0.007028655,0.00061862817,3670026,0.025819924,0.019524729,0.013295554,396809,0.0,0.0,0.0
339361256,3670026,-0.0041566957,-0.0069990773,0.0006119397,3670026,0.026120499,0.019720709,0.01481619,396809,0.0,0.0,0.0
340364158,3670026,-0.0041680513,-0.0069401865,0.00060198153,3670026,0.026040778,0.019921409,0.017107932,396809,0.0,0.0,0.0
341362096,3670026,-0.0041757063,-0.0069033406,0.0006093631,3670026,0.025937831,0.019968756,0.02032403,396809,0.0,0.0,0.0
342365000,3670026,-0.004172146,-0.006874183,0.0006059453,3670026,0.025816657,0.01994238,0.022391343,396809,0.0,0.0,0.0
343362940,3670026,-0.004208982,-0.006921979,0.00061796256,3670026,0.025945973,0.02001228,0.021931415,396809,0.0,0.0,0.0
344365839,3670026,-0.0041575637,-0.0069035226,0.0006354203,3670026,0.025964594,0.019920688,0.022575367,396809,0.0,0.0,0.0
345358915,3670026,-0.0041750153,-0.0068962965,0.0006763952,3670026,0.026769998,0.020595122,0.024640782,396809,0.0,0.0,0.0
346361753,3670026,-0.0041181585,-0.0068725585,0.0006724385,3670026,0.02647336,0.020072367,0.022406539,396809,0.0,0.0,0.0
347364617,3670026,-0.0040789503,-0.006889952,0.0006073636,3670026,0.024329316,0.018782455,0.022903763,396809,0.0,0.0,0.0
348362555,3670026,-0.00410996,-0.007006216,0.00056005403,3670026,0.022761706,0.021615224,0.021029945,396809,0.0,0.0,0.0
349365457,3670026,-0.004074554,-0.006995835,0.0005011282,3670026,0.021589933,0.023170812,0.018384043,396809,0.0,0.0,0.0
350363395,3670026,-0.0040844134,-0.007056105,0.000464096,3670026,0.021536577,0.024520423,0.01590222,396809,0.0,0.0,0.0
351361333,3670026,-0.004081484,-0.007062445,0.00043793474,3670026,0.021110533,0.024898725,0.015678868,396809,0.0,0.0,0.0
352359393,3670026,-0.0040565357,-0.0070568793,0.00041669406,3670026,0.020150779,0.025814153,0.014178338,396809,0.0,0.0,0.0
353357209,3670026,-0.0040358664,-0.007011695,0.0004031231,3670026,0.019397952,0.025621422,0.014526496,396809,0.0,0.0,0.0
354360115,3670026,-0.0040924237,-0.007057738,0.00038474464,3670026,0.020218322,0.025178177,0.014332199,396809,0.0,0.0,0.0
355363024,3670026,-0.004086326,-0.0070147836,0.0003583909,3670026,0.020090813,0.024977546,0.016340358,396809,0.0,0.0,0.0
356355984,3670026,-0.004035831,-0.006972752,0.00029993965,3670026,0.020418027,0.024964556,0.016506612,396809,0.0,0.0,0.0
357363852,3670026,-0.0040329155,-0.0070014973,0.00025019402,3670026,0.02183775,0.02461102,0.011703413,396809,0.0,0.0,0.0
358361790,3670026,-0.0040194327,-0.0070021204,0.0001989313,3670026,0.022543207,0.024065532,0.011299197,396809,0.0,0.0,0.0
359364885,3670026,-0.003991626,-0.00698165,0.00019120968,3670026,0.022544688,0.023900157,0.012630801,396809,0.0,0.0,0.0
360362628,3670026,-0.0040212814,-0.007006259,0.00018457552,3670026,0.022543844,0.023948079,0.014720555,396809,0.0,0.0,0.0
361360566,3670026,-0.0040315613,-0.0070187976,0.00019184416,3670026,0.022376541,0.02376006,0.014190822,396809,0.0,0.0,0.0
362358503,3670026,-0.004041175,-0.007005195,0.00019088767,3670026,0.022131734,0.023591163,0.014037506,396809,0.0,0.0,0.0
363361405,3670026,-0.004046104,-0.007009574,0.00018565061,3670026,0.022332938,0.023835013,0.015175628,396809,0.0,0.0,0.0
364359342,3670026,-0.0040723057,-0.007008187,0.00019025436,3670026,0.02212326,0.023793727,0.015768362,396809,0.0,0.0,0.0
365367210,3670026,-0.0040838113,-0.0070072324,0.00019243246,3670026,0.021924153,0.023647688,0.016283937,396809,0.0,0.0,0.0
366360340,3670026,-0.0040993225,-0.0070423163,0.00019333554,3670026,0.021959508,0.023599433,0.017773094,396809,0.0,0.0,0.0
367363097,3670026,-0.0040973225,-0.0070004566,0.00019579336,3670026,0.021779863,0.023626834,0.017232858,396809,0.0,0.0,0.0
368365985,3670026,-0.0041369824,-0.00700044,0.00020272403,3670026,0.021660639,0.023848983,0.018224502,396809,0.0,0.0,0.0
369363922,3670026,-0.004131745,-0.006970786,0.00020160031,3670026,0.021611856,0.023912752,0.018426131,396809,0.0,0.0,0.0
370361894,3670026,-0.0041425806,-0.006959203,0.00019847258,3670026,0.021616563,0.024123525,0.020305417,396809,0.0,0.0,0.0
371364762,3670026,-0.0041447566,-0.006954907,0.00018792448,3670026,0.021597907,0.024180505,0.020889776,396809,0.0,0.0,0.0
372362698,3670026,-0.004140644,-0.006968026,0.0002033141,3670026,0.021736022,0.024142185,0.019229984,396809,0.0,0.0,0.0
373360860,3670026,-0.004160067,-0.006974025,0.00020832462,3670026,0.021523101,0.024062313,0.019450124,396809,0.0,0.0,0.0
374363538,3670026,-0.004156577,-0.006978196,0.00019972128,3670026,0.021357791,0.023880199,0.020182882,396809,0.0,0.0,0.0
375366441,3670026,-0.0041472204,-0.0069652214,0.00020207504,3670026,0.021430604,0.023965029,0.021458087,396809,0.0,0.0,0.0
376359411,3670026,-0.0041973838,-0.0069997576,0.00019266058,3670026,0.021414835,0.024233047,0.021418927,396809,0.0,0.0,0.0
377362311,3670026,-0.0041434914,-0.0069614584,0.00019697963,3670026,0.021513252,0.024119413,0.021682987,396809,0.0,0.0,0.0
378365270,3670026,-0.0041497904,-0.0069778524,0.00021509331,3670026,0.021604093,0.024162564,0.021428274,396809,0.0,0.0,0.0
379363152,3670026,-0.004143811,-0.007017092,0.00022631839,3670026,0.02162249,0.023957184,0.017986389,396809,0.0,0.0,0.0
380361269,3670026,-0.00412948,-0.006989506,0.00024017802,3670026,0.021581823,0.023873778,0.016941782,396809,0.0,0.0,0.0
381363993,3670026,-0.0041533816,-0.0069643906,0.00026057535,3670026,0.021436876,0.023928734,0.017951183,396809,0.0,0.0,0.0
382361928,3670026,-0.0041712024,-0.006977358,0.00026061453,3670026,0.021393616,0.023938486,0.02061236,396809,0.0,0.0,0.0
383354900,3670026,-0.0041896487,-0.006994285,0.00027061277,3670026,0.021371799,0.023877988,0.02106223,396809,0.0,0.0,0.0
384362776,3670026,-0.0041682934,-0.0069847507,0.00027414155,3670026,0.021386607,0.023797821,0.020226859,396809,0.0,0.0,0.0
385365668,3670026,-0.004175814,-0.0069795176,0.00029302365,3670026,0.021420235,0.023845114,0.020880422,396809,0.0,0.0,0.0
386363605,3670026,-0.004143881,-0.0069482657,0.00029694117,3670026,0.021441892,0.023792591,0.020779716,396809,0.0,0.0,0.0
387361742,3670026,-0.0041521043,-0.0069801915,0.00030935713,3670026,0.021455003,0.023770927,0.021354072,396809,0.0,0.0,0.0
388359491,3670026,-0.0041789277,-0.0069806417,0.00032834717,3670026,0.02147944,0.023865115,0.02375395,396809,0.0,0.0,0.0
389362381,3670026,-0.0041707563,-0.006936517,0.00033898352,3670026,0.021407641,0.023832843,0.024173737,396809,0.0,0.0,0.0
390355353,3670026,-0.0041476674,-0.0069374517,0.00036126672,3670026,0.021358924,0.023686554,0.023546576,396809,0.0,0.0,0.0
391363253,3670026,-0.0041660047,-0.0069356146,0.00039458848,3670026,0.02139002,0.023758063,0.02402261,396809,0.0,0.0,0.0
392366121,3670026,-0.0041761566,-0.0069431085,0.0004240084,3670026,0.021423116,0.02379327,0.021226771,396809,0.0,0.0,0.0
393364059,3670026,-0.0042012734,-0.006990241,0.00044420583,3670026,0.021313922,0.023683403,0.015985733,396809,0.0,0.0,0.0
394362000,3670026,-0.004202481,-0.0070049516,0.00045989626,3670026,0.02141793,0.023727605,0.0129635455,396809,0.0,0.0,0.0
395359933,3670026,-0.004196124,-0.0071228193,0.00048064548,3670026,0.021776542,0.023691231,0.0059750043,396809,0.0,0.0,0.0
396362833,3670026,-0.0041609835,-0.0071615153,0.0005004588,3670026,0.022020763,0.023672778,-0.0024302094,396809,0.0,0.0,0.0
397360770,3670026,-0.004200983,-0.0071356576,0.00050979014,3670026,0.02206349,0.023846736,-0.0047596004,396809,0.0,0.0,0.0
398358788,3670026,-0.004189396,-0.0070733265,0.00051952177,3670026,0.022109598,0.02398426,-0.0024105154,396809,0.0,0.0,0.0
399356650,3670026,-0.0041836137,-0.0070994943,0.00051505445,3670026,0.02195381,0.023908162,-0.0020078558,396809,0.0,0.0,0.0
400364510,3670026,-0.004225938,-0.0071682297,0.00052972883,3670026,0.02211622,0.023855496,-0.0041294247,396809,0.0,0.0,0.0
401362446,3670026,-0.0042151357,-0.0072041214,0.0005192803,3670026,0.022225674,0.023858005,0.0015694761,396809,0.0,0.0,0.0
402360422,3670026,-0.00419195,-0.0070540244,0.00052777823,3670026,0.022031285,0.02396283,0.008549108,396809,0.0,0.0,0.0
403363284,3670026,-0.004171408,-0.006991102,0.00053485495,3670026,0.021824552,0.023935258,0.01694076,396809,0.0,0.0,0.0
404361221,3670026,-0.004218004,-0.0069843903,0.0005368586,3670026,0.021838525,0.024114834,0.022286886,396809,0.0,0.0,0.0
405364173,3670026,-0.004149719,-0.007021616,0.00054350414,3670026,0.02152192,0.023814669,0.029500306,396809,0.0,0.0,0.0
406357094,3670026,-0.004126994,-0.006949541,0.0005487585,3670026,0.027672343,0.023414748,0.028774884,396809,0.0,0.0,0.0
407359998,3670026,-0.0041783606,-0.0068649515,0.0005462894,3670026,0.035759322,0.023053253,0.027525188,396809,0.0,0.0,0.0
408353159,3670026,-0.0041909493,-0.0068069743,0.0004939167,3670026,0.0427588,0.0233351,0.022317769,396809,0.0,0.0,0.0
409360832,3670026,-0.0042243996,-0.006778309,0.00043654666,3670026,0.048180193,0.024765257,0.01799386,396809,0.0,0.0,0.0
410358828,3670026,-0.0042147515,-0.0067755748,0.00040791158,3670026,0.048609983,0.028233351,0.01577538,396809,0.0,0.0,0.0
411356704,3670026,-0.004140323,-0.0067587444,0.00039985066,3670026,0.043757174,0.032738596,0.016346566,396809,0.0,0.0,0.0
412364684,3670026,-0.0041202423,-0.0067746965,0.00039543476,3670026,0.042468373,0.037218086,0.013187205,396809,0.0,0.0,0.0
413362507,3670026,-0.004104411,-0.0068342765,0.00040999593,3670026,0.041512646,0.03935051,0.0133783035,396809,0.0,0.0,0.0
414365432,3670026,-0.0040119616,-0.006809308,0.00042214862,3670026,0.040297672,0.041126236,0.014310221,396809,0.0,0.0,0.0
415363364,3670026,-0.003983133,-0.00679284,0.000483465,3670026,0.038701333,0.049285546,0.016361473,396809,0.0,0.0,0.0
416361285,3670026,-0.00400392,-0.006828287,0.0005290708,3670026,0.038730726,0.054885067,0.015690163,396809,0.0,0.0,0.0
417364215,3670026,-0.003991085,-0.006815491,0.0005495301,3670026,0.03856679,0.056477316,0.015930865,396809,0.0,0.0,0.0
418362139,3670026,-0.0039591515,-0.0068421667,0.0005655905,3670026,0.03870359,0.05709961,0.014924289,396809,0.0,0.0,0.0
419360109,3670026,-0.003981321,-0.0068986975,0.00057399925,3670026,0.038968615,0.056688156,0.014864388,396809,0.0,0.0,0.0
420362955,3670026,-0.003968527,-0.0069573442,0.0005816471,3670026,0.03913554,0.056273397,0.014647139,396809,0.0,0.0,0.0
421365875,3670026,-0.0039199484,-0.006959825,0.00058924814,3670026,0.039522637,0.056149684,0.013893058,396809,0.0,0.0,0.0
422363789,3670026,-0.0039050826,-0.0069527067,0.0006024556,3670026,0.039792873,0.056390833,0.011207889,396809,0.0,0.0,0.0
423361724,3670026,-0.003943656,-0.0069722184,0.00061554456,3670026,0.039069142,0.055881172,0.0109176515,396809,0.0,0.0,0.0
424364624,3670026,-0.003913771,-0.007011149,0.00062338205,3670026,0.03902482,0.0550837,0.009009308,396809,0.0,0.0,0.0
425362560,3670026,-0.0039331163,-0.0070384447,0.0006322954,3670026,0.03895976,0.055075064,0.007955809,396809,0.0,0.0,0.0
426360566,3670026,-0.0039720247,-0.007052495,0.0006443075,3670026,0.03878783,0.055067174,0.008364833,396809,0.0,0.0,0.0
427363396,3670026,-0.0039734077,-0.0070481542,0.000646216,3670026,0.038743705,0.055005148,0.010232772,396809,0.0,0.0,0.0
428366296,3670026,-0.003976611,-0.006972337,0.0006386935,3670026,0.038807727,0.05531056,0.012095789,396809,0.0,0.0,0.0
429364246,3670026,-0.003995622,-0.006957532,0.00063357345,3670026,0.039295107,0.05601887,0.015396608,396809,0.0,0.0,0.0
430362167,3670026,-0.0040263715,-0.0068951487,0.0006199081,3670026,0.03900972,0.056209188,0.018583901,396809,0.0,0.0,0.0
431360145,3670026,-0.004026696,-0.0068206247,0.0006051319,3670026,0.038748633,0.056208257,0.019508151,396809,0.0,0.0,0.0
432358037,3670026,-0.0041051027,-0.0069055757,0.000594019,3670026,0.038479567,0.056151744,0.018600266,396809,0.0,0.0,0.0
433356104,3670026,-0.0041334503,-0.006919284,0.00056801736,3670026,0.038246974,0.056260213,0.017017517,396809,0.0,0.0,0.0
434363837,3670026,-0.004148444,-0.0068872804,0.00055792695,3670026,0.038406752,0.056690898,0.01923178,396809,0.0,0.0,0.0
435361773,3670026,-0.004122067,-0.0069690803,0.0005614199,3670026,0.038378693,0.05646568,0.017794756,396809,0.0,0.0,0.0
436364673,3670026,-0.0040599285,-0.006941961,0.00052859675,3670026,0.038231898,0.05607066,0.015636332,396809,0.0,0.0,0.0
437362608,3670026,-0.0040588747,-0.0070166807,0.0005178541,3670026,0.03825823,0.056080893,0.01416657,396809,0.0,0.0,0.0
438360543,3670026,-0.004126256,-0.007040477,0.0004966396,3670026,0.03830761,0.056388803,0.012392905,396809,0.0,0.0,0.0
439358479,3670026,-0.0041213203,-0.00695369,0.00047753355,3670026,0.03811019,0.056243114,0.013120814,396809,0.0,0.0,0.0
440361527,3670026,-0.004166914,-0.006971205,0.00046257878,3670026,0.03811095,0.056587964,0.016173666,396809,0.0,0.0,0.0
441364278,3670026,-0.0041360683,-0.0068875975,0.00044448586,3670026,0.038030148,0.056526523,0.018259464,396809,0.0,0.0,0.0
442362213,3670026,-0.004169145,-0.0069080307,0.00044081907,3670026,0.038068205,0.05673604,0.019366512,396809,0.0,0.0,0.0
443365112,3670026,-0.0041784444,-0.0068791616,0.00043593041,3670026,0.037896298,0.056636464,0.019908648,396809,0.0,0.0,0.0
444358082,3670026,-0.0042530415,-0.0069160736,0.00041998265,3670026,0.037927814,0.057035588,0.021312281,396809,0.0,0.0,0.0
445365963,3670026,-0.0042533185,-0.006884056,0.0003916696,3670026,0.0374786,0.056620818,0.020013941,396809,0.0,0.0,0.0
446363881,3670026,-0.0042720675,-0.0069171917,0.0003685074,3670026,0.03745244,0.0566981,0.017898338,396809,0.0,0.0,0.0
447361937,3670026,-0.0042197197,-0.0069637145,0.00033827688,3670026,0.03773086,0.056533925,0.017765807,396809,0.0,0.0,0.0
448359753,3670026,-0.004221696,-0.0069668666,0.0002930676,3670026,0.03773086,0.056629255,0.015787799,396809,0.0,0.0,0.0
449362703,3670026,-0.004189627,-0.0069306367,0.00024109225,3670026,0.037766375,0.05656928,0.017714938,396809,0.0,0.0,0.0
450355620,3670026,-0.0041288002,-0.0069371425,0.00019570328,3670026,0.038117185,0.056555968,0.020492503,396809,0.0,0.0,0.0
451363486,3670026,-0.004116434,-0.00694059,0.00015086011,3670026,0.03803673,0.056270514,0.021415535,396809,0.0,0.0,0.0
452361421,3670026,-0.0041455207,-0.0069918483,0.000112183945,3670026,0.038080737,0.056277283,0.018184956,396809,0.0,0.0,0.0
453359402,3670026,-0.00420318,-0.0069894656,8.245159e-05,3670026,0.03793391,0.05644329,0.015462581,396809,0.0,0.0,0.0
454362392,3670026,-0.0041770586,-0.006963143,5.517981e-05,3670026,0.03774015,0.05613483,0.0145477215,396809,0.0,0.0,0.0
455365152,3670026,-0.0041241734,-0.0069562234,2.8075307e-05,3670026,0.03773043,0.05597395,0.015669258,396809,0.0,0.0,0.0
456363121,3670026,-0.0041116793,-0.006945091,-1.9727001e-06,3670026,0.03803471,0.056224354,0.015718285,396809,0.0,0.0,0.0
457356056,3670026,-0.0041499045,-0.006985345,-2.6064332e-05,3670026,0.0380717,0.05613028,0.016094988,396809,0.0,0.0,0.0
458363920,3670026,-0.004192208,-0.0070271282,-3.853277e-05,3670026,0.037896823,0.055844713,0.015939338,396809,0.0,0.0,0.0
459366820,3670026,-0.0041791974,-0.007086192,-5.2571442e-05,3670026,0.03791936,0.05576575,0.015593585,396809,0.0,0.0,0.0
460354824,3670026,-0.00420819,-0.007009422,-7.983246e-05,3670026,0.037837714,0.05581152,0.015125472,396809,0.0,0.0,0.0
461357846,3670026,-0.004191346,-0.006914963,-0.00011146024,3670026,0.037810266,0.055782657,0.016794255,396809,0.0,0.0,0.0
462360623,3670026,-0.004263979,-0.0069910227,-0.00011099591,3670026,0.038172267,0.05796662,0.019652383,396809,0.0,0.0,0.0
463363522,3670026,-0.0042842724,-0.0070188795,-2.2699593e-05,3670026,0.035891015,0.0633178,0.023508005,396809,0.0,0.0,0.0
464356492,3670026,-0.0043261894,-0.0070224237,-2.9984109e-05,3670026,0.034634057,0.06836232,0.02259029,396809,0.0,0.0,0.0
465359395,3670026,-0.004327916,-0.007104873,-2.110897e-05,3670026,0.02939854,0.06933039,0.024607025,396809,0.0,0.0,0.0
466362289,3670026,-0.0042812782,-0.007075253,-2.235672e-05,3670026,0.026036866,0.06785121,0.02463055,396809,0.0,0.0,0.0
467355259,3670026,-0.004239863,-0.0070323017,-2.088326e-05,3670026,0.020244349,0.065054335,0.024888314,396809,0.0,0.0,0.0
468363288,3670026,-0.004226978,-0.006961795,-7.3768265e-06,3670026,0.01802261,0.062283043,0.026888924,396809,0.0,0.0,0.0
469361057,3670026,-0.0042348267,-0.0069368044,3.4953973e-06,3670026,0.016525537,0.06172705,0.028362606,396809,0.0,0.0,0.0
470363958,3670026,-0.004242349,-0.006932366,1.607762e-05,3670026,0.01647182,0.061528068,0.02977063,396809,0.0,0.0,0.0
471356926,3670026,-0.0042802617,-0.0068849428,3.2341057e-05,3670026,0.015586167,0.06066328,0.029921042,396809,0.0,0.0,0.0
472359856,3670026,-0.0043676742,-0.006909256,4.8504186e-05,3670026,0.014687575,0.06059235,0.025753815,396809,0.0,0.0,0.0
473357782,3670026,-0.004323055,-0.006874966,5.440482e-05,3670026,0.014512783,0.060831167,0.024970833,396809,0.0,0.0,0.0
474355692,3670026,-0.0043527563,-0.006859776,5.7741752e-05,3670026,0.013973347,0.061486784,0.024658518,396809,0.0,0.0,0.0
475363740,3670026,-0.00441415,-0.0068269,5.3135424e-05,3670026,0.013028195,0.06145484,0.023065189,396809,0.0,0.0,0.0
476361512,3670026,-0.004444868,-0.006852624,5.1183248e-05,3670026,0.012431094,0.061202172,0.021778224,396809,0.0,0.0,0.0
477364390,3670026,-0.0044344747,-0.0068858033,6.233824e-05,3670026,0.012493553,0.061176505,0.021172713,396809,0.0,0.0,0.0
478362324,3670026,-0.004400317,-0.006950766,6.6579654e-05,3670026,0.012404567,0.060494903,0.018787397,396809,0.0,0.0,0.0
479365292,3670026,-0.004303806,-0.0069105914,4.408055e-05,3670026,0.012711727,0.059529748,0.017713983,396809,0.0,0.0,0.0
480363157,3670026,-0.0044002673,-0.0069420836,3.8230923e-05,3670026,0.011931664,0.06004681,0.013674793,396809,0.0,0.0,0.0
481361090,3670026,-0.004356356,-0.0069460403,9.386171e-06,3670026,0.012382361,0.05997558,0.016423667,396809,0.0,0.0,0.0
482364184,3670026,-0.0043049995,-0.006936673,-1.0785411e-05,3670026,0.0126312,0.059679683,0.016005479,396809,0.0,0.0,0.0
483361925,3670026,-0.004311338,-0.006912979,-1.9667541e-05,3670026,0.01276825,0.06015493,0.014276658,396809,0.0,0.0,0.0
484359857,3670026,-0.0042649647,-0.0069556874,-2.6571803e-05,3670026,0.012936698,0.05982553,0.013505098,396809,0.0,0.0,0.0
485357791,3670026,-0.0042399196,-0.006958158,-3.8900365e-05,3670026,0.012897053,0.059508696,0.015640398,396809,0.0,0.0,0.0
486360696,3670026,-0.004250471,-0.006992464,-5.2099844e-05,3670026,0.012888716,0.059624825,0.017699609,396809,0.0,0.0,0.0
487363638,3670026,-0.0042505637,-0.0070008733,-6.238522e-05,3670026,0.012907252,0.059657156,0.019527597,396809,0.0,0.0,0.0
488356558,3670026,-0.004215804,-0.006977129,-7.685635e-05,3670026,0.012928681,0.05929306,0.021182712,396809,0.0,0.0,0.0
489364421,3670026,-0.0041527436,-0.0069857603,-7.901697e-05,3670026,0.013419538,0.059151452,0.028519493,396809,0.0,0.0,0.0
490362355,3670026,-0.0041716127,-0.007001213,-9.304473e-05,3670026,0.013252149,0.05907589,0.0283388,396809,0.0,0.0,0.0
491365255,3670026,-0.004219613,-0.0070184027,-0.00010573671,3670026,0.013128308,0.0591825,0.025369177,396809,0.0,0.0,0.0
492363187,3670026,-0.0042377035,-0.00700861,-0.0001289147,3670026,0.013127452,0.059119776,0.02467735,396809,0.0,0.0,0.0
493361149,3670026,-0.0042894245,-0.007027536,-0.00014294458,3670026,0.013007493,0.059127796,0.025152931,396809,0.0,0.0,0.0
494364018,3670026,-0.0043307957,-0.007046396,-0.00015171664,3670026,0.012900421,0.059270248,0.02157643,396809,0.0,0.0,0.0
495361954,3670026,-0.004325926,-0.007041701,-0.00017653787,3670026,0.01286679,0.059114713,0.020285293,396809,0.0,0.0,0.0
496359890,3670026,-0.0043382472,-0.0070683584,-0.00018280478,3670026,0.012862906,0.059174713,0.018504374,396809,0.0,0.0,0.0
497362786,3670026,-0.0043566735,-0.0070432606,-0.00018296757,3670026,0.012706637,0.05893358,0.020456826,396809,0.0,0.0,0.0
498365684,3670026,-0.004364009,-0.0070628333,-0.00019712737,3670026,0.012777506,0.05909954,0.022228219,396809,0.0,0.0,0.0
499363618,3670026,-0.0043497696,-0.0070646075,-0.00019910342,3670026,0.012869186,0.059244268,0.022113988,396809,0.0,0.0,0.0
500361689,3670026,-0.004347892,-0.0070439973,-0.0002067858,3670026,0.012787184,0.05904947,0.019487554,396809,0.0,0.0,0.0
501364450,3670026,-0.004322353,-0.0070301746,-0.00020845064,3670026,0.012910764,0.05914644,0.0189006,396809,0.0,0.0,0.0
502362385,3670026,-0.0043190694,-0.007020039,-0.00020601608,3670026,0.01284577,0.05904219,0.018844338,396809,0.0,0.0,0.0
503360345,3670026,-0.0043615815,-0.0070104366,-0.00019791898,3670026,0.012888657,0.059282266,0.020557877,396809,0.0,0.0,0.0
504363216,3670026,-0.0043642316,-0.00699834,-0.00017668342,3670026,0.012844761,0.05911984,0.020445565,396809,0.0,0.0,0.0
505361150,3670026,-0.004374416,-0.0070236237,-0.00015393773,3670026,0.0128732,0.059298042,0.019243369,396809,0.0,0.0,0.0
506359081,3670026,-0.0042864257,-0.006963181,-0.00014741094,3670026,0.012972915,0.05897775,0.019605882,396809,0.0,0.0,0.0
507362088,3670026,-0.004312298,-0.007011717,-0.00013837326,3670026,0.012970445,0.059230275,0.019715609,396809,0.0,0.0,0.0
508359916,3670026,-0.0043236804,-0.007015305,-0.00012156473,3670026,0.012971392,0.059315544,0.01973327,396809,0.0,0.0,0.0
509357902,3670026,-0.004321121,-0.0070320684,-0.000106377316,3670026,0.01299381,0.059318453,0.018979313,396809,0.0,0.0,0.0
510355784,3670026,-0.0042771064,-0.0069658207,-8.603034e-05,3670026,0.01294698,0.058906797,0.016397415,396809,0.0,0.0,0.0
511363674,3670026,-0.00420505,-0.0069981003,-4.1509247e-05,3670026,0.013114223,0.05900563,0.025447182,396809,0.0,0.0,0.0
512361624,3670026,-0.004300439,-0.0070460388,8.982898e-06,3670026,0.013069584,0.059544817,0.029103434,396809,0.0,0.0,0.0
513364515,3670026,-0.0042962898,-0.0069867345,5.2987525e-05,3670026,0.012985553,0.059289876,0.026826095,396809,0.0,0.0,0.0
514362472,3670026,-0.004323853,-0.0069889263,8.936407e-05,3670026,0.012996179,0.059444685,0.025696747,396809,0.0,0.0,0.0
515365311,3670026,-0.004364383,-0.007139863,0.00011577752,3670026,0.0019881888,0.060914,0.027435761,396809,0.0,0.0,0.0
516363248,3670026,-0.004398313,-0.007197265,-6.7693427e-06,3670026,-0.00803912,0.06262335,0.029407112,396809,0.0,0.0,0.0
517356214,3670026,-0.004399145,-0.007252303,-0.00016840361,3670026,-0.014218322,0.06310357,0.029847953,396809,0.0,0.0,0.0
518359114,3670026,-0.0043854206,-0.00724252,-0.00024189329,3670026,-0.017131297,0.05729862,0.029678015,396809,0.0,0.0,0.0
519362010,3670026,-0.0043695755,-0.007156783,-0.00020654657,3670026,-0.013864421,0.050010383,0.02895724,396809,0.0,0.0,0.0
520359946,3670026,-0.0043749134,-0.007083784,-0.00017838487,3670026,-0.01010817,0.04341034,0.028840005,396809,0.0,0.0,0.0
521362929,3670026,-0.0043995623,-0.0071060644,-0.00016184131,3670026,-0.008739971,0.042550694,0.03059482,396809,0.0,0.0,0.0
522365741,3670026,-0.0044296244,-0.007112928,-0.00019757824,3670026,-0.0072307372,0.04012782,0.027693601,396809,0.0,0.0,0.0
523363674,3670026,-0.0044356873,-0.007198071,-0.000264862,3670026,-0.0038320113,0.040126,0.026126806,396809,0.0,0.0,0.0
524361607,3670026,-0.0044260607,-0.0072142575,-0.0003164693,3670026,-0.0039837407,0.040467452,0.027823007,396809,0.0,0.0,0.0
525364525,3670026,-0.0044552265,-0.0071791024,-0.00034405274,3670026,-0.0053434432,0.039809216,0.0283208,396809,0.0,0.0,0.0
526362438,3670026,-0.004491582,-0.007207151,-0.00036724575,3670026,-0.005711825,0.03910338,0.02563259,396809,0.0,0.0,0.0
527360372,3670026,-0.0044641644,-0.0071827415,-0.0004328149,3670026,-0.007025916,0.03980413,0.026309855,396809,0.0,0.0,0.0
528363428,3670026,-0.004528325,-0.00716913,-0.0004409964,3670026,-0.0064321253,0.042926874,0.026421977,396809,0.0,0.0,0.0
529366169,3670026,-0.0044982084,-0.007119069,-0.0004609544,3670026,-0.0056935134,0.045275763,0.029089658,396809,0.0,0.0,0.0
530359137,3670026,-0.0044695777,-0.0071701477,-0.00050283433,3670026,-0.005732358,0.045822307,0.025850037,396809,0.0,0.0,0.0
531357071,3670026,-0.004437846,-0.007146616,-0.00052161515,3670026,-0.0060305595,0.046157975,0.023507612,396809,0.0,0.0,0.0
532364947,3670026,-0.0043973834,-0.007066222,-0.0005334438,3670026,-0.0064883404,0.045549262,0.021433331,396809,0.0,0.0,0.0
533362874,3670026,-0.0044270307,-0.007069287,-0.00054209906,3670026,-0.0065530287,0.045810577,0.02112793,396809,0.0,0.0,0.0
534355835,3670026,-0.004436286,-0.0070671625,-0.0005447863,3670026,-0.006439253,0.045896493,0.020883951,396809,0.0,0.0,0.0
535363814,3670026,-0.0044123484,-0.007032826,-0.0005460952,3670026,-0.006272381,0.045781855,0.020107942,396809,0.0,0.0,0.0
536361632,3670026,-0.0044126087,-0.007046527,-0.00054797373,3670026,-0.006260072,0.045851793,0.020246886,396809,0.0,0.0,0.0
537359565,3670026,-0.0044072056,-0.0070526875,-0.00054501195,3670026,-0.0063442457,0.045864854,0.019217307,396809,0.0,0.0,0.0
538357498,3670026,-0.0043850727,-0.0070402715,-0.0005404369,3670026,-0.0064226757,0.045711137,0.019073375,396809,0.0,0.0,0.0
539360396,3670026,-0.004384318,-0.0070849806,-0.00053537905,3670026,-0.006737199,0.045849208,0.018496742,396809,0.0,0.0,0.0
540358329,3670026,-0.0043776683,-0.0070780674,-0.00052256114,3670026,-0.0069012204,0.045852523,0.01769704,396809,0.0,0.0,0.0
541356262,3670026,-0.004380279,-0.0070835412,-0.0005115864,3670026,-0.0070508313,0.045963578,0.018351236,396809,0.0,0.0,0.0
542359263,3670026,-0.0043966924,-0.007143188,-0.0005023941,3670026,-0.007347232,0.04626379,0.016073862,396809,0.0,0.0,0.0
543362058,3670026,-0.0043694167,-0.0071238754,-0.00048532724,3670026,-0.0075113974,0.046100162,0.015246964,396809,0.0,0.0,0.0
544355027,3670026,-0.00429806,-0.007094274,-0.0004672429,3670026,-0.0076803565,0.045583885,0.014703945,396809,0.0,0.0,0.0
545357925,3670026,-0.004314036,-0.007116415,-0.0004492915,3670026,-0.007846656,0.045850337,0.016655546,396809,0.0,0.0,0.0
546365795,3670026,-0.004342684,-0.0071188523,-0.0004274934,3670026,-0.007912046,0.04613315,0.017131375,396809,0.0,0.0,0.0
547363720,3670026,-0.0043368726,-0.0071664597,-0.00040597314,3670026,-0.008294538,0.046290133,0.0155757265,396809,0.0,0.0,0.0
548356688,3670026,-0.004338607,-0.0071450844,-0.000384643,3670026,-0.008217183,0.046341673,0.016457861,396809,0.0,0.0,0.0
549359696,3670026,-0.004310385,-0.0071497704,-0.00035668808,3670026,-0.008401793,0.046257474,0.016758215,396809,0.0,0.0,0.0
550362482,3670026,-0.004264878,-0.0070914817,-0.00032945068,3670026,-0.008405907,0.045920942,0.016939273,396809,0.0,0.0,0.0
551355451,3670026,-0.0042434293,-0.00705486,-0.00030534837,3670026,-0.008407742,0.04578074,0.018166024,396809,0.0,0.0,0.0
552363313,3670026,-0.004279533,-0.007095198,-0.0002782766,3670026,-0.008547489,0.046171907,0.020735105,396809,0.0,0.0,0.0
553366210,3670026,-0.0042560864,-0.007013121,-0.00024825707,3670026,-0.008472204,0.045861263,0.020788634,396809,0.0,0.0,0.0
554364143,3670026,-0.0042978385,-0.007048645,-0.00021835667,3670026,-0.008589728,0.04621169,0.018989386,396809,0.0,0.0,0.0
555362126,3670026,-0.0043581575,-0.007051415,-0.00018416707,3670026,-0.0086258985,0.046628848,0.020233689,396809,0.0,0.0,0.0
556360136,3670026,-0.004317913,-0.0069919084,-0.00017115842,3670026,-0.008538749,0.046377823,0.021667656,396809,0.0,0.0,0.0
557362968,3670026,-0.004327573,-0.007042284,-0.00015173988,3670026,-0.008752517,0.046465494,0.020248968,396809,0.0,0.0,0.0
558360838,3670026,-0.0043450054,-0.0070675975,-0.00014327052,3670026,-0.008829633,0.04657786,0.020497274,396809,0.0,0.0,0.0
559358773,3670026,-0.004350515,-0.00704702,-0.0001339329,3670026,-0.008791759,0.046537876,0.019364942,396809,0.0,0.0,0.0
560356703,3670026,-0.004326573,-0.0070862253,-0.000116198724,3670026,-0.008969964,0.04650421,0.019357309,396809,0.0,0.0,0.0
561359601,3670026,-0.0043792,-0.007155458,-8.905578e-05,3670026,-0.009116702,0.04691766,0.020663401,396809,0.0,0.0,0.0
562362497,3670026,-0.00430085,-0.007038333,-0.00010631656,3670026,-0.008841256,0.04655338,0.016550785,396809,0.0,0.0,0.0
563365561,3670026,-0.0042843493,-0.0070430837,-0.00012926663,3670026,-0.008842792,0.04641554,0.015207107,396809,0.0,0.0,0.0
564358363,3670026,-0.004333527,-0.0070900745,-0.00018135391,3670026,-0.008822197,0.046711355,0.018422147,396809,0.0,0.0,0.0
565356294,3670026,-0.0042848215,-0.0070163636,-0.00031641373,3670026,-0.008674162,0.046410367,0.013387793,396809,0.0,0.0,0.0
566364208,3670026,-0.0044747544,-0.006912724,-0.00052372966,3670026,-0.00834317,0.04680317,0.013431808,396809,0.0,0.0,0.0
567362120,3670026,-0.0046163253,-0.00683105,-0.0006065694,3670026,-0.0038753662,0.049429607,0.015034713,396809,0.0,0.0,0.0
568364987,3670026,-0.0046666376,-0.0067763226,-0.0006647055,3670026,0.0052427407,0.054572884,0.016312987,396809,0.0,0.0,0.0
569362917,3670026,-0.0045743543,-0.0068533993,-0.00065665174,3670026,0.0067538754,0.05540726,0.01736933,396809,0.0,0.0,0.0
570361055,3670026,-0.0045003598,-0.0069601326,-0.0006394922,3670026,0.0067650294,0.055498764,0.01889003,396809,0.0,0.0,0.0
571363748,3670026,-0.0044263005,-0.0070343064,-0.000597086,3670026,0.006747027,0.05535108,0.01942757,396809,0.0,0.0,0.0
