timestamp,gyro_device_id,gyro_bias[0],gyro_bias[1],gyro_bias[2],accel_device_id,accel_bias[0],accel_bias[1],accel_bias[2],mag_device_id,mag_bias[0],mag_bias[1],mag_bias[2]
26108532,3670026,0.012035863,-0.0007448952,-0.0025745458,3670026,0.04289841,0.0,-0.11577859,396809,0.0,0.0,0.0
26118462,3670026,0.012036451,-0.0007448105,-0.002578547,3670026,0.04290076,0.0,-0.115784466,396809,0.0,0.0,0.0
27111565,3670026,0.011829131,-0.0007865441,-0.0028890015,3670026,0.04271213,0.0,-0.11473431,396809,0.0,0.0,0.0
28109631,3670026,0.011794752,-0.0008001588,-0.003194113,3670026,0.042859275,-1.5536301e-06,-0.11468486,396809,0.0,0.0,0.0
29107699,3670026,0.011809406,-0.00079841865,-0.0033443156,3670026,0.042944193,-0.00049411895,-0.11508264,396809,0.0,0.0,0.0
30110733,3670026,0.011756608,-0.00080345455,-0.0030171347,3670026,0.042803016,-0.0031841276,-0.113977,396809,0.0,0.0,0.0
31108959,3670026,0.011785256,-0.00081481837,-0.0027805532,3670026,0.04309915,-0.012083377,-0.11340828,396809,0.0,0.0,0.0
32111836,3670026,0.011742205,-0.0008205668,-0.0024620234,3670026,0.043181427,-0.032568227,-0.113459796,396809,0.0,0.0,0.0
33114870,3670026,0.011738503,-0.00082491053,-0.0023702802,3670026,0.04276665,-0.050118096,-0.11355186,396809,0.0,0.0,0.0
34112939,3670026,0.011718768,-0.0008224431,-0.002368594,3670026,0.035778772,-0.06118506,-0.11407198,396809,0.0,0.0,0.0
35115974,3670026,0.011792377,-0.00082677393,-0.0023946164,3670026,0.03572521,-0.08559973,-0.11462763,396809,0.0,0.0,0.0
36114044,3670026,0.01174441,-0.0008299356,-0.0023644953,3670026,0.039073844,-0.12691844,-0.113384485,396809,0.0,0.0,0.0
37112113,3670026,0.011738101,-0.00084649504,-0.0023249588,3670026,0.043590516,-0.1273782,-0.11392417,396809,0.0,0.0,0.0
38110319,3670026,0.011749539,-0.00084905647,-0.0023072788,3670026,0.04320819,-0.12735187,-0.11668475,396809,0.0,0.0,0.0
39113219,3670026,0.011739616,-0.00088014826,-0.0023237814,3670026,0.044608276,-0.1243347,-0.11571491,396809,0.0,0.0,0.0
40116267,3670026,0.011725228,-0.0008828068,-0.0022952755,3670026,0.04456377,-0.12751332,-0.11489546,396809,0.0,0.0,0.0
41109360,3670026,0.011679128,-0.0008854442,-0.0022557508,3670026,0.044220503,-0.1288182,-0.11354639,396809,0.0,0.0,0.0
42112396,3670026,0.011546507,-0.0008823011,-0.002202115,3670026,0.043503355,-0.12789929,-0.11099398,396809,0.0,0.0,0.0
44108537,3670026,0.011456816,-0.00094799645,-0.002123406,3670026,0.042338073,-0.1263564,-0.11113315,396809,0.0,0.0,0.0
46109646,3670026,0.011328525,-0.00096708076,-0.0020171688,3670026,0.042104978,-0.122382656,-0.110677585,396809,0.0,0.0,0.0
47107718,3670026,0.011270958,-0.0009869486,-0.0019754902,3670026,0.042409454,-0.119750716,-0.10946244,396809,0.0,0.0,0.0
48110754,3670026,0.01117502,-0.0009969693,-0.0019479467,3670026,0.042287253,-0.117327034,-0.10820907,396809,0.0,0.0,0.0
49113880,3670026,0.0111139715,-0.000957801,-0.001959045,3670026,0.042673048,-0.11568347,-0.108060814,396809,0.0,0.0,0.0
50116828,3670026,0.011205874,-0.0008663729,-0.002019361,3670026,0.045306984,-0.11502487,-0.10789493,396809,0.0,0.0,0.0
51114947,3670026,0.011037682,-0.00089181896,-0.00202336,3670026,0.042360835,-0.11092884,-0.1074935,396809,0.0,0.0,0.0
52113131,3670026,0.01097482,-0.0008853389,-0.0020072213,3670026,0.041353002,-0.1090871,-0.10780049,396809,0.0,0.0,0.0
53111044,3670026,0.011015678,-0.00087441975,-0.0019674504,3670026,0.041744944,-0.108845025,-0.10873448,396809,0.0,0.0,0.0
54114082,3670026,0.010989691,-0.000862912,-0.0019243411,3670026,0.041590735,-0.1084287,-0.10796179,396809,0.0,0.0,0.0
55112154,3670026,0.01094919,-0.0008392841,-0.0018688842,3670026,0.04161306,-0.108028814,-0.1073441,396809,0.0,0.0,0.0
56110227,3670026,0.010946023,-0.0008576534,-0.0017876421,3670026,0.041488886,-0.10767237,-0.10807894,396809,0.0,0.0,0.0
57113265,3670026,0.011012527,-0.00082031655,-0.0017648238,3670026,0.04174377,-0.10891943,-0.10930304,396809,0.0,0.0,0.0
58111338,3670026,0.010907744,-0.00081697904,-0.0017603742,3670026,0.04192676,-0.10686543,-0.10669517,396809,0.0,0.0,0.0
59109571,3670026,0.010916919,-0.00081557914,-0.0017739251,3670026,0.04207688,-0.106950425,-0.10584565,396809,0.0,0.0,0.0
60117415,3670026,0.010909054,-0.00080832985,-0.001736804,3670026,0.04215806,-0.10683828,-0.10670012,396809,0.0,0.0,0.0
61115488,3670026,0.010848337,-0.0008098035,-0.0016846451,3670026,0.042161245,-0.10622676,-0.105992444,396809,0.0,0.0,0.0
62108628,3670026,0.010882412,-0.00081051013,-0.00164082,3670026,0.042208064,-0.10648846,-0.10745001,396809,0.0,0.0,0.0
63116720,3670026,0.010920826,-0.00079755514,-0.0015899219,3670026,0.04158873,-0.10697539,-0.10787836,396809,0.0,0.0,0.0
64119640,3670026,0.010888025,-0.0008350429,-0.0015460369,3670026,0.041205402,-0.1051341,-0.10853533,396809,0.0,0.0,0.0
65107782,3670026,0.0108930655,-0.00083190243,-0.0015133064,3670026,0.041414265,-0.10505686,-0.10819518,396809,0.0,0.0,0.0
66111009,3670026,0.010865008,-0.0008340217,-0.0015312695,3670026,0.041023623,-0.105469495,-0.10757854,396809,0.0,0.0,0.0
67113861,3670026,0.0108228065,-0.0008515258,-0.0015375864,3670026,0.040637754,-0.105338454,-0.10954975,396809,0.0,0.0,0.0
68116904,3670026,0.01092626,-0.0008215308,-0.001539323,3670026,0.041516103,-0.10607004,-0.10937947,396809,0.0,0.0,0.0
69110011,3670026,0.010853397,-0.00088159787,-0.0016116888,3670026,0.04068578,-0.1061334,-0.103325866,396809,0.0,0.0,0.0
70113079,3670026,0.010824822,-0.0008091074,-0.0015025152,3670026,0.04090372,-0.10497528,-0.10398471,396809,0.0,0.0,0.0
71111124,3670026,0.010858202,-0.00086068956,-0.0014584715,3670026,0.038868662,-0.10461281,-0.098833665,396809,0.0,0.0,0.0
72114168,3670026,0.010802851,-0.00082618115,-0.0014201632,3670026,0.038030658,-0.1030657,-0.09532852,396809,0.0,0.0,0.0
73112243,3670026,0.010768728,-0.0008011861,-0.0014003456,3670026,0.037530676,-0.10240838,-0.09800348,396809,0.0,0.0,0.0
74110315,3670026,0.010752198,-0.00081632484,-0.0014122728,3670026,0.037295446,-0.1023192,-0.10188181,396809,0.0,0.0,0.0
75113355,3670026,0.010792146,-0.0007733588,-0.0014515606,3670026,0.03729896,-0.10314914,-0.10534877,396809,0.0,0.0,0.0
76111430,3670026,0.010765672,-0.000769723,-0.0014782047,3670026,0.037067156,-0.10291316,-0.108181946,396809,0.0,0.0,0.0
77114507,3670026,0.010727254,-0.00076139614,-0.0015274654,3670026,0.036741663,-0.102678165,-0.1122928,396809,0.0,0.0,0.0
78112546,3670026,0.010800215,-0.0007624875,-0.0015799075,3670026,0.036904838,-0.10340335,-0.11351744,396809,0.0,0.0,0.0
79110631,3670026,0.010754485,-0.0007687262,-0.0015938289,3670026,0.036812764,-0.10302059,-0.11388861,396809,0.0,0.0,0.0
80108697,3670026,0.010744721,-0.0007425119,-0.0016203035,3670026,0.037071295,-0.10278872,-0.1106231,396809,0.0,0.0,0.0
81111739,3670026,0.010717476,-0.0007652184,-0.0016368319,3670026,0.037040018,-0.10162473,-0.10764266,396809,0.0,0.0,0.0
82109815,3670026,0.010770596,-0.0008114207,-0.0016597633,3670026,0.037045017,-0.100931324,-0.10664965,396809,0.0,0.0,0.0
83117822,3670026,0.01079896,-0.00083900924,-0.0016862865,3670026,0.03702131,-0.10052298,-0.105052896,396809,0.0,0.0,0.0
84110968,3670026,0.010764095,-0.00084371504,-0.0016442314,3670026,0.03670877,-0.099965796,-0.104358844,396809,0.0,0.0,0.0
85113975,3670026,0.010803192,-0.0008428159,-0.0016602251,3670026,0.036718074,-0.10031615,-0.10515061,396809,0.0,0.0,0.0
86112050,3670026,0.010836067,-0.0008634352,-0.0016703455,3670026,0.03661122,-0.10036465,-0.10530894,396809,0.0,0.0,0.0
87115092,3670026,0.010827246,-0.0008262639,-0.0016424161,3670026,0.036556397,-0.100493394,-0.10551383,396809,0.0,0.0,0.0
88113169,3670026,0.010782629,-0.0008666952,-0.0016503161,3670026,0.036263667,-0.100146785,-0.1064182,396809,0.0,0.0,0.0
89111245,3670026,0.010774694,-0.0008332173,-0.0016513446,3670026,0.036297083,-0.100057244,-0.10665045,396809,0.0,0.0,0.0
90109323,3670026,0.010813074,-0.00080183207,-0.0016817029,3670026,0.03680391,-0.09896362,-0.107738785,396809,0.0,0.0,0.0
91112480,3670026,0.010729686,-0.00075492216,-0.0017192301,3670026,0.035916954,-0.0966744,-0.10714374,396809,0.0,0.0,0.0
92115407,3670026,0.010713082,-0.0007849989,-0.0017144766,3670026,0.035730843,-0.09749908,-0.10697275,396809,0.0,0.0,0.0
93108520,3670026,0.010732258,-0.0007632911,-0.0017354259,3670026,0.03545766,-0.09769443,-0.10714695,396809,0.0,0.0,0.0
94111561,3670026,0.010663104,-0.00070220657,-0.0017429631,3670026,0.03506766,-0.096127994,-0.104535766,396809,0.0,0.0,0.0
95109673,3670026,0.010656638,-0.0006765922,-0.0017494924,3670026,0.03508642,-0.0959216,-0.103367545,396809,0.0,0.0,0.0
96107716,3670026,0.010669169,-0.0007180375,-0.001748242,3670026,0.03512382,-0.095958844,-0.1028482,396809,0.0,0.0,0.0
97110759,3670026,0.010644997,-0.0007049357,-0.0017352862,3670026,0.03405404,-0.095712066,-0.10528035,396809,0.0,0.0,0.0
98113875,3670026,0.010684925,-0.0006612067,-0.0017184329,3670026,0.03228449,-0.096738145,-0.10650389,396809,0.0,0.0,0.0
99116846,3670026,0.0107270675,-0.00064971496,-0.0017345755,3670026,0.03230137,-0.09714446,-0.10679112,396809,0.0,0.0,0.0
100114923,3670026,0.010692288,-0.0006934492,-0.0017494806,3670026,0.032324847,-0.09493008,-0.106142454,396809,0.0,0.0,0.0
101113001,3670026,0.010702268,-0.0006873658,-0.001764059,3670026,0.033516526,-0.094670326,-0.10712388,396809,0.0,0.0,0.0
102111081,3670026,0.010684672,-0.00070005475,-0.0017846634,3670026,0.03466279,-0.09480453,-0.10791448,396809,0.0,0.0,0.0
103114122,3670026,0.010687284,-0.000670241,-0.0017501707,3670026,0.03353582,-0.094670795,-0.10818262,396809,0.0,0.0,0.0
104112201,3670026,0.0106869135,-0.0006895949,-0.0017410647,3670026,0.034022126,-0.094876304,-0.108187035,396809,0.0,0.0,0.0
105110350,3670026,0.010705104,-0.00069706223,-0.001715256,3670026,0.03439838,-0.09507942,-0.10511154,396809,0.0,0.0,0.0
106118288,3670026,0.010722941,-0.0007067573,-0.001695543,3670026,0.03460031,-0.09478335,-0.10564578,396809,0.0,0.0,0.0
107111401,3670026,0.010717722,-0.0007028702,-0.0016881173,3670026,0.034563072,-0.09464189,-0.1028928,396809,0.0,0.0,0.0
108109480,3670026,0.010713012,-0.0007491521,-0.0016792023,3670026,0.0347937,-0.09433413,-0.101979844,396809,0.0,0.0,0.0
109112524,3670026,0.01070136,-0.0007082889,-0.001660932,3670026,0.03485668,-0.09441103,-0.10177319,396809,0.0,0.0,0.0
110110603,3670026,0.010690042,-0.00069883734,-0.0016455529,3670026,0.035381254,-0.094565354,-0.101655446,396809,0.0,0.0,0.0
111108682,3670026,0.010705977,-0.00068885845,-0.0016443991,3670026,0.03553198,-0.094713815,-0.10170854,396809,0.0,0.0,0.0
112111869,3670026,0.01068075,-0.0007030093,-0.0016349633,3670026,0.035358753,-0.09427351,-0.10148506,396809,0.0,0.0,0.0
113114770,3670026,0.010684456,-0.00067538995,-0.0016522651,3670026,0.035153653,-0.09462335,-0.10179953,396809,0.0,0.0,0.0
114112849,3670026,0.010728333,-0.0006797369,-0.0016529323,3670026,0.03514529,-0.09495653,-0.105563134,396809,0.0,0.0,0.0
115110930,3670026,0.010691279,-0.0006477888,-0.0016608719,3670026,0.0349551,-0.0949892,-0.108461455,396809,0.0,0.0,0.0
116118983,3670026,0.010746235,-0.00063760625,-0.0016619202,3670026,0.034957323,-0.09510425,-0.109870195,396809,0.0,0.0,0.0
117107094,3670026,0.010788145,-0.00065238535,-0.001663635,3670026,0.035275258,-0.09485807,-0.10518417,396809,0.0,0.0,0.0
118110133,3670026,0.01074638,-0.00065974746,-0.001657933,3670026,0.035541456,-0.09509135,-0.10238472,396809,0.0,0.0,0.0
119113291,3670026,0.010649284,-0.0006095373,-0.0016387815,3670026,0.035167854,-0.09476986,-0.10321052,396809,0.0,0.0,0.0
120111256,3670026,0.010645235,-0.0006667832,-0.0016392871,3670026,0.035366435,-0.09499245,-0.1042997,396809,0.0,0.0,0.0
121114302,3670026,0.01064053,-0.00068604056,-0.0016380224,3670026,0.035390127,-0.095172465,-0.10716779,396809,0.0,0.0,0.0
122112383,3670026,0.010618607,-0.00073216145,-0.0016461024,3670026,0.035110675,-0.09487044,-0.111338,396809,0.0,0.0,0.0
123110461,3670026,0.0106577445,-0.00073478004,-0.0016550642,3670026,0.03504298,-0.09493344,-0.11313562,396809,0.0,0.0,0.0
124113507,3670026,0.010728854,-0.0007323113,-0.0016762237,3670026,0.034701303,-0.09515854,-0.11416495,396809,0.0,0.0,0.0
125111586,3670026,0.010694929,-0.00071600504,-0.0016792087,3670026,0.034641508,-0.09540725,-0.111389734,396809,0.0,0.0,0.0
126109778,3670026,0.010719931,-0.0006989385,-0.0016819028,3670026,0.034669742,-0.096035495,-0.10941843,396809,0.0,0.0,0.0
127112712,3670026,0.01068108,-0.0007069041,-0.0016852905,3670026,0.034559492,-0.0953986,-0.105000705,396809,0.0,0.0,0.0
128115758,3670026,0.010703792,-0.00067288114,-0.0016920752,3670026,0.034614336,-0.095491104,-0.10385939,396809,0.0,0.0,0.0
129108873,3670026,0.01073278,-0.0006529623,-0.0016910679,3670026,0.03469745,-0.09579358,-0.104933456,396809,0.0,0.0,0.0
130111921,3670026,0.010654642,-0.0006637957,-0.0016805184,3670026,0.03453968,-0.0953038,-0.10216012,396809,0.0,0.0,0.0
131110000,3670026,0.010702315,-0.0006470089,-0.0016765146,3670026,0.03374418,-0.093530886,-0.10317767,396809,0.0,0.0,0.0
132108080,3670026,0.010773205,-0.0006474375,-0.0016183489,3670026,0.029419178,-0.097024724,-0.10356315,396809,0.0,0.0,0.0
133111265,3670026,0.010678143,-0.00063734443,-0.0016073209,3670026,0.028167676,-0.096721135,-0.10399135,396809,0.0,0.0,0.0
134114173,3670026,0.010654214,-0.00065070606,-0.0016298953,3670026,0.028357953,-0.09856827,-0.10404527,396809,0.0,0.0,0.0
135112254,3670026,0.0107602235,-0.0006206214,-0.0016077241,3670026,0.028419185,-0.09856299,-0.10890143,396809,0.0,0.0,0.0
136115300,3670026,0.010699882,-0.000671885,-0.0016160037,3670026,0.02849048,-0.098358616,-0.1101631,396809,0.0,0.0,0.0
137113380,3670026,0.010649779,-0.00069491606,-0.0016009187,3670026,0.029166238,-0.09490412,-0.11103347,396809,0.0,0.0,0.0
138111461,3670026,0.010595756,-0.00067340577,-0.0015867694,3670026,0.030177444,-0.09574505,-0.110924736,396809,0.0,0.0,0.0
139114508,3670026,0.010578058,-0.00065115053,-0.0015781883,3670026,0.030062445,-0.09298906,-0.11059607,396809,0.0,0.0,0.0
140112739,3670026,0.010560922,-0.0006631652,-0.001623239,3670026,0.029419793,-0.09314498,-0.10974773,396809,0.0,0.0,0.0
141110670,3670026,0.010595362,-0.00067002425,-0.0016657553,3670026,0.028472949,-0.09290648,-0.10731985,396809,0.0,0.0,0.0
142113719,3670026,0.010635185,-0.00063979207,-0.001702759,3670026,0.027546516,-0.09143872,-0.104921035,396809,0.0,0.0,0.0
143111800,3670026,0.010616054,-0.00061304,-0.0016646585,3670026,0.026378568,-0.094719075,-0.1057198,396809,0.0,0.0,0.0
144109880,3670026,0.0106491055,-0.00065344875,-0.0016194936,3670026,0.022733899,-0.09970694,-0.10346108,396809,0.0,0.0,0.0
145107961,3670026,0.01068883,-0.00059835165,-0.0016302263,3670026,0.023850888,-0.09086036,-0.10185187,396809,0.0,0.0,0.0
146111008,3670026,0.010640587,-0.0006145044,-0.0016386921,3670026,0.024239818,-0.090935186,-0.10153073,396809,0.0,0.0,0.0
147109242,3670026,0.010659077,-0.000631512,-0.0016509953,3670026,0.02495652,-0.08267005,-0.10162461,396809,0.0,0.0,0.0
148117102,3670026,0.010670605,-0.0006135167,-0.0016863039,3670026,0.026429899,-0.08364721,-0.10319895,396809,0.0,0.0,0.0
149115185,3670026,0.010645187,-0.00059954915,-0.0016850639,3670026,0.02660502,-0.085693814,-0.104243,396809,0.0,0.0,0.0
150113266,3670026,0.010611933,-0.00060208543,-0.001680355,3670026,0.026815267,-0.08348436,-0.10511099,396809,0.0,0.0,0.0
151111388,3670026,0.010611316,-0.0006074119,-0.0016751944,3670026,0.02697529,-0.08365719,-0.10243612,396809,0.0,0.0,0.0
152114396,3670026,0.010649449,-0.00052716734,-0.0016519057,3670026,0.02652441,-0.08241106,-0.10276498,396809,0.0,0.0,0.0
153117443,3670026,0.010700443,-0.0005487441,-0.0016266186,3670026,0.027896676,-0.08254029,-0.10128789,396809,0.0,0.0,0.0
154110734,3670026,0.010668902,-0.0005556119,-0.0015769241,3670026,0.029216869,-0.0817102,-0.10258051,396809,0.0,0.0,0.0
155113608,3670026,0.010604574,-0.000563613,-0.0016067254,3670026,0.02800545,-0.081512876,-0.102228336,396809,0.0,0.0,0.0
156116655,3670026,0.01058109,-0.00058267487,-0.0016111883,3670026,0.027488494,-0.0811003,-0.10292788,396809,0.0,0.0,0.0
157114767,3670026,0.0106246285,-0.00059527246,-0.0015708081,3670026,0.028880091,-0.0818855,-0.10356461,396809,0.0,0.0,0.0
158112839,3670026,0.010591549,-0.0005942168,-0.0014733956,3670026,0.026395401,-0.09023281,-0.100473315,396809,0.0,0.0,0.0
159110904,3670026,0.010644265,-0.0006200855,-0.001394418,3670026,0.025328366,-0.080040075,-0.096908726,396809,0.0,0.0,0.0
160108985,3670026,0.010599958,-0.0006113168,-0.0013460825,3670026,0.024702616,-0.0744584,-0.097149365,396809,0.0,0.0,0.0
161112039,3670026,0.010555015,-0.00054836296,-0.001273372,3670026,0.023264,-0.074722245,-0.09942481,396809,0.0,0.0,0.0
162110116,3670026,0.010612079,-0.00050136284,-0.0012573419,3670026,0.023565443,-0.074507624,-0.099007644,396809,0.0,0.0,0.0
163108201,3670026,0.010593728,-0.00050463533,-0.0012357619,3670026,0.024566792,-0.074688114,-0.097002156,396809,0.0,0.0,0.0
164111247,3670026,0.010557976,-0.000517245,-0.0012389986,3670026,0.024352714,-0.0747026,-0.09806151,396809,0.0,0.0,0.0
165119364,3670026,0.010539539,-0.0005012405,-0.0012388515,3670026,0.024594031,-0.07507053,-0.09635194,396809,0.0,0.0,0.0
166107413,3670026,0.010588697,-0.0004696101,-0.0012590052,3670026,0.023690559,-0.07491516,-0.09934774,396809,0.0,0.0,0.0
167115428,3670026,0.010524864,-0.00048195015,-0.0013005872,3670026,0.021269808,-0.074155204,-0.109222606,396809,0.0,0.0,0.0
168108739,3670026,0.010687005,-0.00048078032,-0.0013554528,3670026,0.019573709,-0.074034095,-0.1143534,396809,0.0,0.0,0.0
169116591,3670026,0.010601288,-0.00052820146,-0.0013968812,3670026,0.018796358,-0.07374465,-0.11193096,396809,0.0,0.0,0.0
170114643,3670026,0.010569712,-0.00054269057,-0.0014426763,3670026,0.017555919,-0.073484525,-0.110710144,396809,0.0,0.0,0.0
171112726,3670026,0.010540082,-0.0005978998,-0.0014742321,3670026,0.017440764,-0.07353433,-0.10717043,396809,0.0,0.0,0.0
172110839,3670026,0.010552302,-0.0006304738,-0.0015053094,3670026,0.01926249,-0.068149395,-0.1035291,396809,0.0,0.0,0.0
173108892,3670026,0.01052665,-0.00058358675,-0.0015999603,3670026,0.02331506,-0.07209491,-0.097508766,396809,0.0,0.0,0.0
174111942,3670026,0.010498587,-0.0005155036,-0.0015733992,3670026,0.022618948,-0.07161399,-0.09624531,396809,0.0,0.0,0.0
175110025,3670026,0.010520771,-0.00051662687,-0.0015953442,3670026,0.022286797,-0.070187815,-0.101163566,396809,0.0,0.0,0.0
176113073,3670026,0.0105406195,-0.00048322562,-0.0016035486,3670026,0.021498034,-0.06946927,-0.10672254,396809,0.0,0.0,0.0
177111157,3670026,0.010556011,-0.00043452898,-0.0015932579,3670026,0.021257434,-0.069899544,-0.11173414,396809,0.0,0.0,0.0
178109284,3670026,0.010583127,-0.00043575806,-0.0015745538,3670026,0.021791633,-0.06969323,-0.1114505,396809,0.0,0.0,0.0
179112338,3670026,0.01052096,-0.00047083007,-0.0015762676,3670026,0.022441614,-0.06906379,-0.104489185,396809,0.0,0.0,0.0
180110373,3670026,0.010524037,-0.00050349545,-0.0015815514,3670026,0.022479484,-0.069315374,-0.10578735,396809,0.0,0.0,0.0
181113429,3670026,0.010431651,-0.00047446042,-0.0016418935,3670026,0.0265765,-0.067070216,-0.106400296,396809,0.0,0.0,0.0
182111507,3670026,0.010394849,-0.0004700068,-0.0017169128,3670026,0.029632457,-0.04567884,-0.11079599,396809,0.0,0.0,0.0
183119521,3670026,0.010435213,-0.00046870037,-0.001781027,3670026,0.03158776,-0.052757565,-0.11470684,396809,0.0,0.0,0.0
184107673,3670026,0.010449125,-0.00046446352,-0.001873156,3670026,0.03422015,-0.05580723,-0.116291285,396809,0.0,0.0,0.0
185115689,3670026,0.010419799,-0.00044185316,-0.0019244626,3670026,0.035552155,-0.05889018,-0.116033114,396809,0.0,0.0,0.0
186113856,3670026,0.010410772,-0.0004715472,-0.0019794349,3670026,0.034813706,-0.0601345,-0.11567416,396809,0.0,0.0,0.0
187116821,3670026,0.010471375,-0.00050009816,-0.0020475956,3670026,0.033324566,-0.061236583,-0.11462829,396809,0.0,0.0,0.0
188114906,3670026,0.010535107,-0.00049989874,-0.0019791436,3670026,0.033104684,-0.072537534,-0.11187179,396809,0.0,0.0,0.0
189113058,3670026,0.010479881,-0.00054947136,-0.0020821146,3670026,0.03557435,-0.071220584,-0.10873992,396809,0.0,0.0,0.0
190116047,3670026,0.010527579,-0.00052914716,-0.0021545587,3670026,0.035858937,-0.076249436,-0.10762078,396809,0.0,0.0,0.0
191109158,3670026,0.010479071,-0.00051359687,-0.0021875554,3670026,0.035140373,-0.07772067,-0.10550224,396809,0.0,0.0,0.0
192117170,3670026,0.010443932,-0.00051270024,-0.002210498,3670026,0.033651974,-0.07783373,-0.10329747,396809,0.0,0.0,0.0
193110405,3670026,0.01045912,-0.0005179337,-0.002237151,3670026,0.032700427,-0.07843216,-0.1005235,396809,0.0,0.0,0.0
194113380,3670026,0.0104662655,-0.000509439,-0.0022616824,3670026,0.031802483,-0.07845086,-0.10032658,396809,0.0,0.0,0.0
195111421,3670026,0.010459844,-0.00052257074,-0.002277715,3670026,0.031299535,-0.07758594,-0.10133777,396809,0.0,0.0,0.0
196109505,3670026,0.010505264,-0.0005238257,-0.0022981418,3670026,0.030880626,-0.07759029,-0.10144697,396809,0.0,0.0,0.0
197112554,3670026,0.0104733715,-0.00051772845,-0.0023001314,3670026,0.030367125,-0.077177584,-0.10067373,396809,0.0,0.0,0.0
198110639,3670026,0.010503014,-0.00052796846,-0.002321139,3670026,0.030319698,-0.07721932,-0.101198606,396809,0.0,0.0,0.0
199108721,3670026,0.010529082,-0.00053286337,-0.0023522952,3670026,0.029750528,-0.07715531,-0.10017173,396809,0.0,0.0,0.0
200111914,3670026,0.010478605,-0.0005317803,-0.00236291,3670026,0.029174045,-0.07663365,-0.09943708,396809,0.0,0.0,0.0
201109854,3670026,0.010508278,-0.00054661586,-0.0023843732,3670026,0.028990794,-0.076767944,-0.09879863,396809,0.0,0.0,0.0
202117868,3670026,0.010552252,-0.0005379299,-0.0025097704,3670026,0.03042336,-0.08587711,-0.09910517,396809,0.0,0.0,0.0
203115954,3670026,0.010551116,-0.00055158284,-0.0026095745,3670026,0.02734856,-0.104521014,-0.09714209,396809,0.0,0.0,0.0
204119001,3670026,0.01058109,-0.00048586391,-0.0028196587,3670026,0.03102224,-0.10676494,-0.0978076,396809,0.0,0.0,0.0
205112120,3670026,0.010569971,-0.00042495696,-0.003081845,3670026,0.030233141,-0.111697294,-0.09885208,396809,0.0,0.0,0.0
206110205,3670026,0.0104051,-0.0002849574,-0.0034314878,3670026,0.036597855,-0.086271286,-0.10127205,396809,0.0,0.0,0.0
207113393,3670026,0.010249467,-0.00016233245,-0.0035439692,3670026,0.03270986,-0.042377234,-0.10374539,396809,0.0,0.0,0.0
208116301,3670026,0.010355786,-7.641896e-05,-0.0037310584,3670026,0.031514365,-0.03147574,-0.10369441,396809,0.0,0.0,0.0
209109420,3670026,0.010350995,-1.2983422e-05,-0.0038840887,3670026,0.011047372,-0.05239672,-0.104606524,396809,0.0,0.0,0.0
210112469,3670026,0.010346402,1.3830552e-05,-0.004086121,3670026,0.0030997067,-0.06965247,-0.10254023,396809,0.0,0.0,0.0
211110595,3670026,0.0103813,4.778392e-05,-0.004266016,3670026,-0.0019691132,-0.077172786,-0.10466254,396809,0.0,0.0,0.0
212113602,3670026,0.0103301415,1.1367419e-05,-0.004372833,3670026,-0.0013120825,-0.081950516,-0.10554714,396809,0.0,0.0,0.0
213111687,3670026,0.0103086075,-1.641897e-05,-0.004456298,3670026,-0.0013432016,-0.08121069,-0.105598174,396809,0.0,0.0,0.0
214109889,3670026,0.01035977,-0.00017083544,-0.0045194672,3670026,-0.00043923425,-0.07735973,-0.10544446,396809,0.0,0.0,0.0
215112821,3670026,0.010308318,-0.00022752189,-0.0045388923,3670026,0.00035058198,-0.075797044,-0.105177075,396809,0.0,0.0,0.0
216115905,3670026,0.010400417,-0.0003103127,-0.004626355,3670026,-0.00043768546,-0.07387059,-0.1042317,396809,0.0,0.0,0.0
217113952,3670026,0.010468803,-0.00040267812,-0.0046925666,3670026,-0.0012112553,-0.07190542,-0.102341495,396809,0.0,0.0,0.0
218117038,3670026,0.010441097,-0.0005127391,-0.0047463696,3670026,-0.0008634622,-0.06973181,-0.10133832,396809,0.0,0.0,0.0
219110118,3670026,0.010414842,-0.0006237414,-0.004760789,3670026,-0.0012194958,-0.06759505,-0.10044572,396809,0.0,0.0,0.0
220118133,3670026,0.010486667,-0.00059352344,-0.0047889636,3670026,-0.0018839153,-0.06813921,-0.101856574,396809,0.0,0.0,0.0
221111392,3670026,0.010472023,-0.0004864647,-0.004749351,3670026,0.0038524175,-0.07220061,-0.10241451,396809,0.0,0.0,0.0
222109334,3670026,0.010547606,-0.00019109329,-0.004555913,3670026,0.022051036,-0.084839046,-0.10073817,396809,0.0,0.0,0.0
223117350,3670026,0.010606701,2.0099604e-05,-0.0043706396,3670026,0.03356269,-0.09557484,-0.09744693,396809,0.0,0.0,0.0
224115433,3670026,0.010575837,0.00016188927,-0.0041922485,3670026,0.03327871,-0.09727131,-0.097220816,396809,0.0,0.0,0.0
225113562,3670026,0.010650848,0.0002741553,-0.004093357,3670026,0.030912897,-0.10125057,-0.09816821,396809,0.0,0.0,0.0
226116566,3670026,0.01080522,0.00036139597,-0.004206302,3670026,0.018372674,-0.109878734,-0.100626126,396809,0.0,0.0,0.0
227114651,3670026,0.010795719,0.00043348476,-0.0039904676,3670026,0.0018545368,-0.12949139,-0.09802849,396809,0.0,0.0,0.0
228112898,3670026,0.010675935,0.00052064814,-0.003895153,3670026,-0.0063445196,-0.13310562,-0.098456874,396809,0.0,0.0,0.0
229110865,3670026,0.010587409,0.0005762238,-0.0037882791,3670026,-0.013463593,-0.1458973,-0.09629934,396809,0.0,0.0,0.0
230113867,3670026,0.010734371,0.00054774346,-0.003611311,3670026,-0.023852652,-0.16551524,-0.09464566,396809,0.0,0.0,0.0
231111953,3670026,0.010651354,0.00064976636,-0.0033902912,3670026,-0.028525291,-0.17845449,-0.089742765,396809,0.0,0.0,0.0
232110080,3670026,0.010885901,0.00075337186,-0.0032252965,3670026,-0.035844717,-0.18927236,-0.09720598,396809,0.0,0.0,0.0
233113085,3670026,0.011004829,0.0006541283,-0.0033084855,3670026,-0.040724557,-0.19677824,-0.09978866,396809,0.0,0.0,0.0
234111170,3670026,0.010891156,0.0006271579,-0.0032554388,3670026,-0.045786627,-0.20798369,-0.09676879,396809,0.0,0.0,0.0
235119197,3670026,0.010902986,0.0006218791,-0.0031317954,3670026,-0.047985204,-0.21537349,-0.09610596,396809,0.0,0.0,0.0
236112303,3670026,0.01082255,0.000539898,-0.0032131895,3670026,-0.051624637,-0.22055887,-0.0976007,396809,0.0,0.0,0.0
237110403,3670026,0.010843696,0.000515355,-0.0031109035,3670026,-0.055542905,-0.22843891,-0.0986289,396809,0.0,0.0,0.0
238118401,3670026,0.010810651,0.000477789,-0.0030427,3670026,-0.05811573,-0.23392619,-0.09530575,396809,0.0,0.0,0.0
239111525,3670026,0.010790336,0.0004101254,-0.0029118867,3670026,-0.0596319,-0.23513578,-0.09235313,396809,0.0,0.0,0.0
240109603,3670026,0.010767901,0.00028329797,-0.0029130564,3670026,-0.059559748,-0.23605946,-0.0928841,396809,0.0,0.0,0.0
241112653,3670026,0.010652132,0.000113743525,-0.0028026802,3670026,-0.059136078,-0.23899837,-0.09474566,396809,0.0,0.0,0.0
242110928,3670026,0.010679097,1.4224603e-05,-0.0026163883,3670026,-0.060283437,-0.23895463,-0.09472074,396809,0.0,0.0,0.0
243113792,3670026,0.010727963,-5.561192e-05,-0.0025522688,3670026,-0.061311282,-0.24119033,-0.09774573,396809,0.0,0.0,0.0
247111132,3670026,0.010839651,-0.00024781434,-0.0023608683,3670026,-0.06296055,-0.25157213,-0.11226546,396809,0.0,0.0,0.0
251113354,3670026,0.0105514545,-0.00039109142,-0.0022344016,3670026,-0.06426501,-0.2561897,-0.102438524,396809,0.0,0.0,0.0
252116403,3670026,0.010546355,-0.00036534786,-0.0022001811,3670026,-0.06429732,-0.25453517,-0.100152574,396809,0.0,0.0,0.0
253119514,3670026,0.010613838,-0.00037893685,-0.0022119598,3670026,-0.06477345,-0.2561956,-0.09825995,396809,0.0,0.0,0.0
254107605,3670026,0.010608763,-0.00033535162,-0.002182981,3670026,-0.06501463,-0.25565255,-0.09779983,396809,0.0,0.0,0.0
255110654,3670026,0.010585571,-0.0003925857,-0.002180251,3670026,-0.06493164,-0.25501102,-0.09913345,396809,0.0,0.0,0.0
256118669,3670026,0.010600449,-0.000473027,-0.0021649706,3670026,-0.06535227,-0.25539005,-0.09850627,396809,0.0,0.0,0.0
257111790,3670026,0.010552253,-0.00041510342,-0.0021319997,3670026,-0.065268755,-0.25421935,-0.09852963,396809,0.0,0.0,0.0
258109871,3670026,0.010590856,-0.00042949215,-0.0021385746,3670026,-0.06553706,-0.25512823,-0.0960848,396809,0.0,0.0,0.0
259117886,3670026,0.010510627,-0.00042989026,-0.002107776,3670026,-0.06580339,-0.25495222,-0.09713567,396809,0.0,0.0,0.0
260111045,3670026,0.010606083,-0.0005379866,-0.0020716137,3670026,-0.06643167,-0.25426212,-0.097509965,396809,0.0,0.0,0.0
261114056,3670026,0.010602575,-0.00060629635,-0.0021971294,3670026,-0.067567155,-0.2556295,-0.10247998,396809,0.0,0.0,0.0
262117102,3670026,0.010509208,-0.00064121134,-0.0020332893,3670026,-0.06877185,-0.2606117,-0.10132133,396809,0.0,0.0,0.0
263115186,3670026,0.010542471,-0.000586634,-0.0019110958,3670026,-0.06858031,-0.26333004,-0.101968475,396809,0.0,0.0,0.0
264113271,3670026,0.010616587,-0.00064455566,-0.0018892784,3670026,-0.06906734,-0.2647345,-0.10019759,396809,0.0,0.0,0.0
265111355,3670026,0.010653452,-0.0006244819,-0.0019185166,3670026,-0.070459306,-0.2709245,-0.101178885,396809,0.0,0.0,0.0
266114404,3670026,0.010595433,-0.0006123179,-0.0018825936,3670026,-0.07062165,-0.2712875,-0.10083537,396809,0.0,0.0,0.0
267112548,3670026,0.010582383,-0.00058530667,-0.0018595225,3670026,-0.07102251,-0.2710361,-0.10506737,396809,0.0,0.0,0.0
268115537,3670026,0.010544522,-0.0005638144,-0.001845051,3670026,-0.071472526,-0.271785,-0.112894334,396809,0.0,0.0,0.0
269113621,3670026,0.010611384,-0.00050980895,-0.0018691275,3670026,-0.071621135,-0.2724742,-0.1136441,396809,0.0,0.0,0.0
270111706,3670026,0.010553157,-0.0004979236,-0.0018229261,3670026,-0.071964435,-0.27170867,-0.11726064,396809,0.0,0.0,0.0
271109789,3670026,0.01052139,-0.0005959654,-0.0017627075,3670026,-0.072527826,-0.27164844,-0.11184254,396809,0.0,0.0,0.0
272117804,3670026,0.010454867,-0.0006613747,-0.0016972176,3670026,-0.073169366,-0.27171558,-0.109471,396809,0.0,0.0,0.0
273110963,3670026,0.010408486,-0.00064729067,-0.0016552648,3670026,-0.073309205,-0.27094764,-0.10785446,396809,0.0,0.0,0.0
274114102,3670026,0.010397021,-0.0005802373,-0.0015498532,3670026,-0.07400926,-0.2700908,-0.10198545,396809,0.0,0.0,0.0
275112055,3670026,0.010488906,-0.00053925934,-0.0015209344,3670026,-0.07480627,-0.2717766,-0.09563644,396809,0.0,0.0,0.0
276110139,3670026,0.010527191,-0.00051038276,-0.0014593281,3670026,-0.075078115,-0.27103853,-0.092701234,396809,0.0,0.0,0.0
277118156,3670026,0.010556984,-0.00048773226,-0.0014034164,3670026,-0.07555086,-0.2713411,-0.09138162,396809,0.0,0.0,0.0
278111273,3670026,0.010545562,-0.00050617784,-0.0013785661,3670026,-0.07544478,-0.2703835,-0.0864939,396809,0.0,0.0,0.0
279114322,3670026,0.010500748,-0.000478764,-0.0013185521,3670026,-0.07503732,-0.27043617,-0.086516805,396809,0.0,0.0,0.0
280117375,3670026,0.010490812,-0.00053037086,-0.001234315,3670026,-0.07500266,-0.27262846,-0.08654595,396809,0.0,0.0,0.0
281110612,3670026,0.010472048,-0.00051218335,-0.0010931693,3670026,-0.073734134,-0.2709193,-0.0893997,396809,0.0,0.0,0.0
282113539,3670026,0.010494783,-0.00053478446,-0.0010537795,3670026,-0.07390778,-0.27063996,-0.08939599,396809,0.0,0.0,0.0
283116594,3670026,0.010594574,-0.000591614,-0.0010529766,3670026,-0.074318804,-0.27193376,-0.08738258,396809,0.0,0.0,0.0
284114673,3670026,0.010556003,-0.00061490573,-0.0010882765,3670026,-0.07353691,-0.27058622,-0.08646362,396809,0.0,0.0,0.0
285112781,3670026,0.010479338,-0.0006147585,-0.0011155758,3670026,-0.074351095,-0.27163702,-0.08973501,396809,0.0,0.0,0.0
286110841,3670026,0.010583073,-0.00057802134,-0.0010948044,3670026,-0.07476469,-0.273173,-0.0913252,396809,0.0,0.0,0.0
287113897,3670026,0.010626112,-0.00065177144,-0.0012260873,3670026,-0.07563577,-0.27294785,-0.092110366,396809,0.0,0.0,0.0
288112080,3670026,0.010568613,-0.00063544075,-0.0012735314,3670026,-0.07618606,-0.27348092,-0.09351391,396809,0.0,0.0,0.0
289110058,3670026,0.010557153,-0.000601863,-0.0013263378,3670026,-0.07636824,-0.27406034,-0.09418965,396809,0.0,0.0,0.0
290113107,3670026,0.010523839,-0.0005898225,-0.0013463077,3670026,-0.07616672,-0.27439058,-0.094746985,396809,0.0,0.0,0.0
291111197,3670026,0.010497052,-0.00056098367,-0.0013685763,3670026,-0.07578546,-0.2738594,-0.09445661,396809,0.0,0.0,0.0
292109310,3670026,0.010452408,-0.00053002185,-0.001411095,3670026,-0.07543097,-0.27450117,-0.09531838,396809,0.0,0.0,0.0
293112325,3670026,0.010446262,-0.00054514327,-0.0014183886,3670026,-0.07536667,-0.2745169,-0.09551628,396809,0.0,0.0,0.0
294115374,3670026,0.010310845,-0.00060942705,-0.0014588038,3670026,-0.07493899,-0.27292645,-0.09554345,396809,0.0,0.0,0.0
295118574,3670026,0.010290313,-0.00057473325,-0.001507617,3670026,-0.07497527,-0.27056158,-0.093581244,396809,0.0,0.0,0.0
296111542,3670026,0.0102817565,-0.00053108775,-0.0015141219,3670026,-0.074718356,-0.26786047,-0.09238461,396809,0.0,0.0,0.0
297114592,3670026,0.010324932,-0.0005586895,-0.0015306988,3670026,-0.07471836,-0.26883724,-0.09266313,396809,0.0,0.0,0.0
298117642,3670026,0.010430966,-0.00057025877,-0.0015497659,3670026,-0.07460658,-0.269092,-0.09316191,396809,0.0,0.0,0.0
299110764,3670026,0.010433035,-0.0005276737,-0.0015686455,3670026,-0.07395424,-0.26762494,-0.09501379,396809,0.0,0.0,0.0
300113810,3670026,0.010518263,-0.0005397306,-0.0015049517,3670026,-0.073887564,-0.26573554,-0.09450808,396809,0.0,0.0,0.0
301111909,3670026,0.010583328,-0.0006033964,-0.001666907,3670026,-0.07493172,-0.26411307,-0.09345618,396809,0.0,0.0,0.0
302110108,3670026,0.010457952,-0.0006329506,-0.0016775016,3670026,-0.07517397,-0.26314104,-0.0946554,396809,0.0,0.0,0.0
303113027,3670026,0.010472231,-0.00063837826,-0.0017048486,3670026,-0.07457379,-0.2618547,-0.09750565,396809,0.0,0.0,0.0
304111112,3670026,0.010476224,-0.0006310089,-0.001716128,3670026,-0.07463274,-0.2626688,-0.09583725,396809,0.0,0.0,0.0
305114161,3670026,0.010493786,-0.00065351377,-0.0017054769,3670026,-0.074765936,-0.2626728,-0.09350147,396809,0.0,0.0,0.0
306112247,3670026,0.010530928,-0.0006854944,-0.0017035208,3670026,-0.07466512,-0.26209623,-0.09066354,396809,0.0,0.0,0.0
307110329,3670026,0.010583437,-0.00070240564,-0.0017073656,3670026,-0.07487903,-0.26258168,-0.090710595,396809,0.0,0.0,0.0
308113380,3670026,0.010484277,-0.0007628256,-0.0019189394,3670026,-0.076954536,-0.26331595,-0.09322473,396809,0.0,0.0,0.0
309111620,3670026,0.010284357,-0.0007009349,-0.001802148,3670026,-0.077001564,-0.26124695,-0.09704852,396809,0.0,0.0,0.0
310109547,3670026,0.010267526,-0.0005891884,-0.0017895479,3670026,-0.07725391,-0.26151574,-0.09961344,396809,0.0,0.0,0.0
311112598,3670026,0.010349283,-0.00053517584,-0.0017570925,3670026,-0.077232055,-0.262083,-0.09526208,396809,0.0,0.0,0.0
312110681,3670026,0.010377189,-0.00055686815,-0.0017448801,3670026,-0.07712902,-0.26135305,-0.09285706,396809,0.0,0.0,0.0
313108766,3670026,0.010515585,-0.00055793684,-0.0017101144,3670026,-0.07786579,-0.26044634,-0.094009615,396809,0.0,0.0,0.0
314111815,3670026,0.0105174715,-0.0005988544,-0.0017237591,3670026,-0.07731413,-0.25941473,-0.092687644,396809,0.0,0.0,0.0
315114865,3670026,0.010591914,-0.00065265136,-0.0016828582,3670026,-0.078067854,-0.2594873,-0.095231645,396809,0.0,0.0,0.0
316117919,3670026,0.0105866315,-0.0006767054,-0.0017015282,3670026,-0.07802711,-0.26010382,-0.097090766,396809,0.0,0.0,0.0
317111033,3670026,0.010496004,-0.0007085988,-0.0016835043,3670026,-0.07761406,-0.25882086,-0.09534175,396809,0.0,0.0,0.0
318114083,3670026,0.010481515,-0.00069364684,-0.0016723034,3670026,-0.07764848,-0.2587037,-0.09428202,396809,0.0,0.0,0.0
319117134,3670026,0.010386969,-0.0007140564,-0.0017528172,3670026,-0.07847156,-0.2592956,-0.09304354,396809,0.0,0.0,0.0
320110309,3670026,0.0102012055,-0.0006736696,-0.0017384762,3670026,-0.07915426,-0.25777116,-0.09489013,396809,0.0,0.0,0.0
321113300,3670026,0.010063474,-0.0006685341,-0.0017495896,3670026,-0.079326555,-0.25575754,-0.0966296,396809,0.0,0.0,0.0
322111432,3670026,0.010091606,-0.00067299866,-0.0017678852,3670026,-0.079799786,-0.25664872,-0.09701102,396809,0.0,0.0,0.0
323109651,3670026,0.010061583,-0.00067069934,-0.0017615228,3670026,-0.07951244,-0.2553953,-0.095169514,396809,0.0,0.0,0.0
324112518,3670026,0.010085974,-0.0006599719,-0.0017504093,3670026,-0.07954799,-0.25449693,-0.09404402,396809,0.0,0.0,0.0
325110602,3670026,0.01020783,-0.00068063225,-0.0017360321,3670026,-0.080093205,-0.25475103,-0.09158511,396809,0.0,0.0,0.0
326113652,3670026,0.0103353355,-0.0006062685,-0.001627188,3670026,-0.08015291,-0.25397068,-0.09143504,396809,0.0,0.0,0.0
327111755,3670026,0.010456259,-0.0006982426,-0.0015314006,3670026,-0.08065543,-0.25042924,-0.087051,396809,0.0,0.0,0.0
328109821,3670026,0.010456925,-0.0006724319,-0.0017243667,3670026,-0.08196785,-0.24815252,-0.08779815,396809,0.0,0.0,0.0
329112870,3670026,0.010407456,-0.00064798055,-0.001728094,3670026,-0.082029395,-0.24732739,-0.08961959,396809,0.0,0.0,0.0
330110998,3670026,0.010343279,-0.00062266644,-0.0017338993,3670026,-0.0818648,-0.24603374,-0.089879654,396809,0.0,0.0,0.0
331114004,3670026,0.010301494,-0.00061172474,-0.0017164549,3670026,-0.08165534,-0.2453208,-0.088797145,396809,0.0,0.0,0.0
332112088,3670026,0.0103258435,-0.0006095359,-0.0017271005,3670026,-0.08170735,-0.24577045,-0.09038169,396809,0.0,0.0,0.0
333115192,3670026,0.010312436,-0.00060110545,-0.0017327163,3670026,-0.08188136,-0.24639717,-0.090814516,396809,0.0,0.0,0.0
334108327,3670026,0.010400014,-0.00061788125,-0.0017263462,3670026,-0.081924655,-0.24630338,-0.089032404,396809,0.0,0.0,0.0
335111306,3670026,0.010512737,-0.00059825176,-0.001516449,3670026,-0.081611805,-0.24416171,-0.08983209,396809,0.0,0.0,0.0
336114357,3670026,0.01057692,-0.0006281402,-0.001598657,3670026,-0.08236182,-0.24267481,-0.09077528,396809,0.0,0.0,0.0
337112441,3670026,0.010543204,-0.0006520972,-0.0015980797,3670026,-0.08210202,-0.24104176,-0.091928594,396809,0.0,0.0,0.0
338110528,3670026,0.010512258,-0.00063709856,-0.0016171515,3670026,-0.08241187,-0.24104261,-0.09520659,396809,0.0,0.0,0.0
339113617,3670026,0.010525116,-0.0005910689,-0.0016248203,3670026,-0.08283819,-0.24181305,-0.09822658,396809,0.0,0.0,0.0
340111661,3670026,0.0105906,-0.00062781165,-0.0015705471,3670026,-0.082929365,-0.24024662,-0.09648296,396809,0.0,0.0,0.0
341109782,3670026,0.010561184,-0.0006449325,-0.0015911772,3670026,-0.082597636,-0.23743159,-0.09411495,396809,0.0,0.0,0.0
342112794,3670026,0.010505236,-0.0006438865,-0.0015754566,3670026,-0.0827628,-0.2387514,-0.09446614,396809,0.0,0.0,0.0
343110878,3670026,0.010598139,-0.00059029553,-0.0015024774,3670026,-0.08321506,-0.238732,-0.09418423,396809,0.0,0.0,0.0
344113977,3670026,0.010653851,-0.0005892042,-0.0014769587,3670026,-0.08331077,-0.2380481,-0.095575124,396809,0.0,0.0,0.0
345112013,3670026,0.010542579,-0.0006055231,-0.0014552919,3670026,-0.08360483,-0.23813392,-0.09509064,396809,0.0,0.0,0.0
346110170,3670026,0.010492582,-0.00063555024,-0.0014421487,3670026,-0.083789766,-0.23822697,-0.094385624,396809,0.0,0.0,0.0
347113147,3670026,0.010279207,-0.00065735885,-0.0015261003,3670026,-0.08625469,-0.237196,-0.09493042,396809,0.0,0.0,0.0
348111305,3670026,0.010119308,-0.0006745739,-0.0014106067,3670026,-0.08846821,-0.24041124,-0.09624383,396809,0.0,0.0,0.0
349109316,3670026,0.010062906,-0.00066729076,-0.0014163492,3670026,-0.08895275,-0.24051243,-0.09770101,396809,0.0,0.0,0.0
350112364,3670026,0.0100137405,-0.0006812109,-0.0014093672,3670026,-0.08890782,-0.24049692,-0.09908166,396809,0.0,0.0,0.0
351115414,3670026,0.0100745745,-0.00070477434,-0.0014059771,3670026,-0.08932493,-0.24115041,-0.096898936,396809,0.0,0.0,0.0
352108533,3670026,0.010092789,-0.00071817,-0.0014033278,3670026,-0.08951413,-0.24156718,-0.0972446,396809,0.0,0.0,0.0
353111583,3670026,0.010161181,-0.0007112746,-0.0013955986,3670026,-0.08989128,-0.24082439,-0.094309404,396809,0.0,0.0,0.0
354114634,3670026,0.010225284,-0.00071761163,-0.001390958,3670026,-0.08997296,-0.24000625,-0.09420395,396809,0.0,0.0,0.0
355107910,3670026,0.010287452,-0.00069885957,-0.0013909518,3670026,-0.09033782,-0.24031125,-0.09391301,396809,0.0,0.0,0.0
356110801,3670026,0.010294653,-0.0006926191,-0.0013840992,3670026,-0.09002082,-0.23923843,-0.0937068,396809,0.0,0.0,0.0
357113851,3670026,0.010382506,-0.0006905538,-0.0013923284,3670026,-0.09027558,-0.23999022,-0.09376005,396809,0.0,0.0,0.0
358111976,3670026,0.010434909,-0.00064995536,-0.0013974769,3670026,-0.09044464,-0.24032268,-0.09153788,396809,0.0,0.0,0.0
359110052,3670026,0.010405986,-0.00062342867,-0.0014078331,3670026,-0.089915924,-0.23927835,-0.089339375,396809,0.0,0.0,0.0
360113117,3670026,0.010410259,-0.0006109394,-0.0014188214,3670026,-0.08969518,-0.23909727,-0.08940345,396809,0.0,0.0,0.0
361111154,3670026,0.0104996525,-0.00062548596,-0.0014379277,3670026,-0.089760676,-0.23965284,-0.08421142,396809,0.0,0.0,0.0
362109313,3670026,0.010541667,-0.00067563454,-0.0014602583,3670026,-0.089568645,-0.23978098,-0.083510995,396809,0.0,0.0,0.0
363112289,3670026,0.0104611525,-0.00074281846,-0.0014779635,3670026,-0.08911151,-0.23921663,-0.08418474,396809,0.0,0.0,0.0
364110373,3670026,0.010398732,-0.000716067,-0.0015179332,3670026,-0.08948819,-0.23962028,-0.084342554,396809,0.0,0.0,0.0
365113422,3670026,0.010354467,-0.0007259115,-0.0015560471,3670026,-0.08928485,-0.24000467,-0.085099675,396809,0.0,0.0,0.0
366111506,3670026,0.010327655,-0.00072263356,-0.0015832225,3670026,-0.0895545,-0.23994191,-0.086220056,396809,0.0,0.0,0.0
367109591,3670026,0.01035027,-0.00071650674,-0.0015952348,3670026,-0.089596026,-0.24006204,-0.08818534,396809,0.0,0.0,0.0
368112643,3670026,0.01035953,-0.0007331731,-0.0016024518,3670026,-0.08959318,-0.24005443,-0.089506246,396809,0.0,0.0,0.0
369110824,3670026,0.010337722,-0.0007359628,-0.0016096873,3670026,-0.089475885,-0.23974013,-0.09130542,396809,0.0,0.0,0.0
370108813,3670026,0.010373008,-0.0007308097,-0.0015871344,3670026,-0.08967177,-0.24026498,-0.09235699,396809,0.0,0.0,0.0
