timestamp,gyro_device_id,gyro_bias[0],gyro_bias[1],gyro_bias[2],accel_device_id,accel_bias[0],accel_bias[1],accel_bias[2],mag_device_id,mag_bias[0],mag_bias[1],mag_bias[2]
174739042,3670026,-0.00336082,-0.00970283,0.000501353,3670026,-0.0533964,0.000503381,0.0388084,396809,0.0,0.0,0.0
174749018,3670026,-0.00336108,-0.00970359,0.000501482,3670026,-0.0534006,0.000503421,0.0388115,396809,0.0,0.0,0.0
175747078,3670026,-0.00337666,-0.00971303,0.000426972,3670026,-0.0535057,0.000504411,0.039537,396809,0.0,0.0,0.0
176740221,3670026,-0.00338104,-0.00969324,0.000339352,3670026,-0.0535878,0.000519382,0.0404891,396809,0.0,0.0,0.0
177738436,3670026,-0.00336865,-0.00965246,0.000262635,3670026,-0.0543398,0.000957776,0.0406305,396809,0.0,0.0,0.0
178746371,3670026,-0.00338341,-0.00964131,0.000287393,3670026,-0.0559049,0.000415897,0.0387667,396809,0.0,0.0,0.0
179739514,3670026,-0.0033671,-0.00958998,0.000310611,3670026,-0.0574236,0.000955072,0.0379188,396809,0.0,0.0,0.0
180747556,3670026,-0.00337558,-0.00960302,0.000334185,3670026,-0.0585584,0.00108402,0.0378716,396809,0.0,0.0,0.0
181740701,3670026,-0.00335942,-0.00955559,0.000355815,3670026,-0.0592574,0.00137235,0.0370912,396809,0.0,0.0,0.0
182748744,3670026,-0.00336113,-0.00955756,0.000377494,3670026,-0.0600868,0.00150573,0.038321,396809,0.0,0.0,0.0
183741890,3670026,-0.00335506,-0.00951733,0.00039338,3670026,-0.0602924,0.00136357,0.0384687,396809,0.0,0.0,0.0
184740187,3670026,-0.00335904,-0.00951666,0.000408105,3670026,-0.0605526,0.00139203,0.036799,396809,0.0,0.0,0.0
185748047,3670026,-0.00334632,-0.00949331,0.000424712,3670026,-0.0603284,0.00127444,0.0354956,396809,0.0,0.0,0.0
186741199,3670026,-0.00339189,-0.00947415,0.000443894,3670026,-0.0599885,0.00163349,0.039228,396809,0.0,0.0,0.0
187749239,3670026,-0.00338055,-0.00939793,0.000456584,3670026,-0.0591724,0.00161193,0.0406716,396809,0.0,0.0,0.0
188742394,3670026,-0.00337894,-0.00944952,0.000468517,3670026,-0.0594629,0.00139011,0.0421547,396809,0.0,0.0,0.0
189740502,3670026,-0.00333617,-0.00942645,0.000478562,3670026,-0.0593057,0.000974205,0.0432766,396809,0.0,0.0,0.0
190743586,3670026,-0.00330234,-0.00940883,0.000485496,3670026,-0.0590113,0.000552579,0.0470472,396809,0.0,0.0,0.0
191746823,3670026,-0.00331046,-0.00943368,0.00048901,3670026,-0.059149,0.000588221,0.048163,396809,0.0,0.0,0.0
192739814,3670026,-0.0033162,-0.00935882,0.000487721,3670026,-0.0590058,0.000194916,0.0499553,396809,0.0,0.0,0.0
193747878,3670026,-0.0033454,-0.00937512,0.000490622,3670026,-0.0610587,-0.00173729,0.0512513,396809,0.0,0.0,0.0
194745979,3670026,-0.00335135,-0.00937941,0.000490252,3670026,-0.0625005,-0.00215245,0.0501423,396809,0.0,0.0,0.0
195739132,3670026,-0.00333832,-0.00934624,0.000487906,3670026,-0.0639912,-0.00148699,0.0483382,396809,0.0,0.0,0.0
196747181,3670026,-0.00333736,-0.0093589,0.000487154,3670026,-0.0641736,-0.00128512,0.0472051,396809,0.0,0.0,0.0
197745334,3670026,-0.0033472,-0.0093725,0.000487056,3670026,-0.0643845,-0.00145385,0.0485131,396809,0.0,0.0,0.0
198738582,3670026,-0.00335108,-0.00934287,0.000483403,3670026,-0.0641536,-0.00168808,0.0447475,396809,0.0,0.0,0.0
199746501,3670026,-0.00333464,-0.00936029,0.000478824,3670026,-0.0641663,-0.00149613,0.0457557,396809,0.0,0.0,0.0
200739655,3670026,-0.00333026,-0.00934473,0.000472636,3670026,-0.0640461,-0.00146593,0.0438967,396809,0.0,0.0,0.0
201747706,3670026,-0.0032827,-0.0092995,0.000462595,3670026,-0.0636285,-0.0017999,0.0422482,396809,0.0,0.0,0.0
202740861,3670026,-0.00330411,-0.00920282,0.000453283,3670026,-0.0628438,-0.00125041,0.0423792,396809,0.0,0.0,0.0
203738983,3670026,-0.00335299,-0.00918454,0.000449409,3670026,-0.0625323,-0.000836255,0.042329,396809,0.0,0.0,0.0
204747074,3670026,-0.00336634,-0.00913943,0.000438311,3670026,-0.0619403,-0.000665024,0.042931,396809,0.0,0.0,0.0
205740333,3670026,-0.00335097,-0.00909801,0.000429462,3670026,-0.0615765,-0.0006953,0.0447875,396809,0.0,0.0,0.0
206748248,3670026,-0.00336455,-0.00909698,0.000425612,3670026,-0.0614173,-0.000700455,0.0468339,396809,0.0,0.0,0.0
207746367,3670026,-0.00338967,-0.00910796,0.000425336,3670026,-0.0614386,-0.000517851,0.0481514,396809,0.0,0.0,0.0
208749455,3670026,-0.00339919,-0.00910201,0.000425436,3670026,-0.0613565,-0.000436602,0.04937,396809,0.0,0.0,0.0
209747643,3670026,-0.00337559,-0.00903129,0.000423247,3670026,-0.0607642,-0.000582284,0.0511587,396809,0.0,0.0,0.0
210740736,3670026,-0.00337006,-0.00900724,0.000427777,3670026,-0.0605723,-0.00068017,0.0506633,396809,0.0,0.0,0.0
211748792,3670026,-0.0033324,-0.00901899,0.000429923,3670026,-0.0605982,-0.00101687,0.0537427,396809,0.0,0.0,0.0
212746916,3670026,-0.00334879,-0.00893736,0.000436834,3670026,-0.0600491,-0.000861423,0.0566809,396809,0.0,0.0,0.0
213740077,3670026,-0.0033386,-0.00888976,0.000445576,3670026,-0.0597385,-0.000747695,0.0555094,396809,0.0,0.0,0.0
214748138,3670026,-0.00338408,-0.00885391,0.000459727,3670026,-0.0595183,-0.00053942,0.052852,396809,0.0,0.0,0.0
215746267,3670026,-0.00339485,-0.00887816,0.000474762,3670026,-0.0597126,-0.000498633,0.0503068,396809,0.0,0.0,0.0
216739515,3670026,-0.00333678,-0.00882407,0.000482108,3670026,-0.0593768,-0.000835851,0.0473343,396809,0.0,0.0,0.0
217747478,3670026,-0.00334929,-0.00881437,0.000499167,3670026,-0.059363,-0.000793872,0.0466497,396809,0.0,0.0,0.0
218745605,3670026,-0.0033394,-0.00878308,0.000509399,3670026,-0.059244,-0.000826287,0.0476445,396809,0.0,0.0,0.0
219738766,3670026,-0.00332303,-0.00879828,0.000525891,3670026,-0.0592192,-0.00084142,0.0508871,396809,0.0,0.0,0.0
220741863,3670026,-0.00331543,-0.00876242,0.000539116,3670026,-0.059039,-0.000840033,0.0506569,396809,0.0,0.0,0.0
221744957,3670026,-0.0033326,-0.00882499,0.000558608,3670026,-0.0594633,-0.000874132,0.0519898,396809,0.0,0.0,0.0
222748049,3670026,-0.00328266,-0.00879881,0.000564307,3670026,-0.0592719,-0.00101094,0.0542144,396809,0.0,0.0,0.0
223741381,3670026,-0.00328353,-0.00873978,0.000576696,3670026,-0.059009,-0.000995461,0.0541978,396809,0.0,0.0,0.0
224744308,3670026,-0.00328852,-0.00874355,0.000593371,3670026,-0.0592421,-0.0010528,0.0522729,396809,0.0,0.0,0.0
225747404,3670026,-0.00328784,-0.00868174,0.000605757,3670026,-0.0589209,-0.000999296,0.051164,396809,0.0,0.0,0.0
226740570,3670026,-0.00330174,-0.00866768,0.000619258,3670026,-0.0588204,-0.000943531,0.05081,396809,0.0,0.0,0.0
227738700,3670026,-0.00332682,-0.00869269,0.000632865,3670026,-0.0589465,-0.000893283,0.0502777,396809,0.0,0.0,0.0
228746762,3670026,-0.00337274,-0.00870111,0.000644583,3670026,-0.0591523,-0.00078776,0.0513974,396809,0.0,0.0,0.0
229749862,3670026,-0.00333344,-0.00865345,0.000644723,3670026,-0.0587847,-0.000878437,0.0534605,396809,0.0,0.0,0.0
230738167,3670026,-0.0033841,-0.00863198,0.000650664,3670026,-0.058878,-0.000908982,0.0575766,396809,0.0,0.0,0.0
231746131,3670026,-0.00336656,-0.00863538,0.000655532,3670026,-0.058916,-0.000986867,0.0604365,396809,0.0,0.0,0.0
232749225,3670026,-0.0033639,-0.00859843,0.000656098,3670026,-0.058734,-0.000928196,0.0568369,396809,0.0,0.0,0.0
233747355,3670026,-0.00341726,-0.00860655,0.000660942,3670026,-0.058868,-0.000827776,0.0627457,396809,0.0,0.0,0.0
234745488,3670026,-0.00339986,-0.0085737,0.000670518,3670026,-0.0589232,-0.000886343,0.0592433,396809,0.0,0.0,0.0
235748588,3670026,-0.00337808,-0.0085345,0.000671968,3670026,-0.0587544,-0.000879202,0.056104,396809,0.0,0.0,0.0
236741760,3670026,-0.0033781,-0.00853158,0.000677689,3670026,-0.0588813,-0.000884293,0.0514355,396809,0.0,0.0,0.0
237745011,3670026,-0.00332739,-0.00854183,0.000675497,3670026,-0.0590329,-0.0010089,0.0520367,396809,0.0,0.0,0.0
238747958,3670026,-0.00329741,-0.00848089,0.000668932,3670026,-0.0587035,-0.00102366,0.0505655,396809,0.0,0.0,0.0
239746094,3670026,-0.00331144,-0.00849027,0.0006716,3670026,-0.0588655,-0.00103595,0.0493557,396809,0.0,0.0,0.0
240744229,3670026,-0.00336009,-0.00850021,0.000673468,3670026,-0.0589761,-0.00102333,0.0482913,396809,0.0,0.0,0.0
241747331,3670026,-0.00337761,-0.00846675,0.00066454,3670026,-0.0587374,-0.000972274,0.0503986,396809,0.0,0.0,0.0
242740501,3670026,-0.00335778,-0.00846617,0.000659555,3670026,-0.0588617,-0.00101709,0.0532649,396809,0.0,0.0,0.0
243748571,3670026,-0.00334744,-0.00843441,0.000653043,3670026,-0.0587062,-0.0010221,0.0524322,396809,0.0,0.0,0.0
244746878,3670026,-0.00334341,-0.00845422,0.000647588,3670026,-0.0587881,-0.00103614,0.0527211,396809,0.0,0.0,0.0
245739878,3670026,-0.00337433,-0.0084309,0.000643103,3670026,-0.0586226,-0.00105936,0.0517483,396809,0.0,0.0,0.0
246747947,3670026,-0.00334642,-0.00845237,0.00064035,3670026,-0.0587298,-0.0011182,0.0522478,396809,0.0,0.0,0.0
247746089,3670026,-0.00334169,-0.00847337,0.000637172,3670026,-0.0588231,-0.00112772,0.0542986,396809,0.0,0.0,0.0
248739258,3670026,-0.00332367,-0.00840499,0.000629656,3670026,-0.0586524,-0.00114057,0.0529932,396809,0.0,0.0,0.0
249747329,3670026,-0.00333093,-0.00840452,0.000628376,3670026,-0.0588244,-0.00116237,0.0519034,396809,0.0,0.0,0.0
250740502,3670026,-0.00332179,-0.00834484,0.000620906,3670026,-0.0585752,-0.0011621,0.0523834,396809,0.0,0.0,0.0
251738781,3670026,-0.00335842,-0.00834359,0.000620798,3670026,-0.0586522,-0.00115542,0.0552275,396809,0.0,0.0,0.0
252746715,3670026,-0.00337321,-0.00834733,0.000619066,3670026,-0.0587866,-0.00116613,0.0552951,396809,0.0,0.0,0.0
253744872,3670026,-0.00336553,-0.00835632,0.000618034,3670026,-0.0588498,-0.00116906,0.0541038,396809,0.0,0.0,0.0
254738030,3670026,-0.00335755,-0.00831925,0.000614744,3670026,-0.0587768,-0.00114226,0.0534592,396809,0.0,0.0,0.0
255741138,3670026,-0.0033299,-0.00823467,0.000611768,3670026,-0.0583581,-0.00115137,0.051597,396809,0.0,0.0,0.0
256744303,3670026,-0.00336215,-0.00824692,0.00061062,3670026,-0.0587931,-0.00120061,0.0520909,396809,0.0,0.0,0.0
257747351,3670026,-0.00334033,-0.00819635,0.000605733,3670026,-0.0585906,-0.00117895,0.0522195,396809,0.0,0.0,0.0
258740690,3670026,-0.00334405,-0.0081736,0.000598258,3670026,-0.0585454,-0.00117404,0.0541225,396809,0.0,0.0,0.0
259748601,3670026,-0.0033834,-0.00817,0.000594301,3670026,-0.0585621,-0.00117453,0.0527716,396809,0.0,0.0,0.0
260746744,3670026,-0.00336255,-0.00820443,0.000593232,3670026,-0.0587361,-0.00121107,0.0519532,396809,0.0,0.0,0.0
261739921,3670026,-0.00330125,-0.00825467,0.000588243,3670026,-0.0587516,-0.00132002,0.0556938,396809,0.0,0.0,0.0
262748065,3670026,-0.0033044,-0.00823181,0.000576937,3670026,-0.0588485,-0.00131954,0.0581738,396809,0.0,0.0,0.0
263746146,3670026,-0.0033311,-0.00821525,0.000568267,3670026,-0.0591704,-0.00131552,0.05858,396809,0.0,0.0,0.0
264749251,3670026,-0.00333598,-0.00811939,0.000559331,3670026,-0.0588109,-0.00128767,0.0579928,396809,0.0,0.0,0.0
265747398,3670026,-0.00332388,-0.00813295,0.000560592,3670026,-0.0589898,-0.00130823,0.0583491,396809,0.0,0.0,0.0
266745541,3670026,-0.00325643,-0.00811305,0.000558475,3670026,-0.0589678,-0.00138879,0.0581597,396809,0.0,0.0,0.0
267748650,3670026,-0.00322519,-0.00804952,0.000556613,3670026,-0.0587807,-0.00139818,0.0602997,396809,0.0,0.0,0.0
268746796,3670026,-0.0031982,-0.00802321,0.00055769,3670026,-0.0587247,-0.00137319,0.0595409,396809,0.0,0.0,0.0
269739972,3670026,-0.00322806,-0.00806312,0.000560696,3670026,-0.0589876,-0.00138884,0.0589701,396809,0.0,0.0,0.0
270748095,3670026,-0.00324409,-0.00804084,0.000559495,3670026,-0.0590115,-0.00138477,0.0560847,396809,0.0,0.0,0.0
271741264,3670026,-0.00327044,-0.0079991,0.000557329,3670026,-0.0590284,-0.00139063,0.0543816,396809,0.0,0.0,0.0
272734620,3670026,-0.00327361,-0.0080233,0.000555101,3670026,-0.0590906,-0.0013807,0.056146,396809,0.0,0.0,0.0
273747461,3670026,-0.00327646,-0.00795009,0.000548299,3670026,-0.0588152,-0.00134507,0.0587338,396809,0.0,0.0,0.0
274740689,3670026,-0.00327334,-0.00792278,0.000544851,3670026,-0.0587599,-0.00132158,0.0590219,396809,0.0,0.0,0.0
275738790,3670026,-0.00326704,-0.00790257,0.00054298,3670026,-0.0589089,-0.0013112,0.0587149,396809,0.0,0.0,0.0
276746900,3670026,-0.00329381,-0.0078983,0.000542577,3670026,-0.058912,-0.00129226,0.0553072,396809,0.0,0.0,0.0
277740052,3670026,-0.00330131,-0.00787165,0.000540505,3670026,-0.0590122,-0.00130247,0.0523831,396809,0.0,0.0,0.0
278748133,3670026,-0.00329084,-0.00782402,0.00054587,3670026,-0.0588289,-0.00133134,0.0508773,396809,0.0,0.0,0.0
279746282,3670026,-0.00329954,-0.00780858,0.000548768,3670026,-0.0588611,-0.0013571,0.0491547,396809,0.0,0.0,0.0
280739465,3670026,-0.00327747,-0.0077474,0.000557529,3670026,-0.05868,-0.00137207,0.0515507,396809,0.0,0.0,0.0
281747547,3670026,-0.00329913,-0.00775744,0.000571898,3670026,-0.0589106,-0.00139552,0.0498681,396809,0.0,0.0,0.0
282740731,3670026,-0.00328098,-0.00775656,0.000587696,3670026,-0.0588967,-0.00139898,0.0514597,396809,0.0,0.0,0.0
283738894,3670026,-0.00324918,-0.00770467,0.000606234,3670026,-0.05876,-0.00140686,0.0526026,396809,0.0,0.0,0.0
284746964,3670026,-0.00322999,-0.00775032,0.000630044,3670026,-0.0589391,-0.00144415,0.0535332,396809,0.0,0.0,0.0
285750082,3670026,-0.0032437,-0.0077364,0.000655566,3670026,-0.0589571,-0.00146335,0.0545302,396809,0.0,0.0,0.0
286738492,3670026,-0.00322622,-0.00768741,0.000683004,3670026,-0.0587546,-0.00144469,0.0559132,396809,0.0,0.0,0.0
287746384,3670026,-0.003246,-0.00771907,0.000710819,3670026,-0.0589051,-0.00142746,0.0579439,396809,0.0,0.0,0.0
288749502,3670026,-0.00324115,-0.00769315,0.000736844,3670026,-0.0588194,-0.00141718,0.0566185,396809,0.0,0.0,0.0
289742700,3670026,-0.00326645,-0.00768462,0.000762706,3670026,-0.0589565,-0.0014361,0.0568135,396809,0.0,0.0,0.0
290740910,3670026,-0.00327309,-0.00763765,0.000786758,3670026,-0.0587244,-0.00144555,0.0594862,396809,0.0,0.0,0.0
291748926,3670026,-0.00326234,-0.00771589,0.000813589,3670026,-0.0590227,-0.001421,0.0607035,396809,0.0,0.0,0.0
292747081,3670026,-0.00330484,-0.00763972,0.000830291,3670026,-0.0587824,-0.00135726,0.0587119,396809,0.0,0.0,0.0
293735486,3670026,-0.00334253,-0.00761518,0.000853092,3670026,-0.0589106,-0.00135885,0.0590759,396809,0.0,0.0,0.0
294748351,3670026,-0.00333632,-0.00759201,0.000864142,3670026,-0.058725,-0.00136888,0.0556892,396809,0.0,0.0,0.0
295741540,3670026,-0.00335041,-0.00759406,0.000876399,3670026,-0.0588211,-0.00136392,0.0544584,396809,0.0,0.0,0.0
296739694,3670026,-0.00335489,-0.0075602,0.000883998,3670026,-0.0587376,-0.00137328,0.0545269,396809,0.0,0.0,0.0
297747849,3670026,-0.00332872,-0.0075782,0.000888151,3670026,-0.0588432,-0.00135606,0.0548146,396809,0.0,0.0,0.0
298745935,3670026,-0.00336369,-0.00756845,0.000892506,3670026,-0.0590746,-0.00134663,0.0545832,396809,0.0,0.0,0.0
299749069,3670026,-0.00332954,-0.00751778,0.000879619,3670026,-0.0586857,-0.00135004,0.0540585,396809,0.0,0.0,0.0
300742246,3670026,-0.00328051,-0.00746026,0.00086892,3670026,-0.0585673,-0.00139811,0.0568325,396809,0.0,0.0,0.0
301740403,3670026,-0.00327185,-0.007457,0.000863804,3670026,-0.0587753,-0.00139405,0.0573381,396809,0.0,0.0,0.0
302743524,3670026,-0.00328104,-0.00746491,0.000856721,3670026,-0.0588718,-0.00139537,0.0604995,396809,0.0,0.0,0.0
303741680,3670026,-0.00326591,-0.00745558,0.000840758,3670026,-0.0589609,-0.00141999,0.0605046,396809,0.0,0.0,0.0
304744864,3670026,-0.00328891,-0.00746617,0.000822593,3670026,-0.0590151,-0.0014158,0.0624624,396809,0.0,0.0,0.0
305747927,3670026,-0.00330101,-0.00742884,0.00080151,3670026,-0.0590172,-0.00143694,0.0643549,396809,0.0,0.0,0.0
306746083,3670026,-0.00328172,-0.00737051,0.000779253,3670026,-0.0589591,-0.00142295,0.0620356,396809,0.0,0.0,0.0
307739275,3670026,-0.00326578,-0.00732995,0.000758982,3670026,-0.0587352,-0.00141467,0.0646561,396809,0.0,0.0,0.0
308747364,3670026,-0.003269,-0.00731259,0.000753324,3670026,-0.0589231,-0.00143434,0.0632426,396809,0.0,0.0,0.0
309740594,3670026,-0.00324405,-0.00731726,0.000750974,3670026,-0.0590332,-0.00145326,0.0626919,396809,0.0,0.0,0.0
310738715,3670026,-0.00322844,-0.00731726,0.000747899,3670026,-0.0590921,-0.00144661,0.0616212,396809,0.0,0.0,0.0
311746890,3670026,-0.00317526,-0.00722503,0.000744124,3670026,-0.0588152,-0.00142279,0.0615877,396809,0.0,0.0,0.0
312740001,3670026,-0.0031563,-0.00720402,0.000749303,3670026,-0.0587906,-0.00142506,0.0613288,396809,0.0,0.0,0.0
313748094,3670026,-0.00318144,-0.00720565,0.000763602,3670026,-0.0591044,-0.00142403,0.0598676,396809,0.0,0.0,0.0
314746250,3670026,-0.0032045,-0.00719301,0.000773857,3670026,-0.0591091,-0.00143514,0.0622775,396809,0.0,0.0,0.0
315739492,3670026,-0.00319609,-0.00714772,0.00077766,3670026,-0.0587058,-0.00141404,0.0607359,396809,0.0,0.0,0.0
316747536,3670026,-0.00319246,-0.00712796,0.00078237,3670026,-0.058832,-0.00143654,0.0609079,396809,0.0,0.0,0.0
317740731,3670026,-0.00318525,-0.00710922,0.000787088,3670026,-0.0589215,-0.00144716,0.062547,396809,0.0,0.0,0.0
318743981,3670026,-0.00313944,-0.00712718,0.000792084,3670026,-0.0590085,-0.00143832,0.0613752,396809,0.0,0.0,0.0
319746985,3670026,-0.0031244,-0.00708321,0.000791348,3670026,-0.0588669,-0.00142151,0.0591108,396809,0.0,0.0,0.0
320745147,3670026,-0.00316695,-0.00704783,0.000791557,3670026,-0.0588707,-0.00142114,0.0556192,396809,0.0,0.0,0.0
321738371,3670026,-0.00317398,-0.00699677,0.000791768,3670026,-0.0587263,-0.00140261,0.0530162,396809,0.0,0.0,0.0
322746490,3670026,-0.0031882,-0.00701748,0.000789612,3670026,-0.0588931,-0.00139824,0.0552764,396809,0.0,0.0,0.0
323749567,3670026,-0.00319496,-0.00701512,0.000784537,3670026,-0.0589565,-0.00139654,0.0569313,396809,0.0,0.0,0.0
324742761,3670026,-0.00318166,-0.00696898,0.000776681,3670026,-0.0587926,-0.00137006,0.0575982,396809,0.0,0.0,0.0
325745992,3670026,-0.00323015,-0.00695531,0.000780488,3670026,-0.0589992,-0.00140827,0.0561541,396809,0.0,0.0,0.0
326744053,3670026,-0.00322231,-0.00693325,0.000783176,3670026,-0.0590437,-0.00141183,0.0556896,396809,0.0,0.0,0.0
327747184,3670026,-0.00318816,-0.00689672,0.000788631,3670026,-0.058871,-0.0014098,0.0553632,396809,0.0,0.0,0.0
328740380,3670026,-0.00321477,-0.00689013,0.000799984,3670026,-0.0587657,-0.00138031,0.0564495,396809,0.0,0.0,0.0
329743560,3670026,-0.00325855,-0.00688906,0.000817828,3670026,-0.0590599,-0.00141906,0.0570776,396809,0.0,0.0,0.0
330746642,3670026,-0.00321041,-0.00685502,0.000826451,3670026,-0.0588672,-0.00139911,0.059213,396809,0.0,0.0,0.0
331739839,3670026,-0.0031779,-0.00684107,0.000837253,3670026,-0.058765,-0.00140019,0.0587729,396809,0.0,0.0,0.0
332748064,3670026,-0.00315837,-0.00680893,0.000850221,3670026,-0.0587994,-0.00139738,0.0582779,396809,0.0,0.0,0.0
333741136,3670026,-0.0031645,-0.00680532,0.000865074,3670026,-0.058845,-0.00138924,0.0593405,396809,0.0,0.0,0.0
334749233,3670026,-0.00317772,-0.00676449,0.000869936,3670026,-0.0587717,-0.00138881,0.059451,396809,0.0,0.0,0.0
335742433,3670026,-0.0031758,-0.006742,0.000872638,3670026,-0.0587256,-0.00137952,0.0588647,396809,0.0,0.0,0.0
336740600,3670026,-0.0031431,-0.00672088,0.00087081,3670026,-0.0587436,-0.00134228,0.0592003,396809,0.0,0.0,0.0
337743733,3670026,-0.00314942,-0.00671313,0.000871625,3670026,-0.0588329,-0.00132379,0.0587518,396809,0.0,0.0,0.0
338746864,3670026,-0.00315003,-0.00670134,0.000862721,3670026,-0.0589814,-0.00136405,0.0594949,396809,0.0,0.0,0.0
339740156,3670026,-0.00307021,-0.00664562,0.00083479,3670026,-0.0587021,-0.0013982,0.0595037,396809,0.0,0.0,0.0
340748175,3670026,-0.00305513,-0.00664189,0.000810532,3670026,-0.0588211,-0.00139376,0.0613557,396809,0.0,0.0,0.0
341746332,3670026,-0.00308108,-0.00665361,0.000807002,3670026,-0.0589228,-0.00140375,0.062899,396809,0.0,0.0,0.0
342739534,3670026,-0.00305248,-0.00656293,0.000801653,3670026,-0.0587251,-0.00109203,0.0577747,396809,0.0,0.0,0.0
343742668,3670026,-0.00302271,-0.00658753,0.000799725,3670026,-0.0586174,-0.00144374,0.0562005,396809,0.0,0.0,0.0
344745803,3670026,-0.00304526,-0.00663462,0.000795406,3670026,-0.0591626,-0.00151847,0.0561955,396809,0.0,0.0,0.0
345739005,3670026,-0.0030548,-0.00654387,0.000788768,3670026,-0.0591422,-0.00122717,0.0568089,396809,0.0,0.0,0.0
346747255,3670026,-0.00308768,-0.00652633,0.000783478,3670026,-0.0592351,-0.00116246,0.0571266,396809,0.0,0.0,0.0
347745275,3670026,-0.00311189,-0.00651874,0.000779233,3670026,-0.0593655,-0.00112432,0.056691,396809,0.0,0.0,0.0
348748411,3670026,-0.00307419,-0.00656689,0.000780872,3670026,-0.059472,-0.00117748,0.0610206,396809,0.0,0.0,0.0
349741614,3670026,-0.00306621,-0.00652056,0.000777675,3670026,-0.0592649,-0.00118482,0.0609984,396809,0.0,0.0,0.0
350739784,3670026,-0.00308363,-0.00647662,0.000769325,3670026,-0.0592346,-0.00121459,0.0621557,396809,0.0,0.0,0.0
351747937,3670026,-0.00310143,-0.00647447,0.000763881,3670026,-0.0593257,-0.00121055,0.0610198,396809,0.0,0.0,0.0
352741096,3670026,-0.00310434,-0.00646174,0.000753603,3670026,-0.0593414,-0.00121841,0.0587879,396809,0.0,0.0,0.0
353744362,3670026,-0.00308153,-0.00639948,0.000737107,3670026,-0.0590218,-0.0012147,0.0595686,396809,0.0,0.0,0.0
354747412,3670026,-0.0031276,-0.00641527,0.000741606,3670026,-0.0595054,-0.00125312,0.0599113,396809,0.0,0.0,0.0
355745537,3670026,-0.00308766,-0.00636378,0.000739777,3670026,-0.0594578,-0.00135065,0.0614418,396809,0.0,0.0,0.0
356738746,3670026,-0.00308741,-0.0063365,0.000734353,3670026,-0.0593039,-0.00133879,0.0581406,396809,0.0,0.0,0.0
357746916,3670026,-0.00306857,-0.00634516,0.000736344,3670026,-0.0595569,-0.00137529,0.0579699,396809,0.0,0.0,0.0
358740053,3670026,-0.00303211,-0.00634807,0.000727152,3670026,-0.0596153,-0.00140659,0.0600441,396809,0.0,0.0,0.0
359738226,3670026,-0.00302678,-0.00631207,0.00072257,3670026,-0.0594815,-0.00144348,0.0594433,396809,0.0,0.0,0.0
360741495,3670026,-0.00301451,-0.00631893,0.000721156,3670026,-0.0593936,-0.00145121,0.0610065,396809,0.0,0.0,0.0
361739538,3670026,-0.00302789,-0.00627764,0.000715682,3670026,-0.0595292,-0.00155267,0.0585982,396809,0.0,0.0,0.0
362747645,3670026,-0.00302473,-0.00631417,0.000718806,3670026,-0.0598492,-0.00151961,0.0629991,396809,0.0,0.0,0.0
363745850,3670026,-0.00299882,-0.00630511,0.000716224,3670026,-0.0597174,-0.00149624,0.0612877,396809,0.0,0.0,0.0
364743991,3670026,-0.00298226,-0.00629776,0.000717501,3670026,-0.0597818,-0.00152568,0.0607413,396809,0.0,0.0,0.0
365747131,3670026,-0.00291913,-0.00626815,0.000712299,3670026,-0.0595917,-0.00158312,0.0609034,396809,0.0,0.0,0.0
366740340,3670026,-0.00293505,-0.00623933,0.000708643,3670026,-0.0597808,-0.00163611,0.0615422,396809,0.0,0.0,0.0
367743631,3670026,-0.00293736,-0.00617534,0.000719512,3670026,-0.0600073,-0.00173202,0.0624869,396809,0.0,0.0,0.0
368741656,3670026,-0.00292678,-0.00614799,0.000709727,3670026,-0.0595496,-0.00169303,0.062034,396809,0.0,0.0,0.0
369749763,3670026,-0.00294666,-0.00617493,0.000701414,3670026,-0.0597456,-0.00168023,0.0627464,396809,0.0,0.0,0.0
370738007,3670026,-0.002953,-0.00615734,0.000694171,3670026,-0.0597772,-0.00170437,0.0617869,396809,0.0,0.0,0.0
371746164,3670026,-0.00297988,-0.00613687,0.00068507,3670026,-0.0598218,-0.00175363,0.0605375,396809,0.0,0.0,0.0
372744294,3670026,-0.00295896,-0.00614547,0.000673335,3670026,-0.0598489,-0.00176947,0.06004,396809,0.0,0.0,0.0
373737502,3670026,-0.00295954,-0.00615888,0.000690343,3670026,-0.0597644,-0.00178201,0.058569,396809,0.0,0.0,0.0
374745778,3670026,-0.00303886,-0.00612111,0.000697587,3670026,-0.0596854,-0.00191682,0.0624207,396809,0.0,0.0,0.0
375743788,3670026,-0.0030137,-0.00602239,0.000700509,3670026,-0.0593119,-0.00208217,0.0642611,396809,0.0,0.0,0.0
376746933,3670026,-0.00304053,-0.00603836,0.00072553,3670026,-0.0598791,-0.00217397,0.0668254,396809,0.0,0.0,0.0
377740145,3670026,-0.00299425,-0.00597459,0.000746432,3670026,-0.0598084,-0.00228496,0.0649779,396809,0.0,0.0,0.0
378748311,3670026,-0.00298321,-0.00591384,0.000756226,3670026,-0.0596831,-0.00229792,0.0644877,396809,0.0,0.0,0.0
379746431,3670026,-0.00297252,-0.00588908,0.000774097,3670026,-0.059946,-0.00228088,0.0658646,396809,0.0,0.0,0.0
380739644,3670026,-0.00294269,-0.00582285,0.000799203,3670026,-0.0600449,-0.00235555,0.0635651,396809,0.0,0.0,0.0
381747946,3670026,-0.00290704,-0.00580524,0.00081517,3670026,-0.0599619,-0.00236441,0.0636983,396809,0.0,0.0,0.0
382745936,3670026,-0.00292275,-0.00582732,0.000823977,3670026,-0.0600892,-0.00233044,0.0650306,396809,0.0,0.0,0.0
383749079,3670026,-0.00290742,-0.00585304,0.000834104,3670026,-0.0602009,-0.00235614,0.0653865,396809,0.0,0.0,0.0
384747259,3670026,-0.0028896,-0.00584037,0.000827632,3670026,-0.0600969,-0.00238242,0.0644702,396809,0.0,0.0,0.0
385740507,3670026,-0.0029282,-0.00582916,0.000821088,3670026,-0.0599884,-0.00235686,0.0647871,396809,0.0,0.0,0.0
386743649,3670026,-0.00292836,-0.00587147,0.000820515,3670026,-0.0603164,-0.0023785,0.065263,396809,0.0,0.0,0.0
387741800,3670026,-0.00292816,-0.00584619,0.000806406,3670026,-0.0601214,-0.00237192,0.0657667,396809,0.0,0.0,0.0
388745136,3670026,-0.00292182,-0.00583832,0.000796302,3670026,-0.0602679,-0.00236128,0.0667336,396809,0.0,0.0,0.0
389743129,3670026,-0.00294426,-0.00581399,0.000785413,3670026,-0.0603307,-0.00234472,0.066169,396809,0.0,0.0,0.0
390746275,3670026,-0.00295662,-0.0057775,0.000776135,3670026,-0.0601518,-0.0022972,0.0656406,396809,0.0,0.0,0.0
391739490,3670026,-0.00294891,-0.00583994,0.000761238,3670026,-0.0602974,-0.00236223,0.0680445,396809,0.0,0.0,0.0
392747675,3670026,-0.00292702,-0.00581122,0.000743188,3670026,-0.0600639,-0.00231807,0.0669127,396809,0.0,0.0,0.0
393745786,3670026,-0.00296404,-0.00578792,0.00073183,3670026,-0.06022,-0.00231739,0.065623,396809,0.0,0.0,0.0
394739056,3670026,-0.00299053,-0.00575393,0.00072247,3670026,-0.0601645,-0.00225592,0.0653533,396809,0.0,0.0,0.0
395742337,3670026,-0.00297964,-0.00571556,0.000709686,3670026,-0.0599519,-0.00224193,0.066751,396809,0.0,0.0,0.0
396745300,3670026,-0.00296828,-0.00573985,0.000720689,3670026,-0.0603163,-0.00234525,0.0689141,396809,0.0,0.0,0.0
397743490,3670026,-0.00287942,-0.00566491,0.000780329,3670026,-0.0610391,-0.00202642,0.0671448,396809,0.0,0.0,0.0
398746632,3670026,-0.00293237,-0.00564438,0.000867278,3670026,-0.0605075,-0.00244939,0.0620671,396809,0.0,0.0,0.0
399744841,3670026,-0.00304159,-0.00562282,0.000890856,3670026,-0.0564709,-0.00242185,0.0562934,396809,0.0,0.0,0.0
400747966,3670026,-0.00306579,-0.00561959,0.000919663,3670026,-0.0551607,-0.00215494,0.0589421,396809,0.0,0.0,0.0
401746151,3670026,-0.00307555,-0.00564676,0.000931627,3670026,-0.0551067,-0.00159556,0.0607102,396809,0.0,0.0,0.0
402744369,3670026,-0.00311708,-0.00566626,0.000937477,3670026,-0.0529846,-0.000819565,0.0645827,396809,0.0,0.0,0.0
403747485,3670026,-0.00314257,-0.00562833,0.000949264,3670026,-0.0517493,-0.00182095,0.0668585,396809,0.0,0.0,0.0
404745669,3670026,-0.00316704,-0.00564866,0.000963169,3670026,-0.0512929,-0.00197056,0.0677303,396809,0.0,0.0,0.0
405738884,3670026,-0.00316033,-0.00559441,0.000977602,3670026,-0.0514599,-0.00256803,0.0676138,396809,0.0,0.0,0.0
406747093,3670026,-0.00317762,-0.00558815,0.00100155,3670026,-0.0516461,-0.00273699,0.0652144,396809,0.0,0.0,0.0
407740225,3670026,-0.00319195,-0.00556681,0.00102758,3670026,-0.0514598,-0.00337182,0.0644007,396809,0.0,0.0,0.0
408738411,3670026,-0.00324999,-0.00555622,0.00106745,3670026,-0.0504706,-0.00399617,0.0623453,396809,0.0,0.0,0.0
409736777,3670026,-0.0032422,-0.00550946,0.00109518,3670026,-0.0500065,-0.00452254,0.0632481,396809,0.0,0.0,0.0
410739749,3670026,-0.00328317,-0.00551286,0.00112275,3670026,-0.0491774,-0.00438861,0.0616503,396809,0.0,0.0,0.0
411747868,3670026,-0.00332057,-0.00555577,0.00115151,3670026,-0.0492702,-0.00437657,0.0619051,396809,0.0,0.0,0.0
412741092,3670026,-0.00330511,-0.00556773,0.00118046,3670026,-0.0487317,-0.00418109,0.0622576,396809,0.0,0.0,0.0
413739397,3670026,-0.00328301,-0.00552084,0.00121558,3670026,-0.0486219,-0.00405496,0.0621024,396809,0.0,0.0,0.0
414747396,3670026,-0.00331021,-0.00551442,0.00125754,3670026,-0.0487036,-0.00394397,0.0636071,396809,0.0,0.0,0.0
415740616,3670026,-0.00329251,-0.00548801,0.00129933,3670026,-0.0483751,-0.00367339,0.0630236,396809,0.0,0.0,0.0
416738807,3670026,-0.00323228,-0.00539716,0.00131396,3670026,-0.0474706,-0.00300169,0.0611636,396809,0.0,0.0,0.0
417746925,3670026,-0.00321069,-0.00539615,0.0013389,3670026,-0.0471939,-0.0028563,0.0615326,396809,0.0,0.0,0.0
418745112,3670026,-0.00322383,-0.00541569,0.00137338,3670026,-0.0473181,-0.00305381,0.0605612,396809,0.0,0.0,0.0
419738335,3670026,-0.00317755,-0.00545086,0.00142625,3670026,-0.0467006,-0.00359673,0.0603463,396809,0.0,0.0,0.0
420741525,3670026,-0.00314027,-0.0054158,0.00149634,3670026,-0.046108,-0.00323273,0.0632162,396809,0.0,0.0,0.0
421749610,3670026,-0.00310465,-0.00540648,0.00155044,3670026,-0.0457044,-0.00276377,0.0658188,396809,0.0,0.0,0.0
422742833,3670026,-0.00311118,-0.0053596,0.00155218,3670026,-0.0456528,-0.00243894,0.0664288,396809,0.0,0.0,0.0
423745996,3670026,-0.00307981,-0.0053481,0.00154871,3670026,-0.0454173,-0.00224355,0.0666451,396809,0.0,0.0,0.0
424744179,3670026,-0.00306836,-0.00536717,0.00152934,3670026,-0.0452849,-0.0024474,0.0700376,396809,0.0,0.0,0.0
425742368,3670026,-0.0030265,-0.00531302,0.00147339,3670026,-0.0448171,-0.00216748,0.0712768,396809,0.0,0.0,0.0
426740558,3670026,-0.00305167,-0.00529749,0.00143187,3670026,-0.0451602,-0.00193264,0.0688115,396809,0.0,0.0,0.0
427743768,3670026,-0.00303893,-0.00525247,0.00137739,3670026,-0.0450832,-0.00156515,0.0663432,396809,0.0,0.0,0.0
428746880,3670026,-0.00307984,-0.00519058,0.00123751,3670026,-0.0438662,0.000246132,0.0659911,396809,0.0,0.0,0.0
429740096,3670026,-0.00311951,-0.00511708,0.00142035,3670026,-0.0395422,-0.000494525,0.0670371,396809,0.0,0.0,0.0
430748220,3670026,-0.00318508,-0.00510085,0.0014679,3670026,-0.0364828,-0.000314002,0.0665539,396809,0.0,0.0,0.0
431746411,3670026,-0.00318336,-0.00511879,0.00146171,3670026,-0.0373428,0.00276594,0.0635129,396809,0.0,0.0,0.0
432749568,3670026,-0.00320245,-0.00509618,0.00146996,3670026,-0.0347383,0.00259124,0.0645263,396809,0.0,0.0,0.0
433747761,3670026,-0.00321108,-0.00508317,0.00149209,3670026,-0.0346536,0.00222998,0.069075,396809,0.0,0.0,0.0
434746080,3670026,-0.00321821,-0.00506724,0.00163928,3670026,-0.0319603,0.00320481,0.0674952,396809,0.0,0.0,0.0
435749112,3670026,-0.00318927,-0.00504413,0.00170444,3670026,-0.0312439,0.00454748,0.0684738,396809,0.0,0.0,0.0
436747304,3670026,-0.0031857,-0.00508119,0.00175553,3670026,-0.0304655,0.00517409,0.0665636,396809,0.0,0.0,0.0
437740530,3670026,-0.00319346,-0.00507061,0.00179972,3670026,-0.0305696,0.00484261,0.0656931,396809,0.0,0.0,0.0
438748657,3670026,-0.00314324,-0.00502353,0.00181812,3670026,-0.0307093,0.00516196,0.0644698,396809,0.0,0.0,0.0
439746849,3670026,-0.00311542,-0.00504764,0.00184841,3670026,-0.030621,0.00524151,0.0645602,396809,0.0,0.0,0.0
440745050,3670026,-0.00308387,-0.00504444,0.00186261,3670026,-0.0303925,0.00526605,0.0639216,396809,0.0,0.0,0.0
441748291,3670026,-0.00307524,-0.00503143,0.00187785,3670026,-0.0304409,0.00509849,0.0646946,396809,0.0,0.0,0.0
442741430,3670026,-0.00310642,-0.00500541,0.00189361,3670026,-0.0309264,0.00530904,0.0657334,396809,0.0,0.0,0.0
443744590,3670026,-0.0030668,-0.00506538,0.00192445,3670026,-0.0305184,0.00473423,0.065384,396809,0.0,0.0,0.0
444747753,3670026,-0.00301629,-0.00500225,0.00192842,3670026,-0.0299097,0.00500769,0.0636538,396809,0.0,0.0,0.0
445745947,3670026,-0.00295759,-0.00503891,0.0019432,3670026,-0.029278,0.00443697,0.0630672,396809,0.0,0.0,0.0
446744141,3670026,-0.00296745,-0.0050366,0.00194383,3670026,-0.0293719,0.00458538,0.0663372,396809,0.0,0.0,0.0
447747303,3670026,-0.00294525,-0.00498584,0.00191132,3670026,-0.0289933,0.00488031,0.0658713,396809,0.0,0.0,0.0
448740589,3670026,-0.00293797,-0.00496336,0.00188168,3670026,-0.0288203,0.0049819,0.0654147,396809,0.0,0.0,0.0
449748658,3670026,-0.00295105,-0.00498564,0.00187434,3670026,-0.0288854,0.00504036,0.0668245,396809,0.0,0.0,0.0
450746854,3670026,-0.00288291,-0.004965,0.00186566,3670026,-0.0283826,0.00524693,0.0599776,396809,0.0,0.0,0.0
451745052,3670026,-0.00287718,-0.0049184,0.0018234,3670026,-0.0281904,0.00532591,0.0564951,396809,0.0,0.0,0.0
452743262,3670026,-0.00293231,-0.00492793,0.00179105,3670026,-0.0284276,0.00541422,0.0585405,396809,0.0,0.0,0.0
453746409,3670026,-0.00294902,-0.00494487,0.00175998,3670026,-0.0285163,0.00556973,0.0605426,396809,0.0,0.0,0.0
454739676,3670026,-0.00294769,-0.00491712,0.00170072,3670026,-0.0283208,0.00564672,0.0641446,396809,0.0,0.0,0.0
455747868,3670026,-0.00295298,-0.00490803,0.00164981,3670026,-0.0282533,0.00564472,0.067171,396809,0.0,0.0,0.0
456745965,3670026,-0.00293972,-0.00495338,0.00161487,3670026,-0.0282337,0.00534585,0.0712909,396809,0.0,0.0,0.0
457739200,3670026,-0.00293992,-0.00493662,0.00158057,3670026,-0.0281423,0.00545129,0.0708104,396809,0.0,0.0,0.0
458742359,3670026,-0.0029037,-0.0048936,0.00152742,3670026,-0.0277705,0.00558822,0.0707101,396809,0.0,0.0,0.0
459745522,3670026,-0.00291192,-0.00490289,0.0015086,3670026,-0.0278003,0.0056108,0.070831,396809,0.0,0.0,0.0
460748686,3670026,-0.00293377,-0.00488094,0.00147591,3670026,-0.0278267,0.00572254,0.0705958,396809,0.0,0.0,0.0
461741918,3670026,-0.00295339,-0.00481498,0.00144414,3670026,-0.0277089,0.00594429,0.0694274,396809,0.0,0.0,0.0
462745249,3670026,-0.00296264,-0.00487609,0.00143396,3670026,-0.0278954,0.005869,0.0686598,396809,0.0,0.0,0.0
463743280,3670026,-0.00298235,-0.00481966,0.00140078,3670026,-0.0278294,0.00597958,0.0686227,396809,0.0,0.0,0.0
464741478,3670026,-0.00300403,-0.00483218,0.00138276,3670026,-0.0279145,0.0060392,0.067966,396809,0.0,0.0,0.0
465739676,3670026,-0.00296839,-0.00477178,0.00134731,3670026,-0.0277043,0.00610035,0.0656748,396809,0.0,0.0,0.0
466742841,3670026,-0.00295233,-0.00479977,0.00132463,3670026,-0.0277486,0.00599631,0.0611858,396809,0.0,0.0,0.0
467746007,3670026,-0.00296751,-0.00478773,0.0012876,3670026,-0.0276988,0.00601991,0.0606779,396809,0.0,0.0,0.0
468739238,3670026,-0.00293701,-0.00479115,0.00126187,3670026,-0.027626,0.00605563,0.0595041,396809,0.0,0.0,0.0
469747532,3670026,-0.00294513,-0.00473772,0.0012282,3670026,-0.0275536,0.00613788,0.0584502,396809,0.0,0.0,0.0
470745568,3670026,-0.00293715,-0.00474219,0.00120657,3670026,-0.0275499,0.0061372,0.060488,396809,0.0,0.0,0.0
471738802,3670026,-0.00293756,-0.0047598,0.00118849,3670026,-0.0275374,0.00609229,0.0605183,396809,0.0,0.0,0.0
472746933,3670026,-0.00297021,-0.00478029,0.00118579,3670026,-0.0276261,0.00612558,0.06506,396809,0.0,0.0,0.0
473745137,3670026,-0.00292862,-0.00476208,0.00118785,3670026,-0.0275743,0.00624851,0.0681023,396809,0.0,0.0,0.0
474748299,3670026,-0.00294822,-0.00475508,0.00118182,3670026,-0.0275822,0.00626693,0.0675256,396809,0.0,0.0,0.0
475746498,3670026,-0.00292835,-0.00474514,0.00117959,3670026,-0.0276112,0.00627324,0.0669062,396809,0.0,0.0,0.0
476744807,3670026,-0.00292599,-0.00472928,0.00117432,3670026,-0.0276263,0.00627516,0.067982,396809,0.0,0.0,0.0
477747864,3670026,-0.00291376,-0.0047459,0.00117153,3670026,-0.0275822,0.00619549,0.0689073,396809,0.0,0.0,0.0
478741103,3670026,-0.00293057,-0.00477336,0.00117312,3670026,-0.0276586,0.00615926,0.0722622,396809,0.0,0.0,0.0
479744265,3670026,-0.00293052,-0.00477168,0.00117255,3670026,-0.0277025,0.00618426,0.0729889,396809,0.0,0.0,0.0
480747433,3670026,-0.0029583,-0.00469577,0.00116228,3670026,-0.0275659,0.00624682,0.0734176,396809,0.0,0.0,0.0
481740666,3670026,-0.00288855,-0.00473027,0.00115839,3670026,-0.0275292,0.00623953,0.0755751,396809,0.0,0.0,0.0
482738868,3670026,-0.00284285,-0.00470027,0.00114142,3670026,-0.0275264,0.00622132,0.0698353,396809,0.0,0.0,0.0
483747124,3670026,-0.00290779,-0.0046652,0.0011188,3670026,-0.0275442,0.0062684,0.0677072,396809,0.0,0.0,0.0
484745203,3670026,-0.00293857,-0.00469171,0.00110211,3670026,-0.0276229,0.00631096,0.0687884,396809,0.0,0.0,0.0
485738434,3670026,-0.00292506,-0.0046822,0.00107864,3670026,-0.0275633,0.00631381,0.0676403,396809,0.0,0.0,0.0
486746569,3670026,-0.00288802,-0.00470726,0.00106723,3670026,-0.0275934,0.00631933,0.0643284,396809,0.0,0.0,0.0
487739804,3670026,-0.00291039,-0.00466993,0.00104399,3670026,-0.0275561,0.00632435,0.0635335,396809,0.0,0.0,0.0
488742972,3670026,-0.00282653,-0.00467593,0.00102379,3670026,-0.0275629,0.00623106,0.0567452,396809,0.0,0.0,0.0
489746156,3670026,-0.00288068,-0.00468765,0.00101065,3670026,-0.0276907,0.00637368,0.0636049,396809,0.0,0.0,0.0
490739471,3670026,-0.00283968,-0.00464989,0.00098363,3670026,-0.0275043,0.00637607,0.0686997,396809,0.0,0.0,0.0
491742543,3670026,-0.00284138,-0.0046351,0.000959859,3670026,-0.0273864,0.00636174,0.070373,396809,0.0,0.0,0.0
492745711,3670026,-0.0028545,-0.00463386,0.000942159,3670026,-0.027614,0.00644376,0.0696626,396809,0.0,0.0,0.0
493738947,3670026,-0.00286379,-0.00463545,0.000922933,3670026,-0.0275921,0.00646072,0.068555,396809,0.0,0.0,0.0
494747082,3670026,-0.00283229,-0.00464149,0.000907484,3670026,-0.0275866,0.00644346,0.0687371,396809,0.0,0.0,0.0
495745283,3670026,-0.00285568,-0.00464121,0.000891645,3670026,-0.0276065,0.00644414,0.0692078,396809,0.0,0.0,0.0
496738533,3670026,-0.00285872,-0.00459549,0.000872273,3670026,-0.0275071,0.00642418,0.0687856,396809,0.0,0.0,0.0
497746800,3670026,-0.00288348,-0.00462446,0.000855062,3670026,-0.0276247,0.0064646,0.0672297,396809,0.0,0.0,0.0
498749822,3670026,-0.00283758,-0.0046125,0.000833766,3670026,-0.0274931,0.00643367,0.0689362,396809,0.0,0.0,0.0
499738147,3670026,-0.00282044,-0.00462114,0.000821227,3670026,-0.0276099,0.00651167,0.0689724,396809,0.0,0.0,0.0
500746229,3670026,-0.00279532,-0.0046149,0.000804522,3670026,-0.0275332,0.00650201,0.0672433,396809,0.0,0.0,0.0
501739464,3670026,-0.00278435,-0.00461966,0.000787038,3670026,-0.0274684,0.00646957,0.0672712,396809,0.0,0.0,0.0
502747600,3670026,-0.00279415,-0.00465302,0.000772958,3670026,-0.0276276,0.00649266,0.0674673,396809,0.0,0.0,0.0
503740840,3670026,-0.00281534,-0.00459844,0.000762348,3670026,-0.0274272,0.00645635,0.0689996,396809,0.0,0.0,0.0
504739148,3670026,-0.00282893,-0.0046144,0.000761457,3670026,-0.0275338,0.0064764,0.0677057,396809,0.0,0.0,0.0
505747175,3670026,-0.00285605,-0.00462866,0.000764003,3670026,-0.0276061,0.00646755,0.0651306,396809,0.0,0.0,0.0
506740412,3670026,-0.00288475,-0.00461483,0.000759957,3670026,-0.027597,0.00642097,0.0636105,396809,0.0,0.0,0.0
507738616,3670026,-0.00291144,-0.00456661,0.000747162,3670026,-0.0275232,0.00644976,0.0656646,396809,0.0,0.0,0.0
508746753,3670026,-0.0028909,-0.00457656,0.000746378,3670026,-0.027587,0.00645323,0.0679157,396809,0.0,0.0,0.0
509744956,3670026,-0.00288075,-0.00456518,0.000749972,3670026,-0.027602,0.00646866,0.0675366,396809,0.0,0.0,0.0
510738198,3670026,-0.00288667,-0.00455386,0.000758727,3670026,-0.0275859,0.00641662,0.069427,396809,0.0,0.0,0.0
511746483,3670026,-0.00286531,-0.00455191,0.000772577,3670026,-0.0276577,0.00638111,0.0705886,396809,0.0,0.0,0.0
512744534,3670026,-0.00286338,-0.00453889,0.000795764,3670026,-0.0276457,0.00645217,0.0670286,396809,0.0,0.0,0.0
513737775,3670026,-0.0028922,-0.00449858,0.000811834,3670026,-0.0275844,0.00646887,0.0668812,396809,0.0,0.0,0.0
514740942,3670026,-0.00290894,-0.00451115,0.000824159,3670026,-0.027546,0.00642035,0.068707,396809,0.0,0.0,0.0
515744113,3670026,-0.00296868,-0.00455624,0.000841363,3670026,-0.0277612,0.00645762,0.0672356,396809,0.0,0.0,0.0
516747283,3670026,-0.00297211,-0.00454935,0.000851596,3670026,-0.0276852,0.00641362,0.066803,396809,0.0,0.0,0.0
517740521,3670026,-0.00299823,-0.00455848,0.000848592,3670026,-0.0277346,0.00641115,0.0672505,396809,0.0,0.0,0.0
518748832,3670026,-0.00295996,-0.00452658,0.000836935,3670026,-0.0276057,0.00637102,0.0691535,396809,0.0,0.0,0.0
519746863,3670026,-0.00293393,-0.00451737,0.000822179,3670026,-0.0276058,0.00635237,0.0661345,396809,0.0,0.0,0.0
520740103,3670026,-0.00293059,-0.0045145,0.000804062,3670026,-0.0275504,0.00635125,0.0647318,396809,0.0,0.0,0.0
521748238,3670026,-0.00293672,-0.0045534,0.000793842,3670026,-0.0277278,0.00639034,0.0635389,396809,0.0,0.0,0.0
522746440,3670026,-0.00295757,-0.00452058,0.000780651,3670026,-0.0276423,0.00630041,0.0626339,396809,0.0,0.0,0.0
523749647,3670026,-0.00297392,-0.00452514,0.000774791,3670026,-0.0275963,0.00632358,0.0605775,396809,0.0,0.0,0.0
524747821,3670026,-0.00290545,-0.00451154,0.000767235,3670026,-0.0276639,0.00622828,0.062206,396809,0.0,0.0,0.0
525741208,3670026,-0.00294138,-0.00454029,0.00077371,3670026,-0.027732,0.00626117,0.0676822,396809,0.0,0.0,0.0
526749219,3670026,-0.00286517,-0.00456691,0.000756235,3670026,-0.0275257,0.00635641,0.0722946,396809,0.0,0.0,0.0
527737472,3670026,-0.0029278,-0.00457766,0.000767559,3670026,-0.027558,0.0064184,0.0747476,396809,0.0,0.0,0.0
528745610,3670026,-0.00296772,-0.00456941,0.000763138,3670026,-0.0275767,0.00645716,0.0735652,396809,0.0,0.0,0.0
529748791,3670026,-0.0029597,-0.00452466,0.000766066,3670026,-0.0274657,0.00642719,0.0738964,396809,0.0,0.0,0.0
530746995,3670026,-0.00297118,-0.00454199,0.000771523,3670026,-0.0275055,0.00643932,0.0727184,396809,0.0,0.0,0.0
531740228,3670026,-0.00292994,-0.00450339,0.000764014,3670026,-0.027394,0.00645103,0.0699571,396809,0.0,0.0,0.0
532748555,3670026,-0.0029254,-0.0044936,0.000764485,3670026,-0.0274592,0.00651104,0.0680225,396809,0.0,0.0,0.0
533746626,3670026,-0.00294088,-0.0044616,0.000766361,3670026,-0.0274768,0.00655821,0.0679441,396809,0.0,0.0,0.0
534744780,3670026,-0.0029328,-0.00446421,0.000759969,3670026,-0.0275021,0.00658348,0.0674005,396809,0.0,0.0,0.0
535747952,3670026,-0.00289333,-0.00444918,0.000762223,3670026,-0.0274164,0.00654302,0.0642111,396809,0.0,0.0,0.0
536746181,3670026,-0.00292773,-0.00446266,0.000769758,3670026,-0.0275517,0.00655452,0.0636197,396809,0.0,0.0,0.0
537744366,3670026,-0.00293012,-0.00447333,0.000787579,3670026,-0.0275752,0.00659606,0.0676711,396809,0.0,0.0,0.0
538747539,3670026,-0.00291712,-0.0044434,0.000788452,3670026,-0.0274749,0.00655723,0.0682204,396809,0.0,0.0,0.0
539740938,3670026,-0.00293603,-0.00445684,0.000786706,3670026,-0.0274229,0.00658953,0.0690142,396809,0.0,0.0,0.0
540743960,3670026,-0.00293888,-0.00447112,0.000777466,3670026,-0.0276038,0.00664079,0.0703263,396809,0.0,0.0,0.0
541747178,3670026,-0.00295647,-0.00444071,0.00076074,3670026,-0.0276688,0.0066782,0.0683165,396809,0.0,0.0,0.0
542740369,3670026,-0.00296493,-0.00440483,0.000746045,3670026,-0.0275645,0.00665374,0.0673992,396809,0.0,0.0,0.0
543748536,3670026,-0.00298216,-0.00445048,0.000783647,3670026,-0.027646,0.00664759,0.0638246,396809,0.0,0.0,0.0
544746716,3670026,-0.00294951,-0.00444493,0.000815276,3670026,-0.0277861,0.00673181,0.0645191,396809,0.0,0.0,0.0
545739958,3670026,-0.00289943,-0.00446123,0.000802399,3670026,-0.0274692,0.00684128,0.0569233,396809,0.0,0.0,0.0
546738383,3670026,-0.00295334,-0.00446553,0.000798254,3670026,-0.0276208,0.00688544,0.0625878,396809,0.0,0.0,0.0
547746308,3670026,-0.00297936,-0.00445407,0.000792744,3670026,-0.0276918,0.00688816,0.0640224,396809,0.0,0.0,0.0
548739549,3670026,-0.00298485,-0.00443293,0.000777479,3670026,-0.0276167,0.00684593,0.0676111,396809,0.0,0.0,0.0
549747751,3670026,-0.00296753,-0.00447455,0.000792154,3670026,-0.0277065,0.00685066,0.0670153,396809,0.0,0.0,0.0
550745927,3670026,-0.00295916,-0.00443259,0.000787636,3670026,-0.0276508,0.00688669,0.0660848,396809,0.0,0.0,0.0
551749074,3670026,-0.00294145,-0.00437231,0.000773955,3670026,-0.0275759,0.00685056,0.0633249,396809,0.0,0.0,0.0
552747283,3670026,-0.00295889,-0.00440967,0.000765189,3670026,-0.0276827,0.00691534,0.0678196,396809,0.0,0.0,0.0
553745499,3670026,-0.00295331,-0.00438878,0.000750508,3670026,-0.0277601,0.00691616,0.0657531,396809,0.0,0.0,0.0
554748664,3670026,-0.00291707,-0.00437428,0.000746605,3670026,-0.0276354,0.0068859,0.0642116,396809,0.0,0.0,0.0
555741909,3670026,-0.00291597,-0.00432797,0.0008433,3670026,-0.0260823,0.00823331,0.066438,396809,0.0,0.0,0.0
556745091,3670026,-0.00297763,-0.00433465,0.000974163,3670026,-0.0229373,0.00915018,0.0652922,396809,0.0,0.0,0.0
557743371,3670026,-0.00302107,-0.00427889,0.00105766,3670026,-0.0192819,0.00747596,0.0629439,396809,0.0,0.0,0.0
558741501,3670026,-0.00306243,-0.00424917,0.00110272,3670026,-0.01576,0.00676534,0.0606365,396809,0.0,0.0,0.0
559739710,3670026,-0.00307789,-0.00427517,0.0011601,3670026,-0.0151702,0.00767316,0.0625112,396809,0.0,0.0,0.0
560747852,3670026,-0.00307952,-0.00428431,0.00120947,3670026,-0.0137924,0.0082999,0.0631768,396809,0.0,0.0,0.0
561741094,3670026,-0.00308317,-0.00433947,0.00130196,3670026,-0.0113766,0.011587,0.0641755,396809,0.0,0.0,0.0
562739304,3670026,-0.0030994,-0.00438917,0.00140428,3670026,-0.0113355,0.0139823,0.0610533,396809,0.0,0.0,0.0
563747446,3670026,-0.00311304,-0.00439588,0.00146502,3670026,-0.0111149,0.0141965,0.0613455,396809,0.0,0.0,0.0
564745751,3670026,-0.00309397,-0.00437573,0.0015011,3670026,-0.0113009,0.0141624,0.0620727,396809,0.0,0.0,0.0
565748833,3670026,-0.00311623,-0.00439417,0.00153546,3670026,-0.0110622,0.0136672,0.0664048,396809,0.0,0.0,0.0
566747041,3670026,-0.00305102,-0.00438265,0.00155966,3670026,-0.0109252,0.0142371,0.0667299,396809,0.0,0.0,0.0
567735493,3670026,-0.00307063,-0.00429595,0.00158512,3670026,-0.0111626,0.0149635,0.0653073,396809,0.0,0.0,0.0
568748445,3670026,-0.00308312,-0.00422082,0.00157484,3670026,-0.0112738,0.0154664,0.0654438,396809,0.0,0.0,0.0
569746656,3670026,-0.00309138,-0.00422658,0.00155779,3670026,-0.0112828,0.0154761,0.0663456,396809,0.0,0.0,0.0
570739881,3670026,-0.00308974,-0.00428431,0.00153199,3670026,-0.0111896,0.0150087,0.0659727,396809,0.0,0.0,0.0
571748093,3670026,-0.00304645,-0.00429045,0.00146634,3670026,-0.0107337,0.0142834,0.0642385,396809,0.0,0.0,0.0
572746235,3670026,-0.00304804,-0.00431157,0.00135796,3670026,-0.0105405,0.0130726,0.0655586,396809,0.0,0.0,0.0
573739477,3670026,-0.00302228,-0.00429366,0.00130296,3670026,-0.00989838,0.0123347,0.0655175,396809,0.0,0.0,0.0
574747620,3670026,-0.00304175,-0.00426655,0.00128591,3670026,-0.00996189,0.0123879,0.0671701,396809,0.0,0.0,0.0
575745830,3670026,-0.0030678,-0.0042107,0.00125095,3670026,-0.00998155,0.0125347,0.0682035,396809,0.0,0.0,0.0
576739075,3670026,-0.00306255,-0.00415479,0.00121853,3670026,-0.00973287,0.0127671,0.0728432,396809,0.0,0.0,0.0
577742252,3670026,-0.00303221,-0.00411967,0.00118358,3670026,-0.00947651,0.012857,0.0745881,396809,0.0,0.0,0.0
578740504,3670026,-0.00303475,-0.00414338,0.00115304,3670026,-0.00931097,0.0129002,0.0746384,396809,0.0,0.0,0.0
579748649,3670026,-0.00303369,-0.00418477,0.00113104,3670026,-0.00919327,0.0129537,0.0700415,396809,0.0,0.0,0.0
580741854,3670026,-0.0030257,-0.00421128,0.00113333,3670026,-0.00915756,0.0128634,0.0658764,396809,0.0,0.0,0.0
581745070,3670026,-0.00308011,-0.00418162,0.00111271,3670026,-0.00942895,0.0132336,0.0668043,396809,0.0,0.0,0.0
582748245,3670026,-0.00301633,-0.00418517,0.00107977,3670026,-0.00906123,0.0128884,0.0690414,396809,0.0,0.0,0.0
583741454,3670026,-0.00299082,-0.00419657,0.00105831,3670026,-0.0088417,0.013047,0.0658636,396809,0.0,0.0,0.0
584744628,3670026,-0.00301761,-0.00417337,0.00104195,3670026,-0.00893935,0.0133702,0.0638058,396809,0.0,0.0,0.0
585742918,3670026,-0.00298977,-0.00418856,0.00102485,3670026,-0.00882954,0.0133331,0.0592293,396809,0.0,0.0,0.0
586741052,3670026,-0.00296254,-0.00412955,0.000917725,3670026,-0.00880065,0.0132891,0.0590712,396809,0.0,0.0,0.0
587744229,3670026,-0.00297465,-0.00415693,0.000879305,3670026,-0.00851785,0.0134499,0.0595585,396809,0.0,0.0,0.0
588747408,3670026,-0.00297903,-0.00415377,0.000894144,3670026,-0.00848096,0.0133916,0.0598017,396809,0.0,0.0,0.0
589740680,3670026,-0.00297352,-0.00416562,0.000911966,3670026,-0.00847167,0.013377,0.0622534,396809,0.0,0.0,0.0
