timestamp,gyro_device_id,gyro_bias[0],gyro_bias[1],gyro_bias[2],accel_device_id,accel_bias[0],accel_bias[1],accel_bias[2],mag_device_id,mag_bias[0],mag_bias[1],mag_bias[2]
23556219,3670026,0.010557498,-0.0008995738,0.0013824581,3670026,0.0,0.0,-0.16810766,396809,0.0,0.0,0.0
23566148,3670026,0.010558156,-0.0009004093,0.0013706167,3670026,0.0,0.0,-0.1681119,396809,0.0,0.0,0.0
24559324,3670026,0.010513921,-0.0009796555,0.00011320366,3670026,0.0,0.0,-0.16423565,396809,0.0,0.0,0.0
25557325,3670026,0.010614271,-0.0010511845,-0.00084807875,3670026,0.0,0.0,-0.16311213,396809,0.0,0.0,0.0
26560361,3670026,0.01062449,-0.0010777268,-0.0012965262,3670026,-8.621612e-05,0.00031089678,-0.1616558,396809,0.0,0.0,0.0
27558432,3670026,0.0105219735,-0.0010398191,-0.000911669,3670026,-0.0005565325,0.0019391216,-0.15975559,396809,0.0,0.0,0.0
28556515,3670026,0.010557262,-0.0010203741,-0.0006213526,3670026,-0.0021690566,0.0073900726,-0.16000307,396809,0.0,0.0,0.0
29554578,3670026,0.010558117,-0.0010024714,-0.00037291754,3670026,-0.0042388267,0.014962846,-0.16004905,396809,0.0,0.0,0.0
30557613,3670026,0.010546498,-0.0009916779,-0.00019989371,3670026,-0.005920182,0.022585988,-0.16012247,396809,0.0,0.0,0.0
31555878,3670026,0.010501481,-0.0009821694,-3.3601314e-05,3670026,-0.0064026965,0.027577493,-0.15996608,396809,0.0,0.0,0.0
32563689,3670026,0.010497872,-0.0009790489,0.00011650378,3670026,-0.0072667883,0.03224857,-0.16067205,396809,0.0,0.0,0.0
33556816,3670026,0.010425003,-0.0009684151,0.00023393604,3670026,-0.0094842985,0.040457793,-0.16056441,396809,0.0,0.0,0.0
34559835,3670026,0.010366895,-0.001000382,0.000277461,3670026,-0.027962485,0.055492606,-0.16105336,396809,0.0,0.0,0.0
35562983,3670026,0.010472156,-0.0009691177,0.00026923037,3670026,-0.009460705,0.03534628,-0.15954143,396809,0.0,0.0,0.0
36555997,3670026,0.010419774,-0.00096093025,0.00027679684,3670026,-0.0070073823,0.038345158,-0.15567611,396809,0.0,0.0,0.0
37559028,3670026,0.010387767,-0.0009662424,0.00027626797,3670026,-0.0061334856,0.038141828,-0.15214282,396809,0.0,0.0,0.0
38557093,3670026,0.01044531,-0.0009804328,0.00025293842,3670026,-0.0069448305,0.039331503,-0.15064742,396809,0.0,0.0,0.0
39555167,3670026,0.010413612,-0.0010176426,0.00021526801,3670026,-0.00759271,0.04055397,-0.14703712,396809,0.0,0.0,0.0
40558209,3670026,0.010409557,-0.0010472896,0.00013419127,3670026,-0.008456564,0.040740073,-0.14430328,396809,0.0,0.0,0.0
41556280,3670026,0.01048484,-0.0010859378,2.0339201e-05,3670026,-0.008952494,0.040982917,-0.14257826,396809,0.0,0.0,0.0
42559378,3670026,0.010440346,-0.0010883944,-6.271131e-05,3670026,-0.008076554,0.039849162,-0.13946916,396809,0.0,0.0,0.0
43557395,3670026,0.010485812,-0.0011123818,-0.00012531361,3670026,-0.0086774,0.04017402,-0.13902363,396809,0.0,0.0,0.0
44555505,3670026,0.010524017,-0.0011014878,-0.0001557275,3670026,-0.008000295,0.03930269,-0.13827282,396809,0.0,0.0,0.0
45558507,3670026,0.010559386,-0.001104992,-0.00022013203,3670026,-0.007862008,0.039330225,-0.13725722,396809,0.0,0.0,0.0
46556582,3670026,0.010548283,-0.0011057403,-0.00029474395,3670026,-0.00778067,0.039294668,-0.13561155,396809,0.0,0.0,0.0
47554659,3670026,0.010565946,-0.0010842053,-0.00030798776,3670026,-0.00676472,0.03932192,-0.13450354,396809,0.0,0.0,0.0
48557696,3670026,0.0105817085,-0.0010915396,-0.00032122352,3670026,-0.007533995,0.03935523,-0.13333896,396809,0.0,0.0,0.0
49560818,3670026,0.010542827,-0.0010765021,-0.00036560628,3670026,-0.0074059386,0.03854472,-0.13195392,396809,0.0,0.0,0.0
50553847,3670026,0.010633518,-0.0010381308,-0.00045010404,3670026,-0.0051749423,0.03796984,-0.13196512,396809,0.0,0.0,0.0
51556887,3670026,0.010594729,-0.001017502,-0.00045327397,3670026,-0.0046919337,0.037868608,-0.13069572,396809,0.0,0.0,0.0
52559929,3670026,0.0105611235,-0.0009974794,-0.0005641739,3670026,-0.003268589,0.03845192,-0.1294915,396809,0.0,0.0,0.0
53563011,3670026,0.010645441,-0.0010196987,-0.00049042935,3670026,-0.003724527,0.039010644,-0.12990731,396809,0.0,0.0,0.0
54561043,3670026,0.010626027,-0.0010196745,-0.0005722106,3670026,-0.0024539714,0.039604932,-0.12822825,396809,0.0,0.0,0.0
55554154,3670026,0.010630691,-0.0010272184,-0.0006442649,3670026,-0.0019313474,0.04073921,-0.12795371,396809,0.0,0.0,0.0
56562264,3670026,0.010599236,-0.0010405169,-0.00070728245,3670026,-0.0013883593,0.042354636,-0.12724948,396809,0.0,0.0,0.0
57555270,3670026,0.010574804,-0.0009965199,-0.0006752209,3670026,0.00043415153,0.042079166,-0.12635173,396809,0.0,0.0,0.0
58558312,3670026,0.010618866,-0.0009609648,-0.0007308532,3670026,0.0017199211,0.042218365,-0.12633938,396809,0.0,0.0,0.0
59556388,3670026,0.010651872,-0.0009851382,-0.00074378785,3670026,0.0027419368,0.042651355,-0.12595138,396809,0.0,0.0,0.0
60554509,3670026,0.010622649,-0.0009737161,-0.0007400427,3670026,0.0029115484,0.042064536,-0.12528849,396809,0.0,0.0,0.0
61557540,3670026,0.010592355,-0.00093448855,-0.00075757026,3670026,0.004779537,0.042559445,-0.124968536,396809,0.0,0.0,0.0
62555583,3670026,0.010658562,-0.00095515273,-0.0008160246,3670026,0.0063421633,0.04325841,-0.12518223,396809,0.0,0.0,0.0
63563765,3670026,0.010555651,-0.00093157945,-0.0008878561,3670026,0.008700471,0.04462973,-0.12415204,396809,0.0,0.0,0.0
64556700,3670026,0.010515055,-0.0009279703,-0.0009703796,3670026,0.009779208,0.04550106,-0.12371019,396809,0.0,0.0,0.0
65554776,3670026,0.010594046,-0.0009396596,-0.0010043868,3670026,0.010984932,0.04597944,-0.12411876,396809,0.0,0.0,0.0
66557819,3670026,0.010520393,-0.00096090103,-0.0010426737,3670026,0.0114318635,0.04602001,-0.12295724,396809,0.0,0.0,0.0
67555896,3670026,0.010508091,-0.000997305,-0.0011152324,3670026,0.012906332,0.04771514,-0.12306063,396809,0.0,0.0,0.0
68558938,3670026,0.010556399,-0.00095617573,-0.0011572539,3670026,0.009489478,0.04800219,-0.12342817,396809,0.0,0.0,0.0
69557017,3670026,0.01054226,-0.0009883045,-0.0010583656,3670026,0.0009108434,0.049712036,-0.1230649,396809,0.0,0.0,0.0
70555202,3670026,0.010597049,-0.0009750525,-0.0010540207,3670026,0.0003896113,0.049757108,-0.12309608,396809,0.0,0.0,0.0
71553169,3670026,0.01061684,-0.0009301741,-0.0010448362,3670026,-0.00016250767,0.050113965,-0.12286034,396809,0.0,0.0,0.0
72561177,3670026,0.0105774235,-0.00091213937,-0.0010105529,3670026,0.0009112118,0.050411046,-0.12229791,396809,0.0,0.0,0.0
73554289,3670026,0.010589274,-0.0009271838,-0.0009992223,3670026,0.0020227605,0.051261015,-0.122487344,396809,0.0,0.0,0.0
74562297,3670026,0.010573973,-0.000928788,-0.0009773488,3670026,0.002765961,0.05180894,-0.12236724,396809,0.0,0.0,0.0
75555409,3670026,0.010545388,-0.00095190725,-0.0009845387,3670026,0.0034172602,0.05226614,-0.12169483,396809,0.0,0.0,0.0
76553486,3670026,0.010562347,-0.00092709565,-0.0010056975,3670026,0.004426849,0.05312223,-0.12167396,396809,0.0,0.0,0.0
77561651,3670026,0.010567683,-0.00096432463,-0.0010058822,3670026,0.0046967785,0.053469095,-0.12168661,396809,0.0,0.0,0.0
78559573,3670026,0.010509209,-0.0009549312,-0.0010326637,3670026,0.0056123044,0.0535166,-0.12021222,396809,0.0,0.0,0.0
79557652,3670026,0.010596909,-0.00093497883,-0.0010421308,3670026,0.006077987,0.053950634,-0.121167846,396809,0.0,0.0,0.0
80555735,3670026,0.010624999,-0.0009134854,-0.0010305115,3670026,0.0063291527,0.05378907,-0.12126471,396809,0.0,0.0,0.0
81558774,3670026,0.010533683,-0.0008971218,-0.001021198,3670026,0.007104949,0.05375943,-0.120209806,396809,0.0,0.0,0.0
82556851,3670026,0.010533191,-0.00087509316,-0.0010329984,3670026,0.008645407,0.054771036,-0.120300464,396809,0.0,0.0,0.0
83559895,3670026,0.010577122,-0.0009012941,-0.0010374176,3670026,0.009881577,0.055326514,-0.120364346,396809,0.0,0.0,0.0
84558121,3670026,0.010549543,-0.0009132702,-0.0010623387,3670026,0.010345836,0.05530783,-0.11982241,396809,0.0,0.0,0.0
85556051,3670026,0.010584181,-0.00089165336,-0.0010820652,3670026,0.011000359,0.055646807,-0.11988282,396809,0.0,0.0,0.0
86559099,3670026,0.0105807455,-0.0008946976,-0.0010808643,3670026,0.01087895,0.055637464,-0.11994949,396809,0.0,0.0,0.0
87557175,3670026,0.010579183,-0.0008981588,-0.0011081405,3670026,0.010321003,0.055329256,-0.11984481,396809,0.0,0.0,0.0
88555253,3670026,0.010618912,-0.00089747016,-0.0011291396,3670026,0.011361523,0.055851687,-0.11991794,396809,0.0,0.0,0.0
89558297,3670026,0.010596782,-0.00093178684,-0.0011377045,3670026,0.011572808,0.056171373,-0.11971838,396809,0.0,0.0,0.0
90556376,3670026,0.010605132,-0.0009226843,-0.0011503893,3670026,0.012345188,0.056486364,-0.11945735,396809,0.0,0.0,0.0
91554657,3670026,0.010651853,-0.0009183625,-0.0011859279,3670026,0.012973854,0.056849573,-0.119529255,396809,0.0,0.0,0.0
92557499,3670026,0.010603525,-0.0009017696,-0.0012030897,3670026,0.014378889,0.0572604,-0.119010784,396809,0.0,0.0,0.0
93560543,3670026,0.010590369,-0.00092406356,-0.0012390325,3670026,0.017330967,0.061499413,-0.119094856,396809,0.0,0.0,0.0
94553657,3670026,0.010617497,-0.00089401944,-0.0012398686,3670026,0.0155501235,0.058532074,-0.11961554,396809,0.0,0.0,0.0
95561686,3670026,0.01053838,-0.0008894695,-0.0012324245,3670026,0.015219207,0.057469256,-0.1187006,396809,0.0,0.0,0.0
96559746,3670026,0.0105709005,-0.00089011533,-0.0012374417,3670026,0.014746833,0.057709794,-0.1191155,396809,0.0,0.0,0.0
97557825,3670026,0.010640631,-0.00087513064,-0.0011993926,3670026,0.013927313,0.058373876,-0.119711146,396809,0.0,0.0,0.0
98556117,3670026,0.010621336,-0.00090412877,-0.0011849913,3670026,0.013253307,0.059122574,-0.11897689,396809,0.0,0.0,0.0
99558953,3670026,0.010569012,-0.0008672435,-0.0011821421,3670026,0.012334241,0.05940625,-0.118468285,396809,0.0,0.0,0.0
100557029,3670026,0.010607083,-0.0008780983,-0.0011926831,3670026,0.011412631,0.06031573,-0.118428364,396809,0.0,0.0,0.0
101555109,3670026,0.0106222825,-0.0008906947,-0.0011951424,3670026,0.0109124,0.060759816,-0.118568555,396809,0.0,0.0,0.0
102558226,3670026,0.010563839,-0.0009125157,-0.0011931318,3670026,0.010210602,0.06126031,-0.118048795,396809,0.0,0.0,0.0
103561204,3670026,0.010548018,-0.0009009942,-0.001190967,3670026,0.009884459,0.061688546,-0.118168995,396809,0.0,0.0,0.0
104554315,3670026,0.010556194,-0.0008980743,-0.0012077319,3670026,0.009151636,0.06239735,-0.1182005,396809,0.0,0.0,0.0
105557362,3670026,0.010498106,-0.0009124622,-0.0011937442,3670026,0.008786026,0.0625141,-0.11753346,396809,0.0,0.0,0.0
106555457,3670026,0.010534811,-0.00093259214,-0.0012126314,3670026,0.008066686,0.06319517,-0.117657185,396809,0.0,0.0,0.0
107553519,3670026,0.010544882,-0.0009372421,-0.0012149613,3670026,0.0076676197,0.06327247,-0.11758964,396809,0.0,0.0,0.0
108561530,3670026,0.010529892,-0.00092623447,-0.0011958181,3670026,0.007454592,0.06339938,-0.11726154,396809,0.0,0.0,0.0
109554773,3670026,0.010576818,-0.0008736748,-0.001181764,3670026,0.0073524946,0.06382729,-0.11750449,396809,0.0,0.0,0.0
110552725,3670026,0.01058533,-0.0009022404,-0.0011538716,3670026,0.0071883304,0.06409203,-0.117505886,396809,0.0,0.0,0.0
111560737,3670026,0.010540003,-0.0009141122,-0.0011087359,3670026,0.006857472,0.06484052,-0.11688834,396809,0.0,0.0,0.0
112558817,3670026,0.010526231,-0.000917872,-0.0010938111,3670026,0.005679514,0.07120482,-0.1165003,396809,0.0,0.0,0.0
113556897,3670026,0.010543486,-0.0009354736,-0.0010963879,3670026,0.007344206,0.06631077,-0.116850816,396809,0.0,0.0,0.0
114559943,3670026,0.010516556,-0.0009448035,-0.0011125382,3670026,0.010417933,0.064640604,-0.11670756,396809,0.0,0.0,0.0
115558019,3670026,0.010595281,-0.00089393003,-0.0011134386,3670026,0.0093102995,0.06626085,-0.117676854,396809,0.0,0.0,0.0
116556142,3670026,0.010586237,-0.00090747676,-0.0010917505,3670026,0.010323814,0.06480257,-0.117261715,396809,0.0,0.0,0.0
117559193,3670026,0.0105552655,-0.0009661078,-0.0010852398,3670026,0.011482627,0.06360278,-0.11709629,396809,0.0,0.0,0.0
118557231,3670026,0.010566511,-0.000954627,-0.0010236064,3670026,0.0024360875,0.07358959,-0.11685166,396809,0.0,0.0,0.0
119555312,3670026,0.010529162,-0.00094165275,-0.000896575,3670026,-0.019823346,0.067537084,-0.11598313,396809,0.0,0.0,0.0
120558358,3670026,0.010481188,-0.0009299353,-0.00089512,3670026,-0.020735234,0.067930445,-0.11523376,396809,0.0,0.0,0.0
121556439,3670026,0.010477602,-0.0009548865,-0.0008953408,3670026,-0.021944527,0.06600133,-0.11514532,396809,0.0,0.0,0.0
122554519,3670026,0.010474458,-0.0009703877,-0.0008758154,3670026,-0.021695862,0.066360414,-0.11513054,396809,0.0,0.0,0.0
123557685,3670026,0.010419049,-0.00093956967,-0.0008863024,3670026,-0.019434296,0.06628523,-0.11463618,396809,0.0,0.0,0.0
124555648,3670026,0.010435604,-0.0009473757,-0.00093917333,3670026,-0.0222218,0.066712186,-0.114779554,396809,0.0,0.0,0.0
125553727,3670026,0.010422856,-0.0009315375,-0.0010115114,3670026,-0.027498176,0.06679558,-0.114716955,396809,0.0,0.0,0.0
126556787,3670026,0.0104312645,-0.00095289457,-0.0011860587,3670026,-0.02263559,0.09189455,-0.11443625,396809,0.0,0.0,0.0
127554856,3670026,0.010499838,-0.00089586043,-0.0013075421,3670026,-0.018454902,0.08590188,-0.11514861,396809,0.0,0.0,0.0
128552958,3670026,0.010506261,-0.0008735571,-0.001331588,3670026,-0.017975828,0.08314846,-0.11555712,396809,0.0,0.0,0.0
129555984,3670026,0.0104924,-0.0008481663,-0.0013870539,3670026,-0.01610195,0.081827186,-0.11537866,396809,0.0,0.0,0.0
130564096,3670026,0.01052895,-0.00085462537,-0.0014316423,3670026,-0.014924012,0.0817553,-0.11561457,396809,0.0,0.0,0.0
131557112,3670026,0.010472768,-0.000863112,-0.001467972,3670026,-0.017384535,0.08153726,-0.115078196,396809,0.0,0.0,0.0
132555193,3670026,0.010486241,-0.0009106017,-0.001502441,3670026,-0.019236615,0.082081094,-0.11521174,396809,0.0,0.0,0.0
133558240,3670026,0.010477674,-0.0009289115,-0.0015274892,3670026,-0.021041065,0.082725264,-0.115266256,396809,0.0,0.0,0.0
134556322,3670026,0.01043049,-0.0009609777,-0.0015335188,3670026,-0.021710925,0.08344506,-0.11472587,396809,0.0,0.0,0.0
135559369,3670026,0.010398469,-0.0009843579,-0.0015408958,3670026,-0.022130921,0.08393874,-0.11451491,396809,0.0,0.0,0.0
136557452,3670026,0.010451381,-0.0009982232,-0.0015784774,3670026,-0.02466566,0.085680366,-0.11502881,396809,0.0,0.0,0.0
137555615,3670026,0.010401185,-0.0010027968,-0.0015953294,3670026,-0.027128562,0.086902596,-0.11423675,396809,0.0,0.0,0.0
138558582,3670026,0.010420583,-0.0010035926,-0.0016248951,3670026,-0.029523714,0.08821958,-0.11421106,396809,0.0,0.0,0.0
139556706,3670026,0.010422137,-0.000978921,-0.001624661,3670026,-0.030641377,0.088851266,-0.11389134,396809,0.0,0.0,0.0
140559709,3670026,0.010447657,-0.00095331855,-0.0016356505,3670026,-0.03176994,0.08930873,-0.11374198,396809,0.0,0.0,0.0
141557792,3670026,0.010455223,-0.00094521046,-0.0016628602,3670026,-0.03356309,0.090029776,-0.11340422,396809,0.0,0.0,0.0
142555874,3670026,0.010506338,-0.0009055565,-0.0016736931,3670026,-0.033689655,0.09086813,-0.11364119,396809,0.0,0.0,0.0
143553956,3670026,0.010439752,-0.0009317091,-0.0016388705,3670026,-0.04006389,0.09968002,-0.11274585,396809,0.0,0.0,0.0
144557157,3670026,0.010373138,-0.0009517367,-0.0016213079,3670026,-0.04402913,0.09315861,-0.11203826,396809,0.0,0.0,0.0
145560056,3670026,0.010418454,-0.00093102455,-0.0016122507,3670026,-0.045057587,0.09569041,-0.11161636,396809,0.0,0.0,0.0
146553168,3670026,0.010475319,-0.0009786511,-0.0016432921,3670026,-0.04645338,0.096509695,-0.11233168,396809,0.0,0.0,0.0
147561181,3670026,0.0105027305,-0.00091943116,-0.0016474219,3670026,-0.046839148,0.09705797,-0.11179539,396809,0.0,0.0,0.0
148559278,3670026,0.010411919,-0.00093607284,-0.0016364092,3670026,-0.04671341,0.09630691,-0.11168199,396809,0.0,0.0,0.0
149557346,3670026,0.0104474705,-0.00091291254,-0.0016346221,3670026,-0.047223512,0.09757149,-0.11190882,396809,0.0,0.0,0.0
150560395,3670026,0.01044059,-0.0008764481,-0.0016263734,3670026,-0.04776187,0.09885332,-0.11176837,396809,0.0,0.0,0.0
151563588,3670026,0.0104119405,-0.00091059867,-0.0016366463,3670026,-0.048537243,0.11180587,-0.11219595,396809,0.0,0.0,0.0
152556560,3670026,0.01039973,-0.00086875557,-0.0016361561,3670026,-0.050788667,0.112215914,-0.1120075,396809,0.0,0.0,0.0
153559610,3670026,0.010445334,-0.00086377683,-0.0016295682,3670026,-0.05232543,0.1076375,-0.11255043,396809,0.0,0.0,0.0
154557724,3670026,0.010459067,-0.0008352907,-0.0016153436,3670026,-0.05380145,0.10572567,-0.1124632,396809,0.0,0.0,0.0
155555774,3670026,0.010498575,-0.000822569,-0.0015982077,3670026,-0.053784765,0.10392623,-0.112954274,396809,0.0,0.0,0.0
156558823,3670026,0.010479256,-0.000823298,-0.001576113,3670026,-0.052978817,0.10419276,-0.11290569,396809,0.0,0.0,0.0
157556906,3670026,0.010419305,-0.0008300589,-0.0015650055,3670026,-0.052364312,0.10314733,-0.1126246,396809,0.0,0.0,0.0
158555106,3670026,0.0104584815,-0.0008474056,-0.0015478226,3670026,-0.051143736,0.10341191,-0.11270961,396809,0.0,0.0,0.0
159558037,3670026,0.010400734,-0.00087013724,-0.0015345182,3670026,-0.050752327,0.10327546,-0.11220894,396809,0.0,0.0,0.0
160556128,3670026,0.010457575,-0.0008997114,-0.0015295219,3670026,-0.05023828,0.10350491,-0.11268877,396809,0.0,0.0,0.0
161554208,3670026,0.010454562,-0.00092626526,-0.0015064151,3670026,-0.052114718,0.0883116,-0.111383475,396809,0.0,0.0,0.0
162557271,3670026,0.010410177,-0.00090177916,-0.0014516228,3670026,-0.058080107,0.0771552,-0.10936008,396809,0.0,0.0,0.0
163555341,3670026,0.0104527,-0.0009196989,-0.0014413573,3670026,-0.059824154,0.07458356,-0.10944119,396809,0.0,0.0,0.0
164558385,3670026,0.0104364725,-0.00092267396,-0.0014418811,3670026,-0.059276808,0.07653888,-0.1093527,396809,0.0,0.0,0.0
165561600,3670026,0.010442936,-0.0008884273,-0.0014165472,3670026,-0.06113415,0.07312697,-0.10939899,396809,0.0,0.0,0.0
166559518,3670026,0.010369046,-0.00089870824,-0.0014087892,3670026,-0.06073961,0.07319778,-0.108534686,396809,0.0,0.0,0.0
167562566,3670026,0.010430862,-0.0008748289,-0.0014373164,3670026,-0.0624664,0.07406617,-0.10911318,396809,0.0,0.0,0.0
168560651,3670026,0.01039149,-0.00086111116,-0.0014759768,3670026,-0.06447242,0.074454434,-0.10866085,396809,0.0,0.0,0.0
169553767,3670026,0.010376946,-0.000841344,-0.0015529863,3670026,-0.062197287,0.09673651,-0.10983817,396809,0.0,0.0,0.0
170561785,3670026,0.010408532,-0.0008310129,-0.001556272,3670026,-0.06433052,0.082157806,-0.11015769,396809,0.0,0.0,0.0
171559865,3670026,0.010383109,-0.0007751707,-0.0016201056,3670026,-0.063099,0.084749565,-0.11052168,396809,0.0,0.0,0.0
172558108,3670026,0.010361902,-0.0007694805,-0.0016556488,3670026,-0.06245183,0.08192832,-0.11099037,396809,0.0,0.0,0.0
173556031,3670026,0.010362001,-0.00078503054,-0.0015761836,3670026,-0.066342,0.0940897,-0.1117895,396809,0.0,0.0,0.0
174559080,3670026,0.010367581,-0.00077831,-0.0015063575,3670026,-0.06929635,0.1001154,-0.11213072,396809,0.0,0.0,0.0
175562130,3670026,0.0103284,-0.00074142625,-0.0014324221,3670026,-0.06816054,0.09430775,-0.111894935,396809,0.0,0.0,0.0
176555247,3670026,0.010309812,-0.0007442795,-0.0013408838,3670026,-0.07359259,0.12168494,-0.111740105,396809,0.0,0.0,0.0
177558298,3670026,0.010219012,-0.0007295893,-0.0012206159,3670026,-0.08526593,0.15679534,-0.11154973,396809,0.0,0.0,0.0
178556379,3670026,0.010063738,-0.0006610123,-0.0012237905,3670026,-0.108794786,0.19065714,-0.11050432,396809,0.0,0.0,0.0
179554628,3670026,0.009970618,-0.00058149535,-0.0012281357,3670026,-0.13671234,0.17478473,-0.106619105,396809,0.0,0.0,0.0
180557514,3670026,0.009817636,-0.00061014877,-0.0012817666,3670026,-0.14675876,0.15385227,-0.10256921,396809,0.0,0.0,0.0
181555595,3670026,0.009619228,-0.0007006185,-0.0014050576,3670026,-0.1722787,0.12667951,-0.099011235,396809,0.0,0.0,0.0
182563609,3670026,0.009482582,-0.00078269985,-0.0013525239,3670026,-0.18973157,0.10248341,-0.09544286,396809,0.0,0.0,0.0
183556840,3670026,0.009330564,-0.0008433452,-0.0012989142,3670026,-0.20538309,0.08324401,-0.092428505,396809,0.0,0.0,0.0
184554811,3670026,0.0092822835,-0.0007934943,-0.0012900784,3670026,-0.2170569,0.073172234,-0.091339946,396809,0.0,0.0,0.0
190553249,3670026,0.009522387,-0.0006124253,-0.0009892823,3670026,-0.23234941,0.06964346,-0.088117324,396809,0.0,0.0,0.0
191556294,3670026,0.009726933,-0.0006121256,-0.0009376254,3670026,-0.22286622,0.06816077,-0.08869695,396809,0.0,0.0,0.0
192559343,3670026,0.009976465,-0.00054433563,-0.0010503852,3670026,-0.20157214,0.06660282,-0.089864425,396809,0.0,0.0,0.0
193557426,3670026,0.010207595,-0.00054827356,-0.0012247319,3670026,-0.18154846,0.05857536,-0.09105189,396809,0.0,0.0,0.0
194555510,3670026,0.010451002,-0.00061538786,-0.0013667343,3670026,-0.16686714,0.050333373,-0.09229378,396809,0.0,0.0,0.0
195558558,3670026,0.010543109,-0.0006926545,-0.0014145321,3670026,-0.16192417,0.04613993,-0.09282559,396809,0.0,0.0,0.0
196556645,3670026,0.01060272,-0.00067982427,-0.0016208488,3670026,-0.15537,0.04261007,-0.094786204,396809,0.0,0.0,0.0
197554760,3670026,0.010710835,-0.0006849714,-0.0016663864,3670026,-0.15206149,0.039298233,-0.096895486,396809,0.0,0.0,0.0
198557775,3670026,0.010651613,-0.0008140339,-0.0016908039,3670026,-0.15138033,0.038058184,-0.097121514,396809,0.0,0.0,0.0
199555860,3670026,0.0106557375,-0.00076446217,-0.0016702043,3670026,-0.15150101,0.037210565,-0.09930256,396809,0.0,0.0,0.0
200563873,3670026,0.010728537,-0.0007828961,-0.0016428861,3670026,-0.15102921,0.029378545,-0.10134675,396809,0.0,0.0,0.0
201552026,3670026,0.010615745,-0.00080046256,-0.0017090202,3670026,-0.14918177,0.029099902,-0.101102434,396809,0.0,0.0,0.0
202555075,3670026,0.010702314,-0.000785201,-0.0017729589,3670026,-0.14935708,0.02587018,-0.10377919,396809,0.0,0.0,0.0
203563085,3670026,0.0106614325,-0.000782718,-0.0017807117,3670026,-0.14867692,0.024911586,-0.1049901,396809,0.0,0.0,0.0
204556260,3670026,0.010646386,-0.0008117374,-0.0018515888,3670026,-0.14743198,0.020944763,-0.10609071,396809,0.0,0.0,0.0
205554292,3670026,0.0106434915,-0.0007638046,-0.0018674725,3670026,-0.14647178,0.016706867,-0.107554935,396809,0.0,0.0,0.0
206557341,3670026,0.010705476,-0.0006953178,-0.0020778417,3670026,-0.14458679,0.007801191,-0.10956338,396809,0.0,0.0,0.0
207555476,3670026,0.010803814,-0.0006001353,-0.0023156388,3670026,-0.14397626,-0.0028879347,-0.11274859,396809,0.0,0.0,0.0
208553508,3670026,0.010972832,-0.0006185504,-0.002558843,3670026,-0.14519396,-0.013565765,-0.11572351,396809,0.0,0.0,0.0
209561524,3670026,0.0110038845,-0.00058040454,-0.0028013543,3670026,-0.14838193,-0.020691728,-0.11754546,396809,0.0,0.0,0.0
210559607,3670026,0.011134094,-0.0005571458,-0.003103403,3670026,-0.15416577,-0.02855979,-0.121700406,396809,0.0,0.0,0.0
211557764,3670026,0.01120976,-0.0005275762,-0.0034437187,3670026,-0.15992971,-0.035308544,-0.12617765,396809,0.0,0.0,0.0
212560740,3670026,0.011296914,-0.00050675205,-0.00377701,3670026,-0.16909914,-0.041200407,-0.12926808,396809,0.0,0.0,0.0
213558824,3670026,0.011396141,-0.00048911636,-0.0041119433,3670026,-0.17423937,-0.045240603,-0.13362336,396809,0.0,0.0,0.0
214556908,3670026,0.011449951,-0.0003418181,-0.0044037425,3670026,-0.17110711,-0.045478046,-0.13719933,396809,0.0,0.0,0.0
215555002,3670026,0.011441987,-6.659029e-05,-0.004410123,3670026,-0.1574932,-0.044439502,-0.13676442,396809,0.0,0.0,0.0
216558059,3670026,0.011445817,0.00019511198,-0.0042621843,3670026,-0.14401051,-0.045521915,-0.13221277,396809,0.0,0.0,0.0
217561090,3670026,0.011629375,0.00037780387,-0.004123068,3670026,-0.1344089,-0.051135987,-0.12706274,396809,0.0,0.0,0.0
218554279,3670026,0.0117637785,0.00041589068,-0.0041522225,3670026,-0.13635106,-0.05903325,-0.12277366,396809,0.0,0.0,0.0
219557264,3670026,0.011697761,0.00042278177,-0.0041210367,3670026,-0.13785468,-0.060874097,-0.120142564,396809,0.0,0.0,0.0
220555342,3670026,0.0116444025,0.00035670414,-0.004095728,3670026,-0.13537244,-0.068533115,-0.117648356,396809,0.0,0.0,0.0
221558391,3670026,0.011593194,0.00031863834,-0.0040511033,3670026,-0.1347422,-0.07088376,-0.11668599,396809,0.0,0.0,0.0
222556476,3670026,0.011461171,0.0002586432,-0.0040470692,3670026,-0.132588,-0.07358261,-0.115049705,396809,0.0,0.0,0.0
223554560,3670026,0.0114907855,0.00021840185,-0.0040234383,3670026,-0.13261618,-0.07357836,-0.11396047,396809,0.0,0.0,0.0
224557610,3670026,0.011498685,0.00015449298,-0.0040083565,3670026,-0.13224578,-0.07294779,-0.113103785,396809,0.0,0.0,0.0
225555847,3670026,0.011420574,-2.2570171e-05,-0.00403514,3670026,-0.13046183,-0.0707336,-0.111311615,396809,0.0,0.0,0.0
226553778,3670026,0.011628475,-4.4766944e-05,-0.003897541,3670026,-0.137049,-0.09089268,-0.10153133,396809,0.0,0.0,0.0
227561793,3670026,0.012016969,-1.6732093e-06,-0.003737792,3670026,-0.14451508,-0.11187814,-0.092325896,396809,0.0,0.0,0.0
228559878,3670026,0.012012239,-6.4563246e-05,-0.0037124217,3670026,-0.14760199,-0.124523826,-0.08307251,396809,0.0,0.0,0.0
229557964,3670026,0.0120475115,-0.0001845131,-0.0035681587,3670026,-0.15467745,-0.14452271,-0.074764594,396809,0.0,0.0,0.0
230561014,3670026,0.01207493,-7.0577444e-05,-0.0034320978,3670026,-0.15787831,-0.16130924,-0.06849977,396809,0.0,0.0,0.0
231559097,3670026,0.012038753,-1.6850543e-05,-0.003374571,3670026,-0.16126285,-0.17724857,-0.0609548,396809,0.0,0.0,0.0
232557293,3670026,0.011751134,-4.8312304e-05,-0.0033479582,3670026,-0.1589071,-0.18106236,-0.06213654,396809,0.0,0.0,0.0
233555266,3670026,0.011500312,-7.486643e-05,-0.0033220237,3670026,-0.15705462,-0.18246838,-0.06303645,396809,0.0,0.0,0.0
234558316,3670026,0.011284365,-6.7334084e-05,-0.0033263823,3670026,-0.15499988,-0.18299517,-0.06382704,396809,0.0,0.0,0.0
235556400,3670026,0.011191208,-0.00013360128,-0.0033157635,3670026,-0.15471542,-0.18326412,-0.06473034,396809,0.0,0.0,0.0
236554486,3670026,0.011147154,-0.00021853215,-0.0032297354,3670026,-0.15723728,-0.19527788,-0.063117675,396809,0.0,0.0,0.0
237557585,3670026,0.01139425,-0.0003023933,-0.0031082751,3670026,-0.1619401,-0.20978415,-0.06035418,396809,0.0,0.0,0.0
238555671,3670026,0.0114263985,-0.00042122873,-0.0031403466,3670026,-0.16594407,-0.2238527,-0.057333197,396809,0.0,0.0,0.0
239553822,3670026,0.011560078,-0.0003231223,-0.0029793694,3670026,-0.16786882,-0.23518047,-0.056977306,396809,0.0,0.0,0.0
240556753,3670026,0.011581984,-0.00035790962,-0.0029927185,3670026,-0.16960885,-0.24460255,-0.05607062,396809,0.0,0.0,0.0
241554838,3670026,0.011584022,-0.00032531034,-0.002857443,3670026,-0.17218488,-0.25634474,-0.053602297,396809,0.0,0.0,0.0
242557889,3670026,0.011472068,-0.0002844593,-0.0027983508,3670026,-0.17269942,-0.2611519,-0.05357123,396809,0.0,0.0,0.0
243556005,3670026,0.011284016,-0.00035159572,-0.0027622362,3670026,-0.17279367,-0.26290402,-0.054999188,396809,0.0,0.0,0.0
244554057,3670026,0.011245652,-0.00035473407,-0.0026304831,3670026,-0.17601755,-0.27415147,-0.05325586,396809,0.0,0.0,0.0
245562072,3670026,0.011204846,-0.00038483593,-0.002503002,3670026,-0.17869078,-0.2853097,-0.052803975,396809,0.0,0.0,0.0
246555327,3670026,0.011142491,-0.00041051026,-0.0023522626,3670026,-0.17918535,-0.29349372,-0.053711765,396809,0.0,0.0,0.0
247558241,3670026,0.010990327,-0.00047180903,-0.0023246808,3670026,-0.17793609,-0.2934793,-0.056952123,396809,0.0,0.0,0.0
248556383,3670026,0.010924965,-0.0006071217,-0.002334003,3670026,-0.17802261,-0.29575223,-0.058709685,396809,0.0,0.0,0.0
249559383,3670026,0.010850781,-0.00065701624,-0.0021527957,3670026,-0.17838556,-0.3053842,-0.061828945,396809,0.0,0.0,0.0
250557463,3670026,0.010954556,-0.00067295274,-0.0020517337,3670026,-0.17908569,-0.31280214,-0.062803574,396809,0.0,0.0,0.0
251555545,3670026,0.0109879365,-0.0006993045,-0.0020569304,3670026,-0.18008706,-0.32213396,-0.062342588,396809,0.0,0.0,0.0
252558596,3670026,0.010948836,-0.0006900549,-0.002000416,3670026,-0.17984852,-0.32752562,-0.061524145,396809,0.0,0.0,0.0
253556835,3670026,0.010790789,-0.0006900646,-0.001966379,3670026,-0.17969286,-0.32891992,-0.06423856,396809,0.0,0.0,0.0
254554767,3670026,0.010728057,-0.0007403964,-0.0019297651,3670026,-0.18004954,-0.32913396,-0.06630255,396809,0.0,0.0,0.0
255557815,3670026,0.01063997,-0.0007499461,-0.001905093,3670026,-0.1808939,-0.3305132,-0.06727268,396809,0.0,0.0,0.0
256560864,3670026,0.010607669,-0.00075635925,-0.0018751726,3670026,-0.18087548,-0.3297481,-0.06985367,396809,0.0,0.0,0.0
257553984,3670026,0.010571517,-0.0007835952,-0.001910893,3670026,-0.1807065,-0.33073682,-0.07155154,396809,0.0,0.0,0.0
258557035,3670026,0.010454151,-0.00076056854,-0.0019180507,3670026,-0.1802525,-0.330484,-0.07322395,396809,0.0,0.0,0.0
259555118,3670026,0.010356715,-0.00074580096,-0.0019066137,3670026,-0.18014719,-0.33018905,-0.07530799,396809,0.0,0.0,0.0
260558352,3670026,0.010359042,-0.0008515939,-0.0018752851,3670026,-0.18071231,-0.33552247,-0.07455796,396809,0.0,0.0,0.0
261556256,3670026,0.010565667,-0.00082952494,-0.0016864869,3670026,-0.1819175,-0.34486592,-0.0755661,396809,0.0,0.0,0.0
262554338,3670026,0.01065413,-0.0008815606,-0.0017018403,3670026,-0.18213731,-0.35121846,-0.07683407,396809,0.0,0.0,0.0
263557388,3670026,0.010744324,-0.00089263276,-0.0017228194,3670026,-0.18309903,-0.35934377,-0.07578807,396809,0.0,0.0,0.0
264555478,3670026,0.010684605,-0.0008287252,-0.0017523051,3670026,-0.1827949,-0.3609955,-0.07389076,396809,0.0,0.0,0.0
265558522,3670026,0.010585633,-0.00085683,-0.0017187868,3670026,-0.18251388,-0.36033583,-0.07484565,396809,0.0,0.0,0.0
266556606,3670026,0.010525759,-0.0009253879,-0.0017184785,3670026,-0.18274526,-0.3614734,-0.07582254,396809,0.0,0.0,0.0
267554693,3670026,0.01052829,-0.00095325604,-0.001724601,3670026,-0.1828241,-0.36173958,-0.07846035,396809,0.0,0.0,0.0
268557741,3670026,0.010489144,-0.0009376423,-0.0017131963,3670026,-0.18265271,-0.36121938,-0.07871487,396809,0.0,0.0,0.0
269555825,3670026,0.01052409,-0.00090263836,-0.0017175786,3670026,-0.18311831,-0.36220336,-0.07730935,396809,0.0,0.0,0.0
270558876,3670026,0.0104161035,-0.00088171434,-0.0016965873,3670026,-0.1833997,-0.3621107,-0.078448206,396809,0.0,0.0,0.0
271557103,3670026,0.010426614,-0.0008544835,-0.0016875301,3670026,-0.1832287,-0.36167806,-0.07897379,396809,0.0,0.0,0.0
272555044,3670026,0.010355603,-0.0009402999,-0.0016805809,3670026,-0.18393242,-0.36225638,-0.083126694,396809,0.0,0.0,0.0
273558110,3670026,0.010396594,-0.00092534773,-0.0016784307,3670026,-0.18388478,-0.36223894,-0.08393872,396809,0.0,0.0,0.0
274561144,3670026,0.010260409,-0.0009284582,-0.0016551851,3670026,-0.18363069,-0.36105597,-0.08448466,396809,0.0,0.0,0.0
275554262,3670026,0.010264238,-0.00082535204,-0.0016463833,3670026,-0.18431477,-0.36210558,-0.08673716,396809,0.0,0.0,0.0
276557312,3670026,0.010167031,-0.00082293665,-0.0016275098,3670026,-0.18377128,-0.3606025,-0.08721732,396809,0.0,0.0,0.0
277560362,3670026,0.010219167,-0.0008472858,-0.0015580797,3670026,-0.18474673,-0.36146855,-0.089534074,396809,0.0,0.0,0.0
278553628,3670026,0.010313964,-0.0007573296,-0.0014720265,3670026,-0.18557177,-0.3622625,-0.0881899,396809,0.0,0.0,0.0
279556531,3670026,0.010304865,-0.0008248716,-0.0014785861,3670026,-0.18463743,-0.3604984,-0.0872837,396809,0.0,0.0,0.0
280559580,3670026,0.010320307,-0.0008055213,-0.0014326537,3670026,-0.18553238,-0.36172575,-0.08708646,396809,0.0,0.0,0.0
281557665,3670026,0.010482758,-0.00081576506,-0.0011958533,3670026,-0.18473476,-0.36571184,-0.08698015,396809,0.0,0.0,0.0
282560725,3670026,0.010558036,-0.0008743142,-0.0011801026,3670026,-0.18479683,-0.3695486,-0.08317529,396809,0.0,0.0,0.0
283558832,3670026,0.01047632,-0.0008382362,-0.001164572,3670026,-0.18451567,-0.37166834,-0.08021047,396809,0.0,0.0,0.0
284556884,3670026,0.010399865,-0.0008404319,-0.001127335,3670026,-0.1847938,-0.37403676,-0.07868851,396809,0.0,0.0,0.0
285555158,3670026,0.010359316,-0.0008002587,-0.0010444011,3670026,-0.18484515,-0.37755585,-0.07951825,396809,0.0,0.0,0.0
286558020,3670026,0.010382754,-0.00083312474,-0.0010525758,3670026,-0.18467121,-0.37737578,-0.080277026,396809,0.0,0.0,0.0
287556102,3670026,0.010371522,-0.0007781418,-0.0010797955,3670026,-0.18560822,-0.37862253,-0.079471834,396809,0.0,0.0,0.0
288554187,3670026,0.010404205,-0.0008299532,-0.0010434451,3670026,-0.18608163,-0.37977093,-0.07808545,396809,0.0,0.0,0.0
289557295,3670026,0.010417601,-0.00080808025,-0.0010841228,3670026,-0.18606614,-0.38035816,-0.07805529,396809,0.0,0.0,0.0
290555322,3670026,0.010458686,-0.0008424862,-0.001170515,3670026,-0.18689036,-0.38231692,-0.07777148,396809,0.0,0.0,0.0
291558372,3670026,0.010398751,-0.0008474115,-0.0011830545,3670026,-0.18650296,-0.38301602,-0.07741814,396809,0.0,0.0,0.0
292556659,3670026,0.010347781,-0.0008276281,-0.0011936664,3670026,-0.18611038,-0.38294372,-0.07634306,396809,0.0,0.0,0.0
293554542,3670026,0.010382365,-0.00082252343,-0.0012267125,3670026,-0.18631935,-0.38405916,-0.07516191,396809,0.0,0.0,0.0
294562560,3670026,0.010301425,-0.0008301841,-0.00123993,3670026,-0.18596755,-0.384047,-0.074537344,396809,0.0,0.0,0.0
295560642,3670026,0.010252977,-0.0008168825,-0.0012557424,3670026,-0.18542325,-0.38324946,-0.07306886,396809,0.0,0.0,0.0
296553773,3670026,0.010305793,-0.0007883554,-0.001261119,3670026,-0.18601169,-0.38437173,-0.072678395,396809,0.0,0.0,0.0
297556816,3670026,0.010324952,-0.0008229527,-0.0013534653,3670026,-0.18552746,-0.38419122,-0.07138232,396809,0.0,0.0,0.0
298559863,3670026,0.010279546,-0.0007960892,-0.0013108494,3670026,-0.185035,-0.3835543,-0.072785854,396809,0.0,0.0,0.0
299553182,3670026,0.010297633,-0.00080345245,-0.0013573371,3670026,-0.18584476,-0.3853031,-0.073774084,396809,0.0,0.0,0.0
300556087,3670026,0.010300549,-0.00081506016,-0.0013375775,3670026,-0.18504849,-0.38393572,-0.07257193,396809,0.0,0.0,0.0
301554123,3670026,0.0103130415,-0.0008265554,-0.0013654499,3670026,-0.18525605,-0.38496426,-0.073428996,396809,0.0,0.0,0.0
302557172,3670026,0.010309643,-0.00087264314,-0.0015039936,3670026,-0.18541121,-0.38452443,-0.07209773,396809,0.0,0.0,0.0
303560272,3670026,0.010187142,-0.0008959834,-0.0016393953,3670026,-0.18612625,-0.3833359,-0.07185569,396809,0.0,0.0,0.0
304558305,3670026,0.010147173,-0.00093354,-0.001644933,3670026,-0.18795308,-0.3863279,-0.07329091,396809,0.0,0.0,0.0
305561356,3670026,0.010118422,-0.00093240157,-0.001672555,3670026,-0.1879089,-0.38664144,-0.07302872,396809,0.0,0.0,0.0
306559441,3670026,0.01012732,-0.00089386234,-0.0017245557,3670026,-0.18809783,-0.3869602,-0.07374319,396809,0.0,0.0,0.0
307557526,3670026,0.010132947,-0.0008631254,-0.0017461875,3670026,-0.18786117,-0.3867911,-0.07457182,396809,0.0,0.0,0.0
308555611,3670026,0.010175742,-0.0008397814,-0.0017675407,3670026,-0.18798901,-0.3872683,-0.076645635,396809,0.0,0.0,0.0
309558661,3670026,0.010193774,-0.0008476932,-0.0017804018,3670026,-0.18789166,-0.38737863,-0.07792989,396809,0.0,0.0,0.0
310556797,3670026,0.010195304,-0.00085391954,-0.0017828635,3670026,-0.18719696,-0.38600862,-0.078417465,396809,0.0,0.0,0.0
311554831,3670026,0.010266609,-0.00086458045,-0.0017925247,3670026,-0.187593,-0.3868821,-0.07935434,396809,0.0,0.0,0.0
312562847,3670026,0.010301928,-0.00087871065,-0.0017848468,3670026,-0.18764842,-0.38682655,-0.079556905,396809,0.0,0.0,0.0
313560932,3670026,0.010367751,-0.0009321664,-0.0017552734,3670026,-0.18765858,-0.3860321,-0.07791791,396809,0.0,0.0,0.0
314554054,3670026,0.010426269,-0.000916975,-0.001765643,3670026,-0.18825978,-0.38731664,-0.07802716,396809,0.0,0.0,0.0
315562068,3670026,0.010440257,-0.0009076283,-0.001779047,3670026,-0.18823703,-0.38748175,-0.07806664,396809,0.0,0.0,0.0
316560153,3670026,0.01037371,-0.0008658623,-0.0017781776,3670026,-0.18682559,-0.38483238,-0.07832496,396809,0.0,0.0,0.0
317553324,3670026,0.010507273,-0.00090949,-0.0017750944,3670026,-0.18841259,-0.38785097,-0.07953335,396809,0.0,0.0,0.0
318556323,3670026,0.010548024,-0.0009388498,-0.0017424709,3670026,-0.1886003,-0.38775447,-0.081169,396809,0.0,0.0,0.0
319559373,3670026,0.010564628,-0.0009260442,-0.0017145867,3670026,-0.18852577,-0.38707384,-0.08325714,396809,0.0,0.0,0.0
320557459,3670026,0.010490036,-0.0008798499,-0.0017069179,3670026,-0.18812011,-0.38607478,-0.08250947,396809,0.0,0.0,0.0
321555544,3670026,0.010461713,-0.0008608349,-0.0016858841,3670026,-0.1886104,-0.38671175,-0.08194895,396809,0.0,0.0,0.0
322558594,3670026,0.010468804,-0.00083152315,-0.001677243,3670026,-0.18906091,-0.38748923,-0.08145764,396809,0.0,0.0,0.0
323556680,3670026,0.010385673,-0.00086683466,-0.0016534622,3670026,-0.18854225,-0.38616955,-0.080791935,396809,0.0,0.0,0.0
324554860,3670026,0.010312063,-0.00084573,-0.0016315866,3670026,-0.18884942,-0.38665137,-0.08020275,396809,0.0,0.0,0.0
325557816,3670026,0.010263616,-0.0008134912,-0.0015982533,3670026,-0.18834049,-0.38559985,-0.07927676,396809,0.0,0.0,0.0
326560868,3670026,0.010270726,-0.0008166073,-0.0015881856,3670026,-0.18894413,-0.3868499,-0.07888287,396809,0.0,0.0,0.0
327558952,3670026,0.010253377,-0.0008454602,-0.0015735981,3670026,-0.18851171,-0.38577065,-0.07909169,396809,0.0,0.0,0.0
328557047,3670026,0.0103206,-0.0008370569,-0.0015703699,3670026,-0.18887843,-0.38649485,-0.079225846,396809,0.0,0.0,0.0
329555122,3670026,0.010198646,-0.0009086255,-0.00163641,3670026,-0.19012095,-0.38608,-0.07769563,396809,0.0,0.0,0.0
330553249,3670026,0.0100238705,-0.00092524505,-0.00172544,3670026,-0.19345257,-0.3851069,-0.07536429,396809,0.0,0.0,0.0
331556378,3670026,0.009877911,-0.0009607808,-0.0016370659,3670026,-0.19288212,-0.38496596,-0.07572796,396809,0.0,0.0,0.0
332554341,3670026,0.00992159,-0.0009731547,-0.0016201197,3670026,-0.19350365,-0.38654575,-0.07724316,396809,0.0,0.0,0.0
333557394,3670026,0.009971928,-0.0009435725,-0.0016082269,3670026,-0.19373508,-0.38707542,-0.07777712,396809,0.0,0.0,0.0
334560445,3670026,0.009964957,-0.0009348698,-0.0016057281,3670026,-0.19339232,-0.38589305,-0.07619455,396809,0.0,0.0,0.0
335553584,3670026,0.009982512,-0.0009091108,-0.0016140254,3670026,-0.19406255,-0.38679472,-0.07592138,396809,0.0,0.0,0.0
336556615,3670026,0.01005401,-0.00089782383,-0.0016326308,3670026,-0.19408777,-0.38615295,-0.07484229,396809,0.0,0.0,0.0
337559666,3670026,0.010093048,-0.0009221445,-0.0016228129,3670026,-0.193899,-0.38530666,-0.0741756,396809,0.0,0.0,0.0
338552932,3670026,0.010183272,-0.0009139084,-0.0016267989,3670026,-0.1943228,-0.38572386,-0.0743424,396809,0.0,0.0,0.0
339555897,3670026,0.010227126,-0.00081452273,-0.0014902933,3670026,-0.19312868,-0.38464615,-0.076826125,396809,0.0,0.0,0.0
340558888,3670026,0.01043181,-0.0008019209,-0.001227223,3670026,-0.1938143,-0.3857758,-0.0791522,396809,0.0,0.0,0.0
341556978,3670026,0.01046946,-0.00090986985,-0.0012201276,3670026,-0.19468017,-0.383163,-0.07698108,396809,0.0,0.0,0.0
342555061,3670026,0.010378549,-0.0010392865,-0.0014607777,3670026,-0.19860934,-0.3811885,-0.07301023,396809,0.0,0.0,0.0
343558109,3670026,0.0101975715,-0.0009942565,-0.0014302074,3670026,-0.20115252,-0.3806991,-0.071650416,396809,0.0,0.0,0.0
344556205,3670026,0.010147742,-0.0009710066,-0.0014102206,3670026,-0.20393878,-0.38570932,-0.07413519,396809,0.0030071584,-0.012229412,-0.007855298
345554399,3670026,0.009966433,-0.0009230814,-0.0013901998,3670026,-0.20359571,-0.3848657,-0.0744571,396809,0.0029899077,-0.012216213,-0.007911614
346557331,3670026,0.00991655,-0.0008875919,-0.0014340006,3670026,-0.20410113,-0.38606367,-0.072505005,396809,0.0029682952,-0.012157595,-0.008065212
347555416,3670026,0.010013907,-0.00089396007,-0.0014326003,3670026,-0.20449737,-0.3860294,-0.069354504,396809,0.002993136,-0.012106691,-0.008115309
348558467,3670026,0.010024385,-0.0008973687,-0.0014349204,3670026,-0.20364352,-0.384473,-0.070392154,396809,0.002993136,-0.012106691,-0.008115309
349556571,3670026,0.010098334,-0.00085377356,-0.0014471799,3670026,-0.20451483,-0.3850764,-0.07024321,396809,0.002993136,-0.012106691,-0.008115309
350554640,3670026,0.010146816,-0.0008323985,-0.0014563199,3670026,-0.20501946,-0.38520914,-0.07069618,396809,0.002993136,-0.012106691,-0.008115309
351552722,3670026,0.010154325,-0.000850456,-0.0014632144,3670026,-0.2042885,-0.38395205,-0.07220273,396809,0.002993136,-0.012106691,-0.008115309
352555929,3670026,0.010154785,-0.00086685846,-0.0014635599,3670026,-0.20322223,-0.38185832,-0.07419809,396809,0.002993136,-0.012106691,-0.008115309
353553858,3670026,0.010132971,-0.0008844745,-0.0014479684,3670026,-0.20226964,-0.38006842,-0.075816564,396809,0.002993136,-0.012106691,-0.008115309
354556913,3670026,0.010233914,-0.0009198482,-0.0014491281,3670026,-0.20397626,-0.38327515,-0.0792097,396809,0.002993136,-0.012106691,-0.008115309
355559961,3670026,0.010205132,-0.00092367636,-0.0014289692,3670026,-0.20302501,-0.3814878,-0.081966646,396809,0.002993136,-0.012106691,-0.008115309
356553079,3670026,0.0102977585,-0.0009340148,-0.0014246656,3670026,-0.20424725,-0.38378438,-0.08442447,396809,0.00013093324,-0.013051349,-0.002101215
